net
{
	propagationenginegenerator1791944048146838126L = "edu.ucla.belief.approx.BeliefPropagationSettings@36f3f021";
	recoveryenginegenerator6944530267470113528l = "edu.ucla.util.SettingsImpl@b1cbc13";
	node_size = (130 55);
}

node A
{
	states = ("On" "Off");
	ID = "A";
	position = (310 252);
	label = "Alarm";
}

node E
{
	states = ("Present" "Absent");
	ID = "E";
	position = (442 130);
	label = "Earthquake";
}

node B
{
	states = ("Present" "Absent");
	ID = "B";
	position = (169 128);
	label = "Burglary";
}

node J
{
	states = ("Present" "Absent");
	ID = "J";
	position = (179 367);
	label = "JohnCalls";
}

node M
{
	states = ("Present" "Absent");
	ID = "M";
	position = (446 365);
	label = "MaryCalls";
}

potential ( A | J E B M )
{
	data = ((Decimal('0.99995823065034877406958773651894240006683095944196148865962156969215989307046489286161814460548849254417108725617142141096863121841192932626039012572574245019005054091307798337579883881207969591913453907522659872185790067248652938473747963744204502735892402155298442003258009272795622572156551522492794787185163527003884549517564011528340503738356793784720771897581554655194018629129944446764963869512551689570193392088885176057808779917296687690572657783718307505952132325299695083747546050707990477') Decimal('0.000041769349651225930412263481057599933169040558038511340378430307840106929535107138381855394511507455828912743828578589031368781588070673739609874274257549809949459086922016624201161187920304080865460924773401278142099327513470615262520362557954972641075978447015579967419907272043774278434484775072052128148364729961154504824359884716594962616432062152792281024184453448059813708700555532350361304874483104298066079111148239421912200827033123094273422162816924940478676747003049162524539492920095234117')) (Decimal('0.99044309296264118158123370981754995655951346655082536924413553431798436142484795829713292788879235447437011294526498696785403996524761077324066029539530842745438748913987836663770634231103388357949609035621198957428323197219808861859252823631624674196350999131190269331016507384882710686359687228496959165942658557775847089487402258905299739357080799304952215464813205907906168549087749782797567332754126846220677671589921807124239791485664639443961772371850564726324934839270199826238053866203301477') Decimal('0.0095569070373588184187662901824500434404865334491746307558644656820156385751520417028670721112076455256298870547350130321459600347523892267593397046046915725456125108601216333622936576889661164205039096437880104257167680278019113814074717636837532580364900086880973066898349261511728931364031277150304083405734144222415291051259774109470026064291920069504778453518679409209383145091225021720243266724587315377932232841007819287576020851433536055603822762814943527367506516072980017376194613379669852302')) (Decimal('0.99806069214170604463139493594821228592499522001584223320859850864494277676108273469722214634945781322553330966103083772636639261424162137062631449564338586763541012264073639070224795826390975389910136297833984321651962524924203108355412307776351369806888640026221627379749255688181147742481767774712518095654311545710305645844145202261615361503373303105623992789052470568954685750184370817513861954057523695064324929665947392860069378055775586572341645953401983010570593537461418699298025183687962634') Decimal('0.0019393078582939553686050640517877140750047799841577667914014913550572232389172653027778536505421867744666903389691622736336073857583786293736855043566141323645898773592636092977520417360902461008986370216601567834803747507579689164458769222364863019311135997377837262025074431181885225751823222528748190434568845428969435415585479773838463849662669689437600721094752943104531424981562918248613804594247630493567507033405260713993062194422441342765835404659801698942940646253858130070197481631203736582')) (Decimal('0.69020230067433558111860372867909559698532328441094803649345497818326061086870289567631892106307021023403411344704482348274494248314161047203490678302261007536691788972629908766362554541848472828242760809202697342324474414914716382387941293137643792145973819912733042443474811582705275684252280840936136453788179293930979769932566441888139627132090440301467671558905196350654502181673938913129710432368107893692978976596588655295517651725505751685838952796509321697738992463308211027370091233637445458') Decimal('0.30979769932566441888139627132090440301467671558905196350654502181673938913129710432368107893692978976596588655295517651725505751685838952796509321697738992463308211027370091233637445458151527171757239190797302657675525585085283617612058706862356207854026180087266957556525188417294724315747719159063863546211820706069020230067433558111860372867909559698532328441094803649345497818326061086870289567631892106307021023403411344704482348274494248314161047203490678302261007536691788972629908766362554542')) (Decimal('0.99994934400486297553315434881718251355047869915404488121169140367762524694797629299427587254951623524644141634162403120409300440707157692112861557165290512132110835317359809533458284788004660351552606250949799908819208753355959677827870928524390861658477280786181044526619725444506357327389696570589129223443594549414923256167367407932728838458031508028975229218377995035712476571602249126184083886327946912517096398358745757560407274200901676713439035509852591054151258801479155058001114431893014538') Decimal('0.000050655995137024466845651182817486449521300845955118788308596322374753052023707005724127450483764753558583658375968795906995592928423078871384428347094878678891646826401904665417152119953396484473937490502000911807912466440403221721290714756091383415227192138189554733802745554936426726103034294108707765564054505850767438326325920672711615419684919710247707816220049642875234283977508738159161136720530874829036016412542424395927257990983232865609644901474089458487411985208449419988855681069854617294')) (Decimal('0.98843322818086225026288117770767613038906414300736067297581493165089379600420609884332281808622502628811777076761303890641430073606729758149316508937960042060988433228180862250262881177707676130389064143007360672975814931650893796004206098843322818086225026288117770767613038906414300736067297581493165089379600420609884332281808622502628811777076761303890641430073606729758149316508937960042060988433228180862250262881177707676130389064143007360672975814931650893796004206098843322818086225026288118') Decimal('0.011566771819137749737118822292323869610935856992639327024185068349106203995793901156677181913774973711882229232386961093585699263932702418506834910620399579390115667718191377497371188222923238696109358569926393270241850683491062039957939011566771819137749737118822292323869610935856992639327024185068349106203995793901156677181913774973711882229232386961093585699263932702418506834910620399579390115667718191377497371188222923238696109358569926393270241850683491062039957939011566771819137749737118822')) (Decimal('0.55776892430278884462151394422310756972111553784860557768924302788844621513944223107569721115537848605577689243027888446215139442231075697211155378486055776892430278884462151394422310756972111553784860557768924302788844621513944223107569721115537848605577689243027888446215139442231075697211155378486055776892430278884462151394422310756972111553784860557768924302788844621513944223107569721115537848605577689243027888446215139442231075697211155378486055776892430278884462151394422310756972111553784861') Decimal('0.44223107569721115537848605577689243027888446215139442231075697211155378486055776892430278884462151394422310756972111553784860557768924302788844621513944223107569721115537848605577689243027888446215139442231075697211155378486055776892430278884462151394422310756972111553784860557768924302788844621513944223107569721115537848605577689243027888446215139442231075697211155378486055776892430278884462151394422310756972111553784860557768924302788844621513944223107569721115537848605577689243027888446215139')) (Decimal('0.0054303556882975834917187075753461851751289709475970676079283193049144718979093130600054303556882975834917187075753461851751289709475970676079283193049144718979093130600054303556882975834917187075753461851751289709475970676079283193049144718979093130600054303556882975834917187075753461851751289709475970676079283193049144718979093130600054303556882975834917187075753461851751289709475970676079283193049144718979093130600054303556882975834917187075753461851751289709475970676079283193049144718979093131') Decimal('0.99456964431170241650828129242465381482487102905240293239207168069508552810209068693999456964431170241650828129242465381482487102905240293239207168069508552810209068693999456964431170241650828129242465381482487102905240293239207168069508552810209068693999456964431170241650828129242465381482487102905240293239207168069508552810209068693999456964431170241650828129242465381482487102905240293239207168069508552810209068693999456964431170241650828129242465381482487102905240293239207168069508552810209069')) (Decimal('0.99290780141843971631205673758865248226950354609929078014184397163120567375886524822695035460992907801418439716312056737588652482269503546099290780141843971631205673758865248226950354609929078014184397163120567375886524822695035460992907801418439716312056737588652482269503546099290780141843971631205673758865248226950354609929078014184397163120567375886524822695035460992907801418439716312056737588652482269503546099290780141843971631205673758865248226950354609929078014184397163120567375886524822695') Decimal('0.0070921985815602836879432624113475177304964539007092198581560283687943262411347517730496453900709219858156028368794326241134751773049645390070921985815602836879432624113475177304964539007092198581560283687943262411347517730496453900709219858156028368794326241134751773049645390070921985815602836879432624113475177304964539007092198581560283687943262411347517730496453900709219858156028368794326241134751773049645390070921985815602836879432624113475177304964539007092198581560283687943262411347517730496')) (Decimal('0.37735849056603773584905660377358490566037735849056603773584905660377358490566037735849056603773584905660377358490566037735849056603773584905660377358490566037735849056603773584905660377358490566037735849056603773584905660377358490566037735849056603773584905660377358490566037735849056603773584905660377358490566037735849056603773584905660377358490566037735849056603773584905660377358490566037735849056603773584905660377358490566037735849056603773584905660377358490566037735849056603773584905660377358') Decimal('0.62264150943396226415094339622641509433962264150943396226415094339622641509433962264150943396226415094339622641509433962264150943396226415094339622641509433962264150943396226415094339622641509433962264150943396226415094339622641509433962264150943396226415094339622641509433962264150943396226415094339622641509433962264150943396226415094339622641509433962264150943396226415094339622641509433962264150943396226415094339622641509433962264150943396226415094339622641509433962264150943396226415094339622642')) (Decimal('0.75060085043446108337955259752264743945276391199852098354594194860417822148271399519319652431133296357921981882048437788870401183213163246441116657422813828803845442780550933629136624144943612497689036790534294694028471066740617489369569236457755592530966907006840451100018487705675725642447772231466075060085043446108337955259752264743945276391199852098354594194860417822148271399519319652431133296357921981882048437788870401183213163246441116657422813828803845442780550933629136624144943612497689037') Decimal('0.24939914956553891662044740247735256054723608800147901645405805139582177851728600480680347568866703642078018117951562211129598816786836753558883342577186171196154557219449066370863375855056387502310963209465705305971528933259382510630430763542244407469033092993159548899981512294324274357552227768533924939914956553891662044740247735256054723608800147901645405805139582177851728600480680347568866703642078018117951562211129598816786836753558883342577186171196154557219449066370863375855056387502310963')) (Decimal('0.012861165931214936692019424795440938421624498303656562520788522518127591635807259906423930638401667516686254074550413553007960618222941659090405126726833270505798611881056389560281171696565181719404838459321019136527928687052353815109652526775617003348338026919750759474022662261347761491895248020932656274253276271148856908441803224161252411468612102800629753642149145175954054593431935605472647847972148923431713861232454486994700312659378672638978202541188992615916801561079450961261281238219837240') Decimal('0.98713883406878506330798057520455906157837550169634343747921147748187240836419274009357606936159833248331374592544958644699203938177705834090959487327316672949420138811894361043971882830343481828059516154067898086347207131294764618489034747322438299665166197308024924052597733773865223850810475197906734372574672372885114309155819677583874758853138789719937024635785085482404594540656806439452735215202785107656828613876754551300529968734062132736102179745881100738408319843892054903873871876178016276')) (Decimal('0.99141178243182160614735573301190296820852794937471749284315202651800512279644417658580684043995781226457736929335543167093566370348048817236703329817688714780774446285972577971975290040681030586108181407262317312038571643814976646075033900858821756817839385264426698809703179147205062528250715684797348199487720355582341419315956004218773542263070664456832906433629651951182763296670182311285219225553714027422028024709959318969413891818592737682687961428356185023353924966099141178243182160614735573') Decimal('0.0085882175681783938526442669880970317914720506252825071568479734819948772035558234141931595600421877354226307066445683290643362965195118276329667018231128521922555371402742202802470995931896941389181859273768268796142835618502335392496609914117824318216061473557330119029682085279493747174928431520265180051227964441765858068404399578122645773692933554316709356637034804881723670332981768871478077444628597257797197529004068103058610818140726231731203857164381497664607503390085882175681783938526442670')) (Decimal('0.33321517192484934420418291386033321517192484934420418291386033321517192484934420418291386033321517192484934420418291386033321517192484934420418291386033321517192484934420418291386033321517192484934420418291386033321517192484934420418291386033321517192484934420418291386033321517192484934420418291386033321517192484934420418291386033321517192484934420418291386033321517192484934420418291386033321517192484934420418291386033321517192484934420418291386033321517192484934420418291386033321517192484934420') Decimal('0.66678482807515065579581708613966678482807515065579581708613966678482807515065579581708613966678482807515065579581708613966678482807515065579581708613966678482807515065579581708613966678482807515065579581708613966678482807515065579581708613966678482807515065579581708613966678482807515065579581708613966678482807515065579581708613966678482807515065579581708613966678482807515065579581708613966678482807515065579581708613966678482807515065579581708613966678482807515065579581708613966678482807515065580')) (Decimal('0.0073217927932639506301971654202186078133988808116730296532608127190000522985199518853616442654672872757700957062915119502118090058051357146592751425134668688876104806233983578264735107996443700643271795408189948224465247633491972177187385596987605250771403169290309084252915642487317608911667799801265624182835625751791224308352073636316092254589195125777940484284294754458448825898227080173631086240259400658961351393755556717744887819674703205899273050572668793473144710004706866795669682547983892056') Decimal('0.99267820720673604936980283457978139218660111918832697034673918728099994770148004811463835573453271272422990429370848804978819099419486428534072485748653313111238951937660164217352648920035562993567282045918100517755347523665080278228126144030123947492285968307096909157470843575126823910883322001987343758171643742482087756916479263636839077454108048742220595157157052455415511741017729198263689137597405993410386486062444432822551121803252967941007269494273312065268552899952931332043303174520161079')) (Decimal('0.000031928837008076399321192925208295750431438410071632345827619401877096327704811516092932072995707167864264128111265611205744636354493105765869031103476571417624398740088091661305282785727171280649687975440338573387633642138401929778908768137574972900399589395156076137504729458981821316649451702046478808032656814491860541225716123903044893541275205821265563312489124239894123976481218659850924260009291291569350232202467141235614063375548577330845012635837245946235031362100151183043233241750785848501') Decimal('0.99996807116299192360067880707479170424956856158992836765417238059812290367229518848390706792700429283213573587188873438879425536364550689423413096889652342858237560125991190833869471721427282871935031202455966142661236635786159807022109123186242502709960041060484392386249527054101817868335054829795352119196734318550813945877428387609695510645872479417873443668751087576010587602351878134014907573999070870843064976779753285876438593662445142266915498736416275405376496863789984881695676675824921415')));
}

potential ( E | J )
{
	data = ((Decimal('0.011394968773811181718324397385505216206232451935184449739774999070417104492522663808295719932986715732507188475511228733248781486898293631035026259635553216286141961933479257054142703459362359510257889473651474131280258349992863400268141439533496627552658269809470000769501116225419058242066692537651828092971147494176798720654575498306154871393071881924216627830684445149159307324098428730735498511145473078405719428047758905244469541813419245978781282425538712683225957582438659223602660840151487671') Decimal('0.98860503122618881828167560261449478379376754806481555026022500092958289550747733619170428006701328426749281152448877126675121851310170636896497374036444678371385803806652074294585729654063764048974211052634852586871974165000713659973185856046650337244734173019052999923049888377458094175793330746234817190702885250582320127934542450169384512860692811807578337216931555485084069267590157126926450148885452692159428057195224109475553045818658075402121871757446128731677404241756134077639733915984851233')) (Decimal('0.0014832111079134705169878984758251125823826112141997059642153702595280349054014795405065164256063398090711007622132902168324762079786257121238189939149289272026458193508400385442454783716545733697175715804986285899338882648473934091690027938624250909606685892295951428752085254403681887946154681866266499676349230387908882814900230727843421465177761714196902652409230410846844649607563782597026444692056529367730433432908904976904429089520903512901200319984504293748287630693330112909042840997001631856') Decimal('0.99851678889208652948301210152417488741761738878580029403578462974047196509459852045949348357439366019092889923778670978316752379202137428787618100608507107279735418064915996145575452162834542663028242841950137141006611173515260659083099720613757490903933141077040485712479147455963181120538453181337335003236507696120911171850997692721565785348222382858030973475907695891531553503924362174029735553079434706322695665670910950230955709104790964870987996800154957062517123693066698870909571590029983681')));
}

potential ( B | J E )
{
	data = ((Decimal('0.0028866125139281157742012583274142347867946314056708891439805292515678597998390902878533365201086645503785417809810106341795119520906480487172668239856460457616449146808231306028054843954608649401974678601364702872474003655814798980680735606491596002167904908419482867155230743853955921511070116912014704050683193014229400695480052918424162040792968447557908981656966077674282386445881485620798421872948653643527760291657269045751545978772036719730964347389930014374152110172658140920551671205577305671') Decimal('0.99711338748607188422579874167258576521320536859432911085601947074843214020016090971214666347989133544962145821901898936582048804790935195128273317601435395423835508531917686939719451560453913505980253213986352971275259963441852010193192643935084039978320950915805171328447692561460440784889298830879852959493168069857705993045199470815758379592070315524420910183430339223257176135541185143792015781270513463564722397083427309542484540212279632802690356526100699856258478898273418590794483287944226943')) (Decimal('0.016438149285114762096996697848809686310158253490202456428739461142364247315731541207187479125583394564955375942797563901127145890027038722587353080410430964129402505220419318020103333807696887497422463340894107533377284568759965264970768556085745568815146331475570761004992434385355525802957124311325768686777745185451947456007620795710978999247794935539801522416582200911358877326680626508403495575349746312307410817231594936120654854046079094798167988592040566796681004063069054748330772738229733301') Decimal('0.98356185071488523790300330215119031368984174650979754357126053885763575268426845879281252087441660543504462405720243609887285410997296127741264691958956903587059749477958068197989666619230311250257753665910589246662271543124003473502923144391425443118485366852442923899500756561464447419704287568867423131322225481454805254399237920428902100075220506446019847758341779908864112267331937349159650442465025368769258918276840506387934514595392090520183201140795943320331899593693094525166922726177026670')) (Decimal('0.00020272029294149278955926474416699030783609957620789286125823151084233482563920909211183331697345004331812575486635397950604533252529735866127786337079035307473336946733642606257441968648773222143030903108235565248193655495000277406716656779606765309649912723579144136262179221810142843120100037129822075599731982433753142164540593138238168603534588349771459543431222339349502588418056189797407740927733416413088475671430949200428486682343702654142109059249806882247250472658367226743714603969903505141') Decimal('0.99979727970705850721044073525583300969216390042379210713874176848915766517436079090788816668302654995668187424513364602049395466747470264133872213662920964692526663053266357393742558031351226777856969096891764434751806344504999722593283343220393234690350087276420855863737820778189857156879899962870177924400268017566246857835459406861761831396465411650228540456568777660650497411581943810202592259072266583586911524328569050799571513317656297345857890940750193117752749527341632773256285396030096495')) (Decimal('0.00015922360461467966767819348905155823758871773171529111268143780180320204995645867090363138955230592949230815545938988783540623661987900376848529372299953862060795262855236693005871185889498712951316539320295521119086760889431491065262328533444628172550093090449499307667296689514550954901390238232782484686458933991640338973346232202742051908265903630598706587644659521674365901221155418213187436709276203763402791906822346579489458474721170207028119363082383400211640858822598384766160365480385787195') Decimal('0.99984077639538532033232180651094844176241128226828470888731856219819679795004354132909636861044769407050769184454061011216459376338012099623151470627700046137939204737144763306994128814110501287048683460679704478880913239110568508934737671466555371827449906909550500692332703310485449045098609761767217515313541066008359661026653767797257948091734096369401293412355340478325634098778844581786812563290723796236597208093177653420510541525278829792971880636917616599788359141177401615233839634519614213')));
}

potential ( J |  )
{
	data = ((Decimal('0.0521389757000') Decimal('0.9478610243000')));
}

potential ( M | J E B )
{
	data = ((Decimal('0.69798833819241982507288629737609329446064139941690962099125364431486880466472303206997084548104956268221574344023323615160349854227405247813411078717201166180758017492711370262390670553935860058309037900874635568513119533527696793002915451895043731778425655976676384839650145772594752186588921282798833819241982507288629737609329446064139941690962099125364431486880466472303206997084548104956268221574344023323615160349854227405247813411078717201166180758017492711370262390670553935860058309037900875') Decimal('0.30201166180758017492711370262390670553935860058309037900874635568513119533527696793002915451895043731778425655976676384839650145772594752186588921282798833819241982507288629737609329446064139941690962099125364431486880466472303206997084548104956268221574344023323615160349854227405247813411078717201166180758017492711370262390670553935860058309037900874635568513119533527696793002915451895043731778425655976676384839650145772594752186588921282798833819241982507288629737609329446064139941690962099125')) (Decimal('0.61738617200674536256323777403035413153456998313659359190556492411467116357504215851602023608768971332209106239460370994940978077571669477234401349072512647554806070826306913996627318718381112984822934232715008431703204047217537942664418212478920741989881956155143338954468802698145025295109612141652613827993254637436762225969645868465430016863406408094435075885328836424957841483979763912310286677908937605396290050590219224283305227655986509274873524451939291736930860033726812816188870151770657673') Decimal('0.38261382799325463743676222596964586846543001686340640809443507588532883642495784148397976391231028667790893760539629005059021922428330522765598650927487352445193929173693086003372681281618887015177065767284991568296795952782462057335581787521079258010118043844856661045531197301854974704890387858347386172006745362563237774030354131534569983136593591905564924114671163575042158516020236087689713322091062394603709949409780775716694772344013490725126475548060708263069139966273187183811129848229342327')) (Decimal('0.69756183745583038869257950530035335689045936395759717314487632508833922261484098939929328621908127208480565371024734982332155477031802120141342756183745583038869257950530035335689045936395759717314487632508833922261484098939929328621908127208480565371024734982332155477031802120141342756183745583038869257950530035335689045936395759717314487632508833922261484098939929328621908127208480565371024734982332155477031802120141342756183745583038869257950530035335689045936395759717314487632508833922261484') Decimal('0.30243816254416961130742049469964664310954063604240282685512367491166077738515901060070671378091872791519434628975265017667844522968197879858657243816254416961130742049469964664310954063604240282685512367491166077738515901060070671378091872791519434628975265017667844522968197879858657243816254416961130742049469964664310954063604240282685512367491166077738515901060070671378091872791519434628975265017667844522968197879858657243816254416961130742049469964664310954063604240282685512367491166077738516')) (Decimal('0.022212389380530973451327433628318584070796460176991150442477876106194690265486725663716814159292035398230088495575221238938053097345132743362831858407079646017699115044247787610619469026548672566371681415929203539823008849557522123893805309734513274336283185840707964601769911504424778761061946902654867256637168141592920353982300884955752212389380530973451327433628318584070796460176991150442477876106194690265486725663716814159292035398230088495575221238938053097345132743362831858407079646017699115') Decimal('0.97778761061946902654867256637168141592920353982300884955752212389380530973451327433628318584070796460176991150442477876106194690265486725663716814159292035398230088495575221238938053097345132743362831858407079646017699115044247787610619469026548672566371681415929203539823008849557522123893805309734513274336283185840707964601769911504424778761061946902654867256637168141592920353982300884955752212389380530973451327433628318584070796460176991150442477876106194690265486725663716814159292035398230088')) (Decimal('0.47') Decimal('0.53')) (Decimal('0.038443496801705756929637526652452025586353944562899786780383795309168443496801705756929637526652452025586353944562899786780383795309168443496801705756929637526652452025586353944562899786780383795309168443496801705756929637526652452025586353944562899786780383795309168443496801705756929637526652452025586353944562899786780383795309168443496801705756929637526652452025586353944562899786780383795309168443496801705756929637526652452025586353944562899786780383795309168443496801705756929637526652452025586') Decimal('0.96155650319829424307036247334754797441364605543710021321961620469083155650319829424307036247334754797441364605543710021321961620469083155650319829424307036247334754797441364605543710021321961620469083155650319829424307036247334754797441364605543710021321961620469083155650319829424307036247334754797441364605543710021321961620469083155650319829424307036247334754797441364605543710021321961620469083155650319829424307036247334754797441364605543710021321961620469083155650319829424307036247334754797441')) (Decimal('0.43953642384105960264900662251655629139072847682119205298013245033112582781456953642384105960264900662251655629139072847682119205298013245033112582781456953642384105960264900662251655629139072847682119205298013245033112582781456953642384105960264900662251655629139072847682119205298013245033112582781456953642384105960264900662251655629139072847682119205298013245033112582781456953642384105960264900662251655629139072847682119205298013245033112582781456953642384105960264900662251655629139072847682119') Decimal('0.56046357615894039735099337748344370860927152317880794701986754966887417218543046357615894039735099337748344370860927152317880794701986754966887417218543046357615894039735099337748344370860927152317880794701986754966887417218543046357615894039735099337748344370860927152317880794701986754966887417218543046357615894039735099337748344370860927152317880794701986754966887417218543046357615894039735099337748344370860927152317880794701986754966887417218543046357615894039735099337748344370860927152317881')) (Decimal('0.010072696623294526681767897592582837275456987831217405046620660591055154612021282199863035347416109150292366854554074698414370752778802086077016277722172470104830637939208765737765369014381288521308539219301480271822156666491070958225780961913290839171890638992783016383079597534636253489964705262603381973344571458673550018437549386292998999104461886951482905757783279776642258863193383553705947426644892798819996839277248064057314439235105094031501870094294895432755623452562819364694726860875520202') Decimal('0.98992730337670547331823210240741716272454301216878259495337933940894484538797871780013696465258389084970763314544592530158562924722119791392298372227782752989516936206079123426223463098561871147869146078069851972817784333350892904177421903808670916082810936100721698361692040246536374651003529473739661802665542854132644998156245061370700100089553811304851709424221672022335774113680661644629405257335510720118000316072275193594268556076489490596849812990570510456724437654743718063530527313912447980')));
}

