net
{
	propagationenginegenerator1791944048146838126L = "edu.ucla.belief.approx.BeliefPropagationSettings@36f3f021";
	recoveryenginegenerator6944530267470113528l = "edu.ucla.util.SettingsImpl@b1cbc13";
	node_size = (130 55);
}

node A
{
	states = ("On" "Off");
	ID = "A";
	position = (310 252);
	label = "Alarm";
}

node E
{
	states = ("Present" "Absent");
	ID = "E";
	position = (442 130);
	label = "Earthquake";
}

node B
{
	states = ("Present" "Absent");
	ID = "B";
	position = (169 128);
	label = "Burglary";
}

node J
{
	states = ("Present" "Absent");
	ID = "J";
	position = (179 367);
	label = "JohnCalls";
}

node M
{
	states = ("Present" "Absent");
	ID = "M";
	position = (446 365);
	label = "MaryCalls";
}

potential ( A | M B E J )
{
	data = ((Decimal('0.99995823065034877406958773651894240006683095944196148865962156969215989307046489286161814460548849254417108725617142141096863121841192932626039012572574245019005054091307798337579883881207969591913453907522659872185790067248652938473747963744204502735892402155298442003258009272795622572156551522492794787185163527003884549517564011528340503738356793784720771897581554655194018629129944446764963869512551689570193392088885176057808779917296687690572657783718307505952132325299695083747546050707990477') Decimal('0.000041769349651225930412263481057599933169040558038511340378430307840106929535107138381855394511507455828912743828578589031368781588070673739609874274257549809949459086922016624201161187920304080865460924773401278142099327513470615262520362557954972641075978447015579967419907272043774278434484775072052128148364729961154504824359884716594962616432062152792281024184453448059813708700555532350361304874483104298066079111148239421912200827033123094273422162816924940478676747003049162524539492920095234117')) (Decimal('0.99290780141843971631205673758865248226950354609929078014184397163120567375886524822695035460992907801418439716312056737588652482269503546099290780141843971631205673758865248226950354609929078014184397163120567375886524822695035460992907801418439716312056737588652482269503546099290780141843971631205673758865248226950354609929078014184397163120567375886524822695035460992907801418439716312056737588652482269503546099290780141843971631205673758865248226950354609929078014184397163120567375886524822695') Decimal('0.0070921985815602836879432624113475177304964539007092198581560283687943262411347517730496453900709219858156028368794326241134751773049645390070921985815602836879432624113475177304964539007092198581560283687943262411347517730496453900709219858156028368794326241134751773049645390070921985815602836879432624113475177304964539007092198581560283687943262411347517730496453900709219858156028368794326241134751773049645390070921985815602836879432624113475177304964539007092198581560283687943262411347517730496')) (Decimal('0.99994934400486297553315434881718251355047869915404488121169140367762524694797629299427587254951623524644141634162403120409300440707157692112861557165290512132110835317359809533458284788004660351552606250949799908819208753355959677827870928524390861658477280786181044526619725444506357327389696570589129223443594549414923256167367407932728838458031508028975229218377995035712476571602249126184083886327946912517096398358745757560407274200901676713439035509852591054151258801479155058001114431893014538') Decimal('0.000050655995137024466845651182817486449521300845955118788308596322374753052023707005724127450483764753558583658375968795906995592928423078871384428347094878678891646826401904665417152119953396484473937490502000911807912466440403221721290714756091383415227192138189554733802745554936426726103034294108707765564054505850767438326325920672711615419684919710247707816220049642875234283977508738159161136720530874829036016412542424395927257990983232865609644901474089458487411985208449419988855681069854617294')) (Decimal('0.99141178243182160614735573301190296820852794937471749284315202651800512279644417658580684043995781226457736929335543167093566370348048817236703329817688714780774446285972577971975290040681030586108181407262317312038571643814976646075033900858821756817839385264426698809703179147205062528250715684797348199487720355582341419315956004218773542263070664456832906433629651951182763296670182311285219225553714027422028024709959318969413891818592737682687961428356185023353924966099141178243182160614735573') Decimal('0.0085882175681783938526442669880970317914720506252825071568479734819948772035558234141931595600421877354226307066445683290643362965195118276329667018231128521922555371402742202802470995931896941389181859273768268796142835618502335392496609914117824318216061473557330119029682085279493747174928431520265180051227964441765858068404399578122645773692933554316709356637034804881723670332981768871478077444628597257797197529004068103058610818140726231731203857164381497664607503390085882175681783938526442670')) (Decimal('0.99806069214170604463139493594821228592499522001584223320859850864494277676108273469722214634945781322553330966103083772636639261424162137062631449564338586763541012264073639070224795826390975389910136297833984321651962524924203108355412307776351369806888640026221627379749255688181147742481767774712518095654311545710305645844145202261615361503373303105623992789052470568954685750184370817513861954057523695064324929665947392860069378055775586572341645953401983010570593537461418699298025183687962634') Decimal('0.0019393078582939553686050640517877140750047799841577667914014913550572232389172653027778536505421867744666903389691622736336073857583786293736855043566141323645898773592636092977520417360902461008986370216601567834803747507579689164458769222364863019311135997377837262025074431181885225751823222528748190434568845428969435415585479773838463849662669689437600721094752943104531424981562918248613804594247630493567507033405260713993062194422441342765835404659801698942940646253858130070197481631203736582')) (Decimal('0.75060085043446108337955259752264743945276391199852098354594194860417822148271399519319652431133296357921981882048437788870401183213163246441116657422813828803845442780550933629136624144943612497689036790534294694028471066740617489369569236457755592530966907006840451100018487705675725642447772231466075060085043446108337955259752264743945276391199852098354594194860417822148271399519319652431133296357921981882048437788870401183213163246441116657422813828803845442780550933629136624144943612497689037') Decimal('0.24939914956553891662044740247735256054723608800147901645405805139582177851728600480680347568866703642078018117951562211129598816786836753558883342577186171196154557219449066370863375855056387502310963209465705305971528933259382510630430763542244407469033092993159548899981512294324274357552227768533924939914956553891662044740247735256054723608800147901645405805139582177851728600480680347568866703642078018117951562211129598816786836753558883342577186171196154557219449066370863375855056387502310963')) (Decimal('0.55776892430278884462151394422310756972111553784860557768924302788844621513944223107569721115537848605577689243027888446215139442231075697211155378486055776892430278884462151394422310756972111553784860557768924302788844621513944223107569721115537848605577689243027888446215139442231075697211155378486055776892430278884462151394422310756972111553784860557768924302788844621513944223107569721115537848605577689243027888446215139442231075697211155378486055776892430278884462151394422310756972111553784861') Decimal('0.44223107569721115537848605577689243027888446215139442231075697211155378486055776892430278884462151394422310756972111553784860557768924302788844621513944223107569721115537848605577689243027888446215139442231075697211155378486055776892430278884462151394422310756972111553784860557768924302788844621513944223107569721115537848605577689243027888446215139442231075697211155378486055776892430278884462151394422310756972111553784860557768924302788844621513944223107569721115537848605577689243027888446215139')) (Decimal('0.0073217927932639506301971654202186078133988808116730296532608127190000522985199518853616442654672872757700957062915119502118090058051357146592751425134668688876104806233983578264735107996443700643271795408189948224465247633491972177187385596987605250771403169290309084252915642487317608911667799801265624182835625751791224308352073636316092254589195125777940484284294754458448825898227080173631086240259400658961351393755556717744887819674703205899273050572668793473144710004706866795669682547983892056') Decimal('0.99267820720673604936980283457978139218660111918832697034673918728099994770148004811463835573453271272422990429370848804978819099419486428534072485748653313111238951937660164217352648920035562993567282045918100517755347523665080278228126144030123947492285968307096909157470843575126823910883322001987343758171643742482087756916479263636839077454108048742220595157157052455415511741017729198263689137597405993410386486062444432822551121803252967941007269494273312065268552899952931332043303174520161079')) (Decimal('0.99044309296264118158123370981754995655951346655082536924413553431798436142484795829713292788879235447437011294526498696785403996524761077324066029539530842745438748913987836663770634231103388357949609035621198957428323197219808861859252823631624674196350999131190269331016507384882710686359687228496959165942658557775847089487402258905299739357080799304952215464813205907906168549087749782797567332754126846220677671589921807124239791485664639443961772371850564726324934839270199826238053866203301477') Decimal('0.0095569070373588184187662901824500434404865334491746307558644656820156385751520417028670721112076455256298870547350130321459600347523892267593397046046915725456125108601216333622936576889661164205039096437880104257167680278019113814074717636837532580364900086880973066898349261511728931364031277150304083405734144222415291051259774109470026064291920069504778453518679409209383145091225021720243266724587315377932232841007819287576020851433536055603822762814943527367506516072980017376194613379669852302')) (Decimal('0.37735849056603773584905660377358490566037735849056603773584905660377358490566037735849056603773584905660377358490566037735849056603773584905660377358490566037735849056603773584905660377358490566037735849056603773584905660377358490566037735849056603773584905660377358490566037735849056603773584905660377358490566037735849056603773584905660377358490566037735849056603773584905660377358490566037735849056603773584905660377358490566037735849056603773584905660377358490566037735849056603773584905660377358') Decimal('0.62264150943396226415094339622641509433962264150943396226415094339622641509433962264150943396226415094339622641509433962264150943396226415094339622641509433962264150943396226415094339622641509433962264150943396226415094339622641509433962264150943396226415094339622641509433962264150943396226415094339622641509433962264150943396226415094339622641509433962264150943396226415094339622641509433962264150943396226415094339622641509433962264150943396226415094339622641509433962264150943396226415094339622642')) (Decimal('0.98843322818086225026288117770767613038906414300736067297581493165089379600420609884332281808622502628811777076761303890641430073606729758149316508937960042060988433228180862250262881177707676130389064143007360672975814931650893796004206098843322818086225026288117770767613038906414300736067297581493165089379600420609884332281808622502628811777076761303890641430073606729758149316508937960042060988433228180862250262881177707676130389064143007360672975814931650893796004206098843322818086225026288118') Decimal('0.011566771819137749737118822292323869610935856992639327024185068349106203995793901156677181913774973711882229232386961093585699263932702418506834910620399579390115667718191377497371188222923238696109358569926393270241850683491062039957939011566771819137749737118822292323869610935856992639327024185068349106203995793901156677181913774973711882229232386961093585699263932702418506834910620399579390115667718191377497371188222923238696109358569926393270241850683491062039957939011566771819137749737118822')) (Decimal('0.33321517192484934420418291386033321517192484934420418291386033321517192484934420418291386033321517192484934420418291386033321517192484934420418291386033321517192484934420418291386033321517192484934420418291386033321517192484934420418291386033321517192484934420418291386033321517192484934420418291386033321517192484934420418291386033321517192484934420418291386033321517192484934420418291386033321517192484934420418291386033321517192484934420418291386033321517192484934420418291386033321517192484934420') Decimal('0.66678482807515065579581708613966678482807515065579581708613966678482807515065579581708613966678482807515065579581708613966678482807515065579581708613966678482807515065579581708613966678482807515065579581708613966678482807515065579581708613966678482807515065579581708613966678482807515065579581708613966678482807515065579581708613966678482807515065579581708613966678482807515065579581708613966678482807515065579581708613966678482807515065579581708613966678482807515065579581708613966678482807515065580')) (Decimal('0.69020230067433558111860372867909559698532328441094803649345497818326061086870289567631892106307021023403411344704482348274494248314161047203490678302261007536691788972629908766362554541848472828242760809202697342324474414914716382387941293137643792145973819912733042443474811582705275684252280840936136453788179293930979769932566441888139627132090440301467671558905196350654502181673938913129710432368107893692978976596588655295517651725505751685838952796509321697738992463308211027370091233637445458') Decimal('0.30979769932566441888139627132090440301467671558905196350654502181673938913129710432368107893692978976596588655295517651725505751685838952796509321697738992463308211027370091233637445458151527171757239190797302657675525585085283617612058706862356207854026180087266957556525188417294724315747719159063863546211820706069020230067433558111860372867909559698532328441094803649345497818326061086870289567631892106307021023403411344704482348274494248314161047203490678302261007536691788972629908766362554542')) (Decimal('0.012861165931214936692019424795440938421624498303656562520788522518127591635807259906423930638401667516686254074550413553007960618222941659090405126726833270505798611881056389560281171696565181719404838459321019136527928687052353815109652526775617003348338026919750759474022662261347761491895248020932656274253276271148856908441803224161252411468612102800629753642149145175954054593431935605472647847972148923431713861232454486994700312659378672638978202541188992615916801561079450961261281238219837240') Decimal('0.98713883406878506330798057520455906157837550169634343747921147748187240836419274009357606936159833248331374592544958644699203938177705834090959487327316672949420138811894361043971882830343481828059516154067898086347207131294764618489034747322438299665166197308024924052597733773865223850810475197906734372574672372885114309155819677583874758853138789719937024635785085482404594540656806439452735215202785107656828613876754551300529968734062132736102179745881100738408319843892054903873871876178016276')) (Decimal('0.0054303556882975834917187075753461851751289709475970676079283193049144718979093130600054303556882975834917187075753461851751289709475970676079283193049144718979093130600054303556882975834917187075753461851751289709475970676079283193049144718979093130600054303556882975834917187075753461851751289709475970676079283193049144718979093130600054303556882975834917187075753461851751289709475970676079283193049144718979093130600054303556882975834917187075753461851751289709475970676079283193049144718979093131') Decimal('0.99456964431170241650828129242465381482487102905240293239207168069508552810209068693999456964431170241650828129242465381482487102905240293239207168069508552810209068693999456964431170241650828129242465381482487102905240293239207168069508552810209068693999456964431170241650828129242465381482487102905240293239207168069508552810209068693999456964431170241650828129242465381482487102905240293239207168069508552810209068693999456964431170241650828129242465381482487102905240293239207168069508552810209069')) (Decimal('0.000031928837008076399321192925208295750431438410071632345827619401877096327704811516092932072995707167864264128111265611205744636354493105765869031103476571417624398740088091661305282785727171280649687975440338573387633642138401929778908768137574972900399589395156076137504729458981821316649451702046478808032656814491860541225716123903044893541275205821265563312489124239894123976481218659850924260009291291569350232202467141235614063375548577330845012635837245946235031362100151183043233241750785848501') Decimal('0.99996807116299192360067880707479170424956856158992836765417238059812290367229518848390706792700429283213573587188873438879425536364550689423413096889652342858237560125991190833869471721427282871935031202455966142661236635786159807022109123186242502709960041060484392386249527054101817868335054829795352119196734318550813945877428387609695510645872479417873443668751087576010587602351878134014907573999070870843064976779753285876438593662445142266915498736416275405376496863789984881695676675824921415')));
}

potential ( E | M B )
{
	data = ((Decimal('0.0020209111925683913698741204633124905673097041088419343779313461090551093827672605706105763347199830917603001941350150877494519550000318851502959701117711168517878003770950441670065218797419671437191264440556817971320977483314197182020783651967207489427035995905339365801323932173908290412378240480232876991037843422047943726657412887491880674228204753681140601669749403975440538901553535622849080902951016210106742373147966228463478900685044862406466429947261961410465435130572727142978176284796947771') Decimal('0.99797908880743160863012587953668750943269029589115806562206865389094489061723273942938942366528001690823969980586498491225054804499996811484970402988822888314821219962290495583299347812025803285628087355594431820286790225166858028179792163480327925105729640040946606341986760678260917095876217595197671230089621565779520562733425871125081193257717952463188593983302505960245594610984464643771509190970489837898932576268520337715365210993149551375935335700527380385895345648694272728570218237152030522')) (Decimal('0.037894022988920372050407527581834676728452621649553333898467104705460094040664380880923308341194103610663713542108177425551140698469269047563221334641557893445831026204772013613711828670679116443408766667688717104254555489222478135635712366148968059721413098959131810237698871475955061043465400286053881296657353983561821726748202243340589891440207343973479594763013557799657673224022033002609835852687661987479280933408604342030982557206267213283288934259912235927718188229225472142211705122817396260') Decimal('0.96210597701107962794959247241816532327154737835044666610153289529453990595933561911907669165880589638933628645789182257444885930153073095243677866535844210655416897379522798638628817132932088355659123333231128289574544451077752186436428763385103194027858690104086818976230112852404493895653459971394611870334264601643817827325179775665941010855979265602652040523698644220034232677597796699739016414731233801252071906659139565796901744279373278671671106574008776407228181177077452785778829487718260374')) (Decimal('0.0019596574202472156167999760974520938456211762514126230058508516161461711106072828954421707731595477497332932614147847804041288136427307254950551604019143128808370109863843353949280902391485068816489945990786973814407260750434551836014461041483223399188367895363081460234772231566478082593848257486682238473611411357576844055207855502067746147911075491627956841840707093608353237477086068505405315153336602358267557388084228360724598709613921125106990264984349103742330533571655796279990228076003072180') Decimal('0.99804034257975278438320002390254790615437882374858737699414914838385382888939271710455782922684045225026670673858521521959587118635726927450494483959808568711916298901361566460507190976085149311835100540092130261855927392495654481639855389585167766008116321046369185397652277684335219174061517425133177615263885886424231559447921444979322538520889245083720431581592929063916467625229139314945946848466633976417324426119157716392754012903860788748930097350156508962576694664283442037200097719239969278')) (Decimal('0.0015975145513068221152075558494545485874676833970063924244440233752843202763669837365980633366891453285015950573033262704138909623814749470220369032535358736666320225037803698406969167847814199046672725451440441799838889474381308946269572966097926003829787827861345444592910760701481805474178176446543965657259532650849391752250186917696693448242743094480942161054342615481402485509365967528044328510877994118743808721021841415525305316095223031051180956413092629815349038727623647656607542853343007003') Decimal('0.99840248544869317788479244415054545141253231660299360757555597662471567972363301626340193666331085467149840494269667372958610903761852505297796309674646412633336797749621963015930308321521858009533272745485595582001611105256186910537304270339020739961702121721386545554070892392985181945258218235534560343427404673491506082477498130823033065517572569055190578389456573845185975144906340324719556714891220058812561912789781585844746946839047769689488190435869073701846509612723763523433924571466569930')));
}

potential ( B | M )
{
	data = ((Decimal('0.056117454038914933122560615119205536509374147589175586759209254259668157777686592849284155926370869169866545623644406539931139617881273288883844653312159200010155120712888247086956368591680576178836897141038197396273196461544367452634303869960032480231336894461328283143224373760697003642440646798369759577397834806999683133036193351569323075573056305984625206543647458461126455401790685944884350187190901745289358391031208423118455401777053080455717824340913332627684909786965038582224770287895882897') Decimal('0.94388254596108506687743938488079446349062585241082441324079074574033184222231340715071584407362913083013345437635559346006886038211872671111615534668784079998984487928711175291304363140831942382116310285896180260372680353845563254736569613003996751976866310553867171685677562623930299635755935320163024042260216519300031686696380664843067692442694369401537479345635254153887354459820931405511564981280909825471064160896879157688154459822294691954428217565908666737231509021303496141777522971210411710')) (Decimal('0.00034544040779592485554280704868089463335205027582741469378781485809497234099750491500170559414123742931452361405895224156434342935409592839161739832693498379585891006391692285670635286376677784707630924974011496456904276289369272083786805413100276253443717380187502344600793755901085044842591422734399932521359395079213767199013025179014338533394424212971903247560552993369759146037405187261745344924948285284761417533163021814595356705400739305638013384077389481978321068946356808620137774698996943792') Decimal('0.99965455959220407514445719295131910536664794972417258530621218514190502765900249508499829440585876257068547638594104775843565657064590407160838260167306501620414108993608307714329364713623322215292369075025988503543095723710630727916213194586899723746556282619812497655399206244098914955157408577265600067478640604920786232800986974820985661466605575787028096752439447006630240853962594812738254655075051714715238582466836978185404643294599260694361986615922610518021678931053643191379862225301003056')));
}

potential ( J | M B E )
{
	data = ((Decimal('0.89936138241923365890308039068369646882043576258452291510142749812171299774605559729526671675432006010518407212622088655146506386175807663410969196093163035311795642374154770848985725018782870022539444027047332832456799398948159278737791134485349361382419233658903080390683696468820435762584522915101427498121712997746055597295266716754320060105184072126220886551465063861758076634109691960931630353117956423741547708489857250187828700225394440270473328324567993989481592787377911344853493613824192337') Decimal('0.10063861758076634109691960931630353117956423741547708489857250187828700225394440270473328324567993989481592787377911344853493613824192336589030803906836964688204357625845229151014274981217129977460555972952667167543200601051840721262208865514650638617580766341096919609316303531179564237415477084898572501878287002253944402704733283245679939894815927873779113448534936138241923365890308039068369646882043576258452291510142749812171299774605559729526671675432006010518407212622088655146506386175807663')) (Decimal('0.89922563012450652900091102338293349529304585484360765259641664136046158518068630428180989978742787731551776495596720315821439416945034922563012450652900091102338293349529304585484360765259641664136046158518068630428180989978742787731551776495596720315821439416945034922563012450652900091102338293349529304585484360765259641664136046158518068630428180989978742787731551776495596720315821439416945034922563012450652900091102338293349529304585484360765259641664136046158518068630428180989978742787731552') Decimal('0.10077436987549347099908897661706650470695414515639234740358335863953841481931369571819010021257212268448223504403279684178560583054965077436987549347099908897661706650470695414515639234740358335863953841481931369571819010021257212268448223504403279684178560583054965077436987549347099908897661706650470695414515639234740358335863953841481931369571819010021257212268448223504403279684178560583054965077436987549347099908897661706650470695414515639234740358335863953841481931369571819010021257212268448')) (Decimal('0.87127558305568776772965254640647310804378867206092336982389338410280818657782008567348881485007139457401237505949547834364588291289861970490242741551642075202284626368396001903855306996668253212755830556877677296525464064731080437886720609233698238933841028081865778200856734888148500713945740123750594954783436458829128986197049024274155164207520228462636839600190385530699666825321275583055687767729652546406473108043788672060923369823893384102808186577820085673488814850071394574012375059495478344') Decimal('0.12872441694431223227034745359352689195621132793907663017610661589719181342217991432651118514992860542598762494050452165635411708710138029509757258448357924797715373631603998096144693003331746787244169443122322703474535935268919562113279390766301761066158971918134221799143265111851499286054259876249405045216563541170871013802950975725844835792479771537363160399809614469300333174678724416944312232270347453593526891956211327939076630176106615897191813422179914326511185149928605425987624940504521656')) (Decimal('0.10565949485500467726847521047708138447146866230121608980355472404115996258185219831618334892422825070159027128157156220767072029934518241347053320860617399438727782974742750233863423760523854069223573433115060804490177736202057998129092609915809167446211412535079513564078578110383536014967259120673526660430308699719363891487371375116931711880261927034611786716557530402245088868101028999064546304957904583723105706267539756782039289055191768007483629560336763330215154349859681945743685687558465856') Decimal('0.89434050514499532273152478952291861552853133769878391019644527595884003741814780168381665107577174929840972871842843779232927970065481758652946679139382600561272217025257249766136576239476145930776426566884939195509822263797942001870907390084190832553788587464920486435921421889616463985032740879326473339569691300280636108512628624883068288119738072965388213283442469597754911131898971000935453695042095416276894293732460243217960710944808231992516370439663236669784845650140318054256314312441534144')) (Decimal('0.77421524663677130044843049327354260089686098654708520179372197309417040358744394618834080717488789237668161434977578475336322869955156950672645739910313901345291479820627802690582959641255605381165919282511210762331838565022421524663677130044843049327354260089686098654708520179372197309417040358744394618834080717488789237668161434977578475336322869955156950672645739910313901345291479820627802690582959641255605381165919282511210762331838565022421524663677130044843049327354260089686098654708520179') Decimal('0.22578475336322869955156950672645739910313901345291479820627802690582959641255605381165919282511210762331838565022421524663677130044843049327354260089686098654708520179372197309417040358744394618834080717488789237668161434977578475336322869955156950672645739910313901345291479820627802690582959641255605381165919282511210762331838565022421524663677130044843049327354260089686098654708520179372197309417040358744394618834080717488789237668161434977578475336322869955156950672645739910313901345291479821')) (Decimal('0.75210896309314586994727592267135325131810193321616871704745166959578207381370826010544815465729349736379613356766256590509666080843585237258347978910369068541300527240773286467486818980667838312829525483304042179261862917398945518453427065026362038664323374340949033391915641476274165202108963093145869947275922671353251318101933216168717047451669595782073813708260105448154657293497363796133567662565905096660808435852372583479789103690685413005272407732864674868189806678383128295254833040421792619') Decimal('0.24789103690685413005272407732864674868189806678383128295254833040421792618629173989455184534270650263620386643233743409490333919156414762741652021089630931458699472759226713532513181019332161687170474516695957820738137082601054481546572934973637961335676625659050966608084358523725834797891036906854130052724077328646748681898066783831282952548330404217926186291739894551845342706502636203866432337434094903339191564147627416520210896309314586994727592267135325131810193321616871704745166959578207381')) (Decimal('0.14361944549943030763387770603873908089631598936574249905051272312951006456513482719331560957083175085453854918344094189137865552601595138625142423091530573490315229775921002658564375237371819217622483858716293201671097607292062286365362704139764527155336118496012153437143942271173566274211925560197493353589061906570451955943790353209266995822255981769844284086593239650588682111659703759969616407140144322066084314470186099506266616027345233573870110140524116976832510444360045575389289783516900874') Decimal('0.85638055450056969236612229396126091910368401063425750094948727687048993543486517280668439042916824914546145081655905810862134447398404861374857576908469426509684770224078997341435624762628180782377516141283706798328902392707937713634637295860235472844663881503987846562856057728826433725788074439802506646410938093429548044056209646790733004177744018230155715913406760349411317888340296240030383592859855677933915685529813900493733383972654766426129889859475883023167489555639954424610710216483099126')) (Decimal('0.050257755405282469600024259332261879491766989113624647481578069563635260939442641841283318676653425114473724110743851775479879916305303696515753403887557994966188555660005458349758922885647572550565545683355065651817933711374594414288746702247020650756587924917366649482972981168693331716044515874700548867392425023501228128695757649270703823877247778754889771659035085059283743214968008005579646420232283106407496133668920762955999636110016071807623495163295630287776328956545471085908360372380750220') Decimal('0.94974224459471753039997574066773812050823301088637535251842193043636473906055735815871668132334657488552627588925614822452012008369469630348424659611244200503381144433999454165024107711435242744943445431664493434818206628862540558571125329775297934924341207508263335051702701883130666828395548412529945113260757497649877187130424235072929617612275222124511022834096491494071625678503199199442035357976771689359250386633107923704400036388998392819237650483670436971222367104345452891409163962761924978')));
}

potential ( M |  )
{
	data = ((Decimal('0.0117363449800') Decimal('0.9882636550200')));
}

