net
{
	propagationenginegenerator1791944048146838126L = "edu.ucla.belief.approx.BeliefPropagationSettings@36f3f021";
	recoveryenginegenerator6944530267470113528l = "edu.ucla.util.SettingsImpl@b1cbc13";
	node_size = (130 55);
}

node A
{
	states = ("On" "Off");
	ID = "A";
	position = (310 252);
	label = "Alarm";
}

node E
{
	states = ("Present" "Absent");
	ID = "E";
	position = (442 130);
	label = "Earthquake";
}

node B
{
	states = ("Present" "Absent");
	ID = "B";
	position = (169 128);
	label = "Burglary";
}

node J
{
	states = ("Present" "Absent");
	ID = "J";
	position = (179 367);
	label = "JohnCalls";
}

node M
{
	states = ("Present" "Absent");
	ID = "M";
	position = (446 365);
	label = "MaryCalls";
}

potential ( A | J M )
{
	data = ((Decimal('0.76069203886310767799878362760458375438053965887002616480195125585799618537445981263092211564205861597235774799985520274200208467036215334362331503959872632594616769774287233791733181601540039936629938652389358513959654125830173181031912928061422289391139021888476449620521347677845547236175908331633754973145511932355764198921527977426617434402587773034653924820167922834732710761903041075367392633363639281267795104360141095881329151366216987416218035374449184543277623029916076891731501787904166158') Decimal('0.23930796113689232200121637239541624561946034112997383519804874414200381462554018736907788435794138402764225200014479725799791532963784665637668496040127367405383230225712766208266818398459960063370061347610641486040345874169826818968087071938577710608860978111523550379478652322154452763824091668366245026854488067644235801078472022573382565597412226965346075179832077165267289238096958924632607366636360718732204895639858904118670848633783012583781964625550815456722376970083923108268498212095833842')) (Decimal('0.013573889331307630241153982680568355914543546925158136295457718509815313033448603988726244170966393127232717459502540984655912257769586861783601631564550862403353368319351455872759223605253192980269714710018984538094403950433994268289125531103876099203386648498048492627334398473652012988673371219518096245413810959756330378456278145368573490296152392219014575244354936704014827316003977780828865181221472463109760927510061955361219832803051792213907712073769932179274471574536318473250750977430346183') Decimal('0.98642611066869236975884601731943164408545645307484186370454228149018468696655139601127375582903360687276728254049745901534408774223041313821639836843544913759664663168064854412724077639474680701973028528998101546190559604956600573171087446889612390079661335150195150737266560152634798701132662878048190375458618904024366962154372185463142650970384760778098542475564506329598517268399602221917113481877852753689023907248993804463878016719694820778609228792623006782072552842546368152674924902256965382')) (Decimal('0.018249738245007478100373211413164684071907952463303582533972964455315607294131291650802951806337750216812493482545854563303804648108849688356653740593335417167081134624536972254131118078743295719753652276356012469244950737827545933338243769672769013348415260619633308156291806981648104482103289013566466092988182343479597436784472019429495732053982736863965724840917603500290275119952016973001865991537024993469340377141189192728531125835446737145680090044455286983900567052561022499253264634973059683') Decimal('0.98175026175499252189962678858683531592809204753669641746602703554468439270586870834919704819366224978318750651745414543669619535189115031164334625940666458283291886537546302774586888192125670428024634772364398753075504926217245406666175623032723098665158473938036669184370819301835189551789671098643353390701181765652040256321552798057050426794601726313603427515908239649970972488004798302699813400846297500653065962285881080727146887416455326285431990995554471301609943294743897750074673536502694032')) (Decimal('0.000080465309688836211459006778057888127121906345899641547312893322491595053308703227557876961408337854161924378585978113481752268450794875727767693877204552487610708191236839962567229890443093467623916522314092164369336475924769522923057018938863634757328601132875683704002617107745627944897106935728766211990028380983177876478177323736915145654445462803716726138972048659880025274339354558143929712682365862418089228845606571621417247965900517742929381160376539102230586398992864468776185648923790578015') Decimal('0.99991953469031116378854099322194211187287809365410035845268710667750840494669129677244212303859166214583807562141402188651824773154920512427223230612279544751238929180876316003743277010955690653237608347768590783563066352407523047707694298106113636524267139886712431629599738289225437205510289306427123378800997161901682212352182267626308485434555453719628327386102795134011997472566064544185607028731763413758191077115439342837858275203409948225707061883962346089776941360100713553122381435107620942')));
}

potential ( E | A )
{
	data = ((Decimal('0.23100870196889099768641597938676909700283177597576260450270659923813066226044550202229973907604466941817057575735900132011784893114961521068238409627561453830447910184299896441086263859846561136716045909263952834994806158854446079027452252028856615809146405917561382300883549074447175814105789046598332089513686387367561024653061743525183572679203414980357186853501888777885601972944339666878871040937959229737860042075279303079506700333248292629037347175098810145435499804883243881639235078734181038') Decimal('0.76899129803110900231358402061323090299716822402423739549729340076186933773955449797770026092395533058182942424264099867988215106885038478931761590372438546169552089815700103558913736140153438863283954090736047165005193841145553920972547747971143384190853594082438617699116450925552824185894210953401667910486313612632438975346938256474816427320796585019642813146498111222114398027055660333121128959062040770262139957924720696920493299666751707370962652824901189854564500195116756118360764921265818962')) (Decimal('0.0014222590323639199273899209474488400539630749482489214122966024869554792200394344745680509753324675853955278930021220460056946622873557179977095923219217614412046278561315393631781547621259136584184177600248725102293866582209869368092381127749877156371132886382875094969735831976490583917975718653399598191672649104457719793312121942765897701142859339241359204439137231372790206933917200467779540081401522209351545020654866774255140153397896910497245509484377886858361629255045826028542918599165521283') Decimal('0.99857774096763608007261007905255115994603692505175107858770339751304452077996056552543194902466753241460447210699787795399430533771264428200229040767807823855879537214386846063682184523787408634158158223997512748977061334177901306319076188722501228436288671136171249050302641680235094160820242813466004018083273508955422802066878780572341022988571406607586407955608627686272097930660827995322204599185984777906484549793451332257448598466021030895027544905156221131416383707449541739714570814008344787')));
}

potential ( B | A E )
{
	data = ((Decimal('0.0032684235876969655267322645014793917291681001857840776164590930984655611367233193421867474024633592513589761233055804032202573453519576137067363930365375352645702883093648936902222528039633936558177939861005986375834308126333172779192183306956581572971857152686988233675084290924103763847794674189774994839331177320580747264845523979907796050368127709351131906695107685956099910548407073556732952590655748985068464873047546962086286382715199889905731782839055941650037844904699649074520057799490814009') Decimal('0.99673157641230303447326773549852060827083189981421592238354090690153443886327668065781325259753664074864102387669441959677974265464804238629326360696346246473542971169063510630977774719603660634418220601389940136241656918736668272208078166930434184270281428473130117663249157090758962361522053258102250051606688226794192527351544760200922039496318722906488680933048923140439000894515929264432670474093442510149315351269524530379137136172848001100942682171609440583499621550953003509254799422005091860')) (Decimal('0.48478597215059308922124806601340897369778236204228984012377514182568334192882929345023207839092315626611655492521918514698298091799896854048478597215059308922124806601340897369778236204228984012377514182568334192882929345023207839092315626611655492521918514698298091799896854048478597215059308922124806601340897369778236204228984012377514182568334192882929345023207839092315626611655492521918514698298091799896854048478597215059308922124806601340897369778236204228984012377514182568334192882929345023') Decimal('0.51521402784940691077875193398659102630221763795771015987622485817431665807117070654976792160907684373388344507478081485301701908200103145951521402784940691077875193398659102630221763795771015987622485817431665807117070654976792160907684373388344507478081485301701908200103145951521402784940691077875193398659102630221763795771015987622485817431665807117070654976792160907684373388344507478081485301701908200103145951521402784940691077875193398659102630221763795771015987622485817431665807117070654977')) (Decimal('0.000070488059322750726027011024332478078213550624524205599571432599317675585755772972058533284461612202892829954605689796148532438604900329884117630473397806411593875997406039416922773282205994304564806721741337017509233935771280345109538444187554628245975131812670933543857670510615501734006259339667860264471198578960724053345363295457749457241943214819409592015112639918797755660191163616883299968985253897989680548115149293709645586037725209349536188569656300222742267459892294245354836890630727154820') Decimal('0.99992951194067724927397298897566752192178644937547579440042856740068232441424422702794146671553838779710717004539431020385146756139509967011588236952660219358840612400259396058307722671779400569543519327825866298249076606422871965489046155581244537175402486818732906645614232948938449826599374066033213973552880142103927594665463670454225054275805678518059040798488736008120224433980883638311670003101474610201031945188485070629035441396227479065046381143034369977725773254010770575464516310936927285')) (Decimal('0.000060116566021515718979100475822620060296915719580266136037777250087920477806466739006934445890581838184239239886139223955249228253583698791957605797641627114975938344449888333478615034551996320866159483237998479050879655652309828757961687712474488032294619266758244235572775611911496391503124558518968279493938747230880677633932194525184332420563472573319666833991108759885417825162991039625834493082086165074078638480012744711996561332423569300874395452782946132551016420840008777018639141294970948669') Decimal('0.99993988343397848428102089952417737993970308428041973386396222274991207952219353326099306555410941816181576076011386077604475077174641630120804239420235837288502406165555011166652138496544800367913384051676200152094912034434769017124203831228752551196770538073324175576442722438808850360849687544148103172050606125276911932236606780547481566757943652742668033316600889124011458217483700896037416550691791383492592136151998725528800343866757643069912560454721705386744898357915999122298136085870502905')));
}

potential ( J |  )
{
	data = ((Decimal('0.0521389757000') Decimal('0.9478610243000')));
}

potential ( M | J )
{
	data = ((Decimal('0.039972021141949668182683535150461346711880264268406024708306649760286717715476715818949239541734994230045834981756267988977773493160511014795405733296751359079729677159729856373070251934389267259809248611686861351209858923254604712152026415816220187079739658176675687934544521556452441009499923873648327157297798621694058328038845611614115388154815630564832902921796371231742475523929404696763154861901132438242356955240300204056367758678465944623457572067339251545749104541767973397298635462069501300') Decimal('0.96002797885805033181731646484953865328811973573159397529169335023971328228452328418105076045826500576995416501824373201102222650683948898520459426670324864092027032284027014362692974806561073274019075138831313864879014107674539528784797358418377981292026034182332431206545547844354755899050007612635167284270220137830594167196115438838588461184518436943516709707820362876825752447607059530323684513809886756175764304475969979594363224132153405537654242793266074845425089545823202660270136453793049870')) (Decimal('0.010183185607962127069813308284164670447247548039094954481714730423903980329534898041276070644315446403148407206851748171411757034727986546666575495776506737412855134737709670377465693627634900949054668287830769074486988587953484015831792230387629411464977777755430385407819959456054194884991643600383453386817352650165299132450043921486307283328181046720142051103007886385143349964833024942008895723301026124911843787899487323608058603871428327491363862380515860609798891590525334780346870308590659919') Decimal('0.98981681439203787293018669171583532955275245196090504551828526957609601967046510195872392935568455359685159279314825182858824296527201345333342450422349326258714486526229032962253430637236509905094533171216923092551301141204651598416820776961237058853502222224456961459218004054394580511500835639961654661318264734983470086754995607851369271667181895327985794889699211361485665003516697505799110427669897387508815621210051267639194139612857167250863613761948413939020110840947466521965312969140934008')));
}

