net
{
	propagationenginegenerator1791944048146838126L = "edu.ucla.belief.approx.BeliefPropagationSettings@36f3f021";
	recoveryenginegenerator6944530267470113528l = "edu.ucla.util.SettingsImpl@b1cbc13";
	node_size = (130 55);
}

node A
{
	states = ("On" "Off");
	ID = "A";
	position = (310 252);
	label = "Alarm";
}

node E
{
	states = ("Present" "Absent");
	ID = "E";
	position = (442 130);
	label = "Earthquake";
}

node B
{
	states = ("Present" "Absent");
	ID = "B";
	position = (169 128);
	label = "Burglary";
}

node J
{
	states = ("Present" "Absent");
	ID = "J";
	position = (179 367);
	label = "JohnCalls";
}

node M
{
	states = ("Present" "Absent");
	ID = "M";
	position = (446 365);
	label = "MaryCalls";
}

potential ( A | B J E )
{
	data = ((Decimal('0.99708454810495626822157434402332361516034985422740524781341107871720116618075801749271137026239067055393586005830903790087463556851311953352769679300291545189504373177842565597667638483965014577259475218658892128279883381924198250728862973760932944606413994169096209912536443148688046647230320699708454810495626822157434402332361516034985422740524781341107871720116618075801749271137026239067055393586005830903790087463556851311953352769679300291545189504373177842565597667638483965014577259475218659') Decimal('0.0029154518950437317784256559766763848396501457725947521865889212827988338192419825072886297376093294460641399416909620991253644314868804664723032069970845481049562682215743440233236151603498542274052478134110787172011661807580174927113702623906705539358600583090379008746355685131195335276967930029154518950437317784256559766763848396501457725947521865889212827988338192419825072886297376093294460641399416909620991253644314868804664723032069970845481049562682215743440233236151603498542274052478134111')) (Decimal('0.99646643109540636042402826855123674911660777385159010600706713780918727915194346289752650176678445229681978798586572438162544169611307420494699646643109540636042402826855123674911660777385159010600706713780918727915194346289752650176678445229681978798586572438162544169611307420494699646643109540636042402826855123674911660777385159010600706713780918727915194346289752650176678445229681978798586572438162544169611307420494699646643109540636042402826855123674911660777385159010600706713780918727915194') Decimal('0.0035335689045936395759717314487632508833922261484098939929328621908127208480565371024734982332155477031802120141342756183745583038869257950530035335689045936395759717314487632508833922261484098939929328621908127208480565371024734982332155477031802120141342756183745583038869257950530035335689045936395759717314487632508833922261484098939929328621908127208480565371024734982332155477031802120141342756183745583038869257950530035335689045936395759717314487632508833922261484098939929328621908127208480565')) (Decimal('0.66666666666666666666666666666666666666666666666666666666666666666666666666666666666666666666666666666666666666666666666666666666666666666666666666666666666666666666666666666666666666666666666666666666666666666666666666666666666666666666666666666666666666666666666666666666666666666666666666666666666666666666666666666666666666666666666666666666666666666666666666666666666666666666666666666666666666666666666666666666666666666666666666666666666666666666666666666666666666666666666666666666666666666667') Decimal('0.33333333333333333333333333333333333333333333333333333333333333333333333333333333333333333333333333333333333333333333333333333333333333333333333333333333333333333333333333333333333333333333333333333333333333333333333333333333333333333333333333333333333333333333333333333333333333333333333333333333333333333333333333333333333333333333333333333333333333333333333333333333333333333333333333333333333333333333333333333333333333333333333333333333333333333333333333333333333333333333333333333333333333333333')) (Decimal('0.62251655629139072847682119205298013245033112582781456953642384105960264900662251655629139072847682119205298013245033112582781456953642384105960264900662251655629139072847682119205298013245033112582781456953642384105960264900662251655629139072847682119205298013245033112582781456953642384105960264900662251655629139072847682119205298013245033112582781456953642384105960264900662251655629139072847682119205298013245033112582781456953642384105960264900662251655629139072847682119205298013245033112582781') Decimal('0.37748344370860927152317880794701986754966887417218543046357615894039735099337748344370860927152317880794701986754966887417218543046357615894039735099337748344370860927152317880794701986754966887417218543046357615894039735099337748344370860927152317880794701986754966887417218543046357615894039735099337748344370860927152317880794701986754966887417218543046357615894039735099337748344370860927152317880794701986754966887417218543046357615894039735099337748344370860927152317880794701986754966887417219')) (Decimal('0.88026981450252951096121416526138279932546374367622259696458684654300168634064080944350758853288364249578414839797639123102866779089376053962900505902192242833052276559865092748735244519392917369308600337268128161888701517706576728499156829679595278246205733558178752107925801011804384485666104553119730185497470489038785834738617200674536256323777403035413153456998313659359190556492411467116357504215851602023608768971332209106239460370994940978077571669477234401349072512647554806070826306913996627') Decimal('0.11973018549747048903878583473861720067453625632377740303541315345699831365935919055649241146711635750421585160202360876897133220910623946037099494097807757166947723440134907251264755480607082630691399662731871838111298482293423271500843170320404721753794266441821247892074198988195615514333895446880269814502529510961214165261382799325463743676222596964586846543001686340640809443507588532883642495784148397976391231028667790893760539629005059021922428330522765598650927487352445193929173693086003373')) (Decimal('0.017699115044247787610619469026548672566371681415929203539823008849557522123893805309734513274336283185840707964601769911504424778761061946902654867256637168141592920353982300884955752212389380530973451327433628318584070796460176991150442477876106194690265486725663716814159292035398230088495575221238938053097345132743362831858407079646017699115044247787610619469026548672566371681415929203539823008849557522123893805309734513274336283185840707964601769911504424778761061946902654867256637168141592920') Decimal('0.98230088495575221238938053097345132743362831858407079646017699115044247787610619469026548672566371681415929203539823008849557522123893805309734513274336283185840707964601769911504424778761061946902654867256637168141592920353982300884955752212389380530973451327433628318584070796460176991150442477876106194690265486725663716814159292035398230088495575221238938053097345132743362831858407079646017699115044247787610619469026548672566371681415929203539823008849557522123893805309734513274336283185840708')) (Decimal('0.041222459132906894100923951670220326936744847192608386638237384506041222459132906894100923951670220326936744847192608386638237384506041222459132906894100923951670220326936744847192608386638237384506041222459132906894100923951670220326936744847192608386638237384506041222459132906894100923951670220326936744847192608386638237384506041222459132906894100923951670220326936744847192608386638237384506041222459132906894100923951670220326936744847192608386638237384506041222459132906894100923951670220326937') Decimal('0.95877754086709310589907604832977967306325515280739161336176261549395877754086709310589907604832977967306325515280739161336176261549395877754086709310589907604832977967306325515280739161336176261549395877754086709310589907604832977967306325515280739161336176261549395877754086709310589907604832977967306325515280739161336176261549395877754086709310589907604832977967306325515280739161336176261549395877754086709310589907604832977967306325515280739161336176261549395877754086709310589907604832977967306')) (Decimal('0.00010535742506453142285202549649686561660433019017015224147921824790602117684243797081599325712479586998893747036822420060053732286782911025654533003213401464468208396986777643154401306432070800189643365116156561133645893694358109887794342306274034662592846230838118316388347468787862824632565980087446662803561080967181162092398461781594057841226360427751145761997576779223515777274403413580572090818100405626086498445977980298161512932623926671232155086129694990254438181530843386187641574039930464099') Decimal('0.99989464257493546857714797450350313438339566980982984775852078175209397882315756202918400674287520413001106252963177579939946267713217088974345466996786598535531791603013222356845598693567929199810356634883843438866354106305641890112205657693725965337407153769161881683611652531212137175367434019912553337196438919032818837907601538218405942158773639572248854238002423220776484222725596586419427909181899594373913501554022019701838487067376073328767844913870305009745561818469156613812358425960069536')));
}

potential ( E | B J )
{
	data = ((Decimal('0.0020199831098788363483887837346013095144149057086018301164758773970368084502430457811798821460583239204868689319530704332186516877753920121740789642610218641087280937837522688002713726580268710756086156107592663044438450584617269147732024211529333334903776956174022428290599599301309632198177421653512238270847344635030865106352405193300016371874768114183814929500822716152915665999620737865083973583567820196768733723824140152670676794457590366270640046076815894145818046046192243500424608694525551314') Decimal('0.99798001689012116365161121626539869048558509429139816988352412260296319154975695421882011785394167607951313106804692956678134831222460798782592103573897813589127190621624773119972862734197312892439138438924073369555615494153827308522679757884706666650962230438259775717094004006986903678018225783464877617291526553649691348936475948066999836281252318858161850704991772838470843340003792621349160264164321798032312662761758598473293232055424096337293599539231841058541819539538077564995753913054744487')) (Decimal('0.0018876297331487650927587874131524741196028691971943861229409933568679917606617963611797354669068703099024393474762059304689931979096984428710517078081638330143128696608227416331639985958684090261817555618844505672824092778657199817197962684540643648622692621023558943722140903280501778345906492783955809594457654172986362703085777869031612830583575634342939271308690382360928051502487034964201267692389209381188610638283780293145585926892431598259406688170191346045581290608876496029354298166018690846') Decimal('0.99811237026685123490724121258684752588039713080280561387705900664313200823933820363882026453309312969009756065252379406953100680209030155712894829219183616698568713033917725836683600140413159097381824443811554943271759072213428001828020373154593563513773073789764410562778590967194982216540935072160441904055423458270136372969142221309683871694164243656570607286913096176390719484975129650357987323076107906188113893617162197068544140731075684017405933118298086539544187093911235039706457018339813092')) (Decimal('0.011550155527810943626281375812455080023295086022364061681336467911798104060473731674110316645663432752968857430567593730583370502889486631620157650858081115982649445962607101884837353164021947243252508214634222351206533531484399499038785539127369194001710124207996291484633228998876148441897653545975657024656563039891860938464744757144832717519813483491847693767006289283676104812305103298903611712208300140432751021107763145849442846207634010046492784561357036148286077680152236114005683533529536650') Decimal('0.98844984447218905637371862418754491997670491397763593831866353208820189593952626832588968335433656724703114256943240626941662949711051336837984234914191888401735055403739289811516264683597805275674749178536577764879346646851560050096121446087263080599828987579200370851536677100112385155810234645402434297534343696010813906153525524285516728248018651650815230623299371071632389518769489670109638828779169985956724897889223685415055715379236598995350721543864296385171392231984776388599431646647046335')) (Decimal('0.0014831466785683829179029296837735214993548259242233271038361847100543114188485279268508263298486589539525648159870351687071440972396078800521199036070612117930294635995010639759061926064663719417742123695276288511347653270876027384769675332129458149701257153916366339127022184058397398347793574232756206209883491291441273874365986418508574263852742825212059932618548694066685943005635219494640169325385409947750439647051147056364949797013404293873023037684680486248637154753337528027730099349745066376') Decimal('0.99851685332143161708209707031622647850064517407577667289616381528994568858115147207314917367015134104604743518401296483129285590276039211994788009639293878820697053640049893602409380739353362805822578763047237114886523467291239726152303246678705418502987428460836336608729778159416026016522064257672437937901165087085587261256340135814914257361472571747879400673814513059333140569943647805053598306746145900522495603529488529436350502029865957061269769623153195137513628452466624719722699006502549336')));
}

potential ( B |  )
{
	data = ((Decimal('0.001000000000') Decimal('0.9990000000000')));
}

potential ( J | B )
{
	data = ((Decimal('0.849017') Decimal('0.150983')) (Decimal('0.0513413') Decimal('0.9486587')));
}

potential ( M | A )
{
	data = ((Decimal('0.7') Decimal('0.3')) (Decimal('0.01') Decimal('0.99')));
}

