net
{
	propagationenginegenerator1791944048146838126L = "edu.ucla.belief.approx.BeliefPropagationSettings@36f3f021";
	recoveryenginegenerator6944530267470113528l = "edu.ucla.util.SettingsImpl@b1cbc13";
	node_size = (130 55);
}

node A
{
	states = ("On" "Off");
	ID = "A";
	position = (310 252);
	label = "Alarm";
}

node E
{
	states = ("Present" "Absent");
	ID = "E";
	position = (442 130);
	label = "Earthquake";
}

node B
{
	states = ("Present" "Absent");
	ID = "B";
	position = (169 128);
	label = "Burglary";
}

node J
{
	states = ("Present" "Absent");
	ID = "J";
	position = (179 367);
	label = "JohnCalls";
}

node M
{
	states = ("Present" "Absent");
	ID = "M";
	position = (446 365);
	label = "MaryCalls";
}

potential ( A | B M E )
{
	data = ((Decimal('0.99924868519909842223891810668670172802404207362885048835462058602554470323065364387678437265214124718256949661908339594290007513148009015777610818933132982719759579263711495116453794139744552967693463561232156273478587528174305033809166040570999248685199098422238918106686701728024042073628850488354620586025544703230653643876784372652141247182569496619083395942900075131480090157776108189331329827197595792637114951164537941397445529676934635612321562734785875281743050338091660405709992486851990984') Decimal('0.00075131480090157776108189331329827197595792637114951164537941397445529676934635612321562734785875281743050338091660405709992486851990984222389181066867017280240420736288504883546205860255447032306536438767843726521412471825694966190833959429000751314800901577761081893313298271975957926371149511645379413974455296769346356123215627347858752817430503380916604057099924868519909842223891810668670172802404207362885048835462058602554470323065364387678437265214124718256949661908339594290007513148009015778')) (Decimal('0.99908897661706650470695414515639234740358335863953841481931369571819010021257212268448223504403279684178560583054965077436987549347099908897661706650470695414515639234740358335863953841481931369571819010021257212268448223504403279684178560583054965077436987549347099908897661706650470695414515639234740358335863953841481931369571819010021257212268448223504403279684178560583054965077436987549347099908897661706650470695414515639234740358335863953841481931369571819010021257212268448223504403279684179') Decimal('0.00091102338293349529304585484360765259641664136046158518068630428180989978742787731551776495596720315821439416945034922563012450652900091102338293349529304585484360765259641664136046158518068630428180989978742787731551776495596720315821439416945034922563012450652900091102338293349529304585484360765259641664136046158518068630428180989978742787731551776495596720315821439416945034922563012450652900091102338293349529304585484360765259641664136046158518068630428180989978742787731551776495596720315821439')) (Decimal('0.85201793721973094170403587443946188340807174887892376681614349775784753363228699551569506726457399103139013452914798206278026905829596412556053811659192825112107623318385650224215246636771300448430493273542600896860986547085201793721973094170403587443946188340807174887892376681614349775784753363228699551569506726457399103139013452914798206278026905829596412556053811659192825112107623318385650224215246636771300448430493273542600896860986547085201793721973094170403587443946188340807174887892376682') Decimal('0.14798206278026905829596412556053811659192825112107623318385650224215246636771300448430493273542600896860986547085201793721973094170403587443946188340807174887892376681614349775784753363228699551569506726457399103139013452914798206278026905829596412556053811659192825112107623318385650224215246636771300448430493273542600896860986547085201793721973094170403587443946188340807174887892376681614349775784753363228699551569506726457399103139013452914798206278026905829596412556053811659192825112107623318')) (Decimal('0.82601054481546572934973637961335676625659050966608084358523725834797891036906854130052724077328646748681898066783831282952548330404217926186291739894551845342706502636203866432337434094903339191564147627416520210896309314586994727592267135325131810193321616871704745166959578207381370826010544815465729349736379613356766256590509666080843585237258347978910369068541300527240773286467486818980667838312829525483304042179261862917398945518453427065026362038664323374340949033391915641476274165202108963') Decimal('0.17398945518453427065026362038664323374340949033391915641476274165202108963093145869947275922671353251318101933216168717047451669595782073813708260105448154657293497363796133567662565905096660808435852372583479789103690685413005272407732864674868189806678383128295254833040421792618629173989455184534270650263620386643233743409490333919156414762741652021089630931458699472759226713532513181019332161687170474516695957820738137082601054481546572934973637961335676625659050966608084358523725834797891037')) (Decimal('0.96620656830080913850547358400761542122798667301285102332222751070918610185625892432175154688243693479295573536411232746311280342693955259400285578296049500237981913374583531651594478819609709662065683008091385054735840076154212279866730128510233222275107091861018562589243217515468824369347929557353641123274631128034269395525940028557829604950023798191337458353165159447881960970966206568300809138505473584007615421227986673012851023322227510709186101856258924321751546882436934792955735364112327463') Decimal('0.033793431699190861494526415992384578772013326987148976677772489290813898143741075678248453117563065207044264635887672536887196573060447405997144217039504997620180866254164683484055211803902903379343169919086149452641599238457877201332698714897667777248929081389814374107567824845311756306520704426463588767253688719657306044740599714421703950499762018086625416468348405521180390290337934316991908614945264159923845787720133269871489766777724892908138981437410756782484531175630652070442646358876725369')) (Decimal('0.065481758652946679139382600561272217025257249766136576239476145930776426566884939195509822263797942001870907390084190832553788587464920486435921421889616463985032740879326473339569691300280636108512628624883068288119738072965388213283442469597754911131898971000935453695042095416276894293732460243217960710944808231992516370439663236669784845650140318054256314312441534144059869036482694106641721234798877455565949485500467726847521047708138447146866230121608980355472404115996258185219831618334892423') Decimal('0.93451824134705332086061739943872778297474275023386342376052385406922357343311506080449017773620205799812909260991580916744621141253507951356407857811038353601496725912067352666043030869971936389148737137511693171188026192703461178671655753040224508886810102899906454630495790458372310570626753975678203928905519176800748362956033676333021515434985968194574368568755846585594013096351730589335827876520112254443405051449953227315247895229186155285313376987839101964452759588400374181478016838166510758')) (Decimal('0.11014052411697683251044436004557538928978351690087352829472085074060007595898214963919483478921382453475123433345993163691606532472464868970755791872388909988606152677554120774781617926319787314849981010254462590201291302696543866312191416635017090770983668818837827573110520319027725028484618306114698063045955184200531712875047474363843524496771743258640334219521458412457273072540827952905431067223699202430687428788454234713254842385112039498670717812381314090391188758070641853399164451196353969') Decimal('0.88985947588302316748955563995442461071021648309912647170527914925939992404101785036080516521078617546524876566654006836308393467527535131029244208127611090011393847322445879225218382073680212685150018989745537409798708697303456133687808583364982909229016331181162172426889479680972274971515381693885301936954044815799468287124952525636156475503228256741359665780478541587542726927459172047094568932776300797569312571211545765286745157614887960501329282187618685909608811241929358146600835548803646031')) (Decimal('0.00030324165327349364708736392030809351972586954544076174303302301604148345816781393092155138429814719349849895381629620644691754859447493707735694575006822937198653607059465688206932104193832064772417139218243017860933377808775813445734906146708311853716226460866664645055644843375686084240531279376535160869697061588379779846559723443612214573793856324104679018710010006974558025290353883009370167086150953694999545137520089759529368954119537859720411195681838857385450465475937774812748279103617672924') Decimal('0.99969675834672650635291263607969190648027413045455923825696697698395851654183218606907844861570185280650150104618370379355308245140552506292264305424993177062801346392940534311793067895806167935227582860781756982139066622191224186554265093853291688146283773539133335354944355156624313915759468720623464839130302938411620220153440276556387785426206143675895320981289989993025441974709646116990629832913849046305000454862479910240470631045880462140279588804318161142614549534524062225187251720896382327')));
}

potential ( E | B M )
{
	data = ((Decimal('0.0020209111925683913698741204633124905673097041088419343779313461090551093827672605706105763347199830917603001941350150877494519550000318851502959701117711168517878003770950441670065218797419671437191264440556817971320977483314197182020783651967207489427035995905339365801323932173908290412378240480232876991037843422047943726657412887491880674228204753681140601669749403975440538901553535622849080902951016210106742373147966228463478900685044862406466429947261961410465435130572727142978176284796947771') Decimal('0.99797908880743160863012587953668750943269029589115806562206865389094489061723273942938942366528001690823969980586498491225054804499996811484970402988822888314821219962290495583299347812025803285628087355594431820286790225166858028179792163480327925105729640040946606341986760678260917095876217595197671230089621565779520562733425871125081193257717952463188593983302505960245594610984464643771509190970489837898932576268520337715365210993149551375935335700527380385895345648694272728570218237152030522')) (Decimal('0.0019596574202472156167999760974520938456211762514126230058508516161461711106072828954421707731595477497332932614147847804041288136427307254950551604019143128808370109863843353949280902391485068816489945990786973814407260750434551836014461041483223399188367895363081460234772231566478082593848257486682238473611411357576844055207855502067746147911075491627956841840707093608353237477086068505405315153336602358267557388084228360724598709613921125106990264984349103742330533571655796279990228076003072180') Decimal('0.99804034257975278438320002390254790615437882374858737699414914838385382888939271710455782922684045225026670673858521521959587118635726927450494483959808568711916298901361566460507190976085149311835100540092130261855927392495654481639855389585167766008116321046369185397652277684335219174061517425133177615263885886424231559447921444979322538520889245083720431581592929063916467625229139314945946848466633976417324426119157716392754012903860788748930097350156508962576694664283442037200097719239969278')) (Decimal('0.037894022988920372050407527581834676728452621649553333898467104705460094040664380880923308341194103610663713542108177425551140698469269047563221334641557893445831026204772013613711828670679116443408766667688717104254555489222478135635712366148968059721413098959131810237698871475955061043465400286053881296657353983561821726748202243340589891440207343973479594763013557799657673224022033002609835852687661987479280933408604342030982557206267213283288934259912235927718188229225472142211705122817396260') Decimal('0.96210597701107962794959247241816532327154737835044666610153289529453990595933561911907669165880589638933628645789182257444885930153073095243677866535844210655416897379522798638628817132932088355659123333231128289574544451077752186436428763385103194027858690104086818976230112852404493895653459971394611870334264601643817827325179775665941010855979265602652040523698644220034232677597796699739016414731233801252071906659139565796901744279373278671671106574008776407228181177077452785778829487718260374')) (Decimal('0.0015975145513068221152075558494545485874676833970063924244440233752843202763669837365980633366891453285015950573033262704138909623814749470220369032535358736666320225037803698406969167847814199046672725451440441799838889474381308946269572966097926003829787827861345444592910760701481805474178176446543965657259532650849391752250186917696693448242743094480942161054342615481402485509365967528044328510877994118743808721021841415525305316095223031051180956413092629815349038727623647656607542853343007003') Decimal('0.99840248544869317788479244415054545141253231660299360757555597662471567972363301626340193666331085467149840494269667372958610903761852505297796309674646412633336797749621963015930308321521858009533272745485595582001611105256186910537304270339020739961702121721386545554070892392985181945258218235534560343427404673491506082477498130823033065517572569055190578389456573845185975144906340324719556714891220058812561912789781585844746946839047769689488190435869073701846509612723763523433924571466569930')));
}

potential ( B |  )
{
	data = ((Decimal('0.001000000000') Decimal('0.9990000000000')));
}

potential ( J | A )
{
	data = ((Decimal('0.9') Decimal('0.1')) (Decimal('0.05') Decimal('0.95')));
}

potential ( M | B )
{
	data = ((Decimal('0.6586138') Decimal('0.3413862')) (Decimal('0.01108882') Decimal('0.98891118')));
}

