net
{
	propagationenginegenerator1791944048146838126L = "edu.ucla.belief.approx.BeliefPropagationSettings@36f3f021";
	recoveryenginegenerator6944530267470113528l = "edu.ucla.util.SettingsImpl@b1cbc13";
	node_size = (130 55);
}

node A
{
	states = ("On" "Off");
	ID = "A";
	position = (310 252);
	label = "Alarm";
}

node E
{
	states = ("Present" "Absent");
	ID = "E";
	position = (442 130);
	label = "Earthquake";
}

node B
{
	states = ("Present" "Absent");
	ID = "B";
	position = (169 128);
	label = "Burglary";
}

node J
{
	states = ("Present" "Absent");
	ID = "J";
	position = (179 367);
	label = "JohnCalls";
}

node M
{
	states = ("Present" "Absent");
	ID = "M";
	position = (446 365);
	label = "MaryCalls";
}

potential ( A | E J B )
{
	data = ((Decimal('0.99708454810495626822157434402332361516034985422740524781341107871720116618075801749271137026239067055393586005830903790087463556851311953352769679300291545189504373177842565597667638483965014577259475218658892128279883381924198250728862973760932944606413994169096209912536443148688046647230320699708454810495626822157434402332361516034985422740524781341107871720116618075801749271137026239067055393586005830903790087463556851311953352769679300291545189504373177842565597667638483965014577259475218659') Decimal('0.0029154518950437317784256559766763848396501457725947521865889212827988338192419825072886297376093294460641399416909620991253644314868804664723032069970845481049562682215743440233236151603498542274052478134110787172011661807580174927113702623906705539358600583090379008746355685131195335276967930029154518950437317784256559766763848396501457725947521865889212827988338192419825072886297376093294460641399416909620991253644314868804664723032069970845481049562682215743440233236151603498542274052478134111')) (Decimal('0.88026981450252951096121416526138279932546374367622259696458684654300168634064080944350758853288364249578414839797639123102866779089376053962900505902192242833052276559865092748735244519392917369308600337268128161888701517706576728499156829679595278246205733558178752107925801011804384485666104553119730185497470489038785834738617200674536256323777403035413153456998313659359190556492411467116357504215851602023608768971332209106239460370994940978077571669477234401349072512647554806070826306913996627') Decimal('0.11973018549747048903878583473861720067453625632377740303541315345699831365935919055649241146711635750421585160202360876897133220910623946037099494097807757166947723440134907251264755480607082630691399662731871838111298482293423271500843170320404721753794266441821247892074198988195615514333895446880269814502529510961214165261382799325463743676222596964586846543001686340640809443507588532883642495784148397976391231028667790893760539629005059021922428330522765598650927487352445193929173693086003373')) (Decimal('0.66666666666666666666666666666666666666666666666666666666666666666666666666666666666666666666666666666666666666666666666666666666666666666666666666666666666666666666666666666666666666666666666666666666666666666666666666666666666666666666666666666666666666666666666666666666666666666666666666666666666666666666666666666666666666666666666666666666666666666666666666666666666666666666666666666666666666666666666666666666666666666666666666666666666666666666666666666666666666666666666666666666666666666667') Decimal('0.33333333333333333333333333333333333333333333333333333333333333333333333333333333333333333333333333333333333333333333333333333333333333333333333333333333333333333333333333333333333333333333333333333333333333333333333333333333333333333333333333333333333333333333333333333333333333333333333333333333333333333333333333333333333333333333333333333333333333333333333333333333333333333333333333333333333333333333333333333333333333333333333333333333333333333333333333333333333333333333333333333333333333333333')) (Decimal('0.041222459132906894100923951670220326936744847192608386638237384506041222459132906894100923951670220326936744847192608386638237384506041222459132906894100923951670220326936744847192608386638237384506041222459132906894100923951670220326936744847192608386638237384506041222459132906894100923951670220326936744847192608386638237384506041222459132906894100923951670220326936744847192608386638237384506041222459132906894100923951670220326936744847192608386638237384506041222459132906894100923951670220326937') Decimal('0.95877754086709310589907604832977967306325515280739161336176261549395877754086709310589907604832977967306325515280739161336176261549395877754086709310589907604832977967306325515280739161336176261549395877754086709310589907604832977967306325515280739161336176261549395877754086709310589907604832977967306325515280739161336176261549395877754086709310589907604832977967306325515280739161336176261549395877754086709310589907604832977967306325515280739161336176261549395877754086709310589907604832977967306')) (Decimal('0.99646643109540636042402826855123674911660777385159010600706713780918727915194346289752650176678445229681978798586572438162544169611307420494699646643109540636042402826855123674911660777385159010600706713780918727915194346289752650176678445229681978798586572438162544169611307420494699646643109540636042402826855123674911660777385159010600706713780918727915194346289752650176678445229681978798586572438162544169611307420494699646643109540636042402826855123674911660777385159010600706713780918727915194') Decimal('0.0035335689045936395759717314487632508833922261484098939929328621908127208480565371024734982332155477031802120141342756183745583038869257950530035335689045936395759717314487632508833922261484098939929328621908127208480565371024734982332155477031802120141342756183745583038869257950530035335689045936395759717314487632508833922261484098939929328621908127208480565371024734982332155477031802120141342756183745583038869257950530035335689045936395759717314487632508833922261484098939929328621908127208480565')) (Decimal('0.017699115044247787610619469026548672566371681415929203539823008849557522123893805309734513274336283185840707964601769911504424778761061946902654867256637168141592920353982300884955752212389380530973451327433628318584070796460176991150442477876106194690265486725663716814159292035398230088495575221238938053097345132743362831858407079646017699115044247787610619469026548672566371681415929203539823008849557522123893805309734513274336283185840707964601769911504424778761061946902654867256637168141592920') Decimal('0.98230088495575221238938053097345132743362831858407079646017699115044247787610619469026548672566371681415929203539823008849557522123893805309734513274336283185840707964601769911504424778761061946902654867256637168141592920353982300884955752212389380530973451327433628318584070796460176991150442477876106194690265486725663716814159292035398230088495575221238938053097345132743362831858407079646017699115044247787610619469026548672566371681415929203539823008849557522123893805309734513274336283185840708')) (Decimal('0.62251655629139072847682119205298013245033112582781456953642384105960264900662251655629139072847682119205298013245033112582781456953642384105960264900662251655629139072847682119205298013245033112582781456953642384105960264900662251655629139072847682119205298013245033112582781456953642384105960264900662251655629139072847682119205298013245033112582781456953642384105960264900662251655629139072847682119205298013245033112582781456953642384105960264900662251655629139072847682119205298013245033112582781') Decimal('0.37748344370860927152317880794701986754966887417218543046357615894039735099337748344370860927152317880794701986754966887417218543046357615894039735099337748344370860927152317880794701986754966887417218543046357615894039735099337748344370860927152317880794701986754966887417218543046357615894039735099337748344370860927152317880794701986754966887417218543046357615894039735099337748344370860927152317880794701986754966887417218543046357615894039735099337748344370860927152317880794701986754966887417219')) (Decimal('0.00010535742506453142285202549649686561660433019017015224147921824790602117684243797081599325712479586998893747036822420060053732286782911025654533003213401464468208396986777643154401306432070800189643365116156561133645893694358109887794342306274034662592846230838118316388347468787862824632565980087446662803561080967181162092398461781594057841226360427751145761997576779223515777274403413580572090818100405626086498445977980298161512932623926671232155086129694990254438181530843386187641574039930464099') Decimal('0.99989464257493546857714797450350313438339566980982984775852078175209397882315756202918400674287520413001106252963177579939946267713217088974345466996786598535531791603013222356845598693567929199810356634883843438866354106305641890112205657693725965337407153769161881683611652531212137175367434019912553337196438919032818837907601538218405942158773639572248854238002423220776484222725596586419427909181899594373913501554022019701838487067376073328767844913870305009745561818469156613812358425960069536')));
}

potential ( E |  )
{
	data = ((Decimal('0.002000000000') Decimal('0.9980000000000')));
}

potential ( B | E J )
{
	data = ((Decimal('0.0028866125139281157742012583274142347867946314056708891439805292515678597998390902878533365201086645503785417809810106341795119520906480487172668239856460457616449146808231306028054843954608649401974678601364702872474003655814798980680735606491596002167904908419482867155230743853955921511070116912014704050683193014229400695480052918424162040792968447557908981656966077674282386445881485620798421872948653643527760291657269045751545978772036719730964347389930014374152110172658140920551671205577305671') Decimal('0.99711338748607188422579874167258576521320536859432911085601947074843214020016090971214666347989133544962145821901898936582048804790935195128273317601435395423835508531917686939719451560453913505980253213986352971275259963441852010193192643935084039978320950915805171328447692561460440784889298830879852959493168069857705993045199470815758379592070315524420910183430339223257176135541185143792015781270513463564722397083427309542484540212279632802690356526100699856258478898273418590794483287944226943')) (Decimal('0.00020272029294149278955926474416699030783609957620789286125823151084233482563920909211183331697345004331812575486635397950604533252529735866127786337079035307473336946733642606257441968648773222143030903108235565248193655495000277406716656779606765309649912723579144136262179221810142843120100037129822075599731982433753142164540593138238168603534588349771459543431222339349502588418056189797407740927733416413088475671430949200428486682343702654142109059249806882247250472658367226743714603969903505141') Decimal('0.99979727970705850721044073525583300969216390042379210713874176848915766517436079090788816668302654995668187424513364602049395466747470264133872213662920964692526663053266357393742558031351226777856969096891764434751806344504999722593283343220393234690350087276420855863737820778189857156879899962870177924400268017566246857835459406861761831396465411650228540456568777660650497411581943810202592259072266583586911524328569050799571513317656297345857890940750193117752749527341632773256285396030096495')) (Decimal('0.016438149285114762096996697848809686310158253490202456428739461142364247315731541207187479125583394564955375942797563901127145890027038722587353080410430964129402505220419318020103333807696887497422463340894107533377284568759965264970768556085745568815146331475570761004992434385355525802957124311325768686777745185451947456007620795710978999247794935539801522416582200911358877326680626508403495575349746312307410817231594936120654854046079094798167988592040566796681004063069054748330772738229733301') Decimal('0.98356185071488523790300330215119031368984174650979754357126053885763575268426845879281252087441660543504462405720243609887285410997296127741264691958956903587059749477958068197989666619230311250257753665910589246662271543124003473502923144391425443118485366852442923899500756561464447419704287568867423131322225481454805254399237920428902100075220506446019847758341779908864112267331937349159650442465025368769258918276840506387934514595392090520183201140795943320331899593693094525166922726177026670')) (Decimal('0.00015922360461467966767819348905155823758871773171529111268143780180320204995645867090363138955230592949230815545938988783540623661987900376848529372299953862060795262855236693005871185889498712951316539320295521119086760889431491065262328533444628172550093090449499307667296689514550954901390238232782484686458933991640338973346232202742051908265903630598706587644659521674365901221155418213187436709276203763402791906822346579489458474721170207028119363082383400211640858822598384766160365480385787195') Decimal('0.99984077639538532033232180651094844176241128226828470888731856219819679795004354132909636861044769407050769184454061011216459376338012099623151470627700046137939204737144763306994128814110501287048683460679704478880913239110568508934737671466555371827449906909550500692332703310485449045098609761767217515313541066008359661026653767797257948091734096369401293412355340478325634098778844581786812563290723796236597208093177653420510541525278829792971880636917616599788359141177401615233839634519614213')));
}

potential ( J | E )
{
	data = ((Decimal('0.297061') Decimal('0.702939')) (Decimal('0.05164815') Decimal('0.94835185')));
}

potential ( M | A )
{
	data = ((Decimal('0.7') Decimal('0.3')) (Decimal('0.01') Decimal('0.99')));
}

