net
{
	propagationenginegenerator1791944048146838126L = "edu.ucla.belief.approx.BeliefPropagationSettings@36f3f021";
	recoveryenginegenerator6944530267470113528l = "edu.ucla.util.SettingsImpl@b1cbc13";
	node_size = (130 55);
}

node A
{
	states = ("On" "Off");
	ID = "A";
	position = (310 252);
	label = "Alarm";
}

node E
{
	states = ("Present" "Absent");
	ID = "E";
	position = (442 130);
	label = "Earthquake";
}

node B
{
	states = ("Present" "Absent");
	ID = "B";
	position = (169 128);
	label = "Burglary";
}

node J
{
	states = ("Present" "Absent");
	ID = "J";
	position = (179 367);
	label = "JohnCalls";
}

node M
{
	states = ("Present" "Absent");
	ID = "M";
	position = (446 365);
	label = "MaryCalls";
}

potential ( A | E M J )
{
	data = ((Decimal('0.99806688237077062047096734422711186165272264250481289986339491036350427401205218474667885246056218202307979044257094888349062385897850482423683767747474566343019669595875565152255837138259906348961770251092723532021256608761072013387222477818910040400506958967293210727590113002926301982002880354533348064132609460258100390760431365330889488646320031774050614248712612988891345838924378402693359863306612775341993727927987539357151044525039915142747495005599538715957941351542839564317898133688762012') Decimal('0.0019331176292293795290326557728881383472773574951871001366050896364957259879478152533211475394378179769202095574290511165093761410214951757631623225252543365698033040412443484774416286174009365103822974890727646797874339123892798661277752218108995959949304103270678927240988699707369801799711964546665193586739053974189960923956863466911051135367996822594938575128738701110865416107562159730664013669338722465800627207201246064284895547496008485725250499440046128404205864845716043568210186631123798833')) (Decimal('0.75120002156180577169665936002049848384322942684363592595587287838661573059262106270904152235209764248975352714590733666286012184635515026252606154049502804696190833795767609515697474573498990028772457599115079861753380939142172418389118967632554339258030203511694510563623387618133035603193362508228745653025501635042069519839999586485916707187354739332905789307928800259037036462711921352575029730554961744409160370730144032124136927804502356107252261682049759774162237081653893881209956976074887400') Decimal('0.24879997843819422830334063997950151615677057315636407404412712161338426940737893729095847764790235751024647285409266333713987815364484973747393845950497195303809166204232390484302525426501009971227542400884920138246619060857827581610881032367445660741969796488305489436376612381866964396806637491771254346974498364957930480160000413514083292812645260667094210692071199740962963537288078647424970269445038255590839629269855967875863072195497643892747738317950240225837762918346106118790043023925112600')) (Decimal('0.69088681952624043571237848788979151695128106189838184574013344246214891329409238604661849891887994536164238339234793604713350664003416481990179991236945544668204294847466597787685293835674505612395681224482357816272183957588718003164524366599926948135553201486074587379775409094402499926710439681899538632313802920014546987323679183467142903550146301808786348650719386554495343934040980352851597752030913140382389271359152915300245539835054911707868604891622567479877063695362632782856106050389940077') Decimal('0.30911318047375956428762151211020848304871893810161815425986655753785108670590761395338150108112005463835761660765206395286649335996583518009820008763054455331795705152533402212314706164325494387604318775517642183727816042411281996835475633400073051864446798513925412620224590905597500073289560318100461367686197079985453012676320816532857096449853698191213651349280613445504656065959019647148402247969086859617610728640847084699754460164945088292131395108377432520122936304637367217143893949610059923')) (Decimal('0.012901897594550255501161663493422478021031966264551754493392338378608861525388165525140656473371537142626070151504747171234760782013194061256448451956500017821894599229090978175214658395117750789012782004849064532525490302958447819956163021996745540054230937752583187077648285820043963040719722232345216179581488648873565265353806332778317070725045718819152779534197374885972056068257456820523400857821274938834059251873706997133271683930230678347472258323457310836346668741670816600986067894804569276') Decimal('0.98709810240544974449883833650657752197896803373544824550660766162139113847461183447485934352662846285737392984849525282876523921798680593874355154804349998217810540077090902182478534160488224921098721799515093546747450969704155218004383697800325445994576906224741681292235171417995603695928027776765478382041851135112643473464619366722168292927495428118084722046580262511402794393174254317947659914217872506116594074812629300286672831606976932165252774167654268916365333125832918339901393210519543072')) (Decimal('0.70996724690013748107128877389027842314354784855636157260212350281195431478719202975937761264163296477014856150512568141180942351231445068160796187145127529603763337276724027454368402194466408675343288578609619141689195138557730280794408696266216358765442646331905634108556867210023477268546649846957501174735215989998840521085516364780784383126704891693336134680886120863035899385127459860670736757312345312000083691711120623294018570841982203306345662459124009321164326059419371318327525767893244248') Decimal('0.29003275309986251892871122610972157685645215144363842739787649718804568521280797024062238735836703522985143849487431858819057648768554931839203812854872470396236662723275972545631597805533591324656711421390380858310804861442269719205591303733783641234557353668094365891443132789976522731453350153042498825264784010001159478914483635219215616873295108306663865319113879136964100614872540139329263242687654687999916308288879376705981429158017796693654337540875990678835673940580628681672474232106755752')) (Decimal('0.014113094727792632648455371016187011554530921563873971197453924093843501657090270412946573051433979534504946523765300472029105437440689623225705692428844054566404460623836635391634219528860956382863627296178832551869106427322527157933307647008760610230959084762739516701630533986662278051881349976310942265089836195871620851964886853230625467548902320342295316585163449299411649380733769668117678858104753725561187357025371804869126859232304003526142108663550861080222072503749619371197318751153844014') Decimal('0.98588690527220736735154462898381298844546907843612602880254607590615649834290972958705342694856602046549505347623469952797089456255931037677429430757115594543359553937616336460836578047113904361713637270382116744813089357267747284206669235299123938976904091523726048329836946601333772194811865002368905773491016380412837914803511314676937453245109767965770468341483655070058835061926623033188232114189524627443881264297462819513087314076769599647385789133644913891977792749625038062880268124884615599')) (Decimal('0.010485794020393490371483182846776808062650861725148357221096941679462958621672389509122613758562294350136290987003077329080611096284627387931386458291929588893602719276258491316502525324220048091885623186853983290327517476098040822131677021320663855132725871114503626900414970296108764560936442514568034227275664710922774209056665198439190371239830226396350575948054490437188390349500329472408815097163941522906106176911406396983292761043679902615689159749368432352162607139371020001692652670646293185') Decimal('0.98951420597960650962851681715322319193734913827485164277890305832053704137832761049087738624143770564986370901299692267091938890371537261206861354170807041110639728072374150868349747467577995190811437681314601670967248252390195917786832297867933614486727412888549637309958502970389123543906355748543196577272433528907722579094333480156080962876016977360364942405194550956281160965049967052759118490283605847709389382308859360301670723895632009738431084025063156764783739286062897999830734732935370681')) (Decimal('0.000061966399967574219668334447527447723651753708960280875059587732299917433367308806296128825569724522137150443970480491763688331014384358854855623585100201178759119069615186914494918385289776178210201907447550663552046000378314618966553303255170890348207017956212084219138200550744515829392771768367673054638176488830283964607138049587938859910311353883755383133257575068422658087970930478401843785144070769387013942521485391108819011225037585585677083115703251360228392490901425396096842566325064290100') Decimal('0.99993803360003242578033166555247255227634824629103971912494041226770008256663269119370387117443027547786284955602951950823631166898561564114514437641489979882124088093038481308550508161471022382178979809255244933644795399962168538103344669674482910965179298204378791578086179944925548417060722823163232694536182351116971603539286195041206114008968864611624461686674242493157734191202906952159815621485592923061298605747851460889118098877496241441432291688429674863977160750909857460390315743367493571')));
}

potential ( E |  )
{
	data = ((Decimal('0.002000000000') Decimal('0.9980000000000')));
}

potential ( B | E A )
{
	data = ((Decimal('0.0032684235876969655267322645014793917291681001857840776164590930984655611367233193421867474024633592513589761233055804032202573453519576137067363930365375352645702883093648936902222528039633936558177939861005986375834308126333172779192183306956581572971857152686988233675084290924103763847794674189774994839331177320580747264845523979907796050368127709351131906695107685956099910548407073556732952590655748985068464873047546962086286382715199889905731782839055941650037844904699649074520057799490814009') Decimal('0.99673157641230303447326773549852060827083189981421592238354090690153443886327668065781325259753664074864102387669441959677974265464804238629326360696346246473542971169063510630977774719603660634418220601389940136241656918736668272208078166930434184270281428473130117663249157090758962361522053258102250051606688226794192527351544760200922039496318722906488680933048923140439000894515929264432670474093442510149315351269524530379137136172848001100942682171609440583499621550953003509254799422005091860')) (Decimal('0.000070488059322750726027011024332478078213550624524205599571432599317675585755772972058533284461612202892829954605689796148532438604900329884117630473397806411593875997406039416922773282205994304564806721741337017509233935771280345109538444187554628245975131812670933543857670510615501734006259339667860264471198578960724053345363295457749457241943214819409592015112639918797755660191163616883299968985253897989680548115149293709645586037725209349536188569656300222742267459892294245354836890630727154820') Decimal('0.99992951194067724927397298897566752192178644937547579440042856740068232441424422702794146671553838779710717004539431020385146756139509967011588236952660219358840612400259396058307722671779400569543519327825866298249076606422871965489046155581244537175402486818732906645614232948938449826599374066033213973552880142103927594665463670454225054275805678518059040798488736008120224433980883638311670003101474610201031945188485070629035441396227479065046381143034369977725773254010770575464516310936927285')) (Decimal('0.48478597215059308922124806601340897369778236204228984012377514182568334192882929345023207839092315626611655492521918514698298091799896854048478597215059308922124806601340897369778236204228984012377514182568334192882929345023207839092315626611655492521918514698298091799896854048478597215059308922124806601340897369778236204228984012377514182568334192882929345023207839092315626611655492521918514698298091799896854048478597215059308922124806601340897369778236204228984012377514182568334192882929345023') Decimal('0.51521402784940691077875193398659102630221763795771015987622485817431665807117070654976792160907684373388344507478081485301701908200103145951521402784940691077875193398659102630221763795771015987622485817431665807117070654976792160907684373388344507478081485301701908200103145951521402784940691077875193398659102630221763795771015987622485817431665807117070654976792160907684373388344507478081485301701908200103145951521402784940691077875193398659102630221763795771015987622485817431665807117070654977')) (Decimal('0.000060116566021515718979100475822620060296915719580266136037777250087920477806466739006934445890581838184239239886139223955249228253583698791957605797641627114975938344449888333478615034551996320866159483237998479050879655652309828757961687712474488032294619266758244235572775611911496391503124558518968279493938747230880677633932194525184332420563472573319666833991108759885417825162991039625834493082086165074078638480012744711996561332423569300874395452782946132551016420840008777018639141294970948669') Decimal('0.99993988343397848428102089952417737993970308428041973386396222274991207952219353326099306555410941816181576076011386077604475077174641630120804239420235837288502406165555011166652138496544800367913384051676200152094912034434769017124203831228752551196770538073324175576442722438808850360849687544148103172050606125276911932236606780547481566757943652742668033316600889124011458217483700896037416550691791383492592136151998725528800343866757643069912560454721705386744898357915999122298136085870502905')));
}

potential ( J | E M )
{
	data = ((Decimal('0.87136435351456196326477497133770969540557971916179779763425682741929202480677294431774250387308993262580774466007521060965427626173444138692239667089991517671833636183161296266920724901854808758170058806375899169529729467874013205075718789449237587827241666563764215973563252236703499411556293498053243944349088173468835280406011909454708831974862672721763488374081120693176237702761363517630039410055500832559981838509009980271225530193003836519984764104838916503685015915051335657978850221841852548') Decimal('0.12863564648543803673522502866229030459442028083820220236574317258070797519322705568225749612691006737419225533992478939034572373826555861307760332910008482328166363816838703733079275098145191241829941193624100830470270532125986794924281210550762412172758333436235784026436747763296500588443706501946756055650911826531164719593988090545291168025137327278236511625918879306823762297238636482369960589944499167440018161490990019728774469806996163480015235895161083496314984084948664342021149778158147452')) (Decimal('0.14388663878377279418973794994607601344033514194662931382392127325970688760173924807389904244072351625433880984175457023836758146170104906664761529814758375698560734977476570236847525462838050953797137886559740860853313836081721250610872504543067366601785609781864363883165455815392239050086605190535219317479655950525217349007137422942661207638889416686110716318789184193545690223227823713025587862656860278732668511507963953392042962862751863778661605893561118791616283143871020208384476884128411291') Decimal('0.85611336121622720581026205005392398655966485805337068617607872674029311239826075192610095755927648374566119015824542976163241853829895093335238470185241624301439265022523429763152474537161949046202862113440259139146686163918278749389127495456932633398214390218135636116834544184607760949913394809464780682520344049474782650992862577057338792361110583313889283681210815806454309776772176286974412137343139721267331488492036046607957037137248136221338394106438881208383716856128979791615523115871588709')) (Decimal('0.15175640836803255626477895837945441443793432828448982219827110993119543196232815395430021935259673079077184419350656337896490623051338385998830472282810500347947725815428063902429989301379178349448884318185626804234642892737726794444478744318838304414129235458739750095035151981273444576645960322493299029538953828351080578342922108219239701144214409886830994424898416022000527434068536441019552986396963814318511965609181939175738738444739815362796141440530044778976019389816994490166177011459784034') Decimal('0.84824359163196744373522104162054558556206567171551017780172889006880456803767184604569978064740326920922815580649343662103509376948661614001169527717189499652052274184571936097570010698620821650551115681814373195765357107262273205555521255681161695585870764541260249904964848018726555423354039677506700970461046171648919421657077891780760298855785590113169005575101583977999472565931463558980447013603036185681488034390818060824261261555260184637203858559469955221023980610183005509833822988540215966')) (Decimal('0.050500115261828234963474729773445647137132566699305725376806953324163567351914950031107190526542794818804066817207484915295983484104260536580299139415773492437643684709302447310384885901713901055920936545670523282631379139863651492897841364585952719194482312960943005309326667921493783583832975733903178182952276444624269956583447029914942930602305181945430920690000362004373000688233125232909456455440705731925050347586403358502397922428683393736681053483096535035544854359693310380698424473826036963') Decimal('0.94949988473817176503652527022655435286286743330069427462319304667583643264808504996889280947345720518119593318279251508470401651589573946341970086058422650756235631529069755268961511409828609894407906345432947671736862086013634850710215863541404728080551768703905699469067333207850621641616702426609682181704772355537573004341655297008505706939769481805456907930999963799562699931176687476709054354455929426807494965241359664149760207757131660626331894651690346496445514564030668961930157552617396304')));
}

potential ( M | E )
{
	data = ((Decimal('0.2105554') Decimal('0.7894446')) (Decimal('0.01133791') Decimal('0.98866209')));
}

