net
{
	propagationenginegenerator1791944048146838126L = "edu.ucla.belief.approx.BeliefPropagationSettings@36f3f021";
	recoveryenginegenerator6944530267470113528l = "edu.ucla.util.SettingsImpl@b1cbc13";
	node_size = (130 55);
}

node A
{
	states = ("On" "Off");
	ID = "A";
	position = (310 252);
	label = "Alarm";
}

node E
{
	states = ("Present" "Absent");
	ID = "E";
	position = (442 130);
	label = "Earthquake";
}

node B
{
	states = ("Present" "Absent");
	ID = "B";
	position = (169 128);
	label = "Burglary";
}

node J
{
	states = ("Present" "Absent");
	ID = "J";
	position = (179 367);
	label = "JohnCalls";
}

node M
{
	states = ("Present" "Absent");
	ID = "M";
	position = (446 365);
	label = "MaryCalls";
}

potential ( A | J M E )
{
	data = ((Decimal('0.99806688237077062047096734422711186165272264250481289986339491036350427401205218474667885246056218202307979044257094888349062385897850482423683767747474566343019669595875565152255837138259906348961770251092723532021256608761072013387222477818910040400506958967293210727590113002926301982002880354533348064132609460258100390760431365330889488646320031774050614248712612988891345838924378402693359863306612775341993727927987539357151044525039915142747495005599538715957941351542839564317898133688762012') Decimal('0.0019331176292293795290326557728881383472773574951871001366050896364957259879478152533211475394378179769202095574290511165093761410214951757631623225252543365698033040412443484774416286174009365103822974890727646797874339123892798661277752218108995959949304103270678927240988699707369801799711964546665193586739053974189960923956863466911051135367996822594938575128738701110865416107562159730664013669338722465800627207201246064284895547496008485725250499440046128404205864845716043568210186631123798833')) (Decimal('0.70996724690013748107128877389027842314354784855636157260212350281195431478719202975937761264163296477014856150512568141180942351231445068160796187145127529603763337276724027454368402194466408675343288578609619141689195138557730280794408696266216358765442646331905634108556867210023477268546649846957501174735215989998840521085516364780784383126704891693336134680886120863035899385127459860670736757312345312000083691711120623294018570841982203306345662459124009321164326059419371318327525767893244248') Decimal('0.29003275309986251892871122610972157685645215144363842739787649718804568521280797024062238735836703522985143849487431858819057648768554931839203812854872470396236662723275972545631597805533591324656711421390380858310804861442269719205591303733783641234557353668094365891443132789976522731453350153042498825264784010001159478914483635219215616873295108306663865319113879136964100614872540139329263242687654687999916308288879376705981429158017796693654337540875990678835673940580628681672474232106755752')) (Decimal('0.69088681952624043571237848788979151695128106189838184574013344246214891329409238604661849891887994536164238339234793604713350664003416481990179991236945544668204294847466597787685293835674505612395681224482357816272183957588718003164524366599926948135553201486074587379775409094402499926710439681899538632313802920014546987323679183467142903550146301808786348650719386554495343934040980352851597752030913140382389271359152915300245539835054911707868604891622567479877063695362632782856106050389940077') Decimal('0.30911318047375956428762151211020848304871893810161815425986655753785108670590761395338150108112005463835761660765206395286649335996583518009820008763054455331795705152533402212314706164325494387604318775517642183727816042411281996835475633400073051864446798513925412620224590905597500073289560318100461367686197079985453012676320816532857096449853698191213651349280613445504656065959019647148402247969086859617610728640847084699754460164945088292131395108377432520122936304637367217143893949610059923')) (Decimal('0.010485794020393490371483182846776808062650861725148357221096941679462958621672389509122613758562294350136290987003077329080611096284627387931386458291929588893602719276258491316502525324220048091885623186853983290327517476098040822131677021320663855132725871114503626900414970296108764560936442514568034227275664710922774209056665198439190371239830226396350575948054490437188390349500329472408815097163941522906106176911406396983292761043679902615689159749368432352162607139371020001692652670646293185') Decimal('0.98951420597960650962851681715322319193734913827485164277890305832053704137832761049087738624143770564986370901299692267091938890371537261206861354170807041110639728072374150868349747467577995190811437681314601670967248252390195917786832297867933614486727412888549637309958502970389123543906355748543196577272433528907722579094333480156080962876016977360364942405194550956281160965049967052759118490283605847709389382308859360301670723895632009738431084025063156764783739286062897999830734732935370681')) (Decimal('0.75120002156180577169665936002049848384322942684363592595587287838661573059262106270904152235209764248975352714590733666286012184635515026252606154049502804696190833795767609515697474573498990028772457599115079861753380939142172418389118967632554339258030203511694510563623387618133035603193362508228745653025501635042069519839999586485916707187354739332905789307928800259037036462711921352575029730554961744409160370730144032124136927804502356107252261682049759774162237081653893881209956976074887400') Decimal('0.24879997843819422830334063997950151615677057315636407404412712161338426940737893729095847764790235751024647285409266333713987815364484973747393845950497195303809166204232390484302525426501009971227542400884920138246619060857827581610881032367445660741969796488305489436376612381866964396806637491771254346974498364957930480160000413514083292812645260667094210692071199740962963537288078647424970269445038255590839629269855967875863072195497643892747738317950240225837762918346106118790043023925112600')) (Decimal('0.014113094727792632648455371016187011554530921563873971197453924093843501657090270412946573051433979534504946523765300472029105437440689623225705692428844054566404460623836635391634219528860956382863627296178832551869106427322527157933307647008760610230959084762739516701630533986662278051881349976310942265089836195871620851964886853230625467548902320342295316585163449299411649380733769668117678858104753725561187357025371804869126859232304003526142108663550861080222072503749619371197318751153844014') Decimal('0.98588690527220736735154462898381298844546907843612602880254607590615649834290972958705342694856602046549505347623469952797089456255931037677429430757115594543359553937616336460836578047113904361713637270382116744813089357267747284206669235299123938976904091523726048329836946601333772194811865002368905773491016380412837914803511314676937453245109767965770468341483655070058835061926623033188232114189524627443881264297462819513087314076769599647385789133644913891977792749625038062880268124884615599')) (Decimal('0.012901897594550255501161663493422478021031966264551754493392338378608861525388165525140656473371537142626070151504747171234760782013194061256448451956500017821894599229090978175214658395117750789012782004849064532525490302958447819956163021996745540054230937752583187077648285820043963040719722232345216179581488648873565265353806332778317070725045718819152779534197374885972056068257456820523400857821274938834059251873706997133271683930230678347472258323457310836346668741670816600986067894804569276') Decimal('0.98709810240544974449883833650657752197896803373544824550660766162139113847461183447485934352662846285737392984849525282876523921798680593874355154804349998217810540077090902182478534160488224921098721799515093546747450969704155218004383697800325445994576906224741681292235171417995603695928027776765478382041851135112643473464619366722168292927495428118084722046580262511402794393174254317947659914217872506116594074812629300286672831606976932165252774167654268916365333125832918339901393210519543072')) (Decimal('0.000061966399967574219668334447527447723651753708960280875059587732299917433367308806296128825569724522137150443970480491763688331014384358854855623585100201178759119069615186914494918385289776178210201907447550663552046000378314618966553303255170890348207017956212084219138200550744515829392771768367673054638176488830283964607138049587938859910311353883755383133257575068422658087970930478401843785144070769387013942521485391108819011225037585585677083115703251360228392490901425396096842566325064290100') Decimal('0.99993803360003242578033166555247255227634824629103971912494041226770008256663269119370387117443027547786284955602951950823631166898561564114514437641489979882124088093038481308550508161471022382178979809255244933644795399962168538103344669674482910965179298204378791578086179944925548417060722823163232694536182351116971603539286195041206114008968864611624461686674242493157734191202906952159815621485592923061298605747851460889118098877496241441432291688429674863977160750909857460390315743367493571')));
}

potential ( E | J M )
{
	data = ((Decimal('0.17606683840507922901303405109393109186241977106745104115887009405980879982040057719123940851868018043061123606540692882670889612618100179585459948694914957015174546985885164038887670795953495401907105678327212168224313513933626107126990257976742163791863564005857781584372247653679195226079526398442104876127313759211175830588252238092085358663979309682330495620657140570482896048456333390401765603367410774525610521749956960683405977000130270605472542244643924730148260397565263174464805576945188384') Decimal('0.82393316159492077098696594890606890813758022893254895884112990594019120017959942280876059148131981956938876393459307117329110387381899820414540051305085042984825453014114835961112329204046504598092894321672787831775686486066373892873009742023257836208136435994142218415627752346320804773920473601557895123872686240788824169411747761907914641336020690317669504379342859429517103951543666609598234396632589225474389478250043039316594022999869729394527457755356075269851739602434736825535194423054811616')) (Decimal('0.0045386400007529128711820210595888670490043635192174272264343093177993832667544233009514229785089665473615990783375810025771747069975194239151240628435853057091277136960610527169602300970951166142988318482113583936542400820178918075362664820515714358336838935402740507879334947247927186287161183033994083919472924727571124702433309686184297426954694945774724839445745274871057579994804814164354234632145177359469447027578930529466171395215650559622516128829011452127804146331047446255477159342122611300') Decimal('0.99546135999924708712881797894041113295099563648078257277356569068220061673324557669904857702149103345263840092166241899742282529300248057608487593715641469429087228630393894728303976990290488338570116815178864160634575991798210819246373351794842856416631610645972594921206650527520728137128388169660059160805270752724288752975666903138157025730453050542252751605542547251289424200051951858356457653678548226405305529724210694705338286047843494403774838711709885478721958536689525537445228406578773887')) (Decimal('0.0056121515205578851163115156240524921020545432106340744100699134976482254533417243776454714742712303548292300807501872273547233710782676060617307134234838399442113773066003528100966539716960539925455667639291990472333175580840775947746971866800491854623187698551540488751475598333048940247546091516992958933509910262230885966715460017778676836806079905014294125221871018862927110273114861955612320916386925253577135751991185446050844184660526522801314036842240902726815762161578202775494666665953740967') Decimal('0.99438784847944211488368848437594750789794545678936592558993008650235177454665827562235452852572876964517076991924981277264527662892173239393826928657651616005578862269339964718990334602830394600745443323607080095276668244191592240522530281331995081453768123014484595112485244016669510597524539084830070410664900897377691140332845399822213231631939200949857058747781289811370728897268851380443876790836130747464228642480088145539491558153394734771986859631577590972731842378384217972245053333340462590')) (Decimal('0.0014407327765951659016434147659807083790001329929347481163885760260390677941462335251419081631143779105685204294940807411830974411279182140433730884432008108082846523419377206028646787827580587587299107482237489186220078574752897379052483120187966111341329650636531429529694190692390597853224368304538725828489452092277209740772463774726832682864610596740837655732351392168773952367435010567731885498204100695698038987444601822488880783782045213484233156661086482357945039397151839033252237325751989510') Decimal('0.99855926722340483409835658523401929162099986700706525188361142397396093220585376647485809183688562208943147957050591925881690255887208178595662691155679918919171534765806227939713532121724194124127008925177625108137799214252471026209475168798120338886586703493634685704703058093076094021467756316954612741715105479077227902592275362252731673171353894032591623442676486078312260476325649894322681145017958993043019610125553981775111192162179547865157668433389135176420549606028481609667477626742480105')));
}

potential ( B | E A )
{
	data = ((Decimal('0.0032684235876969655267322645014793917291681001857840776164590930984655611367233193421867474024633592513589761233055804032202573453519576137067363930365375352645702883093648936902222528039633936558177939861005986375834308126333172779192183306956581572971857152686988233675084290924103763847794674189774994839331177320580747264845523979907796050368127709351131906695107685956099910548407073556732952590655748985068464873047546962086286382715199889905731782839055941650037844904699649074520057799490814009') Decimal('0.99673157641230303447326773549852060827083189981421592238354090690153443886327668065781325259753664074864102387669441959677974265464804238629326360696346246473542971169063510630977774719603660634418220601389940136241656918736668272208078166930434184270281428473130117663249157090758962361522053258102250051606688226794192527351544760200922039496318722906488680933048923140439000894515929264432670474093442510149315351269524530379137136172848001100942682171609440583499621550953003509254799422005091860')) (Decimal('0.000070488059322750726027011024332478078213550624524205599571432599317675585755772972058533284461612202892829954605689796148532438604900329884117630473397806411593875997406039416922773282205994304564806721741337017509233935771280345109538444187554628245975131812670933543857670510615501734006259339667860264471198578960724053345363295457749457241943214819409592015112639918797755660191163616883299968985253897989680548115149293709645586037725209349536188569656300222742267459892294245354836890630727154820') Decimal('0.99992951194067724927397298897566752192178644937547579440042856740068232441424422702794146671553838779710717004539431020385146756139509967011588236952660219358840612400259396058307722671779400569543519327825866298249076606422871965489046155581244537175402486818732906645614232948938449826599374066033213973552880142103927594665463670454225054275805678518059040798488736008120224433980883638311670003101474610201031945188485070629035441396227479065046381143034369977725773254010770575464516310936927285')) (Decimal('0.48478597215059308922124806601340897369778236204228984012377514182568334192882929345023207839092315626611655492521918514698298091799896854048478597215059308922124806601340897369778236204228984012377514182568334192882929345023207839092315626611655492521918514698298091799896854048478597215059308922124806601340897369778236204228984012377514182568334192882929345023207839092315626611655492521918514698298091799896854048478597215059308922124806601340897369778236204228984012377514182568334192882929345023') Decimal('0.51521402784940691077875193398659102630221763795771015987622485817431665807117070654976792160907684373388344507478081485301701908200103145951521402784940691077875193398659102630221763795771015987622485817431665807117070654976792160907684373388344507478081485301701908200103145951521402784940691077875193398659102630221763795771015987622485817431665807117070654976792160907684373388344507478081485301701908200103145951521402784940691077875193398659102630221763795771015987622485817431665807117070654977')) (Decimal('0.000060116566021515718979100475822620060296915719580266136037777250087920477806466739006934445890581838184239239886139223955249228253583698791957605797641627114975938344449888333478615034551996320866159483237998479050879655652309828757961687712474488032294619266758244235572775611911496391503124558518968279493938747230880677633932194525184332420563472573319666833991108759885417825162991039625834493082086165074078638480012744711996561332423569300874395452782946132551016420840008777018639141294970948669') Decimal('0.99993988343397848428102089952417737993970308428041973386396222274991207952219353326099306555410941816181576076011386077604475077174641630120804239420235837288502406165555011166652138496544800367913384051676200152094912034434769017124203831228752551196770538073324175576442722438808850360849687544148103172050606125276911932236606780547481566757943652742668033316600889124011458217483700896037416550691791383492592136151998725528800343866757643069912560454721705386744898357915999122298136085870502905')));
}

potential ( J |  )
{
	data = ((Decimal('0.0521389757000') Decimal('0.9478610243000')));
}

potential ( M | J )
{
	data = ((Decimal('0.039972021141949668182683535150461346711880264268406024708306649760286717715476715818949239541734994230045834981756267988977773493160511014795405733296751359079729677159729856373070251934389267259809248611686861351209858923254604712152026415816220187079739658176675687934544521556452441009499923873648327157297798621694058328038845611614115388154815630564832902921796371231742475523929404696763154861901132438242356955240300204056367758678465944623457572067339251545749104541767973397298635462069501300') Decimal('0.96002797885805033181731646484953865328811973573159397529169335023971328228452328418105076045826500576995416501824373201102222650683948898520459426670324864092027032284027014362692974806561073274019075138831313864879014107674539528784797358418377981292026034182332431206545547844354755899050007612635167284270220137830594167196115438838588461184518436943516709707820362876825752447607059530323684513809886756175764304475969979594363224132153405537654242793266074845425089545823202660270136453793049870')) (Decimal('0.010183185607962127069813308284164670447247548039094954481714730423903980329534898041276070644315446403148407206851748171411757034727986546666575495776506737412855134737709670377465693627634900949054668287830769074486988587953484015831792230387629411464977777755430385407819959456054194884991643600383453386817352650165299132450043921486307283328181046720142051103007886385143349964833024942008895723301026124911843787899487323608058603871428327491363862380515860609798891590525334780346870308590659919') Decimal('0.98981681439203787293018669171583532955275245196090504551828526957609601967046510195872392935568455359685159279314825182858824296527201345333342450422349326258714486526229032962253430637236509905094533171216923092551301141204651598416820776961237058853502222224456961459218004054394580511500835639961654661318264734983470086754995607851369271667181895327985794889699211361485665003516697505799110427669897387508815621210051267639194139612857167250863613761948413939020110840947466521965312969140934008')));
}

