net
{
	propagationenginegenerator1791944048146838126L = "edu.ucla.belief.approx.BeliefPropagationSettings@36f3f021";
	recoveryenginegenerator6944530267470113528l = "edu.ucla.util.SettingsImpl@b1cbc13";
	node_size = (130 55);
}

node A
{
	states = ("On" "Off");
	ID = "A";
	position = (310 252);
	label = "Alarm";
}

node E
{
	states = ("Present" "Absent");
	ID = "E";
	position = (442 130);
	label = "Earthquake";
}

node B
{
	states = ("Present" "Absent");
	ID = "B";
	position = (169 128);
	label = "Burglary";
}

node J
{
	states = ("Present" "Absent");
	ID = "J";
	position = (179 367);
	label = "JohnCalls";
}

node M
{
	states = ("Present" "Absent");
	ID = "M";
	position = (446 365);
	label = "MaryCalls";
}

potential ( A | M J B )
{
	data = ((Decimal('0.99994936196669003490613533889887925824449741110310894729809958449627879683560076285631534874923466750339586350924204893808802234233103701643611953000543240228636714559822521375911178559448080219965267948730266089103791066427694772846377022631891434893258858671410308400819333172239436545757372836019780340350058242180792840312278115628259696757033296102531227955085094437399377170763757466344998930252550732631369858084674389932004045842093186847639579585115619597705730687149669529845869409695780238') Decimal('0.000050638033309965093864661101120741755502588896891052701900415503721203164399237143684651250765332496604136490757951061911977657668962983563880469994567597713632854401774786240888214405519197800347320512697339108962089335723052271536229773681085651067411413285896915991806668277605634542426271639802196596499417578192071596877218843717403032429667038974687720449149055626006228292362425336550010697474492673686301419153256100679959541579068131523604204148843804022942693128503304701541305903042197623781')) (Decimal('0.66571087440260193350391167247351761240324612231149943985037677009624662922514532752179494305089694251384972454566943739281655819696775908677866087744944088831091953599656075497321125442042761547687047452340407579999611611737628996799814645049958114334808092672117941461853241468348700339036167652480896989388295183115021183901172597734892868454904439746583355152271636072162539148532394594438949717782356592656381520486476387667735180811477007080050169049339371654754977229064031162131340856905041079') Decimal('0.33428912559739806649608832752648238759675387768850056014962322990375337077485467247820505694910305748615027545433056260718344180303224091322133912255055911168908046400343924502678874557957238452312952547659592420000388388262371003200185354950041885665191907327882058538146758531651299660963832347519103010611704816884978816098827402265107131545095560253416644847728363927837460851467605405561050282217643407343618479513523612332264819188522992919949830950660628345245022770935968837868659143094958921')) (Decimal('0.99141480168886479544368710469494227994336701108809075501260260284542047673983945749972013467887657916738296619874792097356670158642580118699056413164683904361544711931573945992547069730987275958958711164072494685572253391191753171292191298004059290165118279446766150564378741927410996424503937776635381515569777920275975080159002676009673471374109346507318459313910353600604840562647569631471235796364116308863436420701084099566664522162546079843956438341262725208716249108612002101513593017213336927') Decimal('0.0085851983111352045563128953050577200566329889119092449873973971545795232601605425002798653211234208326170338012520790264332984135741988130094358683531609563845528806842605400745293026901272404104128883592750531442774660880824682870780870199594070983488172055323384943562125807258900357549606222336461848443022207972402491984099732399032652862589065349268154068608964639939515943735243036852876420363588369113656357929891590043333547783745392015604356165873727479128375089138799789848640698278666307274')) (Decimal('0.011511683274678913558055369674999731644174974667731196880527674051158937619411828645374186504067701120184953961083090362753503763078177835809797311626977274378146602318239994313982985094318995767689937823779119082141790046948200239092013115773705276938521712695856763228561313678362151969851603918474438299993465665930451132716910450130160391326364558105497500955919924289266110911306159188258541609586774757961283601666578256883535343608530234426269315236180743223702770547223903281851048656402308214') Decimal('0.98848831672532108644194463032500026835582502533226880311947232594884106238058817135462581349593229887981504603891690963724649623692182216419020268837302272562185339768176000568601701490568100423231006217622088091785820995305179976090798688422629472306147828730414323677143868632163784803014839608152556170000653433406954886728308954986983960867363544189450249904408007571073388908869384081174145839041322524203871639833342174311646465639146976557373068476381925677629722945277609671814895134359769179')) (Decimal('0.98843728236002956836703470567803076638361275954251048615008014233194032068849851509735724833327433212678786799665901286658588758903194442156443860585640134466670568924683733086953641525259468028765015953108411387256230089283429762334961649799915809367452153818598979547845129894369146832038286058178461007855105187467863327969481070952514310129268722689305371201125532719557217559179670591006323410498733109736285636874796051522423905092411662049968297074463144516620639883857585341156075482755466170') Decimal('0.011562717639970431632965294321969233616387240457489513849919857668059679311501484902642751666725667873212132003340987133414112410968055578435561394143598655333294310753162669130463584747405319712349840468915886127437699107165702376650383502000841906325478461814010204521548701056308531679617139418215389921448948125321366720305189290474856898707312773106946287988744672804427824408203294089936765895012668902637143631252039484775760949075883379500317029255368554833793601161424146588439245172445338303')) (Decimal('0.0085471921823704321315205967651748319675098367637954372004352676576522737174201490215775979067864958696695825940601889156964111000835761567642431988525746565821594786176658943379997439814424461074617132191336498117505295955105394607108107898280829969554013145054373250141144222403212617634478802728673952061698666879955281610483111351281473988027070080656678572673070260122437534992663389219885456069616826160691185107736328329175589551337408084733837293887457636421510541988397556737991366505370160766') Decimal('0.99145280781762956786847940323482516803249016323620456279956473234234772628257985097842240209321350413033041740593981108430358889991642384323575680114742534341784052138233410566200025601855755389253828678086635018824947040448946053928918921017191700304459868549456267498588557775967873823655211972713260479383013331200447183895168886487185260119729299193433214273269297398775624650073366107801145439303831738393088148922636716708244104486625919152661627061125423635784894580116024432620086334946298392')) (Decimal('0.33329397711595511689328402105663997889655803286988728166606568659048579400104879000905192999698978121134182363947152045831910659259188347155875085493404642544496458472276735901698805804722958821696125327215037053346820815397003183598881432481218043017409275941331580386137676557841407208144396897879125355934438923937195986516772662533200160403177855001058363143008793455380154467834801745714161111589767808954284030629773935760016423243143774644171929231139064662265152409611001020070607181339621819') Decimal('0.66670602288404488310671597894336002110344196713011271833393431340951420599895120999094807000301021878865817636052847954168089340740811652844124914506595357455503541527723264098301194195277041178303874672784962946653179184602996816401118567518781956982590724058668419613862323442158592791855603102120874644065561076062804013483227337466799839596822144998941636856991206544619845532165198254285838888410232191045715969370226064239983576756856225355828070768860935337734847590388998979929392818660378181')) (Decimal('0.000050411940790811348463924683257031921847230753729724085001471003181041383996004844108309038883027036546807357640009653407460482285670494961590078485353879221366297963379635295293549833387098083494230645689076074580115255305955004429302375699129039799450948793457764507020720524835457006621953447562893664186070128434194864136896442919081771608625575075891774533764063433977642342595351813961077132195797792875142398158702904213699322234457713529622799170165784075939397524978805181224266249649380638991') Decimal('0.99994958805920918865153607531674296807815276924627027591499852899681895861600399515589169096111697296345319264235999034659253951771432950503840992151464612077863370203662036470470645016661290191650576935431092392541988474469404499557069762430087096020054905120654223549297927947516454299337804655243710633581392987156580513586310355708091822839137442492410822546623593656602235765740464818603892286780420220712485760184129709578630067776554228647037720082983421592406060247502119481877573375035061936')));
}

potential ( E | B A )
{
	data = ((Decimal('0.0020212335907746643688432161017850684027999404267994297993659709367885789664049701070189995957532818450671262313567796429863194400119146401140401268058126422842067190059785962000808493436309865747537286440714027361119976170719771919746388374715431586561988042807599838301312738026850492542711857194527776004765856045616050722325056913682687602391438480032339737452394629901491457628561094444799046828790876789855534988617263462479521712303993532052509521074019701708474287781111040190634241824642028893') Decimal('0.99797876640922533563115678389821493159720005957320057020063402906321142103359502989298100040424671815493287376864322035701368055998808535988595987319418735771579328099402140379991915065636901342524627135592859726388800238292802280802536116252845684134380119571924001616986872619731495074572881428054722239952341439543839492776749430863173123976085615199676602625476053700985085423714389055552009531712091232101444650113827365375204782876960064679474904789259802982915257122188889598093657581753579711')) (Decimal('0.0016672224074691563854618206068689563187729243081027009003001000333444481493831277092364121373791263754584861620540180060020006668889629876625541847282427475825275091697232410803601200400133377792597532510836945648549516505501833944648216072024008002667555851950650216738912970990330110036678892964321440480160053351117039013004334778259419806602200733577859286428809603201067022340780260086695565188396132044014671557185728576192064021340446815605201733911303767922640880293431143714571523841280426809') Decimal('0.99833277759253084361453817939313104368122707569189729909969989996665555185061687229076358786262087362454151383794598199399799933311103701233744581527175725241747249083027675891963987995998666222074024674891630543514504834944981660553517839279759919973324441480493497832610870290096698899633211070356785595198399466488829609869956652217405801933977992664221407135711903967989329776592197399133044348116038679559853284428142714238079359786595531843947982660886962320773591197065688562854284761587195732')) (Decimal('0.36755386565272496831432192648922686945500633713561470215462610899873257287705956907477820025348542458808618504435994930291508238276299112801013941698352344740177439797211660329531051964512040557667934093789607097591888466413181242078580481622306717363751584283903675538656527249683143219264892268694550063371356147021546261089987325728770595690747782002534854245880861850443599493029150823827629911280101394169835234474017743979721166032953105196451204055766793409378960709759188846641318124207858048') Decimal('0.63244613434727503168567807351077313054499366286438529784537389100126742712294043092522179974651457541191381495564005069708491761723700887198986058301647655259822560202788339670468948035487959442332065906210392902408111533586818757921419518377693282636248415716096324461343472750316856780735107731305449936628643852978453738910012674271229404309252217997465145754119138149556400506970849176172370088719898605830164765525982256020278833967046894803548795944233206590621039290240811153358681875792141952')) (Decimal('0.0014222443015077792756970499448129147795220858514736253808509828509387813970445362782470738825867218470746838511170627249800184691443097207393266574654805282736157656782402631352273888195572613584235924288527296073203515146901811057849286173581912257542401910214318194110306062967362498021878524311363331336849548587671345383014396718021037196696386898525873828902007367626114007904473258802390171690928284833467211259367281570317961743631450428776609489774864736554282658034378248876727475957060241060') Decimal('0.99857775569849222072430295005518708522047791414852637461914901714906121860295546372175292611741327815292531614888293727501998153085569027926067334253451947172638423432175973686477261118044273864157640757114727039267964848530981889421507138264180877424575980897856818058896939370326375019781214756886366686631504514123286546169856032819789628033036131014741261710979926323738859920955267411976098283090717151665327887406327184296820382563685495712233905102251352634457173419656217511232725240429397589')));
}

potential ( B | M J )
{
	data = ((Decimal('0.28417183536439295039109680750821122092870697089344751041986709354242341699573117317799031258591972168570918723453972983302364085569302600132756858246298584105675542797152378235488509053426580409312068602473779573325023739417171095099135488367457550106830538106377521508455620881486785338831296012341179910012955955522060664184780605459159970855893174723636697399754964473184343797774498503860111116277262707995879654999646108672606893741640226355734322239574389300763378493139743841274997329914897630') Decimal('0.71582816463560704960890319249178877907129302910655248958013290645757658300426882682200968741408027831429081276546027016697635914430697399867243141753701415894324457202847621764511490946573419590687931397526220426674976260582828904900864511632542449893169461893622478491544379118513214661168703987658820089987044044477939335815219394540840029144106825276363302600245035526815656202225501496139888883722737292004120345000353891327393106258359773644265677760425610699236621506860256158725002670085102370')) (Decimal('0.0068762460734210261981586444731861777809431945898894401024181407047063602839492070023962936726782278344220447279684243970000677379218559124598144086781812777907057837625130728126861531680674983415238704005837433416981775224134880854240038586688381195492937615308235790205601874304981426081723925901849446276903102409636672514622057488917126495394155691974905757313515264500689063081020771642698652537202589359829826552882264923497757794784453652924630084242494033129697244588340468811160659731555805978') Decimal('0.99312375392657897380184135552681382221905680541011055989758185929529363971605079299760370632732177216557795527203157560299993226207814408754018559132181872220929421623748692718731384683193250165847612959941625665830182247758651191457599614133116188045070623846917642097943981256950185739182760740981505537230968975903633274853779425110828735046058443080250942426864847354993109369189792283573013474627974106401701734471177350765022422052155463470753699157575059668703027554116595311888393402684441940')) (Decimal('0.0051298581334013000831987026567421869546543031803468939610793530888333698974938300666087836458157320196873439185321000912838531295531895200213691727358985786849084175368976451442578887370533497929703299716696502200892769892811301185229014229072082197743378778596537960927801737838390343727799770581472948677645697039605706032464760306238812879343066237261534758051687803399207822074577032179582671322471358091308866916691178459747761432952973699538339163025092877475614183108875241158998275906228810026') Decimal('0.99487014186659869991680129734325781304534569681965310603892064691116663010250616993339121635418426798031265608146789990871614687044681047997863082726410142131509158246310235485574211126294665020702967002833034977991072301071886988147709857709279178022566212214034620390721982621616096562722002294185270513223543029603942939675352396937611871206569337627384652419483121966007921779254229678204173286775286419086911330833088215402522385670470263004616608369749071225243858168911247588410017240937711900')) (Decimal('0.000090184393754843476998676108484527467161069003231915427635706738522897506553496334142270426585371816840329474668298561785703674343673612162913315481704159843219048206796359611127487624350757026957991001628096074434509522310821584231041110749239769255212830391065897083653449303566708406707639644299714486935598800022527044364191972883273017378416988022518710300207115139544247045459341093618383556680963003241458350485148020639873224275500909195814497659416695575800050335201320752747360189873287951680') Decimal('0.99990981560624515652300132389151547253283893099676808457236429326147710249344650366585772957341462818315967052533170143821429632565632638783708668451829584015678095179320364038887251237564924297304200899837190392556549047768917841576895888925076023074478716960893410291634655069643329159329236035570028551306440119997747295563580802711672698262158301197748128969979288486045575295454065890638161644331903699675854164951485197936012677572449909080418550234058330442419994966479867924725263981012671205')));
}

potential ( J | M )
{
	data = ((Decimal('0.17757660008729566161747232484640205250681034428829477028545900838030751205815355983170835525320422201836129053527531873896910620635147689736707108962299777251435224938318062289951534809093520698468766380791918405247832106584856029001969572302057535462799594699712039309873796841987512878988327079662922451006548377721596251169501665415428168506341912250094747981751981527046080405860735017351202639921036131642408486871182615833434712141530795390781023207448355015890134476943434224102025330887981447') Decimal('0.82242339991270433838252767515359794749318965571170522971454099161969248794184644016829164474679577798163870946472468126103089379364852310263292891037700222748564775061681937710048465190906479301531233619208081594752167893415143970998030427697942464537200405300287960690126203158012487121011672920337077548993451622278403748830498334584571831493658087749905252018248018472953919594139264982648797360078963868357591513128817384166565287858469204609218976792551644984109865523056565775897974669112018553')) (Decimal('0.050649313274590689803833963927291569496658428271417946089064300435311176136790921929901572229125403337247580893031069104873009437853443888152429446812906836145605155617189925787219405012173205843289396171443957510074698487013069432630039006491035248959124470706976986405374242232850822744607544577876689301543186078181875744925945379526763121132350797194249730914282186550424498074849782913956300802867099249888591739217838750951175296415182337219207310882656970504846564037511901334922371473128345057') Decimal('0.94935068672540931019616603607270843050334157172858205391093569956468882386320907807009842777087459666275241910696893089512699056214655611184757055318709316385439484438281007421278059498782679415671060382855604248992530151298693056736996099350896475104087552929302301359462575776714917725539245542212331069845681392181812425507405462047323687886764920280575026908571781344957550192515021708604369919713290075011140826078216124904882470358481766278079268911734302949515343596248809866507762852687165494')));
}

potential ( M |  )
{
	data = ((Decimal('0.0117363449800') Decimal('0.9882636550200')));
}

