net
{
    node_size = (70 20);
}

node P
{
	states = ("true" "false");
	ID = "P";
	position = (100 80);
	label = "Psych_report";
}

node C
{
	states = ("true" "false");
	ID = "C";
	position = (200 80);
	label = "Crime";
}

node M
{
	states = ("true" "false");
	ID = "M";
	position = (150 150);
	label = "Motive";
}

node D
{
	states = ("true" "false");
	ID = "D";
	position = (250 10);
	label = "DNA_match";
}

node T
{
	states = ("true" "false");
	ID = "T";
	position = (300 80);
	label = "Twin";
}

potential ( P |  )
{
	data = (0.125 0.875);
}

potential ( C | M T )
{
	data = (((0.5 0.5) (0.999000999000999 0.000999000999000999)) ((0.01 0.99) (0.909917667205232 0.09008233279476784)));
}

potential ( M | P )
{
	data = ((0.24000000000000002 0.76) (0.022857142857142857 0.9771428571428571));
}

potential ( D | M T )
{
	data = (((1.0 0.0) (0.5005000000000001 0.4995)) ((1.0 0.0) (0.010990005316321105 0.9890099946836789)));
}

potential ( T | M )
{
	data = ((0.009999999999999998 0.99) (0.01 0.9900000000000001));
}

