net
{
    node_size = (70 20);
}

node P
{
	states = ("true" "false");
	ID = "P";
	position = (100 80);
	label = "Psych_report";
}

node C
{
	states = ("true" "false");
	ID = "C";
	position = (200 80);
	label = "Crime";
}

node M
{
	states = ("true" "false");
	ID = "M";
	position = (150 150);
	label = "Motive";
}

node D
{
	states = ("true" "false");
	ID = "D";
	position = (250 10);
	label = "DNA_match";
}

node T
{
	states = ("true" "false");
	ID = "T";
	position = (300 80);
	label = "Twin";
}

potential ( P | D M )
{
	data = (((0.6 0.4) (0.1 0.9)) ((-1 -1) (-1 -1)));
}

potential ( C | T )
{
	data = ((0.034499999999999996 0.9655) (0.9727762215953188 0.027223778404681178));
}

potential ( M | T C )
{
	data = (((0.7246376811594203 0.2753623188405797) (0.02589331952356292 0.974106680476437)) ((0.7246376811594204 0.2753623188405797) (0.025893184076999524 0.9741068159230004)));
}

potential ( D | T )
{
	data = ((1.0 0.0) (0.03546550505050505 0.964534494949495));
}

potential ( T |  )
{
	data = (0.01 0.99);
}

