net
{
    node_size = (70 20);
}

node P
{
	states = ("true" "false");
	ID = "P";
	position = (100 80);
	label = "Psych_report";
}

node C
{
	states = ("true" "false");
	ID = "C";
	position = (200 80);
	label = "Crime";
}

node M
{
	states = ("true" "false");
	ID = "M";
	position = (150 150);
	label = "Motive";
}

node D
{
	states = ("true" "false");
	ID = "D";
	position = (250 10);
	label = "DNA_match";
}

node T
{
	states = ("true" "false");
	ID = "T";
	position = (300 80);
	label = "Twin";
}

potential ( P | D )
{
	data = ((0.38014047618255925 0.6198595238174408) (0.1129466598295729 0.8870533401704271));
}

potential ( C | D M )
{
	data = (((0.989129467155956 0.010870532844043955) (0.47892478864292876 0.5210752113570712)) ((0.0 1.0) (0.0 1.0)));
}

potential ( M | D P )
{
	data = (((0.88432722238615 0.11567277761384986) (0.3615535009704106 0.6384464990295895)) ((0.13755158248088065 0.8624484175191193) (0.011676104913452428 0.9883238950865476)));
}

potential ( D |  )
{
	data = (0.04511085 0.95488915);
}

potential ( T | P M C )
{
	data = ((((0.009999999999999998 0.99) (0.9099181073703366 0.09008189262966333)) ((0.01 0.99) (0.909917667205232 0.09008233279476784))) (((0.01 0.9900000000000001) (0.9099181073703367 0.09008189262966333)) ((0.01 0.99) (0.9099176672052322 0.09008233279476785))));
}

