net
{
    node_size = (70 20);
}

node P
{
	states = ("true" "false");
	ID = "P";
	position = (100 80);
	label = "Psych_report";
}

node C
{
	states = ("true" "false");
	ID = "C";
	position = (200 80);
	label = "Crime";
}

node M
{
	states = ("true" "false");
	ID = "M";
	position = (150 150);
	label = "Motive";
}

node D
{
	states = ("true" "false");
	ID = "D";
	position = (250 10);
	label = "DNA_match";
}

node T
{
	states = ("true" "false");
	ID = "T";
	position = (300 80);
	label = "Twin";
}

potential ( P | D )
{
	data = ((0.38014047618255925 0.6198595238174408) (0.1129466598295729 0.8870533401704271));
}

potential ( C | P T M )
{
	data = ((((0.5 0.5) (0.01 0.99)) ((0.999000999000999 0.000999000999000999) (0.909917667205232 0.09008233279476784))) (((0.5 0.5) (0.01 0.99)) ((0.999000999000999 0.000999000999000999) (0.9099176672052322 0.09008233279476785))));
}

potential ( M | P T )
{
	data = (((0.23999999999999996 0.76) (0.9349867848835673 0.06501321511643267)) ((0.02285714285714286 0.9771428571428573) (0.5158077677998417 0.48419223220015833)));
}

potential ( D |  )
{
	data = (0.04511085 0.95488915);
}

potential ( T | D P )
{
	data = (((0.07289284285585992 0.9271071571441398) (0.3129203190428286 0.6870796809571714)) ((0.0 1.0) (0.0 1.0)));
}

