net
{
    node_size = (70 20);
}

node P
{
	states = ("true" "false");
	ID = "P";
	position = (100 80);
	label = "Psych_report";
}

node C
{
	states = ("true" "false");
	ID = "C";
	position = (200 80);
	label = "Crime";
}

node M
{
	states = ("true" "false");
	ID = "M";
	position = (150 150);
	label = "Motive";
}

node D
{
	states = ("true" "false");
	ID = "D";
	position = (250 10);
	label = "DNA_match";
}

node T
{
	states = ("true" "false");
	ID = "T";
	position = (300 80);
	label = "Twin";
}

potential ( P |  )
{
	data = (0.125 0.875);
}

potential ( C | P D )
{
	data = (((0.9301126748407728 0.0698873251592271) (0.0 1.0)) ((0.6633910763707966 0.33660892362920336) (0.0 1.0)));
}

potential ( M | P C T )
{
	data = ((((0.9404388714733543 0.05956112852664578) (0.9404388714733544 0.059561128526645774)) ((0.13755158184319116 0.8624484181568087) (0.1375509447943683 0.8624490552056318))) (((0.5390835579514824 0.4609164420485175) (0.5390835579514826 0.46091644204851756)) ((0.011676104851421567 0.9883238951485785) (0.011676042882921133 0.9883239571170789))));
}

potential ( D | P )
{
	data = ((0.13718768000000003 0.8628123200000001) (0.03195701714285714 0.9680429828571429));
}

potential ( T | P C )
{
	data = (((0.009999999999999997 0.9899999999999998) (0.9099177277506134 0.09008227224938671)) ((0.01 0.9899999999999999) (0.9099176723446436 0.0900823276553564)));
}

