net
{
    node_size = (70 20);
}

node P
{
	states = ("true" "false");
	ID = "Psych_report";
	position = (100 80);
	label = "Psych_report";
}

node M
{
	states = ("true" "false");
	ID = "Motive";
	position = (150 150);
	label = "Motive";
}

node C
{
	states = ("true" "false");
	ID = "Crime";
	position = (200 80);
	label = "Crime";
}

node D
{
	states = ("true" "false");
	ID = "DNA_match";
	position = (250 10);
	label = "DNA_match";
}

node T
{
	states = ("true" "false");
	ID = "Twin";
	position = (300 80);
	label = "Twin";
}

potential ( M |  )
{
	data = (0.052412 0.947588);
}

potential ( P | M )
{
	data = ((0.612421 0.387579) (0.124001 0.875999));
}

potential ( C | M )
{
	data = ((0.514312 0.485688) (0.010231 0.989769));
}

potential ( D | C T )
{
	data = (((0.998132	0.001868) (	0.990230	0.00977	))
		((	0.982212 0.017788	) (0.000001 0.999999)));
}

potential ( T |  )
{
	data = (0.012132 0.987868);
}
