net
{
	HRUNTIME_Propagate_AutoNormal = "1";
	HR_Font_Size = "-12";
	HRUNTIME_Font_Size = "-12";
	HR_Grid_GridSnap = "1";
	HRUNTIME_Propagate_AutoSum = "1";
	HR_Propagate_AutoNormal = "1";
	node_size = (100.0 40.0);
	HRUNTIME_Monitor_GraphPrecision = "100";
	HR_Grid_GridShow = "0";
	HR_Font_Name = "Arial";
	HR_Compile_ApproxEpsilon = "0.00001";
	HRUNTIME_Monitor_AutoUpdGraph = "0";
	HRUNTIME_Font_Name = "Arial";
	HRUNTIME_Font_Weight = "400";
	HR_Font_Weight = "400";
	HR_Monitor_AutoUpdGraph = "0";
	HRUNTIME_Compile_Compress = "0";
	HR_Compile_Compress = "0";
	HRUNTIME_Compile_TriangMethod = "0";
	HR_Grid_Y = "10";
	HR_Grid_X = "10";
	HR_Groups_GroupNames = "";
	HR_Compile_Approximate = "0";
	HRUNTIME_Compile_Approximate = "0";
	HR_Compile_TriangMethod = "0";
	HR_Color_DiscreteChance = "16";
	HRUNTIME_Compile_ApproxEpsilon = "0.00001";
	HR_Monitor_InitStates = "5";
	HRUNTIME_Grid_GridSnap = "1";
	HR_Color_ContinuosChance = "48";
	HRUNTIME_Propagate_Auto = "0";
	HR_Groups_GroupColors = "";
	HR_Monitor_OpenGraph = "0";
	HRUNTIME_Grid_GridShow = "0";
	HR_Monitor_InitSD = "2";
	HR_Groups_UserGroupsNo = "0";
	HR_Color_Decision = "17";
	HRUNTIME_Monitor_InitStates = "5";
	HRUNTIME_Grid_Y = "10";
	HRUNTIME_Grid_X = "10";
	HR_Propagate_Auto = "0";
	HR_Monitor_GraphPrecision = "100";
	HRUNTIME_Font_Italic = "0";
	HRUNTIME_Monitor_OpenGraph = "0";
	HR_Font_Italic = "0";
	HR_Propagate_AutoSum = "1";
	HR_Color_Utility = "36";
}

node A
{
	states = ("Present" "Absent");
	ID = "A";
	position = (131 0);
	label = "A:Metastatic Cancer";
}

node C
{
	states = ("Present" "Absent");
	ID = "C";
	position = (255 128);
	label = "C:  Brain Tumor";
}

node B
{
	states = ("Increased" "Not increased");
	ID = "B";
	position = (0 128);
	label = "B: Serum Calcium";
}

node E
{
	states = ("Present" "Absent");
	ID = "E";
	position = (414 266);
	label = "E: Severe Headaches";
}

node D
{
	states = ("Present" "Absent");
	ID = "D";
	position = (147 256);
	label = "D: Coma";
}

potential ( A | B )
{
	data = ((0.9411764705882354 0.058823529411764726) (0.4999999999999999 0.5));
}

potential ( C | B A E D )
{
	data = (((((0.9947643979057591 0.005235602094240838) (0.0 1.0)) ((0.986159169550173 0.01384083044982699) (0.0 1.0))) (((0.975609756097561 0.024390243902439025) (0.0 1.0)) ((0.9375 0.06250000000000001) (0.0 1.0)))) ((((0.9743589743589743 0.02564102564102564) (0.9743589743589743 0.02564102564102564)) ((0.9344262295081968 0.06557377049180328) (0.9344262295081968 0.06557377049180328))) (((0.888888888888889 0.11111111111111112) (0.888888888888889 0.11111111111111112)) ((0.75 0.25) (0.75 0.25)))));
}

potential ( B |  )
{
	data = (0.6799999999999999 0.32000000000000006);
}

potential ( E | A )
{
	data = ((0.39 0.61) (0.36 0.6399999999999998));
}

potential ( D | B A E )
{
	data = ((((0.9794871794871794 0.020512820512820513) (0.9475409836065574 0.05245901639344262)) ((0.9111111111111111 0.08888888888888889) (0.8 0.20000000000000004))) (((0.19999999999999998 0.7999999999999999) (0.19999999999999998 0.7999999999999999)) ((0.19999999999999998 0.7999999999999999) (0.2 0.8))));
}

