net
{
	propagationenginegenerator1791944048146838126L = "edu.ucla.belief.approx.BeliefPropagationSettings@36f3f021";
	recoveryenginegenerator6944530267470113528l = "edu.ucla.util.SettingsImpl@b1cbc13";
	node_size = (130 55);
}

node A
{
	states = ("On" "Off");
	ID = "A";
	position = (310 252);
	label = "Alarm";
}

node E
{
	states = ("Present" "Absent");
	ID = "E";
	position = (442 130);
	label = "Earthquake";
}

node B
{
	states = ("Present" "Absent");
	ID = "B";
	position = (169 128);
	label = "Burglary";
}

node J
{
	states = ("Present" "Absent");
	ID = "J";
	position = (179 367);
	label = "JohnCalls";
}

node M
{
	states = ("Present" "Absent");
	ID = "M";
	position = (446 365);
	label = "MaryCalls";
}

potential ( A | E )
{
	data = ((0.29065790657906576 0.7093420934209341) (0.0019389979959919838 0.998061002004008));
}

potential ( E |  )
{
	data = (0.00199998 0.998);
}

potential ( B | E A M J )
{
	data = (((((0.003276629440515523 0.9967233705594846) (0.0031948881789137383 0.9968051118210862)) ((0.0032494424976107035 0.9967505575023893) (0.003440366972477064 0.9965596330275229))) (((0.0 1.0) (0.0 1.0)) ((0.0 1.0) (6.745312008154333e-05 0.9999325468799185)))) ((((0.4847883326634567 0.5152116673365432) (0.4847925586889118 0.5152074413110881)) ((0.4847841065686725 0.5152158934313276) (0.4847545219638243 0.5152454780361757))) (((6.0237335100295154e-05 0.9999397626648996) (6.0237016809298066e-05 0.9999397629831906)) ((6.003422356379782e-05 0.9999399657764362) (6.011961882709911e-05 0.9999398803811729)))));
}

potential ( J | E A M )
{
	data = ((((0.9000049149710017 0.09999508502899832) (0.8999942657262459 0.10000573427375421)) ((0.05003523608174771 0.9499647639182522) (0.04999715197083618 0.9500028480291637))) (((0.8999992617692439 0.10000073823075618) (0.9000051676915923 0.09999483230840786)) ((0.049999749012363655 0.9500002509876363) (0.04999999847886263 0.9500000015211374))));
}

potential ( M | E A )
{
	data = (((0.7000051607575992 0.2999948392424008) (0.010002326122354036 0.989997673877646)) ((0.7000031005829096 0.2999968994170904) (0.010000001204740799 0.9899999987952592)));
}

