net
{
	propagationenginegenerator1791944048146838126L = "edu.ucla.belief.approx.BeliefPropagationSettings@36f3f021";
	recoveryenginegenerator6944530267470113528l = "edu.ucla.util.SettingsImpl@b1cbc13";
	node_size = (130 55);
}

node A
{
	states = ("On" "Off");
	ID = "A";
	position = (310 252);
	label = "Alarm";
}

node E
{
	states = ("Present" "Absent");
	ID = "E";
	position = (442 130);
	label = "Earthquake";
}

node B
{
	states = ("Present" "Absent");
	ID = "B";
	position = (169 128);
	label = "Burglary";
}

node J
{
	states = ("Present" "Absent");
	ID = "J";
	position = (179 367);
	label = "JohnCalls";
}

node M
{
	states = ("Present" "Absent");
	ID = "M";
	position = (446 365);
	label = "MaryCalls";
}

potential ( A | J B M )
{
	data = ((((0.9999493457154917 5.0654284508231305e-05) (0.9884717245676897 0.01152827543231033)) ((0.6657103596206053 0.33428964037939474) (0.008547113243276349 0.9914528867567237))) (((0.9914117824318216 0.008588217568178394) (0.3332939368868928 0.6667060631131072)) ((0.011511723493304735 0.9884882765066952) (5.0409105762716955e-05 0.9999495908942374))));
}

potential ( E | J B M A )
{
	data = (((((0.0020262740197899425 0.9979737259802101) (0.0 1.0)) ((0.0020094562647754136 0.9979905437352246) (0.0 1.0))) (((0.3675514026219869 0.6324485973780132) (0.0014236730765374668 0.9985763269234625)) ((0.3675492798909852 0.6324507201090149) (0.0014222500920047143 0.9985777499079952)))) ((((0.001975683890577508 0.9980243161094224) (0.0 1.0)) ((0.0021276595744680847 0.997872340425532) (0.0015954617975536252 0.9984045382024463))) (((0.367557770729497 0.6324422292705029) (0.001422611716706084 0.9985773882832939)) ((0.36751956016071047 0.6324804398392895) (0.0014222395228655406 0.9985777604771344)))));
}

potential ( B | J )
{
	data = ((0.016283600593490936 0.9837163994065091) (0.000159284955087614 0.9998407150449123));
}

potential ( J |  )
{
	data = (0.05213896 0.94786102);
}

potential ( M | J B )
{
	data = (((0.6975771781251104 0.3024228218748895) (0.029086594937214792 0.9709134050627851)) ((0.4395946482977878 0.5604053517022123) (0.010114781521149654 0.9898852184788502)));
}

