net
{
	propagationenginegenerator1791944048146838126L = "edu.ucla.belief.approx.BeliefPropagationSettings@36f3f021";
	recoveryenginegenerator6944530267470113528l = "edu.ucla.util.SettingsImpl@b1cbc13";
	node_size = (130 55);
}

node A
{
	states = ("On" "Off");
	ID = "A";
	position = (310 252);
	label = "Alarm";
}

node E
{
	states = ("Present" "Absent");
	ID = "E";
	position = (442 130);
	label = "Earthquake";
}

node B
{
	states = ("Present" "Absent");
	ID = "B";
	position = (169 128);
	label = "Burglary";
}

node J
{
	states = ("Present" "Absent");
	ID = "J";
	position = (179 367);
	label = "JohnCalls";
}

node M
{
	states = ("Present" "Absent");
	ID = "M";
	position = (446 365);
	label = "MaryCalls";
}

potential ( A |  )
{
	data = (0.0025164300000000005 0.99748355);
}

potential ( E | A )
{
	data = ((0.23100582968729505 0.7689941703127047) (0.0014222490185427116 0.9985777509814573));
}

potential ( B | A E J )
{
	data = ((((0.003268473565503268 0.9967315264344967) (0.0032685360399105448 0.9967314639600894)) ((0.48478706484230116 0.515212935157699) (0.4847811482610718 0.5152188517389282))) (((0.0 1.0) (6.677845875317197e-05 0.9999332215412468)) ((6.003625466937493e-05 0.9999399637453306) (6.012079280736774e-05 0.9999398792071926))));
}

potential ( J | A E )
{
	data = (((0.9000017202525331 0.09999827974746693) (0.9000010335276365 0.09999896647236348)) ((0.0499975329005336 0.9500024670994665) (0.04999999598419733 0.9500000040158026)));
}

potential ( M | E J B )
{
	data = ((((0.7017543859649122 0.2982456140350877) (0.7000019176558575 0.29999808234414255)) ((0.6842105263157895 0.3157894736842105) (0.7000345184673801 0.29996548153262))) (((0.7000035531972854 0.2999964468027146) (0.7 0.3)) ((0.7000319795330988 0.2999680204669012) (0.7 0.3))));
}

