net
{
	propagationenginegenerator1791944048146838126L = "edu.ucla.belief.approx.BeliefPropagationSettings@36f3f021";
	recoveryenginegenerator6944530267470113528l = "edu.ucla.util.SettingsImpl@b1cbc13";
	node_size = (130 55);
}

node A
{
	states = ("On" "Off");
	ID = "A";
	position = (310 252);
	label = "Alarm";
}

node E
{
	states = ("Present" "Absent");
	ID = "E";
	position = (442 130);
	label = "Earthquake";
}

node B
{
	states = ("Present" "Absent");
	ID = "B";
	position = (169 128);
	label = "Burglary";
}

node J
{
	states = ("Present" "Absent");
	ID = "J";
	position = (179 367);
	label = "JohnCalls";
}

node M
{
	states = ("Present" "Absent");
	ID = "M";
	position = (446 365);
	label = "MaryCalls";
}

potential ( A | E J B )
{
	data = ((((1.0 0.0) (0.8802667116812964 0.11973328831870358)) ((0.6785714285714286 0.32142857142857145) (0.04122112422541424 0.9587788757745858))) (((0.9964711436327156 0.003528856367284315) (0.01769908013306363 0.9823009198669364)) ((0.6224950232249502 0.3775049767750498) (0.00010535721352678833 0.9998946427864732))));
}

potential ( E |  )
{
	data = (0.00199998 0.998);
}

potential ( B | E J )
{
	data = (((0.0028782548686270217 0.997121745131373) (0.00019916492990105768 0.9998008350700989)) ((0.01643811166391987 0.9835618883360803) (0.00015922571714042656 0.9998407742828597)));
}

potential ( J | E )
{
	data = ((0.2970579705797058 0.7029420294202942) (0.05164814629258516 0.9483518537074148));
}

potential ( M | E J B )
{
	data = ((((0.7017543859649122 0.2982456140350877) (0.7000019176558575 0.29999808234414255)) ((0.6842105263157895 0.3157894736842105) (0.7000345184673801 0.29996548153262))) (((0.7000035531972854 0.2999964468027146) (0.7 0.3)) ((0.7000319795330988 0.2999680204669012) (0.7 0.3))));
}

