net
{
	propagationenginegenerator1791944048146838126L = "edu.ucla.belief.approx.BeliefPropagationSettings@7373d1cb";
	recoveryenginegenerator6944530267470113528l = "edu.ucla.util.SettingsImpl@2db706c6";
	node_size = (130 55);
}

node BW
{
	states = ("T" "F");
	ID = "BW";
	position = (145 158);
	label = "Broken window";
}

node TB
{
	states = ("T" "F");
	ID = "TB";
	position = (52 58);
	label = "Tree branch";
}

node SF
{
	states = ("T" "F");
	ID = "SF";
	position = (330 157);
	label = "Stone found";
}

node ST
{
	states = ("T" "F");
	ID = "ST";
	position = (241 59);
	label = "Stone thrown";
}

potential ( BW |  )
{
	data = (Decimal('0.00288891000') Decimal('0.99711109000'));
}

potential ( TB | BW )
{
	data = ((Decimal('0.3118477211128072525623851210318078444811364840026169039533941867347892457708962896040375089566653167') Decimal('0.6881522788871927474376148789681921555188635159973830960466058132652107542291037103959624910433346833')) (Decimal('0.00009938712044612802370897308944783675006563210524516380617128629067800258845782168564587923698652273540') Decimal('0.9999006128795538719762910269105521632499343678947548361938287137093219974115421783143541207630134773')));
}

potential ( SF | BW TB )
{
	data = (((Decimal('0.01087912087912087912087912087912087912087912087912087912087912087912087912087912087912087912087912088') Decimal('0.9891208791208791208791208791208791208791208791208791208791208791208791208791208791208791208791208791')) (Decimal('0.4527587939698492462311557788944723618090452261306532663316582914572864321608040201005025125628140704') Decimal('0.5472412060301507537688442211055276381909547738693467336683417085427135678391959798994974874371859296'))) ((Decimal('0.001907164480322906155398587285570131180625630676084762865792129162462159434914228052472250252270433905') Decimal('0.9980928355196770938446014127144298688193743693239152371342078708375378405650857719475277497477295661')) (Decimal('0.009107133195058165749842185950040580755703850662819009829560826043827216160158715844530615925692127333') Decimal('0.9908928668049418342501578140499594192442961493371809901704391739561727838398412841554693840743078727'))));
}

potential ( ST | BW TB SF )
{
	data = ((((Decimal('0.9090909090909090909090909090909090909090909090909090909090909090909090909090909090909090909090909091') Decimal('0.09090909090909090909090909090909090909090909090909090909090909090909090909090909090909090909090909091')) (Decimal('0.001110987668036884790578824575047216975891567603599600044439506721475391623152983001888679035662704144') Decimal('0.9988890123319631152094211754249527830241084323964003999555604932785246083768470169981113209643372959'))) ((Decimal('0.9989012086704624912596144241334532014783737888322844870642293477175107381879932074717810408550594346') Decimal('0.001098791329537508740385575866546798521626211167715512935770652282489261812006792528218959144940565378')) (Decimal('0.09182652133589223239456019687606174415294625393706210227637946391676844106114728055757063755153763510') Decimal('0.9081734786641077676054398031239382558470537460629378977236205360832315589388527194424293624484623649')))) (((Decimal('0.4761904761904761904761904761904761904761904761904761904761904761904761904761904761904761904761904762') Decimal('0.5238095238095238095238095238095238095238095238095238095238095238095238095238095238095238095238095238')) (Decimal('0.0001011009897786899333744477358433339062389420792429557885371697788921353540051157100828017106287470554') Decimal('0.9998988990102213100666255522641566660937610579207570442114628302211078646459948842899171982893712529'))) ((Decimal('0.8911861687906603689510738793333927457445860440245967382586222261830496390696016397825505748150788700') Decimal('0.1088138312093396310489261206666072542554139559754032617413777738169503609303983602174494251849211300')) (Decimal('0.0009100828166262301703192688831490976847402136747041844060767685798639990440490094158078290966399651402') Decimal('0.9990899171833737698296807311168509023152597863252958155939232314201360009559509905841921709033600349')))));
}

