net
{
	propagationenginegenerator1791944048146838126L = "edu.ucla.belief.approx.BeliefPropagationSettings@7373d1cb";
	recoveryenginegenerator6944530267470113528l = "edu.ucla.util.SettingsImpl@2db706c6";
	node_size = (130 55);
}

node BW
{
	states = ("T" "F");
	ID = "BW";
	position = (145 158);
	label = "Broken window";
}

node TB
{
	states = ("T" "F");
	ID = "TB";
	position = (52 58);
	label = "Tree branch";
}

node SF
{
	states = ("T" "F");
	ID = "SF";
	position = (330 157);
	label = "Stone found";
}

node ST
{
	states = ("T" "F");
	ID = "ST";
	position = (241 59);
	label = "Stone thrown";
}

potential ( BW | SF )
{
	data = ((Decimal('0.8110008018018018018018018018018018018018018018018018018018018018018018018018018018018018018018018018') Decimal('0.1889991981981981981981981981981981981981981981981981981981981981981981981981981981981981981981981982')) (Decimal('0.002007062544822779567883152695427318915970545752063110473631579478995161665033686528418904859546873264') Decimal('0.9979929374551772204321168473045726810840294542479368895263684205210048383349663134715810951404531267')));
}

potential ( TB | SF BW )
{
	data = (((Decimal('0.001111961664893878366656950795163120055123972117244660303987213485053485633794099069385841355462829382') Decimal('0.9988880383351061216333430492048368799448760278827553396960127865149465143662059009306141586445371706')) (Decimal('0.0005195693904226010587489503149138675501316536401722663297441892956216840807418459423370450449024737271') Decimal('0.9994804306095773989412510496850861324498683463598277336702558107043783159192581540576629549550975263'))) ((Decimal('0.05027196640116902364539833501457633378447806950576075789054498860875016662581890107266036175252269112') Decimal('0.9497280335988309763546016649854236662155219304942392421094550113912498333741810989273396382474773089')) (Decimal('0.0009009092002938203984349621185288154234876080087370638383493050483725252650865191684681073516837230982') Decimal('0.9990990907997061796015650378814711845765123919912629361616506949516274747349134808315318926483162769'))));
}

potential ( SF |  )
{
	data = (Decimal('0.00999000000') Decimal('0.99001000000'));
}

potential ( ST | SF BW TB )
{
	data = ((((Decimal('0.9890109890109890109890109890109890109890109890109890109890109890109890109890109890109890109890109890') Decimal('0.01098901098901098901098901098901098901098901098901098901098901098901098901098901098901098901098901099')) (Decimal('0.9998777927142238170890224528113230605148259657153014631545033384808523402695226139027452200286631634') Decimal('0.0001222072857761829109775471886769394851740342846985368454966615191476597304773860972547799713368366089'))) ((Decimal('0.09174311926605504587155963302752293577981651376146788990825688073394495412844036697247706422018348624') Decimal('0.9082568807339449541284403669724770642201834862385321100917431192660550458715596330275229357798165138')) (Decimal('0.4764400400209633617609223879174805850683691457430082424126923626661584639573109724141216827862213540') Decimal('0.5235599599790366382390776120825194149316308542569917575873076373338415360426890275858783172137786460')))) (((Decimal('0.009910802775024777006937561942517343904856293359762140733399405351833498513379583746283448959365708622') Decimal('0.9900891972249752229930624380574826560951437066402378592666005946481665014866204162537165510406342914')) (Decimal('0.4764400400209633617609223879174805850683691457430082424126923626661584639573109724141216827862213540') Decimal('0.5235599599790366382390776120825194149316308542569917575873076373338415360426890275858783172137786460'))) ((Decimal('0.00001123445292146330996192643904916084253903129806239390463522293086654705719122948729327202317892326756') Decimal('0.9999887655470785366900380735609508391574609687019376060953647770691334529428087705127067279768210767')) (Decimal('0.0001012021817287779708029479264477521118137567343853306870851918650164490484105595206514133456470750611') Decimal('0.9998987978182712220291970520735522478881862432656146693129148081349835509515894404793485866543529249')))));
}

