net
{
	propagationenginegenerator1791944048146838126L = "edu.ucla.belief.approx.BeliefPropagationSettings@36f3f021";
	recoveryenginegenerator6944530267470113528l = "edu.ucla.util.SettingsImpl@b1cbc13";
	node_size = (130 55);
}

node A
{
	states = ("On" "Off");
	ID = "A";
	position = (310 252);
	label = "Alarm";
}

node E
{
	states = ("Present" "Absent");
	ID = "E";
	position = (442 130);
	label = "Earthquake";
}

node B
{
	states = ("Present" "Absent");
	ID = "B";
	position = (169 128);
	label = "Burglary";
}

node J
{
	states = ("Present" "Absent");
	ID = "J";
	position = (179 367);
	label = "JohnCalls";
}

node M
{
	states = ("Present" "Absent");
	ID = "M";
	position = (446 365);
	label = "MaryCalls";
}

potential ( A | B M J E )
{
	data = ((Decimal('0.99995823065034877407') Decimal('0.000041769349651225930412')) (Decimal('0.99994934400486297553') Decimal('0.000050655995137024466846')) (Decimal('0.99290780141843971631') Decimal('0.0070921985815602836879')) (Decimal('0.99141178243182160615') Decimal('0.0085882175681783938526')) (Decimal('0.99044309296264118158') Decimal('0.0095569070373588184188')) (Decimal('0.98843322818086225026') Decimal('0.011566771819137749737')) (Decimal('0.37735849056603773585') Decimal('0.62264150943396226415')) (Decimal('0.33321517192484934420') Decimal('0.66678482807515065580')) (Decimal('0.99806069214170604463') Decimal('0.0019393078582939553686')) (Decimal('0.55776892430278884462') Decimal('0.44223107569721115538')) (Decimal('0.75060085043446108338') Decimal('0.24939914956553891662')) (Decimal('0.0073217927932639506302') Decimal('0.99267820720673604937')) (Decimal('0.69020230067433558112') Decimal('0.30979769932566441888')) (Decimal('0.0054303556882975834917') Decimal('0.99456964431170241651')) (Decimal('0.012861165931214936692') Decimal('0.98713883406878506331')) (Decimal('0.000031928837008076399321') Decimal('0.99996807116299192360')));
}

potential ( E | B M J )
{
	data = ((Decimal('0.0020212156643445720444') Decimal('0.99797878433565542796')) (Decimal('0.0020181943345616269464') Decimal('0.99798180566543837305')) (Decimal('0.0020171402594207109657') Decimal('0.99798285974057928903')) (Decimal('0.0017852122026965745554') Decimal('0.99821478779730342544')) (Decimal('0.24516004609766893383') Decimal('0.75483995390233106617')) (Decimal('0.0056370355633476591921') Decimal('0.99436296443665234081')) (Decimal('0.0045516416332395140269') Decimal('0.99544835836676048597')) (Decimal('0.0014407017071249805968') Decimal('0.99855929829287501940')));
}

potential ( B |  )
{
	data = ((Decimal('0.001000000000') Decimal('0.9990000000000')));
}

potential ( J | B M )
{
	data = ((Decimal('0.89922590446783835990') Decimal('0.10077409553216164010')) (Decimal('0.75215228383572622443') Decimal('0.24784771616427377557')) (Decimal('0.13467176850196864950') Decimal('0.86532823149803135050')) (Decimal('0.050406902063742468762') Decimal('0.94959309793625753124')));
}

potential ( M | B )
{
	data = ((Decimal('0.6586138') Decimal('0.3413862')) (Decimal('0.01108882') Decimal('0.98891118')));
}

