net
{
	propagationenginegenerator1791944048146838126L = "edu.ucla.belief.approx.BeliefPropagationSettings@36f3f021";
	recoveryenginegenerator6944530267470113528l = "edu.ucla.util.SettingsImpl@b1cbc13";
	node_size = (130 55);
}

node A
{
	states = ("On" "Off");
	ID = "A";
	position = (310 252);
	label = "Alarm";
}

node E
{
	states = ("Present" "Absent");
	ID = "E";
	position = (442 130);
	label = "Earthquake";
}

node B
{
	states = ("Present" "Absent");
	ID = "B";
	position = (169 128);
	label = "Burglary";
}

node J
{
	states = ("Present" "Absent");
	ID = "J";
	position = (179 367);
	label = "JohnCalls";
}

node M
{
	states = ("Present" "Absent");
	ID = "M";
	position = (446 365);
	label = "MaryCalls";
}

potential ( A | B M )
{
	data = ((Decimal('0.99908929937392748224') Decimal('0.00091070062607251776382')) (Decimal('0.82606151039497202875') Decimal('0.17393848960502797125')) (Decimal('0.099613845296433705300') Decimal('0.90038615470356629470')) (Decimal('0.00047870831028525736760') Decimal('0.99952129168971474263')));
}

potential ( E | B A )
{
	data = ((Decimal('0.0020212335907746643688') Decimal('0.99797876640922533563')) (Decimal('0.0016672224074691563855') Decimal('0.99833277759253084361')) (Decimal('0.36755386565272496831') Decimal('0.63244613434727503169')) (Decimal('0.0014222443015077792757') Decimal('0.99857775569849222072')));
}

potential ( B |  )
{
	data = ((Decimal('0.001000000000') Decimal('0.9990000000000')));
}

potential ( J | A )
{
	data = ((Decimal('0.9') Decimal('0.1')) (Decimal('0.05') Decimal('0.95')));
}

potential ( M | B )
{
	data = ((Decimal('0.6586138') Decimal('0.3413862')) (Decimal('0.01108882') Decimal('0.98891118')));
}

