net
{
	propagationenginegenerator1791944048146838126L = "edu.ucla.belief.approx.BeliefPropagationSettings@36f3f021";
	recoveryenginegenerator6944530267470113528l = "edu.ucla.util.SettingsImpl@b1cbc13";
	node_size = (130 55);
}

node A
{
	states = ("On" "Off");
	ID = "A";
	position = (310 252);
	label = "Alarm";
}

node E
{
	states = ("Present" "Absent");
	ID = "E";
	position = (442 130);
	label = "Earthquake";
}

node B
{
	states = ("Present" "Absent");
	ID = "B";
	position = (169 128);
	label = "Burglary";
}

node J
{
	states = ("Present" "Absent");
	ID = "J";
	position = (179 367);
	label = "JohnCalls";
}

node M
{
	states = ("Present" "Absent");
	ID = "M";
	position = (446 365);
	label = "MaryCalls";
}

potential ( A | J M )
{
	data = ((Decimal('0.76069203886310767800') Decimal('0.23930796113689232200')) (Decimal('0.013573889331307630241') Decimal('0.98642611066869236976')) (Decimal('0.018249738245007478100') Decimal('0.98175026175499252190')) (Decimal('0.000080465309688836211459') Decimal('0.99991953469031116379')));
}

potential ( E | A B )
{
	data = ((Decimal('0.0020212335907746643688') Decimal('0.99797876640922533563')) (Decimal('0.36755386565272496831') Decimal('0.63244613434727503169')) (Decimal('0.0016672224074691563855') Decimal('0.99833277759253084361')) (Decimal('0.0014222443015077792757') Decimal('0.99857775569849222072')));
}

potential ( B | A )
{
	data = ((Decimal('0.37355122828183602086') Decimal('0.62644877171816397914')) (Decimal('0.000060131316971542502358') Decimal('0.99993986868302845750')));
}

potential ( J |  )
{
	data = ((Decimal('0.0521389757000') Decimal('0.9478610243000')));
}

potential ( M | J )
{
	data = ((Decimal('0.039972021141949668183') Decimal('0.96002797885805033182')) (Decimal('0.010183185607962127070') Decimal('0.98981681439203787293')));
}

