net
{
	propagationenginegenerator1791944048146838126L = "edu.ucla.belief.approx.BeliefPropagationSettings@36f3f021";
	recoveryenginegenerator6944530267470113528l = "edu.ucla.util.SettingsImpl@b1cbc13";
	node_size = (130 55);
}

node A
{
	states = ("On" "Off");
	ID = "A";
	position = (310 252);
	label = "Alarm";
}

node E
{
	states = ("Present" "Absent");
	ID = "E";
	position = (442 130);
	label = "Earthquake";
}

node B
{
	states = ("Present" "Absent");
	ID = "B";
	position = (169 128);
	label = "Burglary";
}

node J
{
	states = ("Present" "Absent");
	ID = "J";
	position = (179 367);
	label = "JohnCalls";
}

node M
{
	states = ("Present" "Absent");
	ID = "M";
	position = (446 365);
	label = "MaryCalls";
}

potential ( A |  )
{
	data = (0.0025164300000000005 0.99748355);
}

potential ( E | A J B M )
{
	data = (((((0.0020262740197899425 0.9979737259802101) (0.0020094562647754136 0.9979905437352246)) ((0.3675514026219869 0.6324485973780132) (0.3675492798909852 0.6324507201090149))) (((0.001975683890577508 0.9980243161094224) (0.0021276595744680847 0.997872340425532)) ((0.367557770729497 0.6324422292705029) (0.36751956016071047 0.6324804398392895)))) ((((0.0 1.0) (0.0 1.0)) ((0.0014236730765374668 0.9985763269234625) (0.0014222500920047143 0.9985777499079952))) (((0.0 1.0) (0.0015954617975536252 0.9984045382024463)) ((0.001422611716706084 0.9985773882832939) (0.0014222395228655406 0.9985777604771344)))));
}

potential ( B | A J )
{
	data = (((0.3735533978867798 0.6264466021132201) (0.3735495151804164 0.6264504848195834)) ((5.995087236539476e-05 0.9999400491276347) (6.013026169074012e-05 0.9999398697383093)));
}

potential ( J | A )
{
	data = ((0.9000011921650909 0.09999880783490897) (0.04999999248107901 0.950000007518921));
}

potential ( M | A J B )
{
	data = ((((0.7000070920309213 0.29999290796907874) (0.7000007048358791 0.29999929516412105)) ((0.7000000000000001 0.30000000000000004) (0.7000126871352449 0.29998731286475516))) (((0.01003344481605351 0.9899665551839465) (0.00999996390701002 0.99000003609299)) ((0.010003510003510005 0.98999648999649) (0.010000006332103637 0.9899999936678964))));
}

