net
{
	propagationenginegenerator1791944048146838126L = "edu.ucla.belief.approx.BeliefPropagationSettings@36f3f021";
	recoveryenginegenerator6944530267470113528l = "edu.ucla.util.SettingsImpl@b1cbc13";
	node_size = (130 55);
}

node A
{
	states = ("On" "Off");
	ID = "A";
	position = (310 252);
	label = "Alarm";
}

node E
{
	states = ("Present" "Absent");
	ID = "E";
	position = (442 130);
	label = "Earthquake";
}

node B
{
	states = ("Present" "Absent");
	ID = "B";
	position = (169 128);
	label = "Burglary";
}

node J
{
	states = ("Present" "Absent");
	ID = "J";
	position = (179 367);
	label = "JohnCalls";
}

node M
{
	states = ("Present" "Absent");
	ID = "M";
	position = (446 365);
	label = "MaryCalls";
}

potential ( A | J M )
{
	data = (((0.7606928650256705 0.23930713497432943) (0.013573706928757766 0.9864262930712422)) ((0.018249630915071615 0.9817503690849284) (8.046183580228097e-05 0.9999195381641978)));
}

potential ( E | J M A B )
{
	data = (((((0.0020262740197899425 0.9979737259802101) (0.3675514026219869 0.6324485973780132)) ((0.0 1.0) (0.0014236730765374668 0.9985763269234625))) (((0.0020094562647754136 0.9979905437352246) (0.3675492798909852 0.6324507201090149)) ((0.0 1.0) (0.0014222500920047143 0.9985777499079952)))) ((((0.001975683890577508 0.9980243161094224) (0.367557770729497 0.6324422292705029)) ((0.0 1.0) (0.001422611716706084 0.9985773882832939))) (((0.0021276595744680847 0.997872340425532) (0.36751956016071047 0.6324804398392895)) ((0.0015954617975536252 0.9984045382024463) (0.0014222395228655406 0.9985777604771344)))));
}

potential ( B | J M A )
{
	data = ((((0.37355553312812234 0.6264444668718776) (6.015158198660624e-05 0.9999398484180133)) ((0.373548415583651 0.626451584416349) (5.994884500246378e-05 0.9999400511549976))) (((0.3735452739142776 0.6264547260857224) (6.0151328078006786e-05 0.999939848671922)) ((0.3735594118426282 0.6264405881573719) (6.013004889880892e-05 0.9999398699511012))));
}

potential ( J |  )
{
	data = (0.05213896 0.94786102);
}

potential ( M | J )
{
	data = ((0.03997202859435632 0.9600279714056437) (0.010183191202440205 0.9898168087975597));
}

