net
{
    node_size = (70 20);
}

node P
{
	states = ("true" "false");
	ID = "P";
	position = (100 80);
	label = "Psych_report";
}

node C
{
	states = ("true" "false");
	ID = "C";
	position = (200 80);
	label = "Crime";
}

node M
{
	states = ("true" "false");
	ID = "M";
	position = (150 150);
	label = "Motive";
}

node D
{
	states = ("true" "false");
	ID = "D";
	position = (250 10);
	label = "DNA_match";
}

node T
{
	states = ("true" "false");
	ID = "T";
	position = (300 80);
	label = "Twin";
}

potential ( P | D T M )
{
	data = ((((0.6124237804878049 0.3875762195121951) (0.12400119714668234 0.8759988028533175)) ((0.6124210482404494 0.3875789517595505) (0.12400021087036743 0.8759997891296326))) (((0.6114754098360655 0.38852459016393437) (0.12402526897640904 0.875974731023591)) ((0.6124211296093742 0.3875788703906256) (0.12400100215047939 0.8759989978495206))));
}

potential ( C | D T M P )
{
	data = (((((0.5183312590748808 0.4816687409251193) (0.5183136676499508 0.48168633235004915)) ((0.010396955177412327 0.9896030448225877) (0.010395113366777484 0.9896048866332225))) (((0.9999987615255528 1.2384744471759686e-06) (0.9999990215312058 9.784687941839816e-07)) ((0.9999064689476906 9.353105230936673e-05) (0.9999025085395298 9.749146047022177e-05)))) ((((0.09919571045576409 0.900804289544236) (0.10126582278481013 0.8987341772151899)) ((0.0011937922801432549 0.9988062077198567) (0.001070482844103893 0.9989295171558961))) (((0.010239783032024628 0.9897602169679754) (0.010239365348232863 0.9897606346517672)) ((0.00010095714334452218 0.9998990428566554) (0.00010098470124279188 0.9998990152987572)))));
}

potential ( M | D T )
{
	data = (((0.052817681040787434 0.9471823189592126) (0.7354647879074401 0.26453521209256015)) ((0.029225756995017248 0.9707742430049828) (0.026687817183968645 0.9733121828160314)));
}

potential ( D |  )
{
	data = (0.047776729999999996 0.95222326);
}

potential ( T | D )
{
	data = ((0.2495624962193939 0.7504375037806061) (0.00021919229320233155 0.9997808077067977));
}

