net
{
    node_size = (70 20);
}

node P
{
	states = ("true" "false");
	ID = "P";
	position = (100 80);
	label = "Psych_report";
}

node C
{
	states = ("true" "false");
	ID = "C";
	position = (200 80);
	label = "Crime";
}

node M
{
	states = ("true" "false");
	ID = "M";
	position = (150 150);
	label = "Motive";
}

node D
{
	states = ("true" "false");
	ID = "D";
	position = (250 10);
	label = "DNA_match";
}

node T
{
	states = ("true" "false");
	ID = "T";
	position = (300 80);
	label = "Twin";
}

potential ( P | D )
{
	data = ((0.40000791180141465 0.5999920881985855) (0.13703614003295822 0.8629638599670417));
}

potential ( C | D P )
{
	data = (((0.9177570905239738 0.0822429094760262) (0.6543369313666595 0.3456630686333404)) ((0.0013129842362191453 0.9986870157637808) (0.0002229796284750255 0.999777020371525)));
}

potential ( M | D P C T )
{
	data = (((((0.9321117172564928 0.06788828274350725) (0.9321223560377146 0.06787764396228539)) ((0.11820287346814115 0.8817971265318588) (0.15384615384615385 0.8461538461538463))) (((0.5516023544800523 0.44839764551994765) (0.5516101610295963 0.4483898389704037)) ((0.011866360377236611 0.9881336396227633) (0.012195121951219513 0.9878048780487805)))) ((((0.925 0.075) (0.9321359620897443 0.06786403791025565)) ((0.11806043569922697 0.8819395643007729) (0.11820295786581254 0.8817970421341875))) (((0.5581395348837208 0.4418604651162791) (0.5515864332603938 0.44841356673960614)) ((0.011870924594549406 0.9881290754054506) (0.011866078642115214 0.9881339213578848)))));
}

potential ( D |  )
{
	data = (0.047776729999999996 0.95222326);
}

potential ( T | D P C )
{
	data = ((((0.012227954105404315 0.9877720458945957) (0.9999172896452999 8.271035470017497e-05)) ((0.0122274350908994 0.9877725649091006) (0.9999172441076795 8.275589232045502e-05))) (((0.0023346757719021768 0.9976653242280977) (0.00021838941718341036 0.9997816105828166)) ((0.002346777274463789 0.9976532227255362) (0.00021840396207646408 0.9997815960379236))));
}

