net
{
    node_size = (70 20);
}

node P
{
	states = ("true" "false");
	ID = "P";
	position = (100 80);
	label = "Psych_report";
}

node C
{
	states = ("true" "false");
	ID = "C";
	position = (200 80);
	label = "Crime";
}

node M
{
	states = ("true" "false");
	ID = "M";
	position = (150 150);
	label = "Motive";
}

node D
{
	states = ("true" "false");
	ID = "D";
	position = (250 10);
	label = "DNA_match";
}

node T
{
	states = ("true" "false");
	ID = "T";
	position = (300 80);
	label = "Twin";
}

potential ( P | D T )
{
	data = (((0.14979854536671117 0.8502014546332888) (0.48321653843632906 0.5167834615636712)) ((0.1382713683403603 0.8617286316596398) (0.13703586922107303 0.862964130778927)));
}

potential ( C | D T P M )
{
	data = (((((0.5183312590748808 0.4816687409251193) (0.010396955177412327 0.9896030448225877)) ((0.5183136676499508 0.48168633235004915) (0.010395113366777484 0.9896048866332225))) (((0.9999987615255528 1.2384744471759686e-06) (0.9999064689476906 9.353105230936673e-05)) ((0.9999990215312058 9.784687941839816e-07) (0.9999025085395298 9.749146047022177e-05)))) ((((0.09919571045576409 0.900804289544236) (0.0011937922801432549 0.9988062077198567)) ((0.10126582278481013 0.8987341772151899) (0.001070482844103893 0.9989295171558961))) (((0.010239783032024628 0.9897602169679754) (0.00010095714334452218 0.9998990428566554)) ((0.010239365348232863 0.9897606346517672) (0.00010098470124279188 0.9998990152987572)))));
}

potential ( M | D T P )
{
	data = ((((0.21593536719874137 0.7840646328012586) (0.02407767833097732 0.9759223216690226)) ((0.9321165161518224 0.06788348384817759) (0.5515862885602534 0.4484137114397465))) (((0.12924462924462923 0.8707553707553708) (0.013176915378627821 0.9868230846213722)) ((0.11926937990408411 0.8807306200959159) (0.011986169144733447 0.9880138308552665))));
}

potential ( D |  )
{
	data = (0.047776729999999996 0.95222326);
}

potential ( T | D )
{
	data = ((0.2495624962193939 0.7504375037806061) (0.00021919229320233155 0.9997808077067977));
}

