net
{
    node_size = (70 20);
}

node P
{
	states = ("true" "false");
	ID = "P";
	position = (100 80);
	label = "Psych_report";
}

node C
{
	states = ("true" "false");
	ID = "C";
	position = (200 80);
	label = "Crime";
}

node M
{
	states = ("true" "false");
	ID = "M";
	position = (150 150);
	label = "Motive";
}

node D
{
	states = ("true" "false");
	ID = "D";
	position = (250 10);
	label = "DNA_match";
}

node T
{
	states = ("true" "false");
	ID = "T";
	position = (300 80);
	label = "Twin";
}

potential ( P | D M C )
{
	data = ((((0.6124211191915893 0.38757888080841074) (0.6124204766456801 0.3875795233543198)) ((0.12400088324316892 0.8759991167568311) (0.124000629862647 0.875999370137353))) (((0.6124170725160103 0.3875829274839897) (0.6124209423151239 0.3875790576848761)) ((0.12400042648469986 0.8759995735153) (0.12400100751451215 0.8759989924854878))));
}

potential ( C | D M )
{
	data = (((0.9887635372208524 0.011236462779147596) (0.4620738645934502 0.5379261354065498)) ((0.010261166499890412 0.9897388335001097) (0.0001011965807834372 0.9998988034192166)));
}

potential ( M | D )
{
	data = ((0.5651016718808509 0.4348983281191493) (0.02668837348081583 0.9733116265191841));
}

potential ( D |  )
{
	data = (0.047776729999999996 0.95222326);
}

potential ( T | D M C P )
{
	data = (((((0.01222781624817494 0.987772183751825) (0.012227264160517275 0.9877727358394828)) ((0.9998923515797407 0.00010764842025943269) (0.9999149515223678 8.504847763225039e-05))) (((0.012229847210906067 0.9877701527890939) (0.012227645369748349 0.9877723546302517)) ((0.9999206326300903 7.93673699096655e-05) (0.9999172716390837 8.272836091626255e-05)))) ((((0.002316844082654978 0.997683155917345) (0.0023745918670228555 0.9976254081329772)) ((0.0002181261535205626 0.9997818738464794) (0.00021849313593042685 0.9997815068640696))) (((0.002579535683576956 0.9974204643164231) (0.0023125608568646543 0.9976874391431354)) ((0.0002184247070889869 0.999781575292911) (0.00021840289122560409 0.9997815971087743)))));
}

