net
{
    node_size = (70 20);
}

node P
{
	states = ("true" "false");
	ID = "P";
	position = (100 80);
	label = "Psych_report";
}

node C
{
	states = ("true" "false");
	ID = "C";
	position = (200 80);
	label = "Crime";
}

node M
{
	states = ("true" "false");
	ID = "M";
	position = (150 150);
	label = "Motive";
}

node D
{
	states = ("true" "false");
	ID = "D";
	position = (250 10);
	label = "DNA_match";
}

node T
{
	states = ("true" "false");
	ID = "T";
	position = (300 80);
	label = "Twin";
}

potential ( P | D T )
{
	data = (((0.14979854536671117 0.8502014546332888) (0.48321653843632906 0.5167834615636712)) ((0.1382713683403603 0.8617286316596398) (0.13703586922107303 0.862964130778927)));
}

potential ( C | D T P )
{
	data = ((((0.12007793560234925 0.8799220643976507) (0.022624612935142778 0.9773753870648573)) ((0.9999924963838341 7.503616165790668e-06) (0.9999557437824061 4.425621759378945e-05))) (((0.013860013860013858 0.9861399861399861) (0.0023907483598354278 0.9976092516401646)) ((0.001310208620042873 0.9986897913799571) (0.00022250504653130698 0.9997774949534687))));
}

potential ( M | D T P C )
{
	data = (((((0.9321117172564928 0.06788828274350725) (0.11820287346814115 0.8817971265318588)) ((0.5516023544800523 0.44839764551994765) (0.011866360377236611 0.9881336396227633))) (((0.9321223560377146 0.06787764396228539) (0.15384615384615385 0.8461538461538463)) ((0.5516101610295963 0.4483898389704037) (0.012195121951219513 0.9878048780487805)))) ((((0.925 0.075) (0.11806043569922697 0.8819395643007729)) ((0.5581395348837208 0.4418604651162791) (0.011870924594549406 0.9881290754054506))) (((0.9321359620897443 0.06786403791025565) (0.11820295786581254 0.8817970421341875)) ((0.5515864332603938 0.44841356673960614) (0.011866078642115214 0.9881339213578848)))));
}

potential ( D |  )
{
	data = (0.047776729999999996 0.95222326);
}

potential ( T | D )
{
	data = ((0.2495624962193939 0.7504375037806061) (0.00021919229320233155 0.9997808077067977));
}

