net
{
    node_size = (70 20);
}

node P
{
	states = ("true" "false");
	ID = "P";
	position = (100 80);
	label = "Psych_report";
}

node C
{
	states = ("true" "false");
	ID = "C";
	position = (200 80);
	label = "Crime";
}

node M
{
	states = ("true" "false");
	ID = "M";
	position = (150 150);
	label = "Motive";
}

node D
{
	states = ("true" "false");
	ID = "D";
	position = (250 10);
	label = "DNA_match";
}

node T
{
	states = ("true" "false");
	ID = "T";
	position = (300 80);
	label = "Twin";
}

potential ( P | D T C )
{
	data = ((((0.4832364472083277 0.5167635527916723) (0.13690713674685048 0.8630928632531496)) ((0.48322571647723317 0.516774283522767) (0.1368421052631579 0.8631578947368421))) (((0.4819277108433735 0.5180722891566265) (0.13689932175669825 0.8631006782433017)) ((0.4832216662426145 0.5167783337573856) (0.13690719280538619 0.8630928071946139))));
}

potential ( C | D T )
{
	data = (((0.03722297891184304 0.9627770210881569) (0.9999735032472468 2.64967527532218e-05)) ((0.003976619394403987 0.9960233806055961) (0.00037155945118233177 0.9996284405488176)));
}

potential ( M | D T C P )
{
	data = (((((0.9321117172564928 0.06788828274350725) (0.5516023544800523 0.44839764551994765)) ((0.11820287346814115 0.8817971265318588) (0.011866360377236611 0.9881336396227633))) (((0.9321223560377146 0.06787764396228539) (0.5516101610295963 0.4483898389704037)) ((0.15384615384615385 0.8461538461538463) (0.012195121951219513 0.9878048780487805)))) ((((0.925 0.075) (0.5581395348837208 0.4418604651162791)) ((0.11806043569922697 0.8819395643007729) (0.011870924594549406 0.9881290754054506))) (((0.9321359620897443 0.06786403791025565) (0.5515864332603938 0.44841356673960614)) ((0.11820295786581254 0.8817970421341875) (0.011866078642115214 0.9881339213578848)))));
}

potential ( D |  )
{
	data = (0.047776729999999996 0.95222326);
}

potential ( T | D )
{
	data = ((0.2495624962193939 0.7504375037806061) (0.00021919229320233155 0.9997808077067977));
}

