net
{
    node_size = (70 20);
}

node P
{
	states = ("true" "false");
	ID = "P";
	position = (100 80);
	label = "Psych_report";
}

node C
{
	states = ("true" "false");
	ID = "C";
	position = (200 80);
	label = "Crime";
}

node M
{
	states = ("true" "false");
	ID = "M";
	position = (150 150);
	label = "Motive";
}

node D
{
	states = ("true" "false");
	ID = "D";
	position = (250 10);
	label = "DNA_match";
}

node T
{
	states = ("true" "false");
	ID = "T";
	position = (300 80);
	label = "Twin";
}

potential ( P | D )
{
	data = ((0.40000791180141465 0.5999920881985855) (0.13703614003295822 0.8629638599670417));
}

potential ( C | D P )
{
	data = (((0.9177570905239738 0.0822429094760262) (0.6543369313666595 0.3456630686333404)) ((0.0013129842362191453 0.9986870157637808) (0.0002229796284750255 0.999777020371525)));
}

potential ( M | D P C )
{
	data = ((((0.9321222259471862 0.06787777405281391) (0.1182058215365039 0.8817941784634962)) ((0.5516100655755185 0.44838993442448155) (0.011866387584194026 0.9881336124158059))) (((0.932119301931944 0.06788069806805579) (0.11820292674047965 0.8817970732595204)) ((0.5516018119303607 0.44839818806963927) (0.011866079700490424 0.9881339202995096))));
}

potential ( D |  )
{
	data = (0.047776729999999996 0.95222326);
}

potential ( T | D P C M )
{
	data = (((((0.01222781624817494 0.987772183751825) (0.012229847210906067 0.9877701527890939)) ((0.9998923515797407 0.00010764842025943269) (0.9999206326300903 7.93673699096655e-05))) (((0.012227264160517275 0.9877727358394828) (0.012227645369748349 0.9877723546302517)) ((0.9999149515223678 8.504847763225039e-05) (0.9999172716390837 8.272836091626255e-05)))) ((((0.002316844082654978 0.997683155917345) (0.002579535683576956 0.9974204643164231)) ((0.0002181261535205626 0.9997818738464794) (0.0002184247070889869 0.999781575292911))) (((0.0023745918670228555 0.9976254081329772) (0.0023125608568646543 0.9976874391431354)) ((0.00021849313593042685 0.9997815068640696) (0.00021840289122560409 0.9997815971087743)))));
}

