net
{
    node_size = (70 20);
}

node P
{
	states = ("true" "false");
	ID = "P";
	position = (100 80);
	label = "Psych_report";
}

node C
{
	states = ("true" "false");
	ID = "C";
	position = (200 80);
	label = "Crime";
}

node M
{
	states = ("true" "false");
	ID = "M";
	position = (150 150);
	label = "Motive";
}

node D
{
	states = ("true" "false");
	ID = "D";
	position = (250 10);
	label = "DNA_match";
}

node T
{
	states = ("true" "false");
	ID = "T";
	position = (300 80);
	label = "Twin";
}

potential ( P | D M T C )
{
	data = (((((0.6124318362845413 0.3875681637154586) (0.6124151117557856 0.3875848882442144)) ((0.6124209865250454 0.3875790134749546) (0.6666666666666666 0.3333333333333333))) (((0.12402044293015332 0.8759795570698468) (0.12400099497857932 0.8759990050214206)) ((0.12400064110810474 0.8759993588918953) (0.11956521739130435 0.8804347826086957)))) ((((0.6065573770491803 0.39344262295081966) (0.6120218579234973 0.3879781420765027)) ((0.6124308118081181 0.3875691881918819) (0.6124210294416478 0.3875789705583522))) (((0.13636363636363635 0.8636363636363636) (0.12401185770750989 0.8759881422924902)) ((0.12397135834134873 0.8760286416586514) (0.12400100514425161 0.8759989948557484)))));
}

potential ( C | D M T )
{
	data = ((((0.5183244410569106 0.48167555894308944) (0.9999988622982712 1.137701728737777e-06)) ((0.010395341753501122 0.9896046582464989) (0.9999029996309768 9.700036902314302e-05))) (((0.09999999999999999 0.9) (0.010239621146612435 0.9897603788533875)) ((0.0010857763300760044 0.9989142236699239) (0.00010098128403578927 0.9998990187159642))));
}

potential ( M | D )
{
	data = ((0.5651016718808509 0.4348983281191493) (0.02668837348081583 0.9733116265191841));
}

potential ( D |  )
{
	data = (0.047776729999999996 0.95222326);
}

potential ( T | D M )
{
	data = (((0.023325558887813527 0.9766744411121865) (0.5435320593588803 0.4564679406411198)) ((0.000240031888826673 0.9997599681111735) (0.00021862086787866557 0.9997813791321213)));
}

