net
{
    node_size = (70 20);
}

node P
{
	states = ("true" "false");
	ID = "P";
	position = (100 80);
	label = "Psych_report";
}

node C
{
	states = ("true" "false");
	ID = "C";
	position = (200 80);
	label = "Crime";
}

node M
{
	states = ("true" "false");
	ID = "M";
	position = (150 150);
	label = "Motive";
}

node D
{
	states = ("true" "false");
	ID = "D";
	position = (250 10);
	label = "DNA_match";
}

node T
{
	states = ("true" "false");
	ID = "T";
	position = (300 80);
	label = "Twin";
}

potential ( P | M C T )
{
	data = ((((0.6124208788184571 0.3875791211815431) (0.6124210825158061 0.38757891748419393)) ((0.6124081209727034 0.3875918790272965) (0.6124210941557383 0.38757890584426175))) (((0.12404353001190274 0.8759564699880973) (0.12400035501166838 0.8759996449883316)) ((0.12400118820373827 0.8759988117962618) (0.12400100073965367 0.8759989992603462))));
}

potential ( C | M )
{
	data = ((0.5143117988246966 0.4856882011753033) (0.010230997123549447 0.9897690028764506));
}

potential ( M |  )
{
	data = (0.05241200000000001 0.9475879899999999);
}

potential ( D | M C T P )
{
	data = (((((0.9981525863790693 0.001847413620930697) (0.9981065088757396 0.0018934911242603546)) ((0.9902300742999999 0.009769925700000185) (0.9902304747564886 0.009769525243511448))) (((0.9822344419182573 0.017765558081742717) (0.9822055137844612 0.01779448621553885)) ((1.2986515451680747e-06 0.9999987013484548) (1.0260124947801614e-06 0.9999989739875053)))) ((((0.997943797121316 0.00205620287868403) (0.9981558769290498 0.0018441230709502088)) ((0.9902321547361418 0.00976784526385813) (0.9902295466519181 0.009770453348081787))) (((0.9822105673482406 0.017789432651759453) (0.9822123145360404 0.01778768546395962)) ((9.57447965967077e-07 0.9999990425520341) (9.979966756853942e-07 0.9999990020033244)))));
}

potential ( T | M C )
{
	data = (((0.012131943370167283 0.9878680566298328) (0.012131966315065 0.9878680336849349)) ((0.012132314639749057 0.9878676853602509) (0.012131999418867747 0.9878680005811323)));
}

