net
{
    node_size = (70 20);
}

node P
{
	states = ("true" "false");
	ID = "P";
	position = (100 80);
	label = "Psych_report";
}

node C
{
	states = ("true" "false");
	ID = "C";
	position = (200 80);
	label = "Crime";
}

node M
{
	states = ("true" "false");
	ID = "M";
	position = (150 150);
	label = "Motive";
}

node D
{
	states = ("true" "false");
	ID = "D";
	position = (250 10);
	label = "DNA_match";
}

node T
{
	states = ("true" "false");
	ID = "T";
	position = (300 80);
	label = "Twin";
}

potential ( P | M )
{
	data = ((0.6124210104556208 0.3875789895443791) (0.12400100174338428 0.8759989982566158));
}

potential ( C | M P )
{
	data = (((0.514311857265561 0.4856881427344391) (0.5143117064811638 0.4856882935188363)) ((0.010230986981823098 0.989769013018177) (0.01023099855914952 0.9897690014408504)));
}

potential ( M |  )
{
	data = (0.05241200000000001 0.9475879899999999);
}

potential ( D | M P C )
{
	data = ((((0.9903261897363115 0.009673810263688562) (0.01191746869090657 0.9880825313090934)) ((0.990326026406014 0.009673973593985998) (0.011917491792661184 0.9880825082073388))) (((0.9903257469887535 0.009674253011246423) (0.011917141660726554 0.9880828583392735)) ((0.9903257067026507 0.009674293297349106) (0.011917182599005894 0.9880828174009941))));
}

potential ( T | M P C D )
{
	data = (((((0.01222781624817494 0.987772183751825) (0.002316844082654978 0.997683155917345)) ((0.9998923515797407 0.00010764842025943269) (0.0002181261535205626 0.9997818738464794))) (((0.012227264160517275 0.9877727358394828) (0.0023745918670228555 0.9976254081329772)) ((0.9999149515223678 8.504847763225039e-05) (0.00021849313593042685 0.9997815068640696)))) ((((0.012229847210906067 0.9877701527890939) (0.002579535683576956 0.9974204643164231)) ((0.9999206326300903 7.93673699096655e-05) (0.0002184247070889869 0.999781575292911))) (((0.012227645369748349 0.9877723546302517) (0.0023125608568646543 0.9976874391431354)) ((0.9999172716390837 8.272836091626255e-05) (0.00021840289122560409 0.9997815971087743)))));
}

