net
{
    node_size = (70 20);
}

node P
{
	states = ("true" "false");
	ID = "P";
	position = (100 80);
	label = "Psych_report";
}

node C
{
	states = ("true" "false");
	ID = "C";
	position = (200 80);
	label = "Crime";
}

node M
{
	states = ("true" "false");
	ID = "M";
	position = (150 150);
	label = "Motive";
}

node D
{
	states = ("true" "false");
	ID = "D";
	position = (250 10);
	label = "DNA_match";
}

node T
{
	states = ("true" "false");
	ID = "T";
	position = (300 80);
	label = "Twin";
}

potential ( P | M D )
{
	data = (((0.6124211119716461 0.38757888802835394) (0.612420902606471 0.38757909739352914)) ((0.12400074694316399 0.875999253056836) (0.12400100745571392 0.875998992544286)));
}

potential ( C | M D P T )
{
	data = (((((0.5183312590748808 0.4816687409251193) (0.9999987615255528 1.2384744471759686e-06)) ((0.5183136676499508 0.48168633235004915) (0.9999990215312058 9.784687941839816e-07))) (((0.09919571045576409 0.900804289544236) (0.010239783032024628 0.9897602169679754)) ((0.10126582278481013 0.8987341772151899) (0.010239365348232863 0.9897606346517672)))) ((((0.010396955177412327 0.9896030448225877) (0.9999064689476906 9.353105230936673e-05)) ((0.010395113366777484 0.9896048866332225) (0.9999025085395298 9.749146047022177e-05))) (((0.0011937922801432549 0.9988062077198567) (0.00010095714334452218 0.9998990428566554)) ((0.001070482844103893 0.9989295171558961) (0.00010098470124279188 0.9998990152987572)))));
}

potential ( M |  )
{
	data = (0.05241200000000001 0.9475879899999999);
}

potential ( D | M )
{
	data = ((0.515124589788598 0.48487541021140185) (0.021927272421424424 0.9780727275785757));
}

potential ( T | M D P )
{
	data = ((((0.023325660524791073 0.976674339475209) (0.02332539828920321 0.9766746017107967)) ((0.00023966131294563027 0.9997603386870544) (0.00024061744263253755 0.9997593825573675))) (((0.5435340327344566 0.45646596726554334) (0.5435317800206906 0.4564682199793094)) ((0.00021866364232719026 0.9997813363576729) (0.00021861481299189568 0.9997813851870081))));
}

