net
{
    node_size = (70 20);
}

node P
{
	states = ("true" "false");
	ID = "P";
	position = (100 80);
	label = "Psych_report";
}

node C
{
	states = ("true" "false");
	ID = "C";
	position = (200 80);
	label = "Crime";
}

node M
{
	states = ("true" "false");
	ID = "M";
	position = (150 150);
	label = "Motive";
}

node D
{
	states = ("true" "false");
	ID = "D";
	position = (250 10);
	label = "DNA_match";
}

node T
{
	states = ("true" "false");
	ID = "T";
	position = (300 80);
	label = "Twin";
}

potential ( P | M )
{
	data = ((0.6124210104556208 0.3875789895443791) (0.12400100174338428 0.8759989982566158));
}

potential ( C | M P T )
{
	data = ((((0.514316530135333 0.4856834698646671) (0.514311799878898 0.48568820012110203)) ((0.5143031040779064 0.4856968959220937) (0.5143118121285631 0.4856881878714369))) (((0.010234718071748248 0.9897652819282516) (0.010230941160091912 0.9897690588399081)) ((0.010230770758445374 0.9897692292415545) (0.01023100135676699 0.989768998643233))));
}

potential ( M |  )
{
	data = (0.05241200000000001 0.9475879899999999);
}

potential ( D | M P T C )
{
	data = (((((0.9981525863790693 0.001847413620930697) (0.9822344419182573 0.017765558081742717)) ((0.9902300742999999 0.009769925700000185) (1.2986515451680747e-06 0.9999987013484548))) (((0.9981065088757396 0.0018934911242603546) (0.9822055137844612 0.01779448621553885)) ((0.9902304747564886 0.009769525243511448) (1.0260124947801614e-06 0.9999989739875053)))) ((((0.997943797121316 0.00205620287868403) (0.9822105673482406 0.017789432651759453)) ((0.9902321547361418 0.00976784526385813) (9.57447965967077e-07 0.9999990425520341))) (((0.9981558769290498 0.0018441230709502088) (0.9822123145360404 0.01778768546395962)) ((0.9902295466519181 0.009770453348081787) (9.979966756853942e-07 0.9999990020033244)))));
}

potential ( T | M P )
{
	data = (((0.012131829158074545 0.9878681708419255) (0.01213215259190924 0.9878678474080909)) ((0.012132063271168645 0.9878679367288313) (0.01213199406186922 0.9878680059381307)));
}

