net
{
    node_size = (70 20);
}

node P
{
	states = ("true" "false");
	ID = "P";
	position = (100 80);
	label = "Psych_report";
}

node C
{
	states = ("true" "false");
	ID = "C";
	position = (200 80);
	label = "Crime";
}

node M
{
	states = ("true" "false");
	ID = "M";
	position = (150 150);
	label = "Motive";
}

node D
{
	states = ("true" "false");
	ID = "D";
	position = (250 10);
	label = "DNA_match";
}

node T
{
	states = ("true" "false");
	ID = "T";
	position = (300 80);
	label = "Twin";
}

potential ( P |  )
{
	data = (0.14960007 0.85039992);
}

potential ( C | P )
{
	data = ((0.11838664246614324 0.8816133575338568) (0.022272144616382373 0.9777278553836176));
}

potential ( M | P C T )
{
	data = ((((0.9320984781495788 0.06790152185042118) (0.9321224889659107 0.06787751103408937)) ((0.11820033998300085 0.8817996600169992) (0.1182029934298539 0.881797006570146))) (((0.5516145878666551 0.4483854121333449) (0.5516099292106817 0.4483900707893183)) ((0.011866441564466897 0.9881335584355331) (0.01186607897060873 0.9881339210293912))));
}

potential ( D | P C T M )
{
	data = (((((0.9981525863790693 0.001847413620930697) (0.997943797121316 0.00205620287868403)) ((0.9902300742999999 0.009769925700000185) (0.9902321547361418 0.00976784526385813))) (((0.9822344419182573 0.017765558081742717) (0.9822105673482406 0.017789432651759453)) ((1.2986515451680747e-06 0.9999987013484548) (9.57447965967077e-07 0.9999990425520341)))) ((((0.9981065088757396 0.0018934911242603546) (0.9981558769290498 0.0018441230709502088)) ((0.9902304747564886 0.009769525243511448) (0.9902295466519181 0.009770453348081787))) (((0.9822055137844612 0.01779448621553885) (0.9822123145360404 0.01778768546395962)) ((1.0260124947801614e-06 0.9999989739875053) (9.979966756853942e-07 0.9999990020033244)))));
}

potential ( T | P C )
{
	data = (((0.01213224811060012 0.9878677518893998) (0.012131981473570815 0.9878680185264291)) ((0.012131848451681951 0.9878681515483181) (0.012132001251918781 0.9878679987480813)));
}

