net
{
    node_size = (70 20);
}

node P
{
	states = ("true" "false");
	ID = "P";
	position = (100 80);
	label = "Psych_report";
}

node C
{
	states = ("true" "false");
	ID = "C";
	position = (200 80);
	label = "Crime";
}

node M
{
	states = ("true" "false");
	ID = "M";
	position = (150 150);
	label = "Motive";
}

node D
{
	states = ("true" "false");
	ID = "D";
	position = (250 10);
	label = "DNA_match";
}

node T
{
	states = ("true" "false");
	ID = "T";
	position = (300 80);
	label = "Twin";
}

potential ( P |  )
{
	data = (0.14960007 0.85039992);
}

potential ( C | P M D )
{
	data = ((((0.9887635488775646 0.011236451122435525) (0.010261102326385297 0.9897388976736148)) ((0.46207437249901995 0.5379256275009799) (0.00010119610665599773 0.9998988038933441))) (((0.9887635188018497 0.011236481198150251) (0.010261267901633153 0.9897387320983668)) ((0.4620737926976468 0.5379262073023532) (0.00010119664789798945 0.9998988033521021))));
}

potential ( M | P )
{
	data = ((0.21456012687694598 0.785439873123054) (0.02388733761875236 0.9761126623812476));
}

potential ( D | P M )
{
	data = (((0.5151246751765908 0.4848753248234091) (0.021927227364741293 0.9780727726352587)) ((0.5151244548653895 0.48487554513461056) (0.021927278799369895 0.97807272120063)));
}

potential ( T | P M D C )
{
	data = (((((0.01222781624817494 0.987772183751825) (0.9998923515797407 0.00010764842025943269)) ((0.002316844082654978 0.997683155917345) (0.0002181261535205626 0.9997818738464794))) (((0.012229847210906067 0.9877701527890939) (0.9999206326300903 7.93673699096655e-05)) ((0.002579535683576956 0.9974204643164231) (0.0002184247070889869 0.999781575292911)))) ((((0.012227264160517275 0.9877727358394828) (0.9999149515223678 8.504847763225039e-05)) ((0.0023745918670228555 0.9976254081329772) (0.00021849313593042685 0.9997815068640696))) (((0.012227645369748349 0.9877723546302517) (0.9999172716390837 8.272836091626255e-05)) ((0.0023125608568646543 0.9976874391431354) (0.00021840289122560409 0.9997815971087743)))));
}

