net
{
    node_size = (70 20);
}

node P
{
	states = ("true" "false");
	ID = "P";
	position = (100 80);
	label = "Psych_report";
}

node C
{
	states = ("true" "false");
	ID = "C";
	position = (200 80);
	label = "Crime";
}

node M
{
	states = ("true" "false");
	ID = "M";
	position = (150 150);
	label = "Motive";
}

node D
{
	states = ("true" "false");
	ID = "D";
	position = (250 10);
	label = "DNA_match";
}

node T
{
	states = ("true" "false");
	ID = "T";
	position = (300 80);
	label = "Twin";
}

potential ( P |  )
{
	data = (0.14960007 0.85039992);
}

potential ( C | P M T D )
{
	data = (((((0.5183312590748808 0.4816687409251193) (0.09919571045576409 0.900804289544236)) ((0.9999987615255528 1.2384744471759686e-06) (0.010239783032024628 0.9897602169679754))) (((0.010396955177412327 0.9896030448225877) (0.0011937922801432549 0.9988062077198567)) ((0.9999064689476906 9.353105230936673e-05) (0.00010095714334452218 0.9998990428566554)))) ((((0.5183136676499508 0.48168633235004915) (0.10126582278481013 0.8987341772151899)) ((0.9999990215312058 9.784687941839816e-07) (0.010239365348232863 0.9897606346517672))) (((0.010395113366777484 0.9896048866332225) (0.001070482844103893 0.9989295171558961)) ((0.9999025085395298 9.749146047022177e-05) (0.00010098470124279188 0.9998990152987572)))));
}

potential ( M | P )
{
	data = ((0.21456012687694598 0.785439873123054) (0.02388733761875236 0.9761126623812476));
}

potential ( D | P M T )
{
	data = ((((0.9904214067435352 0.009578593256464908) (0.5092876425471793 0.4907123574528206)) ((0.982371592519326 0.01762840748067399) (0.01013195456230866 0.9898680454376914))) (((0.9903834449178333 0.009616555082166767) (0.5092877282190863 0.49071227178091364)) ((0.9823754294679562 0.01762457053204377) (0.010132027621476877 0.9898679723785232))));
}

potential ( T | P M )
{
	data = (((0.012131829158074545 0.9878681708419255) (0.012132063271168645 0.9878679367288313)) ((0.01213215259190924 0.9878678474080909) (0.01213199406186922 0.9878680059381307)));
}

