net
{
    node_size = (70 20);
}

node P
{
	states = ("true" "false");
	ID = "P";
	position = (100 80);
	label = "Psych_report";
}

node C
{
	states = ("true" "false");
	ID = "C";
	position = (200 80);
	label = "Crime";
}

node M
{
	states = ("true" "false");
	ID = "M";
	position = (150 150);
	label = "Motive";
}

node D
{
	states = ("true" "false");
	ID = "D";
	position = (250 10);
	label = "DNA_match";
}

node T
{
	states = ("true" "false");
	ID = "T";
	position = (300 80);
	label = "Twin";
}

potential ( P |  )
{
	data = ((Decimal('0.1250000000') Decimal('0.8750000000')));
}

potential ( C | M T D )
{
	data = ((Decimal('0.5') Decimal('0.5')) (Decimal('-1') Decimal('-1')) (Decimal('0.9990009990009990009990009990009990009990009990009990009990009990009990009990009990009990009990009990') Decimal('0.0009990009990009990009990009990009990009990009990009990009990009990009990009990009990009990009990009990')) (Decimal('0E+2') Decimal('1')) (Decimal('0.01') Decimal('0.99')) (Decimal('-1') Decimal('-1')) (Decimal('0.9099181073703366696997270245677888989990900818926296633303002729754322111010009099181073703366696997') Decimal('0.09008189262966333030027297543221110100090991810737033666969972702456778889899909008189262966333030027')) (Decimal('0E+2') Decimal('1')));
}

potential ( M | P )
{
	data = ((Decimal('0.24') Decimal('0.76')) (Decimal('0.02285714285714285714285714285714285714285714285714285714285714285714285714285714285714285714285714286') Decimal('0.9771428571428571428571428571428571428571428571428571428571428571428571428571428571428571428571428571')));
}

potential ( D | M T )
{
	data = ((Decimal('1') Decimal('0')) (Decimal('0.5005') Decimal('0.4995')) (Decimal('1') Decimal('0')) (Decimal('0.01099') Decimal('0.98901')));
}

potential ( T |  )
{
	data = ((Decimal('0.01') Decimal('0.99')));
}

