net
{
    node_size = (70 20);
}

node P
{
	states = ("true" "false");
	ID = "P";
	position = (100 80);
	label = "Psych_report";
}

node C
{
	states = ("true" "false");
	ID = "C";
	position = (200 80);
	label = "Crime";
}

node M
{
	states = ("true" "false");
	ID = "M";
	position = (150 150);
	label = "Motive";
}

node D
{
	states = ("true" "false");
	ID = "D";
	position = (250 10);
	label = "DNA_match";
}

node T
{
	states = ("true" "false");
	ID = "T";
	position = (300 80);
	label = "Twin";
}

potential ( P | C )
{
	data = ((Decimal('0.4623188405797101449275362318840579710144927536231884057971014492753623188405797101449275362318840580') Decimal('0.5376811594202898550724637681159420289855072463768115942028985507246376811594202898550724637681159420')) (Decimal('0.1129466597617814603832211289487312273433454168824443293630243397203521491455204557224236147074054894') Decimal('0.8870533402382185396167788710512687726566545831175556706369756602796478508544795442775763852925945106')));
}

potential ( C | T D )
{
	data = ((Decimal('0.0345') Decimal('0.9655')) (Decimal('-1') Decimal('-1')) (Decimal('0.9727763601246281597608943903229899479776120455090158040912999957705375646755297401700243899000437044') Decimal('0.02722363987537184023910560967701005202238795449098419590870000422946243532447025982997561009995629555')) (Decimal('0E+2') Decimal('1')));
}

potential ( M | C P )
{
	data = ((Decimal('0.9404388714733542319749216300940438871473354231974921630094043887147335423197492163009404388714733542') Decimal('0.05956112852664576802507836990595611285266457680250783699059561128526645768025078369905956112852664577')) (Decimal('0.5390835579514824797843665768194070080862533692722371967654986522911051212938005390835579514824797844') Decimal('0.4609164420485175202156334231805929919137466307277628032345013477088948787061994609164420485175202156')) (Decimal('0.1375515818431911966987620357634112792297111416781292984869325997248968363136176066024759284731774415') Decimal('0.8624484181568088033012379642365887207702888583218707015130674002751031636863823933975240715268225585')) (Decimal('0.01167610485142156576566057563196917508319224706637865608033160137778037246774476034794792457236265982') Decimal('0.9883238951485784342343394243680308249168077529336213439196683986222196275322552396520520754276373402')));
}

potential ( D | T )
{
	data = ((Decimal('1') Decimal('0')) (Decimal('0.0354655') Decimal('0.9645345')));
}

potential ( T |  )
{
	data = ((Decimal('0.01000000') Decimal('0.9900000000')));
}

