net
{
    node_size = (70 20);
}

node P
{
	states = ("true" "false");
	ID = "P";
	position = (100 80);
	label = "Psych_report";
}

node C
{
	states = ("true" "false");
	ID = "C";
	position = (200 80);
	label = "Crime";
}

node M
{
	states = ("true" "false");
	ID = "M";
	position = (150 150);
	label = "Motive";
}

node D
{
	states = ("true" "false");
	ID = "D";
	position = (250 10);
	label = "DNA_match";
}

node T
{
	states = ("true" "false");
	ID = "T";
	position = (300 80);
	label = "Twin";
}

potential ( P | D T )
{
	data = ((Decimal('0.125') Decimal('0.875')) (Decimal('0.4528076581466495608408171321425046876541991512878713115563011941182275732754366919964472515543274450') Decimal('0.5471923418533504391591828678574953123458008487121286884436988058817724267245633080035527484456725550')) (Decimal('-1') Decimal('-1')) (Decimal('0.1129466597617814603832211289487312273433454168824443293630243397203521491455204557224236147074054894') Decimal('0.8870533402382185396167788710512687726566545831175556706369756602796478508544795442775763852925945106')));
}

potential ( C | D T P )
{
	data = ((Decimal('0.1276') Decimal('0.8724')) (Decimal('0.0212') Decimal('0.9788')) (Decimal('0.9932094364236987866654627764406985469252539845134052138825148436551352664074151335228422602831425271') Decimal('0.006790563576301213334537223559301453074746015486594786117485156344864733592584866477157739716857472889')) (Decimal('0.9558677656140097751005464677980774433242555954334770140855231121611629123306941764207260987970494346') Decimal('0.04413223438599022489945353220192255667574440456652298591447688783883708766930582357927390120295056540')) (Decimal('-1') Decimal('-1')) (Decimal('-1') Decimal('-1')) (Decimal('0E+2') Decimal('1')) (Decimal('0E+2') Decimal('1')));
}

potential ( M | P C )
{
	data = ((Decimal('0.9404388714733542319749216300940438871473354231974921630094043887147335423197492163009404388714733542') Decimal('0.05956112852664576802507836990595611285266457680250783699059561128526645768025078369905956112852664577')) (Decimal('0.1375515818431911966987620357634112792297111416781292984869325997248968363136176066024759284731774415') Decimal('0.8624484181568088033012379642365887207702888583218707015130674002751031636863823933975240715268225585')) (Decimal('0.5390835579514824797843665768194070080862533692722371967654986522911051212938005390835579514824797844') Decimal('0.4609164420485175202156334231805929919137466307277628032345013477088948787061994609164420485175202156')) (Decimal('0.01167610485142156576566057563196917508319224706637865608033160137778037246774476034794792457236265982') Decimal('0.9883238951485784342343394243680308249168077529336213439196683986222196275322552396520520754276373402')));
}

potential ( D |  )
{
	data = ((Decimal('0.0451108450') Decimal('0.9548891550')));
}

potential ( T | D )
{
	data = ((Decimal('0.2216761845183791170393726829989551293042726200318349168586844249980243110054799461193865909627718124') Decimal('0.7783238154816208829606273170010448706957273799681650831413155750019756889945200538806134090372281876')) (Decimal('0E+2') Decimal('1')));
}

