net
{
	propagationenginegenerator1791944048146838126L = "edu.ucla.belief.approx.BeliefPropagationSettings@36f3f021";
	recoveryenginegenerator6944530267470113528l = "edu.ucla.util.SettingsImpl@b1cbc13";
	node_size = (130 55);
}

node A
{
	states = ("On" "Off");
	ID = "A";
	position = (310 252);
	label = "Alarm";
}

node E
{
	states = ("Present" "Absent");
	ID = "E";
	position = (442 130);
	label = "Earthquake";
}

node B
{
	states = ("Present" "Absent");
	ID = "B";
	position = (169 128);
	label = "Burglary";
}

node J
{
	states = ("Present" "Absent");
	ID = "J";
	position = (179 367);
	label = "JohnCalls";
}

node M
{
	states = ("Present" "Absent");
	ID = "M";
	position = (446 365);
	label = "MaryCalls";
}

potential ( A | J E B M )
{
	data = ((Decimal('0.99995823065034877406958773651894240006683095944196') Decimal('0.000041769349651225930412263481057599933169040558038511')) (Decimal('0.99044309296264118158123370981754995655951346655083') Decimal('0.0095569070373588184187662901824500434404865334491746')) (Decimal('0.99806069214170604463139493594821228592499522001584') Decimal('0.0019393078582939553686050640517877140750047799841578')) (Decimal('0.69020230067433558111860372867909559698532328441095') Decimal('0.30979769932566441888139627132090440301467671558905')) (Decimal('0.99994934400486297553315434881718251355047869915404') Decimal('0.000050655995137024466845651182817486449521300845955119')) (Decimal('0.98843322818086225026288117770767613038906414300736') Decimal('0.011566771819137749737118822292323869610935856992639')) (Decimal('0.55776892430278884462151394422310756972111553784861') Decimal('0.44223107569721115537848605577689243027888446215139')) (Decimal('0.0054303556882975834917187075753461851751289709475971') Decimal('0.99456964431170241650828129242465381482487102905240')) (Decimal('0.99290780141843971631205673758865248226950354609929') Decimal('0.0070921985815602836879432624113475177304964539007092')) (Decimal('0.37735849056603773584905660377358490566037735849057') Decimal('0.62264150943396226415094339622641509433962264150943')) (Decimal('0.75060085043446108337955259752264743945276391199852') Decimal('0.24939914956553891662044740247735256054723608800148')) (Decimal('0.012861165931214936692019424795440938421624498303657') Decimal('0.98713883406878506330798057520455906157837550169634')) (Decimal('0.99141178243182160614735573301190296820852794937472') Decimal('0.0085882175681783938526442669880970317914720506252825')) (Decimal('0.33321517192484934420418291386033321517192484934420') Decimal('0.66678482807515065579581708613966678482807515065580')) (Decimal('0.0073217927932639506301971654202186078133988808116730') Decimal('0.99267820720673604936980283457978139218660111918833')) (Decimal('0.000031928837008076399321192925208295750431438410071632') Decimal('0.99996807116299192360067880707479170424956856158993')));
}

potential ( E | J )
{
	data = ((Decimal('0.011394968773811181718324397385505216206232451935184') Decimal('0.98860503122618881828167560261449478379376754806482')) (Decimal('0.0014832111079134705169878984758251125823826112141997') Decimal('0.99851678889208652948301210152417488741761738878580')));
}

potential ( B | J E )
{
	data = ((Decimal('0.0028866125139281157742012583274142347867946314056709') Decimal('0.99711338748607188422579874167258576521320536859433')) (Decimal('0.016438149285114762096996697848809686310158253490202') Decimal('0.98356185071488523790300330215119031368984174650980')) (Decimal('0.00020272029294149278955926474416699030783609957620789') Decimal('0.99979727970705850721044073525583300969216390042379')) (Decimal('0.00015922360461467966767819348905155823758871773171529') Decimal('0.99984077639538532033232180651094844176241128226828')));
}

potential ( J |  )
{
	data = ((Decimal('0.0521389757000') Decimal('0.9478610243000')));
}

potential ( M | J E B )
{
	data = ((Decimal('0.69798833819241982507288629737609329446064139941691') Decimal('0.30201166180758017492711370262390670553935860058309')) (Decimal('0.61738617200674536256323777403035413153456998313659') Decimal('0.38261382799325463743676222596964586846543001686341')) (Decimal('0.69756183745583038869257950530035335689045936395760') Decimal('0.30243816254416961130742049469964664310954063604240')) (Decimal('0.022212389380530973451327433628318584070796460176991') Decimal('0.97778761061946902654867256637168141592920353982301')) (Decimal('0.47') Decimal('0.53')) (Decimal('0.038443496801705756929637526652452025586353944562900') Decimal('0.96155650319829424307036247334754797441364605543710')) (Decimal('0.43953642384105960264900662251655629139072847682119') Decimal('0.56046357615894039735099337748344370860927152317881')) (Decimal('0.010072696623294526681767897592582837275456987831217') Decimal('0.98992730337670547331823210240741716272454301216878')));
}

