net
{
	propagationenginegenerator1791944048146838126L = "edu.ucla.belief.approx.BeliefPropagationSettings@36f3f021";
	recoveryenginegenerator6944530267470113528l = "edu.ucla.util.SettingsImpl@b1cbc13";
	node_size = (130 55);
}

node A
{
	states = ("On" "Off");
	ID = "A";
	position = (310 252);
	label = "Alarm";
}

node E
{
	states = ("Present" "Absent");
	ID = "E";
	position = (442 130);
	label = "Earthquake";
}

node B
{
	states = ("Present" "Absent");
	ID = "B";
	position = (169 128);
	label = "Burglary";
}

node J
{
	states = ("Present" "Absent");
	ID = "J";
	position = (179 367);
	label = "JohnCalls";
}

node M
{
	states = ("Present" "Absent");
	ID = "M";
	position = (446 365);
	label = "MaryCalls";
}

potential ( A | M J )
{
	data = ((Decimal('0.76069203886310767799878362760458375438053965887003') Decimal('0.23930796113689232200121637239541624561946034112997')) (Decimal('0.018249738245007478100373211413164684071907952463304') Decimal('0.98175026175499252189962678858683531592809204753670')) (Decimal('0.013573889331307630241153982680568355914543546925158') Decimal('0.98642611066869236975884601731943164408545645307484')) (Decimal('0.000080465309688836211459006778057888127121906345899642') Decimal('0.99991953469031116378854099322194211187287809365410')));
}

potential ( E | A )
{
	data = ((Decimal('0.23100870196889099768641597938676909700283177597576') Decimal('0.76899129803110900231358402061323090299716822402424')) (Decimal('0.0014222590323639199273899209474488400539630749482489') Decimal('0.99857774096763608007261007905255115994603692505175')));
}

potential ( B | A E )
{
	data = ((Decimal('0.0032684235876969655267322645014793917291681001857841') Decimal('0.99673157641230303447326773549852060827083189981422')) (Decimal('0.48478597215059308922124806601340897369778236204229') Decimal('0.51521402784940691077875193398659102630221763795771')) (Decimal('0.000070488059322750726027011024332478078213550624524206') Decimal('0.99992951194067724927397298897566752192178644937548')) (Decimal('0.000060116566021515718979100475822620060296915719580266') Decimal('0.99993988343397848428102089952417737993970308428042')));
}

potential ( J | M )
{
	data = ((Decimal('0.17757660008729566161747232484640205250681034428829') Decimal('0.82242339991270433838252767515359794749318965571171')) (Decimal('0.050649313274590689803833963927291569496658428271418') Decimal('0.94935068672540931019616603607270843050334157172858')));
}

potential ( M |  )
{
	data = ((Decimal('0.0117363449800') Decimal('0.9882636550200')));
}

