net
{
	propagationenginegenerator1791944048146838126L = "edu.ucla.belief.approx.BeliefPropagationSettings@36f3f021";
	recoveryenginegenerator6944530267470113528l = "edu.ucla.util.SettingsImpl@b1cbc13";
	node_size = (130 55);
}

node A
{
	states = ("On" "Off");
	ID = "A";
	position = (310 252);
	label = "Alarm";
}

node E
{
	states = ("Present" "Absent");
	ID = "E";
	position = (442 130);
	label = "Earthquake";
}

node B
{
	states = ("Present" "Absent");
	ID = "B";
	position = (169 128);
	label = "Burglary";
}

node J
{
	states = ("Present" "Absent");
	ID = "J";
	position = (179 367);
	label = "JohnCalls";
}

node M
{
	states = ("Present" "Absent");
	ID = "M";
	position = (446 365);
	label = "MaryCalls";
}

potential ( A | J B E )
{
	data = ((Decimal('0.99708454810495626822157434402332361516034985422741') Decimal('0.0029154518950437317784256559766763848396501457725948')) (Decimal('0.99646643109540636042402826855123674911660777385159') Decimal('0.0035335689045936395759717314487632508833922261484099')) (Decimal('0.88026981450252951096121416526138279932546374367622') Decimal('0.11973018549747048903878583473861720067453625632378')) (Decimal('0.017699115044247787610619469026548672566371681415929') Decimal('0.98230088495575221238938053097345132743362831858407')) (Decimal('0.66666666666666666666666666666666666666666666666667') Decimal('0.33333333333333333333333333333333333333333333333333')) (Decimal('0.62251655629139072847682119205298013245033112582781') Decimal('0.37748344370860927152317880794701986754966887417219')) (Decimal('0.041222459132906894100923951670220326936744847192608') Decimal('0.95877754086709310589907604832977967306325515280739')) (Decimal('0.00010535742506453142285202549649686561660433019017015') Decimal('0.99989464257493546857714797450350313438339566980983')));
}

potential ( E | J B )
{
	data = ((Decimal('0.0020199831098788363483887837346013095144149057086018') Decimal('0.99798001689012116365161121626539869048558509429140')) (Decimal('0.011550155527810943626281375812455080023295086022364') Decimal('0.98844984447218905637371862418754491997670491397764')) (Decimal('0.0018876297331487650927587874131524741196028691971944') Decimal('0.99811237026685123490724121258684752588039713080281')) (Decimal('0.0014831466785683829179029296837735214993548259242233') Decimal('0.99851685332143161708209707031622647850064517407578')));
}

potential ( B | J )
{
	data = ((Decimal('0.016283729946769936257109861097635640740061565881510') Decimal('0.98371627005323006374289013890236435925993843411849')) (Decimal('0.00015928811938596344708885399414138564870200244185734') Decimal('0.99984071188061403655291114600585861435129799755814')));
}

potential ( J |  )
{
	data = ((Decimal('0.0521389757000') Decimal('0.9478610243000')));
}

potential ( M | A )
{
	data = ((Decimal('0.7') Decimal('0.3')) (Decimal('0.01') Decimal('0.99')));
}

