net
{
	propagationenginegenerator1791944048146838126L = "edu.ucla.belief.approx.BeliefPropagationSettings@36f3f021";
	recoveryenginegenerator6944530267470113528l = "edu.ucla.util.SettingsImpl@b1cbc13";
	node_size = (130 55);
}

node A
{
	states = ("On" "Off");
	ID = "A";
	position = (310 252);
	label = "Alarm";
}

node E
{
	states = ("Present" "Absent");
	ID = "E";
	position = (442 130);
	label = "Earthquake";
}

node B
{
	states = ("Present" "Absent");
	ID = "B";
	position = (169 128);
	label = "Burglary";
}

node J
{
	states = ("Present" "Absent");
	ID = "J";
	position = (179 367);
	label = "JohnCalls";
}

node M
{
	states = ("Present" "Absent");
	ID = "M";
	position = (446 365);
	label = "MaryCalls";
}

potential ( A | M B E )
{
	data = ((Decimal('0.99924868519909842223891810668670172802404207362885') Decimal('0.00075131480090157776108189331329827197595792637114951')) (Decimal('0.99908897661706650470695414515639234740358335863954') Decimal('0.00091102338293349529304585484360765259641664136046159')) (Decimal('0.96620656830080913850547358400761542122798667301285') Decimal('0.033793431699190861494526415992384578772013326987149')) (Decimal('0.065481758652946679139382600561272217025257249766137') Decimal('0.93451824134705332086061739943872778297474275023386')) (Decimal('0.85201793721973094170403587443946188340807174887892') Decimal('0.14798206278026905829596412556053811659192825112108')) (Decimal('0.82601054481546572934973637961335676625659050966608') Decimal('0.17398945518453427065026362038664323374340949033392')) (Decimal('0.11014052411697683251044436004557538928978351690087') Decimal('0.88985947588302316748955563995442461071021648309913')) (Decimal('0.00030324165327349364708736392030809351972586954544076') Decimal('0.99969675834672650635291263607969190648027413045456')));
}

potential ( E | M B )
{
	data = ((Decimal('0.0020209111925683913698741204633124905673097041088419') Decimal('0.99797908880743160863012587953668750943269029589116')) (Decimal('0.037894022988920372050407527581834676728452621649553') Decimal('0.96210597701107962794959247241816532327154737835045')) (Decimal('0.0019596574202472156167999760974520938456211762514126') Decimal('0.99804034257975278438320002390254790615437882374859')) (Decimal('0.0015975145513068221152075558494545485874676833970064') Decimal('0.99840248544869317788479244415054545141253231660299')));
}

potential ( B | M )
{
	data = ((Decimal('0.056117454038914933122560615119205536509374147589176') Decimal('0.94388254596108506687743938488079446349062585241082')) (Decimal('0.00034544040779592485554280704868089463335205027582741') Decimal('0.99965455959220407514445719295131910536664794972417')));
}

potential ( J | A )
{
	data = ((Decimal('0.9') Decimal('0.1')) (Decimal('0.05') Decimal('0.95')));
}

potential ( M |  )
{
	data = ((Decimal('0.0117363449800') Decimal('0.9882636550200')));
}

