net
{
	propagationenginegenerator1791944048146838126L = "edu.ucla.belief.approx.BeliefPropagationSettings@ec52e37";
	recoveryenginegenerator6944530267470113528l = "edu.ucla.util.SettingsImpl@447fdf07";
	node_size = (130.0 55.0);
}

node S
{
	states = ("On" "Off");
	ID = "S";
	position = (80 60);
	label = "SPRINKLER";
}

node R
{
	states = ("Yes" "No");
	ID = "R";
	position = (290 60);
	label = "RAIN";
}

node G
{
	states = ("Yes" "No");
	ID = "G";
	position = (195 160);
	label = "GRASS WET";
}

potential ( S | G R )
{
	data = (((Decimal('0') Decimal('1')) (Decimal('0.1851851851851851851851851851851851851851851851851851851851851851851851851851851851851851851851851852') Decimal('0.8148148148148148148148148148148148148148148148148148148148148148148148148148148148148148148148148148'))) ((Decimal('0.5555555555555555555555555555555555555555555555555555555555555555555555555555555555555555555555555556') Decimal('0.4444444444444444444444444444444444444444444444444444444444444444444444444444444444444444444444444444')) (Decimal('0.7142857142857142857142857142857142857142857142857142857142857142857142857142857142857142857142857143') Decimal('0.2857142857142857142857142857142857142857142857142857142857142857142857142857142857142857142857142857'))));
}

potential ( R | G )
{
	data = ((Decimal('0.1413427561837455830388692579505300353356890459363957597173144876325088339222614840989399293286219081') Decimal('0.8586572438162544169611307420494699646643109540636042402826855123674911660777385159010600706713780919')) (Decimal('0.7627118644067796610169491525423728813559322033898305084745762711864406779661016949152542372881355932') Decimal('0.2372881355932203389830508474576271186440677966101694915254237288135593220338983050847457627118644068')));
}

potential ( G |  )
{
	data = (Decimal('0.9056') Decimal('0.0944'));
}

