net
{
	propagationenginegenerator1791944048146838126L = "edu.ucla.belief.approx.BeliefPropagationSettings@ec52e37";
	recoveryenginegenerator6944530267470113528l = "edu.ucla.util.SettingsImpl@447fdf07";
	node_size = (130.0 55.0);
}

node S
{
	states = ("On" "Off");
	ID = "S";
	position = (80 60);
	label = "SPRINKLER";
}

node R
{
	states = ("Yes" "No");
	ID = "R";
	position = (290 60);
	label = "RAIN";
}

node G
{
	states = ("Yes" "No");
	ID = "G";
	position = (195 160);
	label = "GRASS WET";
}

potential ( S | G )
{
	data = ((Decimal('0.1590106007067137809187279151943462897526501766784452296819787985865724381625441696113074204946996466') Decimal('0.8409893992932862190812720848056537102473498233215547703180212014134275618374558303886925795053003534')) (Decimal('0.5932203389830508474576271186440677966101694915254237288135593220338983050847457627118644067796610169') Decimal('0.4067796610169491525423728813559322033898305084745762711864406779661016949152542372881355932203389831')));
}

potential ( R | G S )
{
	data = (((Decimal('0') Decimal('1')) (Decimal('0.1680672268907563025210084033613445378151260504201680672268907563025210084033613445378151260504201681') Decimal('0.8319327731092436974789915966386554621848739495798319327731092436974789915966386554621848739495798319'))) ((Decimal('0.7142857142857142857142857142857142857142857142857142857142857142857142857142857142857142857142857143') Decimal('0.2857142857142857142857142857142857142857142857142857142857142857142857142857142857142857142857142857')) (Decimal('0.8333333333333333333333333333333333333333333333333333333333333333333333333333333333333333333333333333') Decimal('0.1666666666666666666666666666666666666666666666666666666666666666666666666666666666666666666666666667'))));
}

potential ( G |  )
{
	data = (Decimal('0.9056') Decimal('0.0944'));
}

