net
{
	propagationenginegenerator1791944048146838126L = "edu.ucla.belief.approx.BeliefPropagationSettings@7373d1cb";
	recoveryenginegenerator6944530267470113528l = "edu.ucla.util.SettingsImpl@2db706c6";
	node_size = (130 55);
}

node BW
{
	states = ("T" "F");
	ID = "BW";
	position = (145 158);
	label = "Broken window";
}

node TB
{
	states = ("T" "F");
	ID = "TB";
	position = (52 58);
	label = "Tree branch";
}

node SF
{
	states = ("T" "F");
	ID = "SF";
	position = (330 157);
	label = "Stone found";
}

node ST
{
	states = ("T" "F");
	ID = "ST";
	position = (241 59);
	label = "Stone thrown";
}

potential ( BW | TB )
{
	data = ((0.99801 0.00199) (0.09910000000000002 0.9009000000000001));
}

potential ( TB |  )
{
	data = (0.9990000000000001 0.0009999999999999998);
}

potential ( SF | TB BW )
{
	data = (((0.9908928677979089 0.009107132202091172) (0.5472407080447281 0.4527592919552718)) ((0.998082744702321 0.001917255297679112) (0.9891219891219891 0.010878010878010878)));
}

potential ( ST | TB BW SF )
{
	data = ((((0.9990899171842857 0.0009100828157142423) (0.1088137340417096 0.8911862659582903)) ((0.9081733951025811 0.09182660489741892) (0.0010998900109989002 0.9989001099890011))) (((0.99989889798807 0.00010110201193003741) (0.5263157894736843 0.4736842105263158)) ((0.998889013578723 0.0011109864212770733) (0.09081632653061225 0.9091836734693878))));
}

