net
{
	HRUNTIME_Propagate_AutoNormal = "1";
	HR_Font_Size = "-12";
	HRUNTIME_Font_Size = "-12";
	HR_Grid_GridSnap = "1";
	HRUNTIME_Propagate_AutoSum = "1";
	HR_Propagate_AutoNormal = "1";
	node_size = (100.0 40.0);
	HRUNTIME_Monitor_GraphPrecision = "100";
	HR_Grid_GridShow = "0";
	HR_Font_Name = "Arial";
	HR_Compile_ApproxEpsilon = "0.00001";
	HRUNTIME_Monitor_AutoUpdGraph = "0";
	HRUNTIME_Font_Name = "Arial";
	HRUNTIME_Font_Weight = "400";
	HR_Font_Weight = "400";
	HR_Monitor_AutoUpdGraph = "0";
	HRUNTIME_Compile_Compress = "0";
	HR_Compile_Compress = "0";
	HRUNTIME_Compile_TriangMethod = "0";
	HR_Grid_Y = "10";
	HR_Grid_X = "10";
	HR_Groups_GroupNames = "";
	HR_Compile_Approximate = "0";
	HRUNTIME_Compile_Approximate = "0";
	HR_Compile_TriangMethod = "0";
	HR_Color_DiscreteChance = "16";
	HRUNTIME_Compile_ApproxEpsilon = "0.00001";
	HR_Monitor_InitStates = "5";
	HRUNTIME_Grid_GridSnap = "1";
	HR_Color_ContinuosChance = "48";
	HRUNTIME_Propagate_Auto = "0";
	HR_Groups_GroupColors = "";
	HR_Monitor_OpenGraph = "0";
	HRUNTIME_Grid_GridShow = "0";
	HR_Monitor_InitSD = "2";
	HR_Groups_UserGroupsNo = "0";
	HR_Color_Decision = "17";
	HRUNTIME_Monitor_InitStates = "5";
	HRUNTIME_Grid_Y = "10";
	HRUNTIME_Grid_X = "10";
	HR_Propagate_Auto = "0";
	HR_Monitor_GraphPrecision = "100";
	HRUNTIME_Font_Italic = "0";
	HRUNTIME_Monitor_OpenGraph = "0";
	HR_Font_Italic = "0";
	HR_Propagate_AutoSum = "1";
	HR_Color_Utility = "36";
}

node A
{
	states = ("Present" "Absent");
	ID = "A";
	position = (131 0);
	label = "A:Metastatic Cancer";
}

node C
{
	states = ("Present" "Absent");
	ID = "C";
	position = (255 128);
	label = "C:  Brain Tumor";
}

node B
{
	states = ("Increased" "Not increased");
	ID = "B";
	position = (0 128);
	label = "B: Serum Calcium";
}

node E
{
	states = ("Present" "Absent");
	ID = "E";
	position = (414 266);
	label = "E: Severe Headaches";
}

node D
{
	states = ("Present" "Absent");
	ID = "D";
	position = (147 256);
	label = "D: Coma";
}

potential ( A |  )
{
	data = ((Decimal('0.21165230000000000000000000000000000') Decimal('0.78834770000000000000000000000000000')));
}

potential ( C | A E D B )
{
	data = ((Decimal('0.2548801052507724040183388169774214163682484991182491527067265324223693847519529188530478503432444576') Decimal('0.7451198947492275959816611830225785836317515008817508472932734675776306152480470811469521496567555424')) (Decimal('0.9584194776867839990496670345872660629133499571034829122974179682515248086721652640777312811140122878') Decimal('0.04158052231321600095033296541273393708665004289651708770258203174847519132783473592226871888598771219')) (Decimal('0.2947895256048040681532528990950513165583469428588944278825077900434915298128194695283574464730818039') Decimal('0.7052104743951959318467471009049486834416530571411055721174922099565084701871805304716425535269181961')) (Decimal('0.08895844147889960854520368996757889232172674274147592820316966161619816820372116547449405899468301160') Decimal('0.9110415585211003914547963100324211076782732572585240717968303383838018317962788345255059410053169884')) (Decimal('0.1167562011065559001036989555962250498888812023064761161498047914351028806725311676706915309887591083') Decimal('0.8832437988934440998963010444037749501111187976935238838501952085648971193274688323293084690112408917')) (Decimal('0.8990662468737092738750962267667310017640241597075940312221338336417883602581287114173326763712749537') Decimal('0.1009337531262907261249037732332689982359758402924059687778661663582116397418712885826673236287250463')) (Decimal('0.1390747587759489173439259457493462039230065679747300113887985770759498536013561389830844245088323309') Decimal('0.8609252412240510826560740542506537960769934320252699886112014229240501463986438610169155754911676691')) (Decimal('0.03636238022973750881179586444830895845322802393111797090026467002011751576371886865116503140905580220') Decimal('0.9636376197702624911882041355516910415467719760688820290997353299798824842362811313488349685909441978')) (Decimal('0.06442941736409525378874868945475525142596057132505575265931239802086813367949758114706162267505823890') Decimal('0.9355705826359047462112513105452447485740394286749442473406876019791318663205024188529383773249417611')) (Decimal('0.8227103433622863826405492891697016039848647828278390804080979754651623099565892481932186491880701719') Decimal('0.1772896566377136173594507108302983960151352171721609195919020245348376900434107518067813508119298281')) (Decimal('0.07762451727021145635297503527438063451958252270205631788979526928257667789534612427922355895929397271') Decimal('0.9223754827297885436470249647256193654804174772979436821102047307174233221046538757207764410407060273')) (Decimal('0.01927934029920721282336037810410146177357363521139987588195373523932551451405444871749419037723382616') Decimal('0.9807206597007927871766396218958985382264263647886001241180462647606744854859455512825058096227661738')) (Decimal('0.02592330557994074136293014864616447845661600635994576192410778538781543744803037297139296654504766122') Decimal('0.9740766944200592586370698513538355215433839936400542380758922146121845625519696270286070334549523388')) (Decimal('0.6420006019564978926893003128213704123294230450132213285768714085524662365583349139419149474357298545') Decimal('0.3579993980435021073106996871786295876705769549867786714231285914475337634416650860580850525642701455')) (Decimal('0.03149787955958947911677613573793797520077067199594182457351715544506839216239405338752784214439791591') Decimal('0.9685021204404105208832238642620620247992293280040581754264828445549316078376059466124721578556020841')) (Decimal('0.007539622512552225165711763259160292009148390491618588981245371292201611961740016762578066184584201824') Decimal('0.9924603774874477748342882367408397079908516095083814110187546287077983880382599832374219338154157982')));
}

potential ( B | A E D )
{
	data = ((Decimal('0.9161054832989658601525079584108743653842576638965137243934998826407516307088751662916745925360970597') Decimal('0.08389451670103413984749204158912563461574233610348627560650011735924836929112483370832540746390294035')) (Decimal('0.3804261820824140319021717662800967673266475278168319970384353511830398813679102863117342965211901850') Decimal('0.6195738179175859680978282337199032326733524721831680029615646488169601186320897136882657034788098150')) (Decimal('0.9571948141723775618451436442569105449905104869406519338239752705645850605129461512855644633719145393') Decimal('0.04280518582762243815485635574308945500948951305934806617602472943541493948705384871443553662808546067')) (Decimal('0.3472556570788133340364426670289511015514082256897317948703325619345987782873473638292123891077237666') Decimal('0.6527443429211866659635573329710488984485917743102682051296674380654012217126526361707876108922762334')) (Decimal('0.6736029048033094404108198847344149352635180111987271108158230732340090065295837429686795316411359109') Decimal('0.3263970951966905595891801152655850647364819888012728891841769267659909934704162570313204683588640891')) (Decimal('0.02735596926231260299102171603135929162761942449128572674994415542256447100668245291128060152278357266') Decimal('0.9726440307376873970089782839686407083723805755087142732500558445774355289933175470887193984772164273')) (Decimal('0.8001031275912211770295443681838511540792335117556504207095802175148298966606209912828358547877448539') Decimal('0.1998968724087788229704556318161488459207664882443495792904197824851701033393790087171641452122551461')) (Decimal('0.02639111490875610807575296384562189599507153895181428024170195184210222423198199216281176380638739310') Decimal('0.9736088850912438919242470361543781040049284610481857197582980481578977757680180078371882361936126069')));
}

potential ( E | A )
{
	data = ((Decimal('0.64293554942288') Decimal('0.35706445057712')) (Decimal('0.61171943721141') Decimal('0.38828056278859')));
}

potential ( D | A E )
{
	data = ((Decimal('0.6476543281207261717007091491704157036723670217075357795471926371037902861730689024058500497545425521') Decimal('0.3523456718792738282992908508295842963276329782924642204528073628962097138269310975941499502454574479')) (Decimal('0.6231859989649406115915406595035995730946685237794042547680963940494109930747906370311489355957540054') Decimal('0.3768140010350593884084593404964004269053314762205957452319036059505890069252093629688510644042459946')) (Decimal('0.1577218012683656307486217574666241547822208360488808418407442254061452412323573667172313981945780646') Decimal('0.8422781987316343692513782425333758452177791639511191581592557745938547587676426332827686018054219354')) (Decimal('0.1329849910621347324115318535250036431870554906096996703638667777238828086241496064051794122131191500') Decimal('0.8670150089378652675884681464749963568129445093903003296361332222761171913758503935948205877868808500')));
}

