net
{
	HRUNTIME_Propagate_AutoNormal = "1";
	HR_Font_Size = "-12";
	HRUNTIME_Font_Size = "-12";
	HR_Grid_GridSnap = "1";
	HRUNTIME_Propagate_AutoSum = "1";
	HR_Propagate_AutoNormal = "1";
	node_size = (100.0 40.0);
	HRUNTIME_Monitor_GraphPrecision = "100";
	HR_Grid_GridShow = "0";
	HR_Font_Name = "Arial";
	HR_Compile_ApproxEpsilon = "0.00001";
	HRUNTIME_Monitor_AutoUpdGraph = "0";
	HRUNTIME_Font_Name = "Arial";
	HRUNTIME_Font_Weight = "400";
	HR_Font_Weight = "400";
	HR_Monitor_AutoUpdGraph = "0";
	HRUNTIME_Compile_Compress = "0";
	HR_Compile_Compress = "0";
	HRUNTIME_Compile_TriangMethod = "0";
	HR_Grid_Y = "10";
	HR_Grid_X = "10";
	HR_Groups_GroupNames = "";
	HR_Compile_Approximate = "0";
	HRUNTIME_Compile_Approximate = "0";
	HR_Compile_TriangMethod = "0";
	HR_Color_DiscreteChance = "16";
	HRUNTIME_Compile_ApproxEpsilon = "0.00001";
	HR_Monitor_InitStates = "5";
	HRUNTIME_Grid_GridSnap = "1";
	HR_Color_ContinuosChance = "48";
	HRUNTIME_Propagate_Auto = "0";
	HR_Groups_GroupColors = "";
	HR_Monitor_OpenGraph = "0";
	HRUNTIME_Grid_GridShow = "0";
	HR_Monitor_InitSD = "2";
	HR_Groups_UserGroupsNo = "0";
	HR_Color_Decision = "17";
	HRUNTIME_Monitor_InitStates = "5";
	HRUNTIME_Grid_Y = "10";
	HRUNTIME_Grid_X = "10";
	HR_Propagate_Auto = "0";
	HR_Monitor_GraphPrecision = "100";
	HRUNTIME_Font_Italic = "0";
	HRUNTIME_Monitor_OpenGraph = "0";
	HR_Font_Italic = "0";
	HR_Propagate_AutoSum = "1";
	HR_Color_Utility = "36";
}

node A
{
	states = ("Present" "Absent");
	ID = "A";
	position = (131 0);
	label = "A:Metastatic Cancer";
}

node C
{
	states = ("Present" "Absent");
	ID = "C";
	position = (255 128);
	label = "C:  Brain Tumor";
}

node B
{
	states = ("Increased" "Not increased");
	ID = "B";
	position = (0 128);
	label = "B: Serum Calcium";
}

node E
{
	states = ("Present" "Absent");
	ID = "E";
	position = (414 266);
	label = "E: Severe Headaches";
}

node D
{
	states = ("Present" "Absent");
	ID = "D";
	position = (147 256);
	label = "D: Coma";
}

potential ( A | B E )
{
	data = ((Decimal('0.6135345685110037277833820692256812416695249557736164920482752185643143012203651031919240301593102751') Decimal('0.3864654314889962722166179307743187583304750442263835079517247814356856987796348968080759698406897249')) (Decimal('0.5814215102538629989431158409269109795135092352152580833265043296193428777350636995471999737518353122') Decimal('0.4185784897461370010568841590730890204864907647847419166734956703806571222649363004528000262481646878')) (Decimal('0.08118214297019408022316450754903857127593145474741660361647102071522651853435963986255257283429491538') Decimal('0.9188178570298059197768354924509614287240685452525833963835289792847734814656403601374474271657050846')) (Decimal('0.07175919287051670475598677334478228564037150470205690968574621138016970409942239686725272875989943156') Decimal('0.9282408071294832952440132266552177143596284952979430903142537886198302959005776031327472712401005684')));
}

potential ( C | B E A D )
{
	data = ((Decimal('0.2548801052507724040183388169774214163682484991182491527067265324223693847519529188530478503432444576') Decimal('0.7451198947492275959816611830225785836317515008817508472932734675776306152480470811469521496567555424')) (Decimal('0.2947895256048040681532528990950513165583469428588944278825077900434915298128194695283574464730818039') Decimal('0.7052104743951959318467471009049486834416530571411055721174922099565084701871805304716425535269181961')) (Decimal('0.06442941736409525378874868945475525142596057132505575265931239802086813367949758114706162267505823890') Decimal('0.9355705826359047462112513105452447485740394286749442473406876019791318663205024188529383773249417611')) (Decimal('0.07762451727021145635297503527438063451958252270205631788979526928257667789534612427922355895929397271') Decimal('0.9223754827297885436470249647256193654804174772979436821102047307174233221046538757207764410407060273')) (Decimal('0.1167562011065559001036989555962250498888812023064761161498047914351028806725311676706915309887591083') Decimal('0.8832437988934440998963010444037749501111187976935238838501952085648971193274688323293084690112408917')) (Decimal('0.1390747587759489173439259457493462039230065679747300113887985770759498536013561389830844245088323309') Decimal('0.8609252412240510826560740542506537960769934320252699886112014229240501463986438610169155754911676691')) (Decimal('0.02592330557994074136293014864616447845661600635994576192410778538781543744803037297139296654504766122') Decimal('0.9740766944200592586370698513538355215433839936400542380758922146121845625519696270286070334549523388')) (Decimal('0.03149787955958947911677613573793797520077067199594182457351715544506839216239405338752784214439791591') Decimal('0.9685021204404105208832238642620620247992293280040581754264828445549316078376059466124721578556020841')) (Decimal('0.9584194776867839990496670345872660629133499571034829122974179682515248086721652640777312811140122878') Decimal('0.04158052231321600095033296541273393708665004289651708770258203174847519132783473592226871888598771219')) (Decimal('0.08895844147889960854520368996757889232172674274147592820316966161619816820372116547449405899468301160') Decimal('0.9110415585211003914547963100324211076782732572585240717968303383838018317962788345255059410053169884')) (Decimal('0.8227103433622863826405492891697016039848647828278390804080979754651623099565892481932186491880701719') Decimal('0.1772896566377136173594507108302983960151352171721609195919020245348376900434107518067813508119298281')) (Decimal('0.01927934029920721282336037810410146177357363521139987588195373523932551451405444871749419037723382616') Decimal('0.9807206597007927871766396218958985382264263647886001241180462647606744854859455512825058096227661738')) (Decimal('0.8990662468737092738750962267667310017640241597075940312221338336417883602581287114173326763712749537') Decimal('0.1009337531262907261249037732332689982359758402924059687778661663582116397418712885826673236287250463')) (Decimal('0.03636238022973750881179586444830895845322802393111797090026467002011751576371886865116503140905580220') Decimal('0.9636376197702624911882041355516910415467719760688820290997353299798824842362811313488349685909441978')) (Decimal('0.6420006019564978926893003128213704123294230450132213285768714085524662365583349139419149474357298545') Decimal('0.3579993980435021073106996871786295876705769549867786714231285914475337634416650860580850525642701455')) (Decimal('0.007539622512552225165711763259160292009148390491618588981245371292201611961740016762578066184584201824') Decimal('0.9924603774874477748342882367408397079908516095083814110187546287077983880382599832374219338154157982')));
}

potential ( B |  )
{
	data = ((Decimal('0.25586778427940000000000000000000000') Decimal('0.74413221572060000000000000000000000')));
}

potential ( E | B )
{
	data = ((Decimal('0.6305011989848934327290970953009475846045363993987321592936226574478083943115024384209550144272370334') Decimal('0.3694988010151065672709029046990524153954636006012678407063773425521916056884975615790449855727629666')) (Decimal('0.6141401282374350213667042387126767863203518312636880939113573513646037923605639183689657091694697158') Decimal('0.3858598717625649786332957612873232136796481687363119060886426486353962076394360816310342908305302842')));
}

potential ( D | B E A )
{
	data = ((Decimal('0.8157153299814519459172782513391577498131106929335956661687734188276297919345130402592393060150619892') Decimal('0.1842846700185480540827217486608422501868893070664043338312265811723702080654869597407606939849380108')) (Decimal('0.8217762515561293665653437306331998764113738863064301268817744087407902198930938001442008122941408289') Decimal('0.1782237484438706334346562693668001235886261136935698731182255912592097801069061998557991877058591711')) (Decimal('0.8201020434882611339607029889662751108596313859323982954637301353354333210579062736462874737410979255') Decimal('0.1798979565117388660392970110337248891403686140676017045362698646645666789420937263537125262589020745')) (Decimal('0.8230126363789308559874262165018591889459531126080703337613944617168395399477079854248201066883206790') Decimal('0.1769873636210691440125737834981408110540468873919296662386055382831604600522920145751798933116793210')) (Decimal('0.1992916886628803625015314751329022713531714941619612303453294272760255970750721321662266597573780605') Decimal('0.8007083113371196374984685248670977286468285058380387696546705727239744029249278678337733402426219395')) (Decimal('0.05912362984518530781200168742629756141164831507873670803303945458044212662013015292047730759139159477') Decimal('0.9408763701548146921879983125737024385883516849212632919669605454195578733798698470795226924086084052')) (Decimal('0.09784224582439039227183724622285217265361352584427422546476541979963163772040758815053801274969127305') Decimal('0.9021577541756096077281627537771478273463864741557257745352345802003683622795924118494619872503087269')) (Decimal('0.03053034441351095875345259502486971801935835527897014481646117916968215039974201185035744044000489018') Decimal('0.9694696555864890412465474049751302819806416447210298551835388208303178496002579881496425595599951098')));
}

