net
{
	HRUNTIME_Propagate_AutoNormal = "1";
	HR_Font_Size = "-12";
	HRUNTIME_Font_Size = "-12";
	HR_Grid_GridSnap = "1";
	HRUNTIME_Propagate_AutoSum = "1";
	HR_Propagate_AutoNormal = "1";
	node_size = (100.0 40.0);
	HRUNTIME_Monitor_GraphPrecision = "100";
	HR_Grid_GridShow = "0";
	HR_Font_Name = "Arial";
	HR_Compile_ApproxEpsilon = "0.00001";
	HRUNTIME_Monitor_AutoUpdGraph = "0";
	HRUNTIME_Font_Name = "Arial";
	HRUNTIME_Font_Weight = "400";
	HR_Font_Weight = "400";
	HR_Monitor_AutoUpdGraph = "0";
	HRUNTIME_Compile_Compress = "0";
	HR_Compile_Compress = "0";
	HRUNTIME_Compile_TriangMethod = "0";
	HR_Grid_Y = "10";
	HR_Grid_X = "10";
	HR_Groups_GroupNames = "";
	HR_Compile_Approximate = "0";
	HRUNTIME_Compile_Approximate = "0";
	HR_Compile_TriangMethod = "0";
	HR_Color_DiscreteChance = "16";
	HRUNTIME_Compile_ApproxEpsilon = "0.00001";
	HR_Monitor_InitStates = "5";
	HRUNTIME_Grid_GridSnap = "1";
	HR_Color_ContinuosChance = "48";
	HRUNTIME_Propagate_Auto = "0";
	HR_Groups_GroupColors = "";
	HR_Monitor_OpenGraph = "0";
	HRUNTIME_Grid_GridShow = "0";
	HR_Monitor_InitSD = "2";
	HR_Groups_UserGroupsNo = "0";
	HR_Color_Decision = "17";
	HRUNTIME_Monitor_InitStates = "5";
	HRUNTIME_Grid_Y = "10";
	HRUNTIME_Grid_X = "10";
	HR_Propagate_Auto = "0";
	HR_Monitor_GraphPrecision = "100";
	HRUNTIME_Font_Italic = "0";
	HRUNTIME_Monitor_OpenGraph = "0";
	HR_Font_Italic = "0";
	HR_Propagate_AutoSum = "1";
	HR_Color_Utility = "36";
}

node A
{
	states = ("Present" "Absent");
	ID = "A";
	position = (131 0);
	label = "A:Metastatic Cancer";
}

node C
{
	states = ("Present" "Absent");
	ID = "C";
	position = (255 128);
	label = "C:  Brain Tumor";
}

node B
{
	states = ("Increased" "Not increased");
	ID = "B";
	position = (0 128);
	label = "B: Serum Calcium";
}

node E
{
	states = ("Present" "Absent");
	ID = "E";
	position = (414 266);
	label = "E: Severe Headaches";
}

node D
{
	states = ("Present" "Absent");
	ID = "D";
	position = (147 256);
	label = "D: Coma";
}

potential ( A | D E B )
{
	data = ((Decimal('0.6117778408649146234116125359725048442109758553042912717346815568240022637876119669708790927980429559') Decimal('0.3882221591350853765883874640274951557890241446957087282653184431759977362123880330291209072019570441')) (Decimal('0.2294792902351414769382969140189267704885508849321209100894174992277459317337393594902780117998170867') Decimal('0.7705207097648585230617030859810732295114491150678790899105825007722540682662606405097219882001829133')) (Decimal('0.5805590543895138355799281546732857782502141345626332692892478627329549424912497037983286226040912129') Decimal('0.4194409456104861644200718453267142217497858654373667307107521372670450575087502962016713773959087871')) (Decimal('0.1985566464304817735848712353146634132663650340075084295779720677980102577571740874150768469752686330') Decimal('0.8014433535695182264151287646853365867336349659924915704220279322019897422428259125849231530247313670')) (Decimal('0.6214332498825563456977312858676849445983226218578384334133296067682780194053390232327818596921517571') Decimal('0.3785667501174436543022687141323150554016773781421615665866703932317219805946609767672181403078482429')) (Decimal('0.06993373916208094710108805113830805809570940575200885389580943447189135944078378101547193432252457886') Decimal('0.9300662608379190528989119488616919419042905942479911461041905655281086405592162189845280656774754211')) (Decimal('0.5853858821160938612825438042934642983096765209291164535919659088190867923281975756656628906285593184') Decimal('0.4146141178839061387174561957065357016903234790708835464080340911809132076718024243343371093714406816')) (Decimal('0.06711120420056447192276949610465609737153327273020173275923638100896653135355101876041041585145566697') Decimal('0.9328887957994355280772305038953439026284667272697982672407636189910334686464489812395895841485443330')));
}

potential ( C | D E B A )
{
	data = ((Decimal('0.2548801052507724040183388169774214163682484991182491527067265324223693847519529188530478503432444576') Decimal('0.7451198947492275959816611830225785836317515008817508472932734675776306152480470811469521496567555424')) (Decimal('0.06442941736409525378874868945475525142596057132505575265931239802086813367949758114706162267505823890') Decimal('0.9355705826359047462112513105452447485740394286749442473406876019791318663205024188529383773249417611')) (Decimal('0.9584194776867839990496670345872660629133499571034829122974179682515248086721652640777312811140122878') Decimal('0.04158052231321600095033296541273393708665004289651708770258203174847519132783473592226871888598771219')) (Decimal('0.8227103433622863826405492891697016039848647828278390804080979754651623099565892481932186491880701719') Decimal('0.1772896566377136173594507108302983960151352171721609195919020245348376900434107518067813508119298281')) (Decimal('0.1167562011065559001036989555962250498888812023064761161498047914351028806725311676706915309887591083') Decimal('0.8832437988934440998963010444037749501111187976935238838501952085648971193274688323293084690112408917')) (Decimal('0.02592330557994074136293014864616447845661600635994576192410778538781543744803037297139296654504766122') Decimal('0.9740766944200592586370698513538355215433839936400542380758922146121845625519696270286070334549523388')) (Decimal('0.8990662468737092738750962267667310017640241597075940312221338336417883602581287114173326763712749537') Decimal('0.1009337531262907261249037732332689982359758402924059687778661663582116397418712885826673236287250463')) (Decimal('0.6420006019564978926893003128213704123294230450132213285768714085524662365583349139419149474357298545') Decimal('0.3579993980435021073106996871786295876705769549867786714231285914475337634416650860580850525642701455')) (Decimal('0.2947895256048040681532528990950513165583469428588944278825077900434915298128194695283574464730818039') Decimal('0.7052104743951959318467471009049486834416530571411055721174922099565084701871805304716425535269181961')) (Decimal('0.07762451727021145635297503527438063451958252270205631788979526928257667789534612427922355895929397271') Decimal('0.9223754827297885436470249647256193654804174772979436821102047307174233221046538757207764410407060273')) (Decimal('0.08895844147889960854520368996757889232172674274147592820316966161619816820372116547449405899468301160') Decimal('0.9110415585211003914547963100324211076782732572585240717968303383838018317962788345255059410053169884')) (Decimal('0.01927934029920721282336037810410146177357363521139987588195373523932551451405444871749419037723382616') Decimal('0.9807206597007927871766396218958985382264263647886001241180462647606744854859455512825058096227661738')) (Decimal('0.1390747587759489173439259457493462039230065679747300113887985770759498536013561389830844245088323309') Decimal('0.8609252412240510826560740542506537960769934320252699886112014229240501463986438610169155754911676691')) (Decimal('0.03149787955958947911677613573793797520077067199594182457351715544506839216239405338752784214439791591') Decimal('0.9685021204404105208832238642620620247992293280040581754264828445549316078376059466124721578556020841')) (Decimal('0.03636238022973750881179586444830895845322802393111797090026467002011751576371886865116503140905580220') Decimal('0.9636376197702624911882041355516910415467719760688820290997353299798824842362811313488349685909441978')) (Decimal('0.007539622512552225165711763259160292009148390491618588981245371292201611961740016762578066184584201824') Decimal('0.9924603774874477748342882367408397079908516095083814110187546287077983880382599832374219338154157982')));
}

potential ( B | D E )
{
	data = ((Decimal('0.8037682832771245346421534477500407845021113115173332193532697874810335223518243378985332337160430547') Decimal('0.1962317167228754653578465522499592154978886884826667806467302125189664776481756621014667662839569453')) (Decimal('0.8843649375972647472601650371185052291238450031657514453302430627063847965364010264989410655747440083') Decimal('0.1156350624027352527398349628814947708761549968342485546697569372936152034635989735010589344252559917')) (Decimal('0.06463262886623796057642768005292077130334461636249756096004079380986713784467378688531579053501608159') Decimal('0.9353673711337620394235723199470792286966553836375024390399592061901328621553262131146842094649839184')) (Decimal('0.05748409367870992484012096759837501523738104754944051968819277032850923977560835172829602610559251177') Decimal('0.9425159063212900751598790324016249847626189524505594803118072296714907602243916482717039738944074882')));
}

potential ( E | D )
{
	data = ((Decimal('0.6515696486679756596590790826376624578839856264140162492930490400562863434060227715827266567458402897') Decimal('0.3484303513320243403409209173623375421160143735859837507069509599437136565939772284172733432541597103')) (Decimal('0.6071270364166758717630018103059689602205471402767842998437993906090229795402427797434604795299788621') Decimal('0.3928729635833241282369981896940310397794528597232157001562006093909770204597572202565395204700211379')));
}

potential ( D |  )
{
	data = ((Decimal('0.25199605005266761074064564800000000') Decimal('0.74800394994733238925935435200000000')));
}

