net
{
	HRUNTIME_Propagate_AutoNormal = "1";
	HR_Font_Size = "-12";
	HRUNTIME_Font_Size = "-12";
	HR_Grid_GridSnap = "1";
	HRUNTIME_Propagate_AutoSum = "1";
	HR_Propagate_AutoNormal = "1";
	node_size = (100.0 40.0);
	HRUNTIME_Monitor_GraphPrecision = "100";
	HR_Grid_GridShow = "0";
	HR_Font_Name = "Arial";
	HR_Compile_ApproxEpsilon = "0.00001";
	HRUNTIME_Monitor_AutoUpdGraph = "0";
	HRUNTIME_Font_Name = "Arial";
	HRUNTIME_Font_Weight = "400";
	HR_Font_Weight = "400";
	HR_Monitor_AutoUpdGraph = "0";
	HRUNTIME_Compile_Compress = "0";
	HR_Compile_Compress = "0";
	HRUNTIME_Compile_TriangMethod = "0";
	HR_Grid_Y = "10";
	HR_Grid_X = "10";
	HR_Groups_GroupNames = "";
	HR_Compile_Approximate = "0";
	HRUNTIME_Compile_Approximate = "0";
	HR_Compile_TriangMethod = "0";
	HR_Color_DiscreteChance = "16";
	HRUNTIME_Compile_ApproxEpsilon = "0.00001";
	HR_Monitor_InitStates = "5";
	HRUNTIME_Grid_GridSnap = "1";
	HR_Color_ContinuosChance = "48";
	HRUNTIME_Propagate_Auto = "0";
	HR_Groups_GroupColors = "";
	HR_Monitor_OpenGraph = "0";
	HRUNTIME_Grid_GridShow = "0";
	HR_Monitor_InitSD = "2";
	HR_Groups_UserGroupsNo = "0";
	HR_Color_Decision = "17";
	HRUNTIME_Monitor_InitStates = "5";
	HRUNTIME_Grid_Y = "10";
	HRUNTIME_Grid_X = "10";
	HR_Propagate_Auto = "0";
	HR_Monitor_GraphPrecision = "100";
	HRUNTIME_Font_Italic = "0";
	HRUNTIME_Monitor_OpenGraph = "0";
	HR_Font_Italic = "0";
	HR_Propagate_AutoSum = "1";
	HR_Color_Utility = "36";
}

node A
{
	states = ("Present" "Absent");
	ID = "A";
	position = (131 0);
	label = "A:Metastatic Cancer";
}

node C
{
	states = ("Present" "Absent");
	ID = "C";
	position = (255 128);
	label = "C:  Brain Tumor";
}

node B
{
	states = ("Increased" "Not increased");
	ID = "B";
	position = (0 128);
	label = "B: Serum Calcium";
}

node E
{
	states = ("Present" "Absent");
	ID = "E";
	position = (414 266);
	label = "E: Severe Headaches";
}

node D
{
	states = ("Present" "Absent");
	ID = "D";
	position = (147 256);
	label = "D: Coma";
}

potential ( A | B C )
{
	data = ((Decimal('0.8617634422153381236612470045748610630928917447402680783409187231197758198691910328348390331643050206') Decimal('0.1382365577846618763387529954251389369071082552597319216590812768802241801308089671651609668356949794')) (Decimal('0.5565519863919421578507418867046618929710369146098242748723958253326793998271130367473215245535378763') Decimal('0.4434480136080578421492581132953381070289630853901757251276041746673206001728869632526784754464621237')) (Decimal('0.2575823688211212135753563051108302757855929368684325038183535088837225009207274461405660406915090989') Decimal('0.7424176311788787864246436948891697242144070631315674961816464911162774990792725538594339593084909011')) (Decimal('0.06528943003407708766396424128007011788057988124287378943440079840861381803330924634496204086440549647') Decimal('0.9347105699659229123360357587199298821194201187571262105655992015913861819666907536550379591355945035')));
}

potential ( C | B )
{
	data = ((Decimal('0.1478215995346704603421784173516559247331713109671983391069068079845887821856693543620324721741762037') Decimal('0.8521784004653295396578215826483440752668286890328016608930931920154112178143306456379675278258237963')) (Decimal('0.06374011805292686349167251436345997485096212656563550550865890778624654900773343993046623198016770882') Decimal('0.9362598819470731365083274856365400251490378734343644944913410922137534509922665600695337680198322912')));
}

potential ( B |  )
{
	data = ((Decimal('0.25586778427940000000000000000000000') Decimal('0.74413221572060000000000000000000000')));
}

potential ( E | C )
{
	data = ((Decimal('0.7963231') Decimal('0.2036769')) (Decimal('0.6017372') Decimal('0.3982628')));
}

potential ( D | B C )
{
	data = ((Decimal('0.7928376') Decimal('0.2071624')) (Decimal('0.8238471') Decimal('0.1761529')) (Decimal('0.7283741') Decimal('0.2716259')) (Decimal('0.0112321') Decimal('0.9887679')));
}

