net
{
	HRUNTIME_Propagate_AutoNormal = "1";
	HR_Font_Size = "-12";
	HRUNTIME_Font_Size = "-12";
	HR_Grid_GridSnap = "1";
	HRUNTIME_Propagate_AutoSum = "1";
	HR_Propagate_AutoNormal = "1";
	node_size = (100.0 40.0);
	HRUNTIME_Monitor_GraphPrecision = "100";
	HR_Grid_GridShow = "0";
	HR_Font_Name = "Arial";
	HR_Compile_ApproxEpsilon = "0.00001";
	HRUNTIME_Monitor_AutoUpdGraph = "0";
	HRUNTIME_Font_Name = "Arial";
	HRUNTIME_Font_Weight = "400";
	HR_Font_Weight = "400";
	HR_Monitor_AutoUpdGraph = "0";
	HRUNTIME_Compile_Compress = "0";
	HR_Compile_Compress = "0";
	HRUNTIME_Compile_TriangMethod = "0";
	HR_Grid_Y = "10";
	HR_Grid_X = "10";
	HR_Groups_GroupNames = "";
	HR_Compile_Approximate = "0";
	HRUNTIME_Compile_Approximate = "0";
	HR_Compile_TriangMethod = "0";
	HR_Color_DiscreteChance = "16";
	HRUNTIME_Compile_ApproxEpsilon = "0.00001";
	HR_Monitor_InitStates = "5";
	HRUNTIME_Grid_GridSnap = "1";
	HR_Color_ContinuosChance = "48";
	HRUNTIME_Propagate_Auto = "0";
	HR_Groups_GroupColors = "";
	HR_Monitor_OpenGraph = "0";
	HRUNTIME_Grid_GridShow = "0";
	HR_Monitor_InitSD = "2";
	HR_Groups_UserGroupsNo = "0";
	HR_Color_Decision = "17";
	HRUNTIME_Monitor_InitStates = "5";
	HRUNTIME_Grid_Y = "10";
	HRUNTIME_Grid_X = "10";
	HR_Propagate_Auto = "0";
	HR_Monitor_GraphPrecision = "100";
	HRUNTIME_Font_Italic = "0";
	HRUNTIME_Monitor_OpenGraph = "0";
	HR_Font_Italic = "0";
	HR_Propagate_AutoSum = "1";
	HR_Color_Utility = "36";
}

node A
{
	states = ("Present" "Absent");
	ID = "A";
	position = (131 0);
	label = "A:Metastatic Cancer";
}

node C
{
	states = ("Present" "Absent");
	ID = "C";
	position = (255 128);
	label = "C:  Brain Tumor";
}

node B
{
	states = ("Increased" "Not increased");
	ID = "B";
	position = (0 128);
	label = "B: Serum Calcium";
}

node E
{
	states = ("Present" "Absent");
	ID = "E";
	position = (414 266);
	label = "E: Severe Headaches";
}

node D
{
	states = ("Present" "Absent");
	ID = "D";
	position = (147 256);
	label = "D: Coma";
}

potential ( A | B )
{
	data = ((Decimal('0.6016688319880619607138016569392097328328946665926853462489975457716477730209349537257522577716341936') Decimal('0.3983311680119380392861983430607902671671053334073146537510024542283522269790650462742477422283658064')) (Decimal('0.07754620465310751924235765230773818298814527918098870618332192260255554528384243392615805796394731201') Decimal('0.9224537953468924807576423476922618170118547208190112938166780773974444547161575660738419420360526880')));
}

potential ( C | B A D )
{
	data = ((Decimal('0.2053907728891985266915368842480617958495196011829874766612299731224433024039822888616007961694003172') Decimal('0.7946092271108014733084631157519382041504803988170125233387700268775566975960177111383992038305996828')) (Decimal('0.2400475426343754437847163273941799208342139136022334687564516894463733131743742522457211956733658303') Decimal('0.7599524573656245562152836726058200791657860863977665312435483105536266868256257477542788043266341697')) (Decimal('0.04946449035066959743710167285806555194074207112668966450858136180721315147439552823659697654097980441') Decimal('0.9505355096493304025628983271419344480592579288733103354914186381927868485256044717634030234590201956')) (Decimal('0.05979064993875753488237835746413172168501916903188512708338491003642631912269819512963405497415389797') Decimal('0.9402093500612424651176216425358682783149808309681148729166150899635736808773018048703659450258461020')) (Decimal('0.9457035090673940811787501750222524663078698815792886313979027397451532161992273919974361948618777236') Decimal('0.05429649093260591882124982497774753369213011842071136860209726025484678380077260800256380513812227641')) (Decimal('0.06871464357230808128795817963487019502373316382520694546009586461334708315852176035223242528101534098') Decimal('0.9312853564276919187120418203651298049762668361747930545399041353866529168414782396477675747189846590')) (Decimal('0.7781011895974230465068929127738738266359715613080346532364126270003409104900543425901317381850684923') Decimal('0.2218988104025769534931070872261261733640284386919653467635873729996590895099456574098682618149315077')) (Decimal('0.01463728459444689389774495496806539635186871250142582569699876107129575750179980097944625589372341374') Decimal('0.9853627154055531061022550450319346036481312874985741743030012389287042424982001990205537441062765863')));
}

potential ( B |  )
{
	data = ((Decimal('0.25586778427940000000000000000000000') Decimal('0.74413221572060000000000000000000000')));
}

potential ( E | C )
{
	data = ((Decimal('0.7963231') Decimal('0.2036769')) (Decimal('0.6017372') Decimal('0.3982628')));
}

potential ( D | B A )
{
	data = ((Decimal('0.8172816694296') Decimal('0.1827183305704')) (Decimal('0.82225631575095') Decimal('0.17774368424905')) (Decimal('0.1630676990944') Decimal('0.8369323009056')) (Decimal('0.0480214128858') Decimal('0.9519785871142')));
}

