net
{
	HRUNTIME_Propagate_AutoNormal = "1";
	HR_Font_Size = "-12";
	HRUNTIME_Font_Size = "-12";
	HR_Grid_GridSnap = "1";
	HRUNTIME_Propagate_AutoSum = "1";
	HR_Propagate_AutoNormal = "1";
	node_size = (100.0 40.0);
	HRUNTIME_Monitor_GraphPrecision = "100";
	HR_Grid_GridShow = "0";
	HR_Font_Name = "Arial";
	HR_Compile_ApproxEpsilon = "0.00001";
	HRUNTIME_Monitor_AutoUpdGraph = "0";
	HRUNTIME_Font_Name = "Arial";
	HRUNTIME_Font_Weight = "400";
	HR_Font_Weight = "400";
	HR_Monitor_AutoUpdGraph = "0";
	HRUNTIME_Compile_Compress = "0";
	HR_Compile_Compress = "0";
	HRUNTIME_Compile_TriangMethod = "0";
	HR_Grid_Y = "10";
	HR_Grid_X = "10";
	HR_Groups_GroupNames = "";
	HR_Compile_Approximate = "0";
	HRUNTIME_Compile_Approximate = "0";
	HR_Compile_TriangMethod = "0";
	HR_Color_DiscreteChance = "16";
	HRUNTIME_Compile_ApproxEpsilon = "0.00001";
	HR_Monitor_InitStates = "5";
	HRUNTIME_Grid_GridSnap = "1";
	HR_Color_ContinuosChance = "48";
	HRUNTIME_Propagate_Auto = "0";
	HR_Groups_GroupColors = "";
	HR_Monitor_OpenGraph = "0";
	HRUNTIME_Grid_GridShow = "0";
	HR_Monitor_InitSD = "2";
	HR_Groups_UserGroupsNo = "0";
	HR_Color_Decision = "17";
	HRUNTIME_Monitor_InitStates = "5";
	HRUNTIME_Grid_Y = "10";
	HRUNTIME_Grid_X = "10";
	HR_Propagate_Auto = "0";
	HR_Monitor_GraphPrecision = "100";
	HRUNTIME_Font_Italic = "0";
	HRUNTIME_Monitor_OpenGraph = "0";
	HR_Font_Italic = "0";
	HR_Propagate_AutoSum = "1";
	HR_Color_Utility = "36";
}

node A
{
	states = ("Present" "Absent");
	ID = "A";
	position = (131 0);
	label = "A:Metastatic Cancer";
}

node C
{
	states = ("Present" "Absent");
	ID = "C";
	position = (255 128);
	label = "C:  Brain Tumor";
}

node B
{
	states = ("Increased" "Not increased");
	ID = "B";
	position = (0 128);
	label = "B: Serum Calcium";
}

node E
{
	states = ("Present" "Absent");
	ID = "E";
	position = (414 266);
	label = "E: Severe Headaches";
}

node D
{
	states = ("Present" "Absent");
	ID = "D";
	position = (147 256);
	label = "D: Coma";
}

potential ( A | D C )
{
	data = ((Decimal('0.5383262284264931835926055692143353307868638030790093756218863611809891704903701790084949710361083231') Decimal('0.4616737715735068164073944307856646692131361969209906243781136388190108295096298209915050289638916769')) (Decimal('0.5360446217702350750084717677423076253245404866943728832216040809039406152112336053260895069178196528') Decimal('0.4639553782297649249915282322576923746754595133056271167783959190960593847887663946739104930821803472')) (Decimal('0.4860703958448054076518266051643413710873332187391804040414767544389607778692911992301291730672853690') Decimal('0.5139296041551945923481733948356586289126667812608195959585232455610392221307088007698708269327146310')) (Decimal('0.09123391009802366635147225181106926078465856527930822287549891324793625404413513127122098705213116306') Decimal('0.9087660899019763336485277481889307392153414347206917771245010867520637459558648687287790129478688369')));
}

potential ( C | D E )
{
	data = ((Decimal('0.3129891832903450702796798423229704531049430371143178441849029983750949174826672972706169955758722004') Decimal('0.6870108167096549297203201576770295468950569628856821558150970016249050825173327027293830044241277996')) (Decimal('0.1497016744775480786561821425366231090741427211659106753635117076219099594262046370159196280383599289') Decimal('0.8502983255224519213438178574633768909258572788340893246364882923780900405737953629840803719616400711')) (Decimal('0.03633071607664239838743093398636758368976111663858229698054678302411596337250069251746606704205282453') Decimal('0.9636692839233576016125690660136324163102388833614177030194532169758840366274993074825339329579471755')) (Decimal('0.01435998050792225946224104232744301670472492912068643607288474692539497341910225456438422822788824153') Decimal('0.9856400194920777405377589576725569832952750708793135639271152530746050265808977454356157717721117585')));
}

potential ( B | D C A )
{
	data = ((Decimal('0.7438505289158893231719800569293581677040166025067727257723721851661845971448862256945728585254948029') Decimal('0.2561494710841106768280199430706418322959833974932272742276278148338154028551137743054271414745051971')) (Decimal('0.1391332271094867727748055561726121521547186526586117077685444493730510708104028024541191094739449346') Decimal('0.8608667728905132272251944438273878478452813473413882922314555506269489291895971975458808905260550654')) (Decimal('0.9949156185714240294005749239044764630876874105692236918449995243912182212885143649101474548428442620') Decimal('0.005084381428575970599425076095523536912312589430776308155000475608781778711485635089852545157155738036')) (Decimal('0.9158997804032491128886437755783400197156368189204650392513359148137614132296452465556217950008088038') Decimal('0.08410021959675088711135622442165998028436318107953496074866408518623858677035475344437820499919119624')) (Decimal('0.6704790719228352145956147156568996251392335073640399071808642973761023799463942273349351608304627219') Decimal('0.3295209280771647854043852843431003748607664926359600928191357026238976200536057726650648391695372781')) (Decimal('0.1017221677913821545405221081307899462398515525745659680931925881887658167224525096797630629749966364') Decimal('0.8982778322086178454594778918692100537601484474254340319068074118112341832775474903202369370250033636')) (Decimal('0.3221667802764224324856905911437092728504146650335339321857621785309445538910132294719277822597413054') Decimal('0.6778332197235775675143094088562907271495853349664660678142378214690554461089867705280722177402586946')) (Decimal('0.02577044444140630898573852585024248851765874023355585352997606265108607537036613305477175867528810642') Decimal('0.9742295555585936910142614741497575114823412597664441464700239373489139246296338669452282413247118936')));
}

potential ( E | D )
{
	data = ((Decimal('0.6515696486679756596590790826376624578839856264140162492930490400562863434060227715827266567458402897') Decimal('0.3484303513320243403409209173623375421160143735859837507069509599437136565939772284172733432541597103')) (Decimal('0.6071270364166758717630018103059689602205471402767842998437993906090229795402427797434604795299788621') Decimal('0.3928729635833241282369981896940310397794528597232157001562006093909770204597572202565395204700211379')));
}

potential ( D |  )
{
	data = ((Decimal('0.25199605005266761074064564800000000') Decimal('0.74800394994733238925935435200000000')));
}

