net
{
	propagationenginegenerator1791944048146838126L = "edu.ucla.belief.approx.BeliefPropagationSettings@ec52e37";
	recoveryenginegenerator6944530267470113528l = "edu.ucla.util.SettingsImpl@447fdf07";
	node_size = (130.0 55.0);
}

node S
{
	states = ("On" "Off");
	ID = "S";
	position = (80 60);
	label = "SPRINKLER";
}

node R
{
	states = ("Yes" "No");
	ID = "R";
	position = (290 60);
	label = "RAIN";
}

node G
{
	states = ("Yes" "No");
	ID = "G";
	position = (195 160);
	label = "GRASS WET";
}

potential ( S | G R )
{
	data = ((Decimal('0.1571115317107705949317700890287221459170083514318163078792572803967848495839572686569176449054567918') Decimal('0.8428884682892294050682299109712778540829916485681836921207427196032151504160427313430823550945432082')) (Decimal('0.8570785798659182931687580455667723173300083237931148621337859279543352637058954736947459780716365118') Decimal('0.1429214201340817068312419544332276826699916762068851378662140720456647362941045263052540219283634882')) (Decimal('0.005452265109071598503417843217058842853413376027279497365502981845298597292282751584348091385102297013') Decimal('0.9945477348909284014965821567829411571465866239727205026344970181547014027077172484156519086148977030')) (Decimal('0.01744960091799933876234263241967904009780569781891047042379415700813809737388089820383574631471435822') Decimal('0.9825503990820006612376573675803209599021943021810895295762058429918619026261191017961642536852856418')));
}

potential ( R | G )
{
	data = ((Decimal('0.4105625452758154103102698385421259508011373592177342344826716282700708873304999614879867592673733318') Decimal('0.5894374547241845896897301614578740491988626407822657655173283717299291126695000385120132407326266682')) (Decimal('0.03046294544137044044189596644466519165102164597565621660661607007560115916744812759049754260893417701') Decimal('0.9695370545586295595581040335553348083489783540243437833933839299243988408325518724095024573910658230')));
}

potential ( G |  )
{
	data = ((Decimal('0.186180292190396') Decimal('0.813819707809604')));
}

