net
{
    node_size = (70 20);
}

node P
{
	states = ("true" "false");
	ID = "P";
	position = (100 80);
	label = "Psych_report";
}

node C
{
	states = ("true" "false");
	ID = "C";
	position = (200 80);
	label = "Crime";
}

node M
{
	states = ("true" "false");
	ID = "M";
	position = (150 150);
	label = "Motive";
}

node D
{
	states = ("true" "false");
	ID = "D";
	position = (250 10);
	label = "DNA_match";
}

node T
{
	states = ("true" "false");
	ID = "T";
	position = (300 80);
	label = "Twin";
}

potential ( P |  )
{
	data = ((Decimal('0.149600069040000000000000000000') Decimal('0.850399930960000000000000000000')));
}

potential ( C | P D T )
{
	data = ((Decimal('0.12007512465260514107917043707618198975129826643113645331955257382290919407582689204904285751152588883013397694266077937893700024370274276794529495568154395842975110718228069213610361618941704542454194810298892662647288491409421084896520079898004951534566304414304518100623239927370464318535767059294704575415430501526764245793139280618225140877974886246897643390360582515409298884859141618847770549438177935166779249695418102962435925786919265207927317870285613823306253744006205710820530190888893959') Decimal('0.87992487534739485892082956292381801024870173356886354668044742617709080592417310795095714248847411116986602305733922062106299975629725723205470504431845604157024889281771930786389638381058295457545805189701107337352711508590578915103479920101995048465433695585695481899376760072629535681464232940705295424584569498473235754206860719381774859122025113753102356609639417484590701115140858381152229450561822064833220750304581897037564074213080734792072682129714386176693746255993794289179469809111106041')) (Decimal('0.99999247968647244578025180313246313555429408083516895615746031182856089324913866809507892887339008299048673454278422551573652119447905914198013894388111359638073330206034021434912766383581522137190802391498893937709196545619085947462945256615830627787312082705531208618682466603583791453764208096059487661837718540333318018501475326082182258280532889734881895839193405613316928824145420318985952697153959826004613337565166949114111800918282304950740083339596942077237667728124871503730737479630173291') Decimal('0.0000075203135275542197481968675368644457059191648310438425396881714391067508613319049210711266099170095132654572157744842634788055209408580198610561188864036192666979396597856508723361641847786280919760850110606229080345438091405253705474338416937221268791729446879138131753339641620854623579190394051233816228145966668198149852467391781774171946711026511810416080659438668307117585457968101404730284604017399538666243483305088588819908171769504925991666040305792276233227187512849626926252036982670883501')) (Decimal('0.013905701615121712078702283540956472728130321186558077342653582415653191518394949364270730985265453901978815054613889466361229252322713861638201122166200785725350886105061151080384966884811056843748317029907927102225646976451166872116541295279415954388142143733850272685307657112732621303859769310173797708390822861228687053813852937773106286948153114717165442247893635200864237893105081445274218835710938659097969727519872159719575658072162513813641473405849983950893570747231510384999896864490664229') Decimal('0.98609429838487828792129771645904352727186967881344192265734641758434680848160505063572926901473454609802118494538611053363877074767728613836179887783379921427464911389493884891961503311518894315625168297009207289777435302354883312788345870472058404561185785626614972731469234288726737869614023068982620229160917713877131294618614706222689371305184688528283455775210636479913576210689491855472578116428906134090203027248012784028042434192783748618635852659415001604910642925276848961500010313550933577')) (Decimal('0.0013102383382761964446154388918383654252096262868341050710847592075138984633609764573402611210631976869422489380323509206056967461767658878324378384636572440264552284279477136322322683388015338240556701110417246079941944981890626897587379599372692252238360039556867055902858253073049396079029011817882892409377143342650051012557921269102738654003338763380360510161740807244215035255986814308487846066645833890240925661452457036150148775749280340753939378500174309722795961580592119324470460396794011975') Decimal('0.99868976166172380355538456110816163457479037371316589492891524079248610153663902354265973887893680231305775106196764907939430325382323411216756216153634275597354477157205228636776773166119846617594432988895827539200580550181093731024126204006273077477616399604431329440971417469269506039209709881821171075906228566573499489874420787308972613459966612366196394898382591927557849647440131856915121539333541661097590743385475429638498512242507196592460606214998256902772040384194078806755295396032059880')) (Decimal('0.022624979761977061509977964379574383622016246272466538515664469212122941364233226804280191497729878336226561299410834048327406823591257181718610863066940660596699624888220754763376640160699514454105341473109259699086141069340639695189816507862291672011804364141718415662146512342416870651532206929519347799503940369507434108781362672805299666859279572374303416150500128773760495409573709811004076859339020113795409219411730489297993603273237296917422063550343777230733252627368200911637723927555200537') Decimal('0.97737502023802293849002203562042561637798375372753346148433553078787705863576677319571980850227012166377343870058916595167259317640874281828138913693305933940330037511177924523662335983930048554589465852689074030091385893065936030481018349213770832798819563585828158433785348765758312934846779307048065220049605963049256589121863732719470033314072042762569658384949987122623950459042629018899592314066097988620459078058826951070200639672676270308257793644965622276926674737263179908836227607244479946')) (Decimal('0.99995566972281499318447599019842571736282960653201289186538855091381611788274674280705667884159336753199541192474822577812864427330033402300682110903410411877270411758204990882085923896799910180488763084024023239312381550585130204858832347164319627664497860402633896348023893327655823861130966929756898857277030386883891251680345097562198984515061916230953371708686584678536806921092491859057566930164554885688268578062312862996840445027970369062046588939659382744677135821057724866716766674590699854') Decimal('0.000044330277185006815524009801574282637170393467987108134611449086183882117253257192943321158406632468004588075251774221871355726699665976993178890965895881227295882417950091179140761032000898195112369159759767606876184494148697951411676528356803723355021395973661036519761066723441761388690330702431011427229696131161087483196549024378010154849380837690466282913134153214631930789075081409424330698354451143117314219376871370031595549720296309379534110603406172553228641789422751332832333254093001456623')) (Decimal('0.0023864717716564028542337997432574160898417380775159859780201386448084412335297682572976565113624318121413855342663613757242026260377567561651273603607577733232201946583917665359451880454421325983364336158395966224535729430180023549974122743663592502162766895326209484863879699181186595418522979933023561223633553000741177608443093765718986499797137125443859710713895475063225541186409499520280308583935311873936150926274124541445729059832492662299256018792254834152646146842070337161184103774370755421') Decimal('0.99761352822834359714576620025674258391015826192248401402197986135519155876647023174270234348863756818785861446573363862427579737396224324383487263963924222667677980534160823346405481195455786740166356638416040337754642705698199764500258772563364074978372331046737905151361203008188134045814770200669764387763664469992588223915569062342810135002028628745561402892861045249367744588135905004797196914160646881260638490737258754585542709401675073377007439812077451658473538531579296628388158962256292446')) (Decimal('0.00022250643458867957952711320086540293370603507906122120681789723516805944290255879911362750366452854599830076240339911091023339365415005670686018390392483737978807657338364566259863642380425766812649020879714574523531988109337468907325746253119075143595217380962887967323426070412304875047345920113015693423787318125839236449006266458209808166895480635315547356778599277202590782317930212039493216675768378324183191154719654109552234958360308935451738403094564821856276534895139243416978307629376649928') Decimal('0.99977749356541132042047288679913459706629396492093877879318210276483194055709744120088637249633547145400169923759660088908976660634584994329313981609607516262021192342661635433740136357619574233187350979120285425476468011890662531092674253746880924856404782619037112032676573929587695124952654079886984306576212681874160763550993733541790191833104519364684452643221400722797409217682069787960506783324231621675816808845280345890447765041639691064548261596905435178143723465104860756583021692370623350')));
}

potential ( M | P C )
{
	data = ((Decimal('0.93212213385460236358839348586302433421945958677262536721632565821452048266514400802242945017167092549706196746027794287742194392197220518733782366037890703075279875585797004024842172295195902584340678354201653041336983926940887624331347930826834674369428018697254338240503985649369260911638378406543002216260725178083245718293450058771864057916021911109258253460950798150315036306329882179617201792506138587738014608547504052912126958807554576021206253653944741799518286631389896468579354730671622007') Decimal('0.067877866145397636411606514136975665780540413227374632783674341785479517334855991977570549828329074502938032539722057122578056078027794812662176339621092969247201244142029959751578277048040974156593216457983469586630160730591123756686520691731653256305719813027456617594960143506307390883616215934569977837392748219167542817065499412281359420839780888907417465390492018496849636936701178203827982074938614122619853914524959470878730411924454239787937463460552582004817133686101035314206452693283779926')) (Decimal('0.11820293056368178082878769711537191054648140355701187393432918012139361142775368632031634020023646661946428475457460516404280542608257553863724659376204827079716182287128219946747991510934489953417830811673794052068442779088852616133898650380625607807593125863180911852180161513436087031883116366755980653602470042307881900144636260487410223084545185953068750257376397816103983254245975777484213903365632669916742180359807394781585792429207190570326806913342710651895325713678471832974127385496470255') Decimal('0.88179706943631821917121230288462808945351859644298812606567081987860638857224631367968365979976353338053571524542539483595719457391742446136275340623795172920283817712871780053252008489065510046582169188326205947931557220911147383866101349619374392192406874136819088147819838486563912968116883633244019346397529957692118099855363739512589776915454814046931249742623602183896016745754024222515786096634367330083257819640192605218414207570792809429673193086657289348104674286321528167025872614503529745')) (Decimal('0.55161009562126748934231002578625362798688168834704518120099289319751335777805191630271432002253114852780602591195210735914341846590813214085755931504673515896833512785036927668047811930128109600700034473071569475633499924642993350774873363618569818833099029745999562302776304174392301153553111277678884631964100225663029776397212126492320022222440512421934769164784942361328630848170038335692433304161916084070681893368767511058860694803383095783470314728857155700083189782200810157628839433020411491') Decimal('0.44838990437873251065768997421374637201311831165295481879900710680248664222194808369728567997746885147219397408804789264085658153409186785914244068495326484103166487214963072331952188069871890399299965526928430524366500075357006649225126636381430181166900970254000437697223695825607698846446888722321115368035899774336970223602787873507679977777559487578065230835215057638671369151829961664307566695838083915929318106631232488941139305196616904216529685271142844299916810217799189842371160566979588509')) (Decimal('0.011866076469896765654498931824953069796557952921189548588098982741957839067884123419988510749537647906678620863788528808390286265292780463468700235240858770990911712731444070215312105427860138311747563286479953633305222643107508448286369396788412746837323927723045494948774747216165451930363008180255178080270249491082606056938344335076762089631901715490469079196362589826304442670609109524314774817646200916165203929794987926811524473210973264441525174776489585156249945265282165923475499504607388548') Decimal('0.98813392353010323434550106817504693020344204707881045141190101725804216093211587658001148925046235209332137913621147119160971373470721953653129976475914122900908828726855592978468789457213986168825243671352004636669477735689249155171363060321158725316267607227695450505122525278383454806963699181974482191972975050891739394306165566492323791036809828450953092080363741017369555732939089047568522518235379908383479607020501207318847552678902673555847482522351041484375005473471783407652450049539261145')));
}

potential ( D | P )
{
	data = ((Decimal('0.12774774165772658861900448106905499326499508679638507739020225254302462853997089305086593427951803036146513265004840802578816777797390781204147497765085256006109126592419118044011298405481003245932726609656115436776672760284175334094484853721695849292236396149727338387864690520198973833307797783620595045682607259844884895114617923039963859096892833893841898189541102901619356097591276887020345722696064873420328469655898763079875648164339911323345736873063678366869288444815011831360850019030178383') Decimal('0.87225225834227341138099551893094500673500491320361492260979774745697537146002910694913406572048196963853486734995159197421183222202609218795852502234914743993890873407580881955988701594518996754067273390343884563223327239715824665905515146278304150707763603850272661612135309479801026166692202216379404954317392740155115104885382076960036140903107166106158101810458897098380643902408723112979654277303935126579671530344101236920124351835660088676654263126936321633130711555184988168639149980969821617')) (Decimal('0.033708451940467402085943898623667404724832575496755658861724703449522020408043613559890733977958929725169929710409157110357722129700300840203163226277503694965728010858257137410715859402425838597695080885310894075569293247064917423990944205473645279751258365506676334173252717922586600864744736244092886044417747538336418211131600772019893344606581034381884541069271772604095932016443022595515380990571382395400094753554258919786025190530549334700289355253971174428704001126204418806624029173709988421') Decimal('0.96629154805953259791405610137633259527516742450324434113827529655047797959195638644010926602204107027483007028959084288964227787029969915979683677372249630503427198914174286258928414059757416140230491911468910592443070675293508257600905579452635472024874163449332366582674728207741339913525526375590711395558225246166358178886839922798010665539341896561811545893072822739590406798355697740448461900942861760459990524644574108021397480946945066529971064474602882557129599887379558119337597082629001158')));
}

potential ( T | P D )
{
	data = ((Decimal('0.093458101124465768009364549329181104896416221013926838852445091676283533530609221452568327574204486158222011112569975091929701598652087655946094181282503096280791868790748943140504407958532797355022176017309553130031935269809110365657278703542992629755750289441411682725678882604220301954998740971748116940917615383693550801578322682751853614944032901425463926881713856428917107385709353020153506318318776983399870693280912646550660579257233232079634218715491710180256755164896543773245987940584397648') Decimal('0.90654189887553423199063545067081889510358377898607316114755490832371646646939077854743167242579551384177798888743002490807029840134791234405390581871749690371920813120925105685949559204146720264497782398269044686996806473019088963434272129645700737024424971055858831727432111739577969804500125902825188305908238461630644919842167731724814638505596709857453607311828614357108289261429064697984649368168122301660012930671908735344933942074276676792036578128450828981974324483510345622675401205941560235')) (Decimal('0.00022119592111660752051002754104822721297547371017509998300355524630066535050177613079893400409712799950213065525862116628244987258697099940838576490043844228436658517254866828323417451911311859640800005801084385843597012378130374280526714141560434070390783692586375970404031796460125922527981965939381837350038008147606881003943837969060362437204296893461140014484905408147982181159592581826195545067773116676945692740044486900733606492682323865427967411850869262047083000664036948204262594182714152964') Decimal('0.99977880407888339247948997245895177278702452628982490001699644475369933464949822386920106599590287200049786934474137883371755012741302900059161423509956155771563341482745133171676582548088688140359199994198915614156402987621869625719473285858439565929609216307413624029595968203539874077472018034060618162649961991852393118996056162030939637562795703106538859985515094591852017818840407418173804454932226883323054307259955513099266393507317676134572032588149130737952916999335963051795737405817285847')) (Decimal('0.35363527464252933817909676683120687826237645880785935963227395461329396231685058693546520022306617542250830999352415938714190917763041908507062994791206225552111071702575667353945731687208196360568491937171379482743041263014966652106385799426325448273261283828856785821033044766494315032303772931788633709784609983727705213085952686293185328102125725195972014410066150126073893901582719445551991588674651727383245012602586126495554641636270539232629406552868900093637337758454773118062496910621860126') Decimal('0.64636472535747066182090323316879312173762354119214064036772604538670603768314941306453479977693382457749169000647584061285809082236958091492937005208793774447888928297424332646054268312791803639431508062828620517256958736985033347893614200573674551726738716171143214178966955233505684967696227068211366290215390016272294786914047313706814671897874274804027985589933849873926106098417280554448008411325348272616754987397413873504445358363729460767370593447131099906362662241545226881937503089378139874')) (Decimal('0.00021888046178509960059792696708237374412881433623404587216323704435665138628856775362847922773693897534359222933158701329618581567395017818791308285456132366052746969197231693153098288054460906454723600314586240273411183813110546374896020184823314833632720640977471721391986685323555859327076037173643776346264812533873115235983814952167226511837361248433372510056897544348836381516177196939411028281248675813690511063985834944894307756231441147132833496476728235646085759297157610383803956446325847868') Decimal('0.99978111953821490039940207303291762625587118566376595412783676295564334861371143224637152077226306102465640777066841298670381418432604982181208691714543867633947253030802768306846901711945539093545276399685413759726588816186889453625103979815176685166367279359022528278608013314676444140672923962826356223653735187466126884764016185047832773488162638751566627489943102455651163618483822803060588971718751324186309488936014165055105692243768558852867166503523271764353914240702842389616196043553674152')));
}

