net
{
	HRUNTIME_Propagate_AutoNormal = "1";
	HR_Font_Size = "-12";
	HRUNTIME_Font_Size = "-12";
	HR_Grid_GridSnap = "1";
	HRUNTIME_Propagate_AutoSum = "1";
	HR_Propagate_AutoNormal = "1";
	node_size = (100.0 40.0);
	HRUNTIME_Monitor_GraphPrecision = "100";
	HR_Grid_GridShow = "0";
	HR_Font_Name = "Arial";
	HR_Compile_ApproxEpsilon = "0.00001";
	HRUNTIME_Monitor_AutoUpdGraph = "0";
	HRUNTIME_Font_Name = "Arial";
	HRUNTIME_Font_Weight = "400";
	HR_Font_Weight = "400";
	HR_Monitor_AutoUpdGraph = "0";
	HRUNTIME_Compile_Compress = "0";
	HR_Compile_Compress = "0";
	HRUNTIME_Compile_TriangMethod = "0";
	HR_Grid_Y = "10";
	HR_Grid_X = "10";
	HR_Groups_GroupNames = "";
	HR_Compile_Approximate = "0";
	HRUNTIME_Compile_Approximate = "0";
	HR_Compile_TriangMethod = "0";
	HR_Color_DiscreteChance = "16";
	HRUNTIME_Compile_ApproxEpsilon = "0.00001";
	HR_Monitor_InitStates = "5";
	HRUNTIME_Grid_GridSnap = "1";
	HR_Color_ContinuosChance = "48";
	HRUNTIME_Propagate_Auto = "0";
	HR_Groups_GroupColors = "";
	HR_Monitor_OpenGraph = "0";
	HRUNTIME_Grid_GridShow = "0";
	HR_Monitor_InitSD = "2";
	HR_Groups_UserGroupsNo = "0";
	HR_Color_Decision = "17";
	HRUNTIME_Monitor_InitStates = "5";
	HRUNTIME_Grid_Y = "10";
	HRUNTIME_Grid_X = "10";
	HR_Propagate_Auto = "0";
	HR_Monitor_GraphPrecision = "100";
	HRUNTIME_Font_Italic = "0";
	HRUNTIME_Monitor_OpenGraph = "0";
	HR_Font_Italic = "0";
	HR_Propagate_AutoSum = "1";
	HR_Color_Utility = "36";
}

node A
{
	states = ("Present" "Absent");
	ID = "A";
	position = (131 0);
	label = "A:Metastatic Cancer";
}

node C
{
	states = ("Present" "Absent");
	ID = "C";
	position = (255 128);
	label = "C:  Brain Tumor";
}

node B
{
	states = ("Increased" "Not increased");
	ID = "B";
	position = (0 128);
	label = "B: Serum Calcium";
}

node E
{
	states = ("Present" "Absent");
	ID = "E";
	position = (414 266);
	label = "E: Severe Headaches";
}

node D
{
	states = ("Present" "Absent");
	ID = "D";
	position = (147 256);
	label = "D: Coma";
}

potential ( A | D B )
{
	data = ((Decimal('0.60021357212169033366140525865827383113355964995882') Decimal('0.39978642787830966633859474134172616886644035004118')) (Decimal('0.22206982569786717267416019902620829327287503503526') Decimal('0.77793017430213282732583980097379170672712496496474')) (Decimal('0.60826539154417888798268225023793348995367100043316') Decimal('0.39173460845582111201731774976206651004632899956684')) (Decimal('0.068819711646433628194885100517674276076289492837031') Decimal('0.93118028835356637180511489948232572392371050716297')));
}

potential ( C | D B A )
{
	data = ((Decimal('0.20539077288919852669153688424806179584951960118299') Decimal('0.79460922711080147330846311575193820415048039881701')) (Decimal('0.049464490350669597437101672858065551940742071126690') Decimal('0.95053550964933040256289832714193444805925792887331')) (Decimal('0.94570350906739408117875017502225246630786988157929') Decimal('0.054296490932605918821249824977747533692130118420711')) (Decimal('0.77810118959742304650689291277387382663597156130803') Decimal('0.22189881040257695349310708722612617336402843869197')) (Decimal('0.24004754263437544378471632739417992083421391360223') Decimal('0.75995245736562455621528367260582007916578608639777')) (Decimal('0.059790649938757534882378357464131721685019169031885') Decimal('0.94020935006124246511762164253586827831498083096811')) (Decimal('0.068714643572308081287958179634870195023733163825207') Decimal('0.93128535642769191871204182036512980497626683617479')) (Decimal('0.014637284594446893897744954968065396351868712501426') Decimal('0.98536271540555310610225504503193460364813128749857')));
}

potential ( B | D )
{
	data = ((Decimal('0.83185060385807670627819164288487509582853860582948') Decimal('0.16814939614192329372180835711512490417146139417052')) (Decimal('0.061824162661834147474698677434272201150207581760859') Decimal('0.93817583733816585252530132256572779884979241823914')));
}

potential ( E | C )
{
	data = ((Decimal('0.7963231') Decimal('0.2036769')) (Decimal('0.6017372') Decimal('0.3982628')));
}

potential ( D |  )
{
	data = ((Decimal('0.25199605005266761074064564800000000') Decimal('0.74800394994733238925935435200000000')));
}

