net
{
	HRUNTIME_Propagate_AutoNormal = "1";
	HR_Font_Size = "-12";
	HRUNTIME_Font_Size = "-12";
	HR_Grid_GridSnap = "1";
	HRUNTIME_Propagate_AutoSum = "1";
	HR_Propagate_AutoNormal = "1";
	node_size = (100.0 40.0);
	HRUNTIME_Monitor_GraphPrecision = "100";
	HR_Grid_GridShow = "0";
	HR_Font_Name = "Arial";
	HR_Compile_ApproxEpsilon = "0.00001";
	HRUNTIME_Monitor_AutoUpdGraph = "0";
	HRUNTIME_Font_Name = "Arial";
	HRUNTIME_Font_Weight = "400";
	HR_Font_Weight = "400";
	HR_Monitor_AutoUpdGraph = "0";
	HRUNTIME_Compile_Compress = "0";
	HR_Compile_Compress = "0";
	HRUNTIME_Compile_TriangMethod = "0";
	HR_Grid_Y = "10";
	HR_Grid_X = "10";
	HR_Groups_GroupNames = "";
	HR_Compile_Approximate = "0";
	HRUNTIME_Compile_Approximate = "0";
	HR_Compile_TriangMethod = "0";
	HR_Color_DiscreteChance = "16";
	HRUNTIME_Compile_ApproxEpsilon = "0.00001";
	HR_Monitor_InitStates = "5";
	HRUNTIME_Grid_GridSnap = "1";
	HR_Color_ContinuosChance = "48";
	HRUNTIME_Propagate_Auto = "0";
	HR_Groups_GroupColors = "";
	HR_Monitor_OpenGraph = "0";
	HRUNTIME_Grid_GridShow = "0";
	HR_Monitor_InitSD = "2";
	HR_Groups_UserGroupsNo = "0";
	HR_Color_Decision = "17";
	HRUNTIME_Monitor_InitStates = "5";
	HRUNTIME_Grid_Y = "10";
	HRUNTIME_Grid_X = "10";
	HR_Propagate_Auto = "0";
	HR_Monitor_GraphPrecision = "100";
	HRUNTIME_Font_Italic = "0";
	HRUNTIME_Monitor_OpenGraph = "0";
	HR_Font_Italic = "0";
	HR_Propagate_AutoSum = "1";
	HR_Color_Utility = "36";
}

node A
{
	states = ("Present" "Absent");
	ID = "A";
	position = (131 0);
	label = "A:Metastatic Cancer";
}

node C
{
	states = ("Present" "Absent");
	ID = "C";
	position = (255 128);
	label = "C:  Brain Tumor";
}

node B
{
	states = ("Increased" "Not increased");
	ID = "B";
	position = (0 128);
	label = "B: Serum Calcium";
}

node E
{
	states = ("Present" "Absent");
	ID = "E";
	position = (414 266);
	label = "E: Severe Headaches";
}

node D
{
	states = ("Present" "Absent");
	ID = "D";
	position = (147 256);
	label = "D: Coma";
}

potential ( A | B C )
{
	data = ((Decimal('0.86176344221533812366124700457486106309289174474027') Decimal('0.13823655778466187633875299542513893690710825525973')) (Decimal('0.55655198639194215785074188670466189297103691460982') Decimal('0.44344801360805784214925811329533810702896308539018')) (Decimal('0.25758236882112121357535630511083027578559293686843') Decimal('0.74241763117887878642464369488916972421440706313157')) (Decimal('0.065289430034077087663964241280070117880579881242874') Decimal('0.93471056996592291233603575871992988211942011875713')));
}

potential ( C | E B D )
{
	data = ((Decimal('0.18094292799064435052555076648818000853190950728752') Decimal('0.81905707200935564947444923351181999146809049271248')) (Decimal('0.21257807416034977836461286033645849250436599093043') Decimal('0.78742192583965022163538713966354150749563400906957')) (Decimal('0.85385277918549757153988607333630293977987669600059') Decimal('0.14614722081450242846011392666369706022012330399941')) (Decimal('0.024152260386156067638413570085476694843427146402381') Decimal('0.97584773961384393236158642991452330515657285359762')) (Decimal('0.078657165514333939276933486978432181525832560215374') Decimal('0.92134283448566606072306651302156781847416743978463')) (Decimal('0.094471865894954532985353745872988135784610970036720') Decimal('0.90552813410504546701464625412701186421538902996328')) (Decimal('0.69304269432374840696227934722319615221285608590301') Decimal('0.30695730567625159303772065277680384778714391409699')) (Decimal('0.0094739524913336422231871728137173517925969701332707') Decimal('0.99052604750866635777681282718628264820740302986673')));
}

potential ( B | E )
{
	data = ((Decimal('0.26090580151429041943064077371681961298471900818006') Decimal('0.73909419848570958056935922628318038701528099181994')) (Decimal('0.24770599617334851848336057780650577864064684196701') Decimal('0.75229400382665148151663942219349422135935315803299')));
}

potential ( E |  )
{
	data = ((Decimal('0.61832639915802571188100000000000000') Decimal('0.38167360084197428811900000000000000')));
}

potential ( D | E B )
{
	data = ((Decimal('0.81805766665303062203021570870032320793431064409080') Decimal('0.18194233334696937796978429129967679206568935590920')) (Decimal('0.070502773235978000755804937690338627836509499839299') Decimal('0.92949722676402199924419506230966137216349050016070')) (Decimal('0.82132035506470350945544060907283585731557119067094') Decimal('0.17867964493529649054455939092716414268442880932906')) (Decimal('0.035360592129335461519208216103162942216020506869309') Decimal('0.96463940787066453848079178389683705778397949313069')));
}

