net
{
	propagationenginegenerator1791944048146838126L = "edu.ucla.belief.approx.BeliefPropagationSettings@36f3f021";
	recoveryenginegenerator6944530267470113528l = "edu.ucla.util.SettingsImpl@b1cbc13";
	node_size = (130 55);
}

node A
{
	states = ("On" "Off");
	ID = "A";
	position = (310 252);
	label = "Alarm";
}

node E
{
	states = ("Present" "Absent");
	ID = "E";
	position = (442 130);
	label = "Earthquake";
}

node B
{
	states = ("Present" "Absent");
	ID = "B";
	position = (169 128);
	label = "Burglary";
}

node J
{
	states = ("Present" "Absent");
	ID = "J";
	position = (179 367);
	label = "JohnCalls";
}

node M
{
	states = ("Present" "Absent");
	ID = "M";
	position = (446 365);
	label = "MaryCalls";
}

potential ( A | J M B E )
{
	data = (((((Decimal('0.9999680711629919236006788070747917042495685615899283676541723805981229036722951884839070679270042928') Decimal('0.00003192883700807639932119292520829575043143841007163234582761940187709632770481151609293207299570716786')) (Decimal('0.9871388340687850633079805752045590615783755016963434374792114774818724083641927400935760693615983325') Decimal('0.01286116593121493669201942479544093842162449830365656252078852251812759163580725990642393063840166752'))) ((Decimal('0.6667848280751506557958170861396667848280751506557958170861396667848280751506557958170861396667848281') Decimal('0.3332151719248493442041829138603332151719248493442041829138603332151719248493442041829138603332151719')) (Decimal('0.6226415094339622641509433962264150943396226415094339622641509433962264150943396226415094339622641509') Decimal('0.3773584905660377358490566037735849056603773584905660377358490566037735849056603773584905660377358491')))) (((Decimal('0.9926782072067360493698028345797813921866011191883269703467391872809999477014800481146383557345327127') Decimal('0.007321792793263950630197165420218607813398880811673029653260812719000052298519951885361644265467287276')) (Decimal('0.2493991495655389166204474024773525605472360880014790164540580513958217785172860048068034756886670364') Decimal('0.7506008504344610833795525975226474394527639119985209835459419486041782214827139951931965243113329636'))) ((Decimal('0.008588217568178393852644266988097031791472050625282507156847973481994877203555823414193159560042187735') Decimal('0.9914117824318216061473557330119029682085279493747174928431520265180051227964441765858068404399578123')) (Decimal('0.007092198581560283687943262411347517730496453900709219858156028368794326241134751773049645390070921986') Decimal('0.9929078014184397163120567375886524822695035460992907801418439716312056737588652482269503546099290780'))))) ((((Decimal('0.9945696443117024165082812924246538148248710290524029323920716806950855281020906869399945696443117024') Decimal('0.005430355688297583491718707575346185175128970947597067607928319304914471897909313060005430355688297583')) (Decimal('0.3097976993256644188813962713209044030146767155890519635065450218167393891312971043236810789369297898') Decimal('0.6902023006743355811186037286790955969853232844109480364934549781832606108687028956763189210630702102'))) ((Decimal('0.01156677181913774973711882229232386961093585699263932702418506834910620399579390115667718191377497371') Decimal('0.9884332281808622502628811777076761303890641430073606729758149316508937960042060988433228180862250263')) (Decimal('0.009556907037358818418766290182450043440486533449174630755864465682015638575152041702867072111207645526') Decimal('0.9904430929626411815812337098175499565595134665508253692441355343179843614248479582971329278887923545')))) (((Decimal('0.4422310756972111553784860557768924302788844621513944223107569721115537848605577689243027888446215139') Decimal('0.5577689243027888446215139442231075697211155378486055776892430278884462151394422310756972111553784861')) (Decimal('0.001939307858293955368605064051787714075004779984157766791401491355057223238917265302777853650542186774') Decimal('0.9980606921417060446313949359482122859249952200158422332085985086449427767610827346972221463494578132'))) ((Decimal('0.00005065599513702446684565118281748644952130084595511878830859632237475305202370700572412745048376475356') Decimal('0.9999493440048629755331543488171825135504786991540448812116914036776252469479762929942758725495162352')) (Decimal('0.00004176934965122593041226348105759993316904055803851134037843030784010692953510713838185539451150745583') Decimal('0.9999582306503487740695877365189424000668309594419614886596215696921598930704648928616181446054884925'))))));
}

potential ( E | J M B )
{
	data = ((((Decimal('0.9985592982928750194032461270970580680737993882756974860194478214002183629315159502821594342671052787') Decimal('0.001440701707124980596753872902941931926200611724302513980552178599781637068484049717840565732894721335')) (Decimal('0.9982147877973034254446100242058464901877149744734155842820486364843481032607867059661543621757677033') Decimal('0.001785212202696574555389975794153509812285025526584415717951363515651896739213294033845637824232296705'))) ((Decimal('0.9943629644366523408079375797055881270628877025187617197241739825327975109919067009647991150823372990') Decimal('0.005637035563347659192062420294411872937112297481238280275826017467202489008093299035200884917662701010')) (Decimal('0.9979818056654383730536176754951431501700812746972670831223357235765326562526131435602876608698259381') Decimal('0.002018194334561626946382324504856849829918725302732916877664276423467343747386856439712339130174061916')))) (((Decimal('0.9954483583667604859730537759938728873278216522007756026230888657023782462945466422299541351239947706') Decimal('0.004551641633239514026946224006127112672178347799224397376911134297621753705453357770045864876005229423')) (Decimal('0.9979828597405792890342927864190204935141317236402178861982391469617241063858349435989357350679921726') Decimal('0.002017140259420710965707213580979506485868276359782113801760853038275893614165056401064264932007827416'))) ((Decimal('0.7548399539023310661726546538623538605458462210156888768949831620295563467664333435341055116981874991') Decimal('0.2451600460976689338273453461376461394541537789843111231050168379704436532335666564658944883018125009')) (Decimal('0.9979787843356554279556287905603006362646090683886817393527878499923485745933942373175154458243200645') Decimal('0.002021215664344572044371209439699363735390931611318260647212150007651425406605762682484554175679935480')))));
}

potential ( B | J M )
{
	data = (((Decimal('0.9999098156062451565230013238915154725328389309967680845723642932614771024934465036658577295734146282') Decimal('0.00009018439375484347699867610848452746716106900323191542763570673852289750655349633414227042658537181684')) (Decimal('0.9931237539265789738018413555268138222190568054101105598975818592952936397160507929976037063273217722') Decimal('0.006876246073421026198158644473186177780943194589889440102418140704706360283949207002396293672678227834'))) ((Decimal('0.9948701418665986999168012973432578130453456968196531060389206469111666301025061699333912163541842680') Decimal('0.005129858133401300083198702656742186954654303180346893961079353088833369897493830066608783645815732020')) (Decimal('0.7158281646356070496089031924917887790712930291065524895801329064575765830042688268220096874140802783') Decimal('0.2841718353643929503910968075082112209287069708934475104198670935424234169957311731779903125859197217'))));
}

potential ( J |  )
{
	data = (Decimal('0.9478610243000') Decimal('0.0521389757000'));
}

potential ( M | J )
{
	data = ((Decimal('0.9898168143920378729301866917158353295527524519609050455182852695760960196704651019587239293556845536') Decimal('0.01018318560796212706981330828416467044724754803909495448171473042390398032953489804127607064431544640')) (Decimal('0.9600279788580503318173164648495386532881197357315939752916933502397132822845232841810507604582650058') Decimal('0.03997202114194966818268353515046134671188026426840602470830664976028671771547671581894923954173499423')));
}

