net
{
	propagationenginegenerator1791944048146838126L = "edu.ucla.belief.approx.BeliefPropagationSettings@36f3f021";
	recoveryenginegenerator6944530267470113528l = "edu.ucla.util.SettingsImpl@b1cbc13";
	node_size = (130 55);
}

node A
{
	states = ("On" "Off");
	ID = "A";
	position = (310 252);
	label = "Alarm";
}

node E
{
	states = ("Present" "Absent");
	ID = "E";
	position = (442 130);
	label = "Earthquake";
}

node B
{
	states = ("Present" "Absent");
	ID = "B";
	position = (169 128);
	label = "Burglary";
}

node J
{
	states = ("Present" "Absent");
	ID = "J";
	position = (179 367);
	label = "JohnCalls";
}

node M
{
	states = ("Present" "Absent");
	ID = "M";
	position = (446 365);
	label = "MaryCalls";
}

potential ( A | M E J B )
{
	data = ((Decimal('0.9999582306503487740695877365189424000668309594419614886596215696921598930704648928616181446054884925') Decimal('0.00004176934965122593041226348105759993316904055803851134037843030784010692953510713838185539451150745583')) (Decimal('0.9980606921417060446313949359482122859249952200158422332085985086449427767610827346972221463494578132') Decimal('0.001939307858293955368605064051787714075004779984157766791401491355057223238917265302777853650542186774')) (Decimal('0.9929078014184397163120567375886524822695035460992907801418439716312056737588652482269503546099290780') Decimal('0.007092198581560283687943262411347517730496453900709219858156028368794326241134751773049645390070921986')) (Decimal('0.7506008504344610833795525975226474394527639119985209835459419486041782214827139951931965243113329636') Decimal('0.2493991495655389166204474024773525605472360880014790164540580513958217785172860048068034756886670364')) (Decimal('0.9999493440048629755331543488171825135504786991540448812116914036776252469479762929942758725495162352') Decimal('0.00005065599513702446684565118281748644952130084595511878830859632237475305202370700572412745048376475356')) (Decimal('0.5577689243027888446215139442231075697211155378486055776892430278884462151394422310756972111553784861') Decimal('0.4422310756972111553784860557768924302788844621513944223107569721115537848605577689243027888446215139')) (Decimal('0.9914117824318216061473557330119029682085279493747174928431520265180051227964441765858068404399578123') Decimal('0.008588217568178393852644266988097031791472050625282507156847973481994877203555823414193159560042187735')) (Decimal('0.007321792793263950630197165420218607813398880811673029653260812719000052298519951885361644265467287276') Decimal('0.9926782072067360493698028345797813921866011191883269703467391872809999477014800481146383557345327127')) (Decimal('0.9904430929626411815812337098175499565595134665508253692441355343179843614248479582971329278887923545') Decimal('0.009556907037358818418766290182450043440486533449174630755864465682015638575152041702867072111207645526')) (Decimal('0.6902023006743355811186037286790955969853232844109480364934549781832606108687028956763189210630702102') Decimal('0.3097976993256644188813962713209044030146767155890519635065450218167393891312971043236810789369297898')) (Decimal('0.3773584905660377358490566037735849056603773584905660377358490566037735849056603773584905660377358491') Decimal('0.6226415094339622641509433962264150943396226415094339622641509433962264150943396226415094339622641509')) (Decimal('0.01286116593121493669201942479544093842162449830365656252078852251812759163580725990642393063840166752') Decimal('0.9871388340687850633079805752045590615783755016963434374792114774818724083641927400935760693615983325')) (Decimal('0.9884332281808622502628811777076761303890641430073606729758149316508937960042060988433228180862250263') Decimal('0.01156677181913774973711882229232386961093585699263932702418506834910620399579390115667718191377497371')) (Decimal('0.005430355688297583491718707575346185175128970947597067607928319304914471897909313060005430355688297583') Decimal('0.9945696443117024165082812924246538148248710290524029323920716806950855281020906869399945696443117024')) (Decimal('0.3332151719248493442041829138603332151719248493442041829138603332151719248493442041829138603332151719') Decimal('0.6667848280751506557958170861396667848280751506557958170861396667848280751506557958170861396667848281')) (Decimal('0.00003192883700807639932119292520829575043143841007163234582761940187709632770481151609293207299570716786') Decimal('0.9999680711629919236006788070747917042495685615899283676541723805981229036722951884839070679270042928')));
}

potential ( E | M )
{
	data = ((Decimal('0.03588091528645573266030562779179655640967704410474818881815111743588164362223783234429088842274300632') Decimal('0.9641190847135442673396943722082034435903229558952518111818488825641183563777621676557091115772569937')) (Decimal('0.001597639650087149270908133330656420156812173363659474589022309545745212909894066418745429499403265427') Decimal('0.9984023603499128507290918666693435798431878266363405254109776904542547870901059335812545705005967346')));
}

potential ( B | M E J )
{
	data = ((Decimal('0.003262241602149926361446613179766749384792004947717199394540167690201044342449223572599993884574449501') Decimal('0.9967377583978500736385533868202332506152079950522828006054598323097989556575507764274000061154255505')) (Decimal('0.002472777297190725617529748092389384059696665267364545524023876007802124650128318588971800923982450758') Decimal('0.9975272227028092743824702519076106159403033347326354544759761239921978753498716814110281990760175492')) (Decimal('0.3441995977567134265042931232438907230353588761598058352302001539578769156466012883292780630948322984') Decimal('0.6558004022432865734957068767561092769646411238401941647697998460421230843533987116707219369051677016')) (Decimal('0.006901098482896905834214860195567169799412195271452998367162874398499913099396458021861519586117094391') Decimal('0.9930989015171030941657851398044328302005878047285470016328371256015000869006035419781384804138829056')) (Decimal('0.002279899565571179217140724671326033957232174196211603203189561665043732078721703296920966915111673482') Decimal('0.9977201004344288207828592753286739660427678258037883967968104383349562679212782967030790330848883265')) (Decimal('0.0001117474960238088083127175663823404954859560141437041283187064331801686124343380812961590954094572516') Decimal('0.9998882525039761911916872824336176595045140439858562958716812935668198313875656619187038409045905427')) (Decimal('0.005142852044040334885652659560229367956462593863133619245623100328607155053744426211024035938314977786') Decimal('0.9948571479559596651143473404397706320435374061368663807543768996713928449462555737889759640616850222')) (Decimal('0.00009015328226329390081710751752188242827312904227795376407586229645078240305785360627198525886136816759') Decimal('0.9999098467177367060991828924824781175717268709577220462359241377035492175969421463937280147411386318')));
}

potential ( J | M E )
{
	data = ((Decimal('0.8713643535145619632647749713377096954055797191617977976342568274192920248067729443177425038730899326') Decimal('0.1286356464854380367352250286622903045944202808382022023657431725807079751932270556822574961269100674')) (Decimal('0.1517564083680325562647789583794544144379343282844898221982711099311954319623281539543002193525967308') Decimal('0.8482435916319674437352210416205455855620656717155101778017288900688045680376718460456997806474032692')) (Decimal('0.1438866387837727941897379499460760134403351419466293138239212732597068876017392480738990424407235163') Decimal('0.8561133612162272058102620500539239865596648580533706861760787267402931123982607519261009575592764837')) (Decimal('0.05050011526182823496347472977344564713713256669930572537680695332416356735191495003110719052654279482') Decimal('0.9494998847381717650365252702265543528628674333006942746231930466758364326480850499688928094734572052')));
}

potential ( M |  )
{
	data = ((Decimal('0.0117363449800') Decimal('0.9882636550200')));
}

