net
{
	propagationenginegenerator1791944048146838126L = "edu.ucla.belief.approx.BeliefPropagationSettings@36f3f021";
	recoveryenginegenerator6944530267470113528l = "edu.ucla.util.SettingsImpl@b1cbc13";
	node_size = (130 55);
}

node A
{
	states = ("On" "Off");
	ID = "A";
	position = (310 252);
	label = "Alarm";
}

node E
{
	states = ("Present" "Absent");
	ID = "E";
	position = (442 130);
	label = "Earthquake";
}

node B
{
	states = ("Present" "Absent");
	ID = "B";
	position = (169 128);
	label = "Burglary";
}

node J
{
	states = ("Present" "Absent");
	ID = "J";
	position = (179 367);
	label = "JohnCalls";
}

node M
{
	states = ("Present" "Absent");
	ID = "M";
	position = (446 365);
	label = "MaryCalls";
}

potential ( A | M )
{
	data = ((Decimal('0.1500901177497596019029086174663553558903651109274056121005400098591853083037100703902451238272990847') Decimal('0.8499098822502403980970913825336446441096348890725943878994599901408146916962899296097548761727009153')) (Decimal('0.0007638979701066938868634869732841994078334450251975836341932946297778542785775552116489085048534156909') Decimal('0.9992361020298933061131365130267158005921665549748024163658067053702221457214224447883510914951465843')));
}

potential ( E | A )
{
	data = ((Decimal('0.2310087019688909976864159793867690970028317759757626045027065992381306622604455020222997390760446694') Decimal('0.7689912980311090023135840206132309029971682240242373954972934007618693377395544979777002609239553306')) (Decimal('0.001422259032363919927389920947448840053963074948248921412296602486955479220039434474568050975332467585') Decimal('0.9985777409676360800726100790525511599460369250517510785877033975130445207799605655254319490246675324')));
}

potential ( B | A E )
{
	data = ((Decimal('0.003268423587696965526732264501479391729168100185784077616459093098465561136723319342186747402463359251') Decimal('0.9967315764123030344732677354985206082708318998142159223835409069015344388632766806578132525975366407')) (Decimal('0.4847859721505930892212480660134089736977823620422898401237751418256833419288292934502320783909231563') Decimal('0.5152140278494069107787519339865910263022176379577101598762248581743166580711707065497679216090768437')) (Decimal('0.00007048805932275072602701102433247807821355062452420559957143259931767558575577297205853328446161220289') Decimal('0.9999295119406772492739729889756675219217864493754757944004285674006823244142442270279414667155383878')) (Decimal('0.00006011656602151571897910047582262006029691571958026613603777725008792047780646673900693444589058183818') Decimal('0.9999398834339784842810208995241773799397030842804197338639622227499120795221935332609930655541094182')));
}

potential ( J | A )
{
	data = ((Decimal('0.9') Decimal('0.1')) (Decimal('0.05') Decimal('0.95')));
}

potential ( M |  )
{
	data = ((Decimal('0.0117363449800') Decimal('0.9882636550200')));
}

