net
{
	propagationenginegenerator1791944048146838126L = "edu.ucla.belief.approx.BeliefPropagationSettings@36f3f021";
	recoveryenginegenerator6944530267470113528l = "edu.ucla.util.SettingsImpl@b1cbc13";
	node_size = (130 55);
}

node A
{
	states = ("On" "Off");
	ID = "A";
	position = (310 252);
	label = "Alarm";
}

node E
{
	states = ("Present" "Absent");
	ID = "E";
	position = (442 130);
	label = "Earthquake";
}

node B
{
	states = ("Present" "Absent");
	ID = "B";
	position = (169 128);
	label = "Burglary";
}

node J
{
	states = ("Present" "Absent");
	ID = "J";
	position = (179 367);
	label = "JohnCalls";
}

node M
{
	states = ("Present" "Absent");
	ID = "M";
	position = (446 365);
	label = "MaryCalls";
}

potential ( A | B J )
{
	data = (((Decimal('0.9998336598821051237921499059672356349022045547044474477491219971945653373547304209617220608423240097') Decimal('0.0001663401178948762078500940327643650977954452955525522508780028054346626452695790382779391576759903219')) (Decimal('0.9723380592232763876255568129361741911482568614351409099496896260904963450477490830968440612138765477') Decimal('0.02766194077672361237444318706382580885174313856485909005031037390950365495225091690315593878612345227'))) ((Decimal('0.3774001046475431008789068968029513256459336481590642655133359384831404860149818191452017776835802706') Decimal('0.6225998953524568991210931031970486743540663518409357344866640615168595139850181808547982223164197294')) (Decimal('0.003532320318674419946832631148728470690221750565654162401930703389920343173340463147381030061824439322') Decimal('0.9964676796813255800531673688512715293097782494343458375980692966100796568266595368526189699381755607'))));
}

potential ( E | B A )
{
	data = (((Decimal('0.9985777556984922207243029500551870852204779141485263746191490171490612186029554637217529261174132782') Decimal('0.001422244301507779275697049944812914779522085851473625380850982850938781397044536278247073882586721847')) (Decimal('0.6324461343472750316856780735107731305449936628643852978453738910012674271229404309252217997465145754') Decimal('0.3675538656527249683143219264892268694550063371356147021546261089987325728770595690747782002534854246'))) ((Decimal('0.9983327775925308436145381793931310436812270756918972990996998999666555518506168722907635878626208736') Decimal('0.001667222407469156385461820606868956318772924308102700900300100033344448149383127709236412137379126375')) (Decimal('0.9979787664092253356311567838982149315972000595732005702006340290632114210335950298929810004042467182') Decimal('0.002021233590774664368843216101785068402799940426799429799365970936788578966404970107018999595753281845'))));
}

potential ( B |  )
{
	data = (Decimal('0.9990000000000') Decimal('0.001000000000'));
}

potential ( J | B )
{
	data = ((Decimal('0.9486587') Decimal('0.0513413')) (Decimal('0.150983') Decimal('0.849017')));
}

potential ( M | A )
{
	data = ((Decimal('0.99') Decimal('0.01')) (Decimal('0.3') Decimal('0.7')));
}

