net
{
	propagationenginegenerator1791944048146838126L = "edu.ucla.belief.approx.BeliefPropagationSettings@36f3f021";
	recoveryenginegenerator6944530267470113528l = "edu.ucla.util.SettingsImpl@b1cbc13";
	node_size = (130 55);
}

node A
{
	states = ("On" "Off");
	ID = "A";
	position = (310 252);
	label = "Alarm";
}

node E
{
	states = ("Present" "Absent");
	ID = "E";
	position = (442 130);
	label = "Earthquake";
}

node B
{
	states = ("Present" "Absent");
	ID = "B";
	position = (169 128);
	label = "Burglary";
}

node J
{
	states = ("Present" "Absent");
	ID = "J";
	position = (179 367);
	label = "JohnCalls";
}

node M
{
	states = ("Present" "Absent");
	ID = "M";
	position = (446 365);
	label = "MaryCalls";
}

potential ( A | E J )
{
	data = (((Decimal('0.9997955400202994278969350879633967076670963419325854639288150278823202590894929977729257342620252178') Decimal('0.0002044599797005721030649120366032923329036580674145360711849721176797409105070022270742657379747822499')) (Decimal('0.9662117616991121656826043139976940122734308973312693678282765210370555382913037543455089872531736374') Decimal('0.03378823830088783431739568600230598772656910266873063217172347896294446170869624565449101274682636261'))) ((Decimal('0.9586507506341233023064590241827526997363924892487114813660929326726785681261105159907189670796470248') Decimal('0.04134924936587669769354097581724730026360751075128851863390706732732143187388948400928103292035297515')) (Decimal('0.1193929866256425447971965353917208923419769003672646358828658087059560157678052655851828412346285780') Decimal('0.8806070133743574552028034646082791076580230996327353641171341912940439842321947344148171587653714220'))));
}

potential ( E |  )
{
	data = (Decimal('0.9980000000000') Decimal('0.002000000000'));
}

potential ( B | E A )
{
	data = (((Decimal('0.9999398834339784842810208995241773799397030842804197338639622227499120795221935332609930655541094182') Decimal('0.00006011656602151571897910047582262006029691571958026613603777725008792047780646673900693444589058183818')) (Decimal('0.5152140278494069107787519339865910263022176379577101598762248581743166580711707065497679216090768437') Decimal('0.4847859721505930892212480660134089736977823620422898401237751418256833419288292934502320783909231563'))) ((Decimal('0.9999295119406772492739729889756675219217864493754757944004285674006823244142442270279414667155383878') Decimal('0.00007048805932275072602701102433247807821355062452420559957143259931767558575577297205853328446161220289')) (Decimal('0.9967315764123030344732677354985206082708318998142159223835409069015344388632766806578132525975366407') Decimal('0.003268423587696965526732264501479391729168100185784077616459093098465561136723319342186747402463359251'))));
}

potential ( J | E )
{
	data = ((Decimal('0.94835185') Decimal('0.05164815')) (Decimal('0.702939') Decimal('0.297061')));
}

potential ( M | A )
{
	data = ((Decimal('0.99') Decimal('0.01')) (Decimal('0.3') Decimal('0.7')));
}

