net
{
	propagationenginegenerator1791944048146838126L = "edu.ucla.belief.approx.BeliefPropagationSettings@36f3f021";
	recoveryenginegenerator6944530267470113528l = "edu.ucla.util.SettingsImpl@b1cbc13";
	node_size = (130 55);
}

node A
{
	states = ("On" "Off");
	ID = "A";
	position = (310 252);
	label = "Alarm";
}

node E
{
	states = ("Present" "Absent");
	ID = "E";
	position = (442 130);
	label = "Earthquake";
}

node B
{
	states = ("Present" "Absent");
	ID = "B";
	position = (169 128);
	label = "Burglary";
}

node J
{
	states = ("Present" "Absent");
	ID = "J";
	position = (179 367);
	label = "JohnCalls";
}

node M
{
	states = ("Present" "Absent");
	ID = "M";
	position = (446 365);
	label = "MaryCalls";
}

potential ( A | M J )
{
	data = (((Decimal('0.9999195346903111637885409932219421118728780936541003584526871066775084049466912967724421230385916621') Decimal('0.00008046530968883621145900677805788812712190634589964154731289332249159505330870322755787696140833785416')) (Decimal('0.9864261106686923697588460173194316440854564530748418637045422814901846869665513960112737558290336069') Decimal('0.01357388933130763024115398268056835591454354692515813629545771850981531303344860398872624417096639313'))) ((Decimal('0.9817502617549925218996267885868353159280920475366964174660270355446843927058687083491970481936622498') Decimal('0.01824973824500747810037321141316468407190795246330358253397296445531560729413129165080295180633775022')) (Decimal('0.2393079611368923220012163723954162456194603411299738351980487441420038146255401873690778843579413840') Decimal('0.7606920388631076779987836276045837543805396588700261648019512558579961853744598126309221156420586160'))));
}

potential ( E | A )
{
	data = ((Decimal('0.9985777409676360800726100790525511599460369250517510785877033975130445207799605655254319490246675324') Decimal('0.001422259032363919927389920947448840053963074948248921412296602486955479220039434474568050975332467585')) (Decimal('0.7689912980311090023135840206132309029971682240242373954972934007618693377395544979777002609239553306') Decimal('0.2310087019688909976864159793867690970028317759757626045027065992381306622604455020222997390760446694')));
}

potential ( B | A E )
{
	data = (((Decimal('0.9999398834339784842810208995241773799397030842804197338639622227499120795221935332609930655541094182') Decimal('0.00006011656602151571897910047582262006029691571958026613603777725008792047780646673900693444589058183818')) (Decimal('0.9999295119406772492739729889756675219217864493754757944004285674006823244142442270279414667155383878') Decimal('0.00007048805932275072602701102433247807821355062452420559957143259931767558575577297205853328446161220289'))) ((Decimal('0.5152140278494069107787519339865910263022176379577101598762248581743166580711707065497679216090768437') Decimal('0.4847859721505930892212480660134089736977823620422898401237751418256833419288292934502320783909231563')) (Decimal('0.9967315764123030344732677354985206082708318998142159223835409069015344388632766806578132525975366407') Decimal('0.003268423587696965526732264501479391729168100185784077616459093098465561136723319342186747402463359251'))));
}

potential ( J | M )
{
	data = ((Decimal('0.9493506867254093101961660360727084305033415717285820539109356995646888238632090780700984277708745967') Decimal('0.05064931327459068980383396392729156949665842827141794608906430043531117613679092192990157222912540334')) (Decimal('0.8224233999127043383825276751535979474931896557117052297145409916196924879418464401682916447467957780') Decimal('0.1775766000872956616174723248464020525068103442882947702854590083803075120581535598317083552532042220')));
}

potential ( M |  )
{
	data = (Decimal('0.9882636550200') Decimal('0.0117363449800'));
}

