net
{
	
}

node A
{
	states = ("On" "Off");
	ID = "A";
	position = (30 30);
	label = "A: Alarm";
}

node M
{
	states = ("Present" "Absent");
	ID = "M";
	position = (50 50);
	label = "M: MaryCalls";
}

node J
{
	states = ("Present" "Absent");
	ID = "J";
	position = (10 50);
	label = "J: JohnCalls";
}

node B
{
	states = ("Present" "Absent");
	ID = "B";
	position = (10 0);
	label = "B: Burglary";
}

node E
{
	states = ("Present" "Absent");
	ID = "E";
	position = (50 0);
	label = "E: Earthquake";
}

potential ( A | E B M )
{
	data = ((((Decimal('0.9996967583467265063529126360796919064802741304545592382569669769839585165418321860690784486157018528') Decimal('0.0003032416532734936470873639203080935197258695454407617430330230160414834581678139309215513842981471935')) (Decimal('0.9345182413470533208606173994387277829747427502338634237605238540692235734331150608044901777362020580') Decimal('0.06548175865294667913938260056127221702525724976613657623947614593077642656688493919550982226379794200'))) ((Decimal('0.1739894551845342706502636203866432337434094903339191564147627416520210896309314586994727592267135325') Decimal('0.8260105448154657293497363796133567662565905096660808435852372583479789103690685413005272407732864675')) (Decimal('0.0009110233829334952930458548436076525964166413604615851806863042818098997874278773155177649559672031582') Decimal('0.9990889766170665047069541451563923474035833586395384148193136957181901002125721226844822350440327968')))) (((Decimal('0.8898594758830231674895556399544246107102164830991264717052791492593999240410178503608051652107861755') Decimal('0.1101405241169768325104443600455753892897835169008735282947208507406000759589821496391948347892138245')) (Decimal('0.03379343169919086149452641599238457877201332698714897667777248929081389814374107567824845311756306521') Decimal('0.9662065683008091385054735840076154212279866730128510233222275107091861018562589243217515468824369348'))) ((Decimal('0.1479820627802690582959641255605381165919282511210762331838565022421524663677130044843049327354260090') Decimal('0.8520179372197309417040358744394618834080717488789237668161434977578475336322869955156950672645739910')) (Decimal('0.0007513148009015777610818933132982719759579263711495116453794139744552967693463561232156273478587528174') Decimal('0.9992486851990984222389181066867017280240420736288504883546205860255447032306536438767843726521412472')))));
}

potential ( M | E B )
{
	data = (((Decimal('0.98931') Decimal('0.01069')) (Decimal('0.3414') Decimal('0.6586'))) ((Decimal('0.7899') Decimal('0.2101')) (Decimal('0.3345') Decimal('0.6655'))));
}

potential ( J | B A )
{
	data = (((Decimal('0.95') Decimal('0.05')) (Decimal('0.1') Decimal('0.9'))) ((Decimal('0.95') Decimal('0.05')) (Decimal('0.1') Decimal('0.9'))));
}

potential ( B |  )
{
	data = (Decimal('0.999') Decimal('0.001'));
}

potential ( E |  )
{
	data = (Decimal('0.9980000000000') Decimal('0.002000000000'));
}

