net
{
	
}

node A
{
	states = ("On" "Off");
	ID = "A";
	position = (30 30);
	label = "A: Alarm";
}

node M
{
	states = ("Present" "Absent");
	ID = "M";
	position = (50 50);
	label = "M: MaryCalls";
}

node J
{
	states = ("Present" "Absent");
	ID = "J";
	position = (10 50);
	label = "J: JohnCalls";
}

node B
{
	states = ("Present" "Absent");
	ID = "B";
	position = (10 0);
	label = "B: Burglary";
}

node E
{
	states = ("Present" "Absent");
	ID = "E";
	position = (50 0);
	label = "E: Earthquake";
}

potential ( A | J B )
{
	data = (((Decimal('0.9998336598821051237921499059672356349022045547044474477491219971945653373547304209617220608423240097') Decimal('0.0001663401178948762078500940327643650977954452955525522508780028054346626452695790382779391576759903219')) (Decimal('0.3774001046475431008789068968029513256459336481590642655133359384831404860149818191452017776835802706') Decimal('0.6225998953524568991210931031970486743540663518409357344866640615168595139850181808547982223164197294'))) ((Decimal('0.9723380592232763876255568129361741911482568614351409099496896260904963450477490830968440612138765477') Decimal('0.02766194077672361237444318706382580885174313856485909005031037390950365495225091690315593878612345227')) (Decimal('0.003532320318674419946832631148728470690221750565654162401930703389920343173340463147381030061824439322') Decimal('0.9964676796813255800531673688512715293097782494343458375980692966100796568266595368526189699381755607'))));
}

potential ( M | B A )
{
	data = (((Decimal('0.99') Decimal('0.01')) (Decimal('0.3') Decimal('0.7'))) ((Decimal('0.99') Decimal('0.01')) (Decimal('0.3') Decimal('0.7'))));
}

potential ( J |  )
{
	data = (Decimal('0.9478610243000') Decimal('0.0521389757000'));
}

potential ( B | J )
{
	data = ((Decimal('0.9998407118806140365529111460058586143512979975581426594586478135030960572011780313900179849393138508') Decimal('0.0001592881193859634470888539941413856487020024418573405413521864969039427988219686099820150606861491562')) (Decimal('0.9837162700532300637428901389023643592599384341184899802318134147771529773263267233690592045903962782') Decimal('0.01628372994676993625710986109763564074006156588151001976818658522284702267367327663094079540960372185')));
}

potential ( E | B A )
{
	data = (((Decimal('0.9985777556984922207243029500551870852204779141485263746191490171490612186029554637217529261174132782') Decimal('0.001422244301507779275697049944812914779522085851473625380850982850938781397044536278247073882586721847')) (Decimal('0.6324461343472750316856780735107731305449936628643852978453738910012674271229404309252217997465145754') Decimal('0.3675538656527249683143219264892268694550063371356147021546261089987325728770595690747782002534854246'))) ((Decimal('0.9983327775925308436145381793931310436812270756918972990996998999666555518506168722907635878626208736') Decimal('0.001667222407469156385461820606868956318772924308102700900300100033344448149383127709236412137379126375')) (Decimal('0.9979787664092253356311567838982149315972000595732005702006340290632114210335950298929810004042467182') Decimal('0.002021233590774664368843216101785068402799940426799429799365970936788578966404970107018999595753281845'))));
}

