net
{
	propagationenginegenerator1791944048146838126L = "edu.ucla.belief.approx.BeliefPropagationSettings@36f3f021";
	recoveryenginegenerator6944530267470113528l = "edu.ucla.util.SettingsImpl@b1cbc13";
	node_size = (130 55);
}

node A
{
	states = ("On" "Off");
	ID = "A";
	position = (310 252);
	label = "Alarm";
}

node E
{
	states = ("Present" "Absent");
	ID = "E";
	position = (442 130);
	label = "Earthquake";
}

node B
{
	states = ("Present" "Absent");
	ID = "B";
	position = (169 128);
	label = "Burglary";
}

node J
{
	states = ("Present" "Absent");
	ID = "J";
	position = (179 367);
	label = "JohnCalls";
}

node M
{
	states = ("Present" "Absent");
	ID = "M";
	position = (446 365);
	label = "MaryCalls";
}

potential ( A | E M J )
{
	data = ((((Decimal('0.9999380336000324257803316655524725522763482462910397191249404122677000825666326911937038711744302755') Decimal('0.00006196639996757421966833444752744772365175370896028087505958773229991743336730880629612882556972452214')) (Decimal('0.9895142059796065096285168171532231919373491382748516427789030583205370413783276104908773862414377056') Decimal('0.01048579402039349037148318284677680806265086172514835722109694167946295862167238950912261375856229435'))) ((Decimal('0.9858869052722073673515446289838129884454690784361260288025460759061564983429097295870534269485660205') Decimal('0.01411309472779263264845537101618701155453092156387397119745392409384350165709027041294657305143397953')) (Decimal('0.2900327530998625189287112261097215768564521514436384273978764971880456852128079702406223873583670352') Decimal('0.7099672469001374810712887738902784231435478485563615726021235028119543147871920297593776126416329648')))) (((Decimal('0.9870981024054497444988383365065775219789680337354482455066076616213911384746118344748593435266284629') Decimal('0.01290189759455025550116166349342247802103196626455175449339233837860886152538816552514065647337153714')) (Decimal('0.3091131804737595642876215121102084830487189381016181542598665575378510867059076139533815010811200546') Decimal('0.6908868195262404357123784878897915169512810618983818457401334424621489132940923860466184989188799454'))) ((Decimal('0.2487999784381942283033406399795015161567705731563640740441271216133842694073789372909584776479023575') Decimal('0.7512000215618057716966593600204984838432294268436359259558728783866157305926210627090415223520976425')) (Decimal('0.001933117629229379529032655772888138347277357495187100136605089636495725987947815253321147539437817977') Decimal('0.9980668823707706204709673442271118616527226425048128998633949103635042740120521847466788524605621820')))));
}

potential ( E |  )
{
	data = (Decimal('0.9980000000000') Decimal('0.002000000000'));
}

potential ( B | E A )
{
	data = (((Decimal('0.9999398834339784842810208995241773799397030842804197338639622227499120795221935332609930655541094182') Decimal('0.00006011656602151571897910047582262006029691571958026613603777725008792047780646673900693444589058183818')) (Decimal('0.5152140278494069107787519339865910263022176379577101598762248581743166580711707065497679216090768437') Decimal('0.4847859721505930892212480660134089736977823620422898401237751418256833419288292934502320783909231563'))) ((Decimal('0.9999295119406772492739729889756675219217864493754757944004285674006823244142442270279414667155383878') Decimal('0.00007048805932275072602701102433247807821355062452420559957143259931767558575577297205853328446161220289')) (Decimal('0.9967315764123030344732677354985206082708318998142159223835409069015344388632766806578132525975366407') Decimal('0.003268423587696965526732264501479391729168100185784077616459093098465561136723319342186747402463359251'))));
}

potential ( J | E M )
{
	data = (((Decimal('0.9494998847381717650365252702265543528628674333006942746231930466758364326480850499688928094734572052') Decimal('0.05050011526182823496347472977344564713713256669930572537680695332416356735191495003110719052654279482')) (Decimal('0.8482435916319674437352210416205455855620656717155101778017288900688045680376718460456997806474032692') Decimal('0.1517564083680325562647789583794544144379343282844898221982711099311954319623281539543002193525967308'))) ((Decimal('0.8561133612162272058102620500539239865596648580533706861760787267402931123982607519261009575592764837') Decimal('0.1438866387837727941897379499460760134403351419466293138239212732597068876017392480738990424407235163')) (Decimal('0.1286356464854380367352250286622903045944202808382022023657431725807079751932270556822574961269100674') Decimal('0.8713643535145619632647749713377096954055797191617977976342568274192920248067729443177425038730899326'))));
}

potential ( M | E )
{
	data = ((Decimal('0.98866209') Decimal('0.01133791')) (Decimal('0.7894446') Decimal('0.2105554')));
}

