net
{
	
}

node A
{
	states = ("On" "Off");
	ID = "A";
	position = (30 30);
	label = "A: Alarm";
}

node M
{
	states = ("Present" "Absent");
	ID = "M";
	position = (50 50);
	label = "M: MaryCalls";
}

node J
{
	states = ("Present" "Absent");
	ID = "J";
	position = (10 50);
	label = "J: JohnCalls";
}

node B
{
	states = ("Present" "Absent");
	ID = "B";
	position = (10 0);
	label = "B: Burglary";
}

node E
{
	states = ("Present" "Absent");
	ID = "E";
	position = (50 0);
	label = "E: Earthquake";
}

potential ( A | B M J )
{
	data = ((((Decimal('0.9999495880592091886515360753167429680781527692462702759149985289968189586160039951558916909611169730') Decimal('0.00005041194079081134846392468325703192184723075372972408500147100318104138399600484410830903888302703655')) (Decimal('0.9914528078176295678684794032348251680324901632362045627995647323423477262825798509784224020932135041') Decimal('0.008547192182370432131520596765174831967509836763795437200435267657652273717420149021577597906786495870'))) ((Decimal('0.9884883167253210864419446303250002683558250253322688031194723259488410623805881713546258134959322989') Decimal('0.01151168327467891355805536967499973164417497466773119688052767405115893761941182864537418650406770112')) (Decimal('0.3342891255973980664960883275264823875967538776885005601496232299037533707748546724782050569491030575') Decimal('0.6657108744026019335039116724735176124032461223114994398503767700962466292251453275217949430508969425')))) (((Decimal('0.6667060228840448831067159789433600211034419671301127183339343134095142059989512099909480700030102188') Decimal('0.3332939771159551168932840210566399788965580328698872816660656865904857940010487900090519299969897812')) (Decimal('0.01156271763997043163296529432196923361638724045748951384991985766805967931150148490264275166672566787') Decimal('0.9884372823600295683670347056780307663836127595425104861500801423319403206884985150973572483332743321'))) ((Decimal('0.008585198311135204556312895305057720056632988911909244987397397154579523260160542500279865321123420833') Decimal('0.9914148016888647954436871046949422799433670110880907550126026028454204767398394574997201346788765792')) (Decimal('0.00005063803330996509386466110112074175550258889689105270190041550372120316439923714368465125076533249660') Decimal('0.9999493619666900349061353388988792582444974111031089472980995844962787968356007628563153487492346675')))));
}

potential ( M | B )
{
	data = ((Decimal('0.98891118') Decimal('0.01108882')) (Decimal('0.3413862') Decimal('0.6586138')));
}

potential ( J | B M )
{
	data = (((Decimal('0.9495930979362575312375374298023407926281104436497522456971312630928088000784863206825106376085261772') Decimal('0.05040690206374246876246257019765920737188955635024775430286873690719119992151367931748936239147382276')) (Decimal('0.8653282314980313504953637988532594090263887410923795318167307251808578369925745029678541089133018662') Decimal('0.1346717685019686495046362011467405909736112589076204681832692748191421630074254970321458910866981338'))) ((Decimal('0.2478477161642737755656204029336862474230065538677310330646054234178182949398657590728623476871648590') Decimal('0.7521522838357262244343795970663137525769934461322689669353945765821817050601342409271376523128351410')) (Decimal('0.1007740955321616400992508811689035364883031603649969071404212908991582016653765833634217807158003674') Decimal('0.8992259044678383599007491188310964635116968396350030928595787091008417983346234166365782192841996326'))));
}

potential ( B |  )
{
	data = (Decimal('0.9990000000000') Decimal('0.001000000000'));
}

potential ( E | B J A )
{
	data = ((((Decimal('0.9985777556984922207243029500551870852204779141485263746191490171490612186029554637217529261174132782') Decimal('0.001422244301507779275697049944812914779522085851473625380850982850938781397044536278247073882586721847')) (Decimal('0.6324461343472750316856780735107731305449936628643852978453738910012674271229404309252217997465145754') Decimal('0.3675538656527249683143219264892268694550063371356147021546261089987325728770595690747782002534854246'))) ((Decimal('0.9985777556984922207243029500551870852204779141485263746191490171490612186029554637217529261174132782') Decimal('0.001422244301507779275697049944812914779522085851473625380850982850938781397044536278247073882586721847')) (Decimal('0.6324461343472750316856780735107731305449936628643852978453738910012674271229404309252217997465145754') Decimal('0.3675538656527249683143219264892268694550063371356147021546261089987325728770595690747782002534854246')))) (((Decimal('0.9983327775925308436145381793931310436812270756918972990996998999666555518506168722907635878626208736') Decimal('0.001667222407469156385461820606868956318772924308102700900300100033344448149383127709236412137379126375')) (Decimal('0.9979787664092253356311567838982149315972000595732005702006340290632114210335950298929810004042467182') Decimal('0.002021233590774664368843216101785068402799940426799429799365970936788578966404970107018999595753281845'))) ((Decimal('0.9983327775925308436145381793931310436812270756918972990996998999666555518506168722907635878626208736') Decimal('0.001667222407469156385461820606868956318772924308102700900300100033344448149383127709236412137379126375')) (Decimal('0.9979787664092253356311567838982149315972000595732005702006340290632114210335950298929810004042467182') Decimal('0.002021233590774664368843216101785068402799940426799429799365970936788578966404970107018999595753281845')))));
}

