net
{
	propagationenginegenerator1791944048146838126L = "edu.ucla.belief.approx.BeliefPropagationSettings@7373d1cb";
	recoveryenginegenerator6944530267470113528l = "edu.ucla.util.SettingsImpl@2db706c6";
	node_size = (130 55);
}

node BW
{
	states = ("T" "F");
	ID = "BW";
	position = (145 158);
	label = "Broken window";
}

node TB
{
	states = ("T" "F");
	ID = "TB";
	position = (52 58);
	label = "Tree branch";
}

node SF
{
	states = ("T" "F");
	ID = "SF";
	position = (330 157);
	label = "Stone found";
}

node ST
{
	states = ("T" "F");
	ID = "ST";
	position = (241 59);
	label = "Stone thrown";
}

potential ( BW | ST )
{
	data = ((Decimal('0.10089') Decimal('0.89911')) (Decimal('0.001899') Decimal('0.998101')));
}

potential ( TB | ST BW )
{
	data = ((Decimal('0.009812667261373773416592328278322925958965209634255129348795718108831400535236396074933095450490633363') Decimal('0.9901873327386262265834076717216770740410347903657448706512042818911685994647636039250669045495093666')) (Decimal('0.00001112210964175684843901191177942632158467818175751576559041719033266229938494733681084628132264127860') Decimal('0.9999888778903582431515609880882205736784153218182424842344095828096673377006150526631891537186773587')) (Decimal('0.4739336492890995260663507109004739336492890995260663507109004739336492890995260663507109004739336493') Decimal('0.5260663507109004739336492890995260663507109004739336492890995260663507109004739336492890995260663507')) (Decimal('0.0001001902613062205127537193129753401709846999451959270654973795237155358024889264713691299778278951729') Decimal('0.9998998097386937794872462806870246598290153000548040729345026204762844641975110735286308700221721048')));
}

potential ( SF |  )
{
	data = ((Decimal('0.00999000000') Decimal('0.99001000000')));
}

potential ( ST | SF )
{
	data = ((Decimal('0.9009009009009009009009009009009009009009009009009009009009009009009009009009009009009009009009009009') Decimal('0.09909909909909909909909909909909909909909909909909909909909909909909909909909909909909909909909909910')) (Decimal('0.001010090807163564004403995919233139059201422207856486298118200826254280259795355602468661932707750427') Decimal('0.9989899091928364359955960040807668609407985777921435137018817991737457197402046443975313380672922496')));
}

