net
{
    node_size = (70 20);
}

node P
{
	states = ("true" "false");
	ID = "P";
	position = (100 80);
	label = "Psych_report";
}

node C
{
	states = ("true" "false");
	ID = "C";
	position = (200 80);
	label = "Crime";
}

node M
{
	states = ("true" "false");
	ID = "M";
	position = (150 150);
	label = "Motive";
}

node D
{
	states = ("true" "false");
	ID = "D";
	position = (250 10);
	label = "DNA_match";
}

node T
{
	states = ("true" "false");
	ID = "T";
	position = (300 80);
	label = "Twin";
}

potential ( P | M D T C )
{
	data = ((Decimal('0.61242099999999999999') Decimal('0.38757900000000000001')) (Decimal('0.61242100000000000000') Decimal('0.38757900000000000000')) (Decimal('0.61242100000000000001') Decimal('0.38757899999999999999')) (Decimal('0.61242099999999999999') Decimal('0.38757900000000000000')) (Decimal('0.61242099999999999999') Decimal('0.38757900000000000001')) (Decimal('0.61242100000000000001') Decimal('0.38757899999999999999')) (Decimal('0.61242100000000000000') Decimal('0.38757900000000000000')) (Decimal('0.61242100000000000000') Decimal('0.38757900000000000000')) (Decimal('0.12400100000000000001') Decimal('0.87599899999999999998')) (Decimal('0.12400100000000000001') Decimal('0.87599900000000000002')) (Decimal('0.12400100000000000000') Decimal('0.87599900000000000000')) (Decimal('0.12400100000000000000') Decimal('0.87599900000000000000')) (Decimal('0.12400100000000000000') Decimal('0.87599899999999999999')) (Decimal('0.12400100000000000000') Decimal('0.87599899999999999999')) (Decimal('0.12400100000000000000') Decimal('0.87599900000000000000')) (Decimal('0.12400100000000000000') Decimal('0.87599900000000000000')));
}

potential ( C | M D T )
{
	data = ((Decimal('0.51832728641694439654') Decimal('0.48167271358305560346')) (Decimal('0.99999904633856152386') Decimal('9.5366143847613349000E-7')) (Decimal('0.10007494880581569400') Decimal('0.89992505119418430600')) (Decimal('0.010239865200593618673') Decimal('0.98976013479940638132')) (Decimal('0.010395103463740702114') Decimal('0.98960489653625929789')) (Decimal('0.99990231289121675798') Decimal('0.000097687108783242019357')) (Decimal('0.0010843333441618160034') Decimal('0.99891566665583818399')) (Decimal('0.00010098000270959472288') Decimal('0.99989901999729040529')));
}

potential ( M |  )
{
	data = ((Decimal('0.052412000000000000001') Decimal('0.94758800000000000000')));
}

potential ( D | M )
{
	data = ((Decimal('0.51512451053213014402') Decimal('0.48487548946786985598')) (Decimal('0.021927283089941971998') Decimal('0.97807271691005802800')));
}

potential ( T | M D )
{
	data = ((Decimal('0.023325488689864678238') Decimal('0.97667451131013532174')) (Decimal('0.00024020404875185548161') Decimal('0.99975979595124814454')) (Decimal('0.54353163431996262216') Decimal('0.45646836568003737790')) (Decimal('0.00021862176730876266010') Decimal('0.99978137823269123733')));
}

