net
{
	propagationenginegenerator1791944048146838126L = "edu.ucla.belief.approx.BeliefPropagationSettings@7373d1cb";
	recoveryenginegenerator6944530267470113528l = "edu.ucla.util.SettingsImpl@2db706c6";
	node_size = (130 55);
}

node BW
{
	states = ("T" "F");
	ID = "BW";
	position = (145 158);
	label = "Broken window";
}

node TB
{
	states = ("T" "F");
	ID = "TB";
	position = (52 58);
	label = "Tree branch";
}

node SF
{
	states = ("T" "F");
	ID = "SF";
	position = (330 157);
	label = "Stone found";
}

node ST
{
	states = ("T" "F");
	ID = "ST";
	position = (241 59);
	label = "Stone thrown";
}

potential ( BW |  )
{
	data = ((Decimal('0.0030187307320209920000') Decimal('0.99698126926797900800')));
}

potential ( TB | BW )
{
	data = ((Decimal('0.29990756399834615670') Decimal('0.70009243600165384330')) (Decimal('0.00012704332939538411189') Decimal('0.99987295667060461589')));
}

potential ( SF | BW TB ST )
{
	data = ((Decimal('0.871239') Decimal('0.128761')) (Decimal('0.000012') Decimal('0.99998800000000000000')) (Decimal('0.87123900000000000000') Decimal('0.12876100000000000000')) (Decimal('0.000012') Decimal('0.99998800000000000000')) (Decimal('0.871239') Decimal('0.128761')) (Decimal('0.000012') Decimal('0.99998799999999999997')) (Decimal('0.87123900000000000000') Decimal('0.12876100000000000000')) (Decimal('0.000012') Decimal('0.99998800000000000000')));
}

potential ( ST | BW TB )
{
	data = ((Decimal('0.012675382352100657584') Decimal('0.98732461764789934242')) (Decimal('0.53215682819868355490') Decimal('0.46784317180131644510')) (Decimal('0.00091497885708135394322') Decimal('0.99908502114291864606')) (Decimal('0.010127608647754906316') Decimal('0.98987239135224509368')));
}

