net
{
	propagationenginegenerator1791944048146838126L = "edu.ucla.belief.approx.BeliefPropagationSettings@7373d1cb";
	recoveryenginegenerator6944530267470113528l = "edu.ucla.util.SettingsImpl@2db706c6";
	node_size = (130 55);
}

node BW
{
	states = ("T" "F");
	ID = "BW";
	position = (145 158);
	label = "Broken window";
}

node TB
{
	states = ("T" "F");
	ID = "TB";
	position = (52 58);
	label = "Tree branch";
}

node SF
{
	states = ("T" "F");
	ID = "SF";
	position = (330 157);
	label = "Stone found";
}

node ST
{
	states = ("T" "F");
	ID = "ST";
	position = (241 59);
	label = "Stone thrown";
}

potential ( BW | SF )
{
	data = ((0.8110010010010011 0.18899899899899905) (0.0020070605347420733 0.9979929394652579));
}

potential ( TB | SF BW )
{
	data = (((0.001112084819610215 0.9988879151803898) (0.0005190403050685874 0.9994809596949312)) ((0.050271513480052946 0.949728486519947) (0.0009009102106014759 0.9990990897893985)));
}

potential ( SF |  )
{
	data = (0.009989999999999999 0.9900100000000001);
}

potential ( ST | SF BW TB )
{
	data = ((((0.9889012208657046 0.011098779134295227) (0.9998776703995731 0.00012232960042704151)) ((0.09183673469387756 0.9081632653061225) (0.47644028996566196 0.5235597100343381))) (((0.00991090199219141 0.9900890980078085) (0.47644028996566196 0.5235597100343381)) ((1.1234440300184245e-05 0.9999887655596997) (0.00010120218162728184 0.9998987978183727))));
}

