net
{
	propagationenginegenerator1791944048146838126L = "edu.ucla.belief.approx.BeliefPropagationSettings@7373d1cb";
	recoveryenginegenerator6944530267470113528l = "edu.ucla.util.SettingsImpl@2db706c6";
	node_size = (130 55);
}

node BW
{
	states = ("T" "F");
	ID = "BW";
	position = (145 158);
	label = "Broken window";
}

node TB
{
	states = ("T" "F");
	ID = "TB";
	position = (52 58);
	label = "Tree branch";
}

node SF
{
	states = ("T" "F");
	ID = "SF";
	position = (330 157);
	label = "Stone found";
}

node ST
{
	states = ("T" "F");
	ID = "ST";
	position = (241 59);
	label = "Stone thrown";
}

potential ( BW | TB SF )
{
	data = (((0.9901088031651829 0.00989119683481701) (0.8761596273535053 0.12384037264649468)) ((0.10011238825031929 0.8998876117496808) (0.0011459283951903297 0.9988540716048097)));
}

potential ( TB |  )
{
	data = (0.00103199 0.99896798);
}

potential ( SF | TB )
{
	data = ((0.009796606556265082 0.9902033934437349) (0.00979761133084566 0.9902023886691544));
}

potential ( ST | TB SF BW )
{
	data = ((((0.999000999000999 0.000999000999000999) (1.0 0.0)) ((0.0016530217908480673 0.998346978209152) (7.902015013828527e-05 0.9999209798498617))) (((0.9999897943562791 1.0205643720977701e-05) (0.9986557140667487 0.0013442859332512078)) ((0.1277513607932741 0.8722486392067259) (0.0013156662241607042 0.9986843337758393))));
}

