net
{
	propagationenginegenerator1791944048146838126L = "edu.ucla.belief.approx.BeliefPropagationSettings@36f3f021";
	recoveryenginegenerator6944530267470113528l = "edu.ucla.util.SettingsImpl@b1cbc13";
	node_size = (130 55);
}

node A
{
	states = ("On" "Off");
	ID = "A";
	position = (310 252);
	label = "Alarm";
}

node E
{
	states = ("Present" "Absent");
	ID = "E";
	position = (442 130);
	label = "Earthquake";
}

node B
{
	states = ("Present" "Absent");
	ID = "B";
	position = (169 128);
	label = "Burglary";
}

node J
{
	states = ("Present" "Absent");
	ID = "J";
	position = (179 367);
	label = "JohnCalls";
}

node M
{
	states = ("Present" "Absent");
	ID = "M";
	position = (446 365);
	label = "MaryCalls";
}

potential ( A | B M E J )
{
	data = ((Decimal('0.9999582307') Decimal('0.00004176934965')) (Decimal('0.9929078014') Decimal('0.007092198582')) (Decimal('0.9999493440') Decimal('0.00005065599514')) (Decimal('0.9914117824') Decimal('0.008588217568')) (Decimal('0.9904430930') Decimal('0.009556907037')) (Decimal('0.3773584906') Decimal('0.6226415094')) (Decimal('0.9884332282') Decimal('0.01156677182')) (Decimal('0.3332151719') Decimal('0.6667848281')) (Decimal('0.9980606921') Decimal('0.001939307858')) (Decimal('0.7506008504') Decimal('0.2493991496')) (Decimal('0.5577689243') Decimal('0.4422310757')) (Decimal('0.007321792793') Decimal('0.9926782072')) (Decimal('0.6902023007') Decimal('0.3097976993')) (Decimal('0.01286116593') Decimal('0.9871388341')) (Decimal('0.005430355688') Decimal('0.9945696443')) (Decimal('0.00003192883701') Decimal('0.9999680711')));
}

potential ( E | B M )
{
	data = ((Decimal('0.002020911193') Decimal('0.9979790888')) (Decimal('0.001959657420') Decimal('0.9980403426')) (Decimal('0.03789402299') Decimal('0.9621059770')) (Decimal('0.001597514551') Decimal('0.9984024854')));
}

potential ( B |  )
{
	data = ((Decimal('0.001000000000') Decimal('0.9990000000')));
}

potential ( J | B M E )
{
	data = ((Decimal('0.8993613824') Decimal('0.1006386176')) (Decimal('0.8992256301') Decimal('0.1007743699')) (Decimal('0.7742152466') Decimal('0.2257847534')) (Decimal('0.7521089631') Decimal('0.2478910369')) (Decimal('0.8712755831') Decimal('0.1287244169')) (Decimal('0.1056594949') Decimal('0.8943405051')) (Decimal('0.1436194455') Decimal('0.8563805545')) (Decimal('0.05025775541') Decimal('0.9497422446')));
}

potential ( M | B )
{
	data = ((Decimal('0.6586138') Decimal('0.3413862')) (Decimal('0.01108882') Decimal('0.9889111800')));
}

