net
{
	propagationenginegenerator1791944048146838126L = "edu.ucla.belief.approx.BeliefPropagationSettings@36f3f021";
	recoveryenginegenerator6944530267470113528l = "edu.ucla.util.SettingsImpl@b1cbc13";
	node_size = (130 55);
}

node A
{
	states = ("On" "Off");
	ID = "A";
	position = (310 252);
	label = "Alarm";
}

node E
{
	states = ("Present" "Absent");
	ID = "E";
	position = (442 130);
	label = "Earthquake";
}

node B
{
	states = ("Present" "Absent");
	ID = "B";
	position = (169 128);
	label = "Burglary";
}

node J
{
	states = ("Present" "Absent");
	ID = "J";
	position = (179 367);
	label = "JohnCalls";
}

node M
{
	states = ("Present" "Absent");
	ID = "M";
	position = (446 365);
	label = "MaryCalls";
}

potential ( A | J B )
{
	data = ((Decimal('0.9964676797') Decimal('0.003532320319')) (Decimal('0.02766194078') Decimal('0.9723380592')) (Decimal('0.6225998954') Decimal('0.3774001046')) (Decimal('0.0001663401179') Decimal('0.9998336599')));
}

potential ( E | B A )
{
	data = ((Decimal('0.002021233591') Decimal('0.9979787664')) (Decimal('0.001667222407') Decimal('0.9983327776')) (Decimal('0.3675538657') Decimal('0.6324461343')) (Decimal('0.001422244302') Decimal('0.9985777557')));
}

potential ( B | J )
{
	data = ((Decimal('0.01628372995') Decimal('0.9837162701')) (Decimal('0.0001592881194') Decimal('0.9998407118')));
}

potential ( J |  )
{
	data = ((Decimal('0.05213897570') Decimal('0.9478610244')));
}

potential ( M | A )
{
	data = ((Decimal('0.7') Decimal('0.3')) (Decimal('0.01') Decimal('0.99')));
}

