net
{
	propagationenginegenerator1791944048146838126L = "edu.ucla.belief.approx.BeliefPropagationSettings@36f3f021";
	recoveryenginegenerator6944530267470113528l = "edu.ucla.util.SettingsImpl@b1cbc13";
	node_size = (130 55);
}

node A
{
	states = ("On" "Off");
	ID = "A";
	position = (310 252);
	label = "Alarm";
}

node E
{
	states = ("Present" "Absent");
	ID = "E";
	position = (442 130);
	label = "Earthquake";
}

node B
{
	states = ("Present" "Absent");
	ID = "B";
	position = (169 128);
	label = "Burglary";
}

node J
{
	states = ("Present" "Absent");
	ID = "J";
	position = (179 367);
	label = "JohnCalls";
}

node M
{
	states = ("Present" "Absent");
	ID = "M";
	position = (446 365);
	label = "MaryCalls";
}

potential ( A | M E )
{
	data = ((Decimal('0.9663110041') Decimal('0.03368899587')) (Decimal('0.1197134216') Decimal('0.8802865784')) (Decimal('0.1104548692') Decimal('0.8895451308')) (Decimal('0.0005883708963') Decimal('0.9994116291')));
}

potential ( E | M )
{
	data = ((Decimal('0.03588091529') Decimal('0.9641190847')) (Decimal('0.001597639650') Decimal('0.9984023603')));
}

potential ( B | E A )
{
	data = ((Decimal('0.003268423588') Decimal('0.9967315764')) (Decimal('0.00007048805932') Decimal('0.9999295119')) (Decimal('0.4847859722') Decimal('0.5152140278')) (Decimal('0.00006011656602') Decimal('0.9999398834')));
}

potential ( J | A )
{
	data = ((Decimal('0.9') Decimal('0.1')) (Decimal('0.05') Decimal('0.95')));
}

potential ( M |  )
{
	data = ((Decimal('0.01173634498') Decimal('0.9882636550')));
}

