net
{
	propagationenginegenerator1791944048146838126L = "edu.ucla.belief.approx.BeliefPropagationSettings@36f3f021";
	recoveryenginegenerator6944530267470113528l = "edu.ucla.util.SettingsImpl@b1cbc13";
	node_size = (130 55);
}

node A
{
	states = ("On" "Off");
	ID = "A";
	position = (310 252);
	label = "Alarm";
}

node E
{
	states = ("Present" "Absent");
	ID = "E";
	position = (442 130);
	label = "Earthquake";
}

node B
{
	states = ("Present" "Absent");
	ID = "B";
	position = (169 128);
	label = "Burglary";
}

node J
{
	states = ("Present" "Absent");
	ID = "J";
	position = (179 367);
	label = "JohnCalls";
}

node M
{
	states = ("Present" "Absent");
	ID = "M";
	position = (446 365);
	label = "MaryCalls";
}

potential ( A | E J B )
{
	data = ((Decimal('0.9970845481') Decimal('0.002915451895')) (Decimal('0.8802698145') Decimal('0.1197301855')) (Decimal('0.6666666667') Decimal('0.3333333333')) (Decimal('0.04122245913') Decimal('0.9587775409')) (Decimal('0.9964664311') Decimal('0.003533568905')) (Decimal('0.01769911504') Decimal('0.9823008850')) (Decimal('0.6225165563') Decimal('0.3774834437')) (Decimal('0.0001053574251') Decimal('0.9998946426')));
}

potential ( E |  )
{
	data = ((Decimal('0.002000000000') Decimal('0.9980000000')));
}

potential ( B | E J )
{
	data = ((Decimal('0.002886612514') Decimal('0.9971133875')) (Decimal('0.0002027202929') Decimal('0.9997972797')) (Decimal('0.01643814929') Decimal('0.9835618507')) (Decimal('0.0001592236046') Decimal('0.9998407764')));
}

potential ( J | E )
{
	data = ((Decimal('0.297061') Decimal('0.702939')) (Decimal('0.05164815') Decimal('0.94835185')));
}

potential ( M | A )
{
	data = ((Decimal('0.7') Decimal('0.3')) (Decimal('0.01') Decimal('0.99')));
}

