net
{
	propagationenginegenerator1791944048146838126L = "edu.ucla.belief.approx.BeliefPropagationSettings@7373d1cb";
	recoveryenginegenerator6944530267470113528l = "edu.ucla.util.SettingsImpl@2db706c6";
	node_size = (130 55);
}

node BW
{
	states = ("T" "F");
	ID = "BW";
	position = (145 158);
	label = "Broken window";
}

node TB
{
	states = ("T" "F");
	ID = "TB";
	position = (52 58);
	label = "Tree branch";
}

node SF
{
	states = ("T" "F");
	ID = "SF";
	position = (330 157);
	label = "Stone found";
}

node ST
{
	states = ("T" "F");
	ID = "ST";
	position = (241 59);
	label = "Stone thrown";
}

potential ( BW | ST )
{
	data = ((Decimal('0.101151241608') Decimal('0.898848758392')) (Decimal('0.001903985552') Decimal('0.998096014448')));
}

potential ( TB | ST BW )
{
	data = ((Decimal('0.010100539032030978923186565893962368059042204139663890857101341533539705633545899598049351113606154599007421014275919989160000979036128728722505074719912873538476635087514209210654773873925061232353667027466034225923646261922017078875123401045815860668916130384391356367936754510945182149028989702562070008041339157775294047777636449870121103892006315905310147698251474734384162043987472949102190915738423053366579887567760323956892659717435032673494338388942180744210089399894417952461837664485032863') Decimal('0.98989946096796902107681343410603763194095779586033610914289865846646029436645410040195064888639384540099257898572408001083999902096387127127749492528008712646152336491248579078934522612607493876764633297253396577407635373807798292112487659895418413933108386961560864363206324548905481785097101029743792999195866084222470595222236355012987889610799368409468985230174852526561583795601252705089780908426157694663342011243223967604310734028256496732650566161105781925578991060010558204753816233551496714')) (Decimal('0.000011479056853188876201962733900590880396998195423191214326747775273573746310676986490551084786283895342242563376653088901917344753619163210304272369657905486135300472245812698647174881149813466827166846909912063327693301630555544207385139058850460678870537432374968388740892482396432422839926191728407475690659261643282561487205432503935740498021792588131336446094879193381282233684231629539372630718555132896257935202784014305228273333555094986565473749329399741199703923326460292061757029775849391926') Decimal('0.99998852094314681112379803726609940911960300180457680878567325222472642625368932301350944891521371610465775743662334691109808265524638083678969572763034209451386469952775418730135282511885018653317283315309008793667230669836944445579261486094114953932112946256762503161125910751760356757716007380827159252430934073835671743851279456749606425950197820741186866355390512080661871776631576837046062736928144486710374206479721598569477172666644490501343452625067060025880029607667353970793824297022415061')) (Decimal('0.47480327938959066218796601456563993926777444370019043085679885453248439355804523457854474307481509712632525270338816100428056189367554612620295765773752047883186878300429456199991164638837553532023860651648474273716547613802481207063277127220553614789194576829435941013905340811115566700476727146929526700526139286586351155252883977766654817557144992453178027056793548609868863122549576993848953324410520526891056996844270171226593425326580419345535033765844458466773071395659414121436568548078982482') Decimal('0.52519672061040933781203398543436006073222555629980956914320114546751560644195476542145525692518490287367474729661183899571943810632445387379704234226247952116813121699570543800008835361162446467976139348351525726283452386197518792936722872779446385210805423170564058986094659188884433299523272853070473299473860713413648844747116022233345182442855007546821972943206451390131136877450423006151046675589479473108943003155729828773406574673419580654464966234155541533226928604340585878563431451921017518')) (Decimal('0.00012822555560526960594478360128661624594324441598003065629009341578438379549384320015805437965529400252111244967915644089901947497131200366947084346945108842573327057217512821733956204200598701637668078760932413377118525199371150590209374922507405219150271510673198984660414498832107653846632605705114651068137254700502701230279424649455435814458592512846715520742147204595006079586885592296409325857911523545725368913771691233936019232711476777569075036551598114712923845629755332494364225606981360942') Decimal('0.99987177444439473039405521639871338375405675558401996934370990658421561620450615679984194562034470599747888755032084355910098052502868799633052915653054891157426672942782487178266043795799401298362331921239067586622881474800628849409790625077492594780849728489326801015339585501167892346153367394294885348931862745299497298769720575350544564185541407487153284479257852795404993920413114407703590674142088476454274631086228308766063980767288523222430924963448401885287076154370244667505635774393018639')));
}

potential ( SF |  )
{
	data = ((Decimal('0.009797621664000000000000') Decimal('0.990202378336000000000000')));
}

potential ( ST | SF )
{
	data = ((Decimal('0.99878896977175623261543404703568272015284871893987842803071518969810263537034654780889077612785028642232740127165620670775882696913249578607121035287202124811501600762362321811735554682875739995505913423684533895878345685833169562976094929970547595131144267870762314016211026455899695781516962237336703921128261275960206336050658916318816533555015214353555589590482068240842005225646973910341022941544765490957010278775345044799231390284473838201066507317627324132609005384839893731989690350223345795') Decimal('0.0012110302282437673845659529643172798471512810601215719692848103018973646296534521911092238721497135776725987283437932922411730308675042139287896471279787518849839923763767818826444531712426000449408657631546610412165431416683043702390507002945240486885573212923768598378897354410030421848303776266329607887173872403979366394934108368118346644498478564644441040951793175915799477435302608965897705845523450904298972122465495520076860971552616179893349268237267586739099461516010626801030964977665420496')) (Decimal('0.0014605535026388858289667068053306437458473804042866883361086744623708481748802617127629560838235502155452176944547863473856369463075819699159038558764764998630450633456435293633113998984229561546557775808892863846679226766627478051171845776769342215218858033975014045648348544626657005468677278981978403471431833335386015402308293411131773119070134400336124865867633823303618682452794637396700941708613512929683006331486016561172809499601036110755585225211530813278783750545919876407902265739605039316') Decimal('0.99853944649736111417103329319466935625415261959571331166389132553762915182511973828723704391617644978445478230554521365261436305369241803008409614412352350013695493665435647063668860010157704384534422241911071361533207732333725219488281542232306577847811419660249859543516514553733429945313227210180215965285681666646139845976917065888682268809298655996638751341323661766963813175472053626032990582913864870703169936685139834388271905003989638892444147747884691867212162494540801235920977342603949607')));
}

