net
{
    node_size = (70 20);
}

node P
{
	states = ("true" "false");
	ID = "P";
	position = (100 80);
	label = "Psych_report";
}

node C
{
	states = ("true" "false");
	ID = "C";
	position = (200 80);
	label = "Crime";
}

node M
{
	states = ("true" "false");
	ID = "M";
	position = (150 150);
	label = "Motive";
}

node D
{
	states = ("true" "false");
	ID = "D";
	position = (250 10);
	label = "DNA_match";
}

node T
{
	states = ("true" "false");
	ID = "T";
	position = (300 80);
	label = "Twin";
}

potential ( P |  )
{
	data = ((Decimal('0.149600069040000000000000000000') Decimal('0.850399930960000000000000000000')));
}

potential ( C | M )
{
	data = ((Decimal('0.514312') Decimal('0.485688')) (Decimal('0.010231') Decimal('0.989769')));
}

potential ( M | P )
{
	data = ((Decimal('0.21456012459070186001299187635722497524858094143029280516433644020195299770832244797739432914903419485748119678808939672665808817864700632493772276938248664326953307935452006259314758401798662699333738221916531810712859548022572222738059773825890475003486669513905994384559810761969685786182441991739337502113227634376765525588957976860570037073827810313689678762463758285442031905629125904847242843224292137666248766859526310282777660942715832318843159806605928823039265089365897260551157296444520411') Decimal('0.78543987540929813998700812364277502475141905856970719483566355979804700229167755202260567085096580514251880321191060327334191182135299367506227723061751335673046692064547993740685241598201337300666261778083468189287140451977427777261940226174109524996513330486094005615440189238030314213817558008260662497886772365623234474411042023139429962926172189686310321237536241714557968094370874095152757156775707862333751233140473689717222339057284167681156840193394071176960734910634102739448842703555479589')) (Decimal('0.023887337955293758741158400152370586217856623331163305248723652836172379832244947810666976538626599514087994417491926838714286153379957701496095615346238574205445864468464819970380022054370558129989808671797260937068315022573458558880031638143678618814171969579530550059723866560836955973875165141511525599665718956868810891607130710908165899693995431412799370578161506016310413177411718918750087194856561539154525709346725039155569970955492467976481642869582106909629187489180508293770334668278346070') Decimal('0.97611266204470624125884159984762941378214337666883669475127634716382762016775505218933302346137340048591200558250807316128571384662004229850390438465376142579455413553153518002961997794562944187001019132820273906293168497742654144111996836185632138118582803042046944994027613343916304402612483485848847440033428104313118910839286928909183410030600456858720062942183849398368958682258828108124991280514343846084547429065327496084443002904450753202351835713041789309037081251081949170622966533172165393')));
}

potential ( D | C )
{
	data = ((Decimal('0.990325867064') Decimal('0.009674132936')) (Decimal('0.011917183852') Decimal('0.988082816148')));
}

potential ( T | C D )
{
	data = ((Decimal('0.012227629133731828228052497182126658699447960439101941110761146834621948335500960217297786230694246504252491895910298906351540214786191610456726297881068592683353195770120579381687788348531525881767139930282062444060090377887861648488251447941581341459334813221234957355547861024663043457009454463488627541157346986035991113714589632871082285378950657799739323481506803151273806522028850916190552802518895147306892177312338041405526939901738702990264034988215754401529927641789129023048628237562624215') Decimal('0.98777237086626817177194750281787334130055203956089805888923885316537805166449903978270221376930575349574750810408970109364845978521380838954327370211893140731664680422987942061831221165146847411823286006971793755593990962211213835151174855205841865854066518677876504264445213897533695654299054553651137245884265301396400888628541036712891771462104934220026067651849319684872619347797114908380944719748110485269310782268766195859447306009826129700973596501178424559847007235821087097695137176243737578')) (Decimal('0.0023425950573478867481214856028726376393469894323560905841164058198755353551614664311865312990774473682506361622318728079136248908787994765260273450515669035458042417787176870359268339911511838253284056381091681124279311846743884768961582936015176543982938710363820454327484341693358760766981463774253845957280734228686642062492327942928734631562230581281315566160212624144572743133948598863868248171445222323539921221524963340652609779270868601179618935928998691609461670932738565791401483797017775444') Decimal('0.99765740494265211325187851439712736236065301056764390941588359418012446464483853356881346870092255263174936383776812719208637510912120052347397265494843309645419575822128231296407316600884881617467159436189083188757206881532561152310384170639848234560170612896361795456725156583066412392330185362257461540427192657713133579375076720570712653684377694187186844338397873758554272568660514011361317518285547776764600787784750366593473902207291313988203810640710013083905383290672614342085985162029822246')) (Decimal('0.99991710558364556814592642738394500351961172378495919171626118838197479207607008730068889768773871896123533934382738597360358991632010612703267036917741763811465950689102450879936294533219558489362474929114654058288333940859973568191620444255943832861831055352589688317581894430942777738392820424870290068593631696200838305234195358119914318831304374173718168462473092002776630486777858934050453717880595805714519407080470709180093632745274189464606742730648274301709581445836369899447952227497446517') Decimal('0.000082894416354431854073572616054996480388276215040808283738811618025207923929912699311102312261281038764660656172614026396410083679893872967329630822582361885340493108975491200637054667804415106375250708853459417116660591400264318083795557440561671381689446474103116824181055690572222616071795751297099314063683037991616947658046418800856811686956258262818315375269079972233695132221410659495462821194041942854805929195292908199063672547258105353932572693517256982904185541636301005520477725025534833043')) (Decimal('0.00021840681011061707615369425949945196657896447917409511662050190207959827376678055241324678420765033923762494599727105060028074054792432540280834095629527225627644121084592032900489566990635270885417341281804291079071822376776735977803952695484398547690469110376483434020454062592434355964267387195698813463664745696151867534319637034271319337394331061887062514040032397367464393986197276089500177218701851982852544524504536480445510147293224962026465103123585912800359119802309010370703852484704915496') Decimal('0.99978159318988938292384630574050054803342103552082590488337949809792040172623321944758675321579234966076237505400272894939971925945207567459719165904370472774372355878915407967099510433009364729114582658718195708920928177623223264022196047304515601452309530889623516565979545937407565644035732612804301186536335254303848132465680362965728680662605668938112937485959967602632535606013802723910499822781298148017147455475495463519554489852706775037973534896876414087199640880197690989629296147515295085')));
}

