net
{
    node_size = (70 20);
}

node P
{
	states = ("true" "false");
	ID = "P";
	position = (100 80);
	label = "Psych_report";
}

node C
{
	states = ("true" "false");
	ID = "C";
	position = (200 80);
	label = "Crime";
}

node M
{
	states = ("true" "false");
	ID = "M";
	position = (150 150);
	label = "Motive";
}

node D
{
	states = ("true" "false");
	ID = "D";
	position = (250 10);
	label = "DNA_match";
}

node T
{
	states = ("true" "false");
	ID = "T";
	position = (300 80);
	label = "Twin";
}

potential ( P |  )
{
	data = ((Decimal('0.149600069040000000000000000000') Decimal('0.850399930960000000000000000000')));
}

potential ( C | M D T )
{
	data = ((Decimal('0.51832728641694439654262408638911576542724907083200512365054898383276713152267814792896759613780644713133496891053800944658110354305896400070591028672863232836389433212972237738523308243664407260609586614340032844761130790248955650727237818293918301936332253818034676904870940396868985364579969069216547685140482551583411843900116763895254650058714936370190495945414236480777071990772346232368820378770966414385119895343234240409036160103161398808125567135386459035453124053826590542523515129641431977') Decimal('0.48167271358305560345737591361088423457275092916799487634945101616723286847732185207103240386219355286866503108946199055341889645694103599929408971327136767163610566787027762261476691756335592739390413385659967155238869209751044349272762181706081698063667746181965323095129059603131014635420030930783452314859517448416588156099883236104745349941285063629809504054585763519222928009227653767631179621229033585614880104656765759590963839896838601191874432864613540964546875946173409457476484870358568023')) (Decimal('0.99999904633856152386650995806050634128934555958102316488636523569018750912079535419387491914249167877273673630345598997317093135838440858079500826348091977803528024524693016490948510484036857981719136036689432384109662983485325236143656028576483052676329818063908510367391423655509173673792550197502503995534449424130784811047184684962552039891233189907697941561052445024499198944898754678999333973272198073266981342091297450672555259077671391382656691129213450335224547273525230597647680065911825800') Decimal('9.5366143847613349004193949365871065444041897683511363476430981249087920464580612508085750832122726326369654401002682906864161559141920499173651908022196471975475306983509051489515963142018280863963310567615890337016514674763856343971423516947323670181936091489632608576344490826326207449802497496004465550575869215188952815315037447960108766810092302058438947554975500801055101245321000666026727801926733018657908702549327444740922328608617343308870786549664775452726474769402352319934088174199612495E-7')) (Decimal('0.10007494880581569400327554780960490029525529559895678995514671466234637994767950030662844772006632694319070516143109453122713578096988987975458257698427338391074968872162636875319119915356015327489115340095581143740443068940434882404207026301380931330494134126796246379807681730937753725123979691256919306419051056453167179536272722054628596251033066873134488057156955965834944363219812697651017427122327850909575507430248278044103163956254297014867563110161111432957834871831042158728270929549855839') Decimal('0.89992505119418430599672445219039509970474470440104321004485328533765362005232049969337155227993367305680929483856890546877286421903011012024541742301572661608925031127837363124680880084643984672510884659904418856259556931059565117595792973698619068669505865873203753620192318269062246274876020308743080693580948943546832820463727277945371403748966933126865511942843044034165055636780187302348982572877672149090424492569751721955896836043745702985132436889838888567042165128168957841271729070450144161')) (Decimal('0.010239865200593618672978725471950211391837141344421082398370902430041716494297941450894944719173153617188660812839020118456406981123094202550242765632876609756540648440404545726499560426732129440599773112674075032341270483365219074074968082034948325625583153265540036890740970269525000883760530140006520077940898655808872934346334700994382662278954398954198653061965055506582896095909161695912964715805015307472400093566905126570198167408739459808361245957381263973844664959410670258636596544442729153') Decimal('0.98976013479940638132702127452804978860816285865557891760162909756995828350570205854910505528082684638281133918716097988154359301887690579744975723436712339024345935155959545427350043957326787055940022688732592496765872951663478092592503191796505167437441684673445996310925902973047499911623946985999347992205910134419112706565366529900561733772104560104580134693803494449341710390409083830408703528419498469252759990643309487342980183259126054019163875404261873602615533504058932974136340345555727085')) (Decimal('0.010395103463740702113715429329803572275700758190944255734167138130338290575222119509561213926512260307134894941220951673996346640613346779308017335178483993038014472371561344770412019320589516616163883596134330428332144916270374698862952657319701202205881914927005410621832490609027560548360469233429466049564577427835035868416025615060254314879703256359389071279270594513360392921624557873089042673058604500539894873267666703472521024368876513245955304608327480267667421487625177558805697826717770522') Decimal('0.98960489653625929788628457067019642772429924180905574426583286186966170942477788049043878607348773969286510505877904832600365335938665322069198266482151600696198552762843865522958798067941048338383611640386566957166785508372962530113704734268029879779411808507299458937816750939097243945163953076657053395043542257216496413158397438493974568512029674364061092872072940548663960707837544212691095732694139549946010512673233329652747897563112348675404469539167251973233257851237482244119430217328222948')) (Decimal('0.99990231289121675798064342625463083783064214466088460339098233715674001977991406046262582314183225985594976303876290838324882545370029596466275745755452071790593186071335515113786840853407300015124042877429271166048944744943430330249266199110868086414412263348889467517312292532855108724810310152547008621788724020210072947967833083918216756275852278003938605253042418096870018858394154924071965352981825133333491754979742688654291942602583923962839078815351959508081735453906958341391386356571284560') Decimal('0.000097687108783242019356573745369162169357855339115396609017662843259980220085939537374176858167740144050236961237091616751174546299704035337242542445479282094068139286644848862131591465926999848759571225707288339510552550565696697507338008891319135855877366511105324826877074671448912751896898474529913782112759797899270520321669160817832437241477219960613947469575819031299811416058450759280346470181748666665082450202573113457080573974160760371609211846480404919182645460930416586086136434287154400603')) (Decimal('0.0010843333441618160034482778811305032133881659130461827009102293625593006375522219917078272695214768232351029880616182815882480040501823508462790551909968911603274146438725911197185620919441122658229606810652926594584436612664038633109118683412405994241919163105866825159220113402582153290091632883790320190728115723142481106888739192466593287469739047169446960915530613663003605975508659273725512289319421512468263993590131352097134476196842860180793478378142879152349584126124041550490263600142652739') Decimal('0.99891566665583818399655172211886949678661183408695381729908977063744069936244777800829217273047852317676489701193838171841175199594981764915372094480900310883967258535612740888028143790805588773417703931893470734054155633873359613668908813165875940057580808368941331748407798865974178467099083671162096798092718842768575188931112608075334067125302609528305530390844693863369963940244913407262744877106805784875317360064098686479028655238031571398192065216218571208476504158738759584495097363998573473')) (Decimal('0.00010098000270959472287512758051459615963916305605275186295494302205412285532877900635387802215672498851775731435474011176903883860232753374992780132186790126373625945647217594515442101334248295525701077820517239891780192106095499701410536229785417271505334868137985900010504556613194292590000921252571361321252142818915498429589584505275188852501988202935047792594706898872639853001590640266510761160010760427848973111367744376914318127370671718216700466740240774817633513483944283589612944164955580020') Decimal('0.99989901999729040527712487241948540384036083694394724813704505697794587714467122099364612197784327501148224268564525988823096116139767246625007219867813209873626374054352782405484557898665751704474298922179482760108219807893904500298589463770214582728494665131862014099989495443386805707409999078747428638678747857181084501570410415494724811147498011797064952207405293101127360146998409359733489238839989239572151026888632255623085681872629328281783299533259759225182366486516055716410387055835044420')));
}

potential ( M | P )
{
	data = ((Decimal('0.21456012459070186001299187635722497524858094143029280516433644020195299770832244797739432914903419485748119678808939672665808817864700632493772276938248664326953307935452006259314758401798662699333738221916531810712859548022572222738059773825890475003486669513905994384559810761969685786182441991739337502113227634376765525588957976860570037073827810313689678762463758285442031905629125904847242843224292137666248766859526310282777660942715832318843159806605928823039265089365897260551157296444520411') Decimal('0.78543987540929813998700812364277502475141905856970719483566355979804700229167755202260567085096580514251880321191060327334191182135299367506227723061751335673046692064547993740685241598201337300666261778083468189287140451977427777261940226174109524996513330486094005615440189238030314213817558008260662497886772365623234474411042023139429962926172189686310321237536241714557968094370874095152757156775707862333751233140473689717222339057284167681156840193394071176960734910634102739448842703555479589')) (Decimal('0.023887337955293758741158400152370586217856623331163305248723652836172379832244947810666976538626599514087994417491926838714286153379957701496095615346238574205445864468464819970380022054370558129989808671797260937068315022573458558880031638143678618814171969579530550059723866560836955973875165141511525599665718956868810891607130710908165899693995431412799370578161506016310413177411718918750087194856561539154525709346725039155569970955492467976481642869582106909629187489180508293770334668278346070') Decimal('0.97611266204470624125884159984762941378214337666883669475127634716382762016775505218933302346137340048591200558250807316128571384662004229850390438465376142579455413553153518002961997794562944187001019132820273906293168497742654144111996836185632138118582803042046944994027613343916304402612483485848847440033428104313118910839286928909183410030600456858720062942183849398368958682258828108124991280514343846084547429065327496084443002904450753202351835713041789309037081251081949170622966533172165393')));
}

potential ( D | M )
{
	data = ((Decimal('0.515124510532130144') Decimal('0.484875489467869856')) (Decimal('0.021927283089941972') Decimal('0.978072716910058028')));
}

potential ( T | M D )
{
	data = ((Decimal('0.023325488689864678239814171194715659227543461708301103659197361264119195621470681720779771562691304217028949485328465264064872183492417279186706861062172085613240137088111372422802313764135540537873790509528235032611643581142200756648378130731518847603244602525652283155390697426905921836179222648251013803202892979710200350377857208317617015207660105244647819792365151533175312923995016188434658215672817022632529795293376082893522699519216876784935728624525930044148151509765120242045693301262078112') Decimal('0.97667451131013532176018582880528434077245653829169889634080263873588080437852931827922022843730869578297105051467153473593512781650758272081329313893782791438675986291188862757719768623586445946212620949047176496738835641885779924335162186926848115239675539747434771684460930257309407816382077735174898619679710702028979964962214279168238298479233989475535218020763484846682468707600498381156534178432718297736747020470662391710647730048078312321506427137547406995585184849023487975795430669873792189')) (Decimal('0.00024020404875185548160355120794595547651966328910128463053675949063235311201966655926013768402911353440908857912668932908825848658796586558185554959512892143353151272090451569889158915642744073988679561111127125076833388855026188837536582824364940417172339341675812499210498980927830996433702932148477597284596945132917692737035627386128596712758060365719606284019567075948996982591136336880601805770605459375503418547043456834517466452283582314645006671564076602470363655006742797972948407964089800527') Decimal('0.99975979595124814451839644879205404452348033671089871536946324050936764688798033344073986231597088646559091142087331067091174151341203413441814445040487107856646848727909548430110841084357255926011320438888872874923166611144973811162463417175635059582827660658324187500789501019072169003566297067851522402715403054867082307262964372613871403287241939634280393715980432924051003017408863663119398194229394540624496581452956543165482533547716417685354993328435923397529636344993257202027051592035910199')) (Decimal('0.54353163431996262213059788571539778182853264300533760711383754614834052225153699622460669334191194943893272217529629148425374268300415672612221312852596640523520986651169234109313177491197119627439405966904085509731406959910722531884350265260345351668122569947930462756156194127596964938570335057477262651727605829763310157140380375405576158520058344963274788716267214911011921173990562082075272935079284550700657767806839482408045805983397557441285563001467270181982638997074219311122243681407489940') Decimal('0.45646836568003737786940211428460221817146735699466239288616245385165947774846300377539330665808805056106727782470370851574625731699584327387778687147403359476479013348830765890686822508802880372560594033095914490268593040089277468115649734739654648331877430052069537243843805872403035061429664942522737348272394170236689842859619624594423841479941655036725211283732785088988078826009437917924727064920715449299342232193160517591954194016602442558714436998532729818017361002925780688877756318592510060')) (Decimal('0.00021862176730876266010175933220466056104894936809833219659772790459412368871815012929680214648192600422818796118035829355949704155718317950567984806590902048002658198527582218222265616165883608657856725478177209172648766521563772976929921116801162761653373990060976659590835556462590156347202048464516845245299094759005555936021293250982340762894056542209709620686457120377801057812576538890767505488827904845019826609057164391097798535222320535413326499497041404994656355526242576990687447142955378676') Decimal('0.99978137823269123733989824066779533943895105063190166780340227209540587631128184987070319785351807399577181203881964170644050295844281682049432015193409097951997341801472417781777734383834116391342143274521822790827351233478436227023070078883198837238346626009939023340409164443537409843652797951535483154754700905240994444063978706749017659237105943457790290379313542879622198942187423461109232494511172095154980173390942835608902201464777679464586673500502958595005343644473757423009312552857044621')));
}

