net
{
    node_size = (70 20);
}

node P
{
	states = ("true" "false");
	ID = "P";
	position = (100 80);
	label = "Psych_report";
}

node C
{
	states = ("true" "false");
	ID = "C";
	position = (200 80);
	label = "Crime";
}

node M
{
	states = ("true" "false");
	ID = "M";
	position = (150 150);
	label = "Motive";
}

node D
{
	states = ("true" "false");
	ID = "D";
	position = (250 10);
	label = "DNA_match";
}

node T
{
	states = ("true" "false");
	ID = "T";
	position = (300 80);
	label = "Twin";
}

potential ( P | D )
{
	data = ((Decimal('0.38014050723279512942') Decimal('0.61985949276720487058')) (Decimal('0.11294665976178146038') Decimal('0.88705334023821853962')));
}

potential ( C | D P T )
{
	data = ((Decimal('0.1276') Decimal('0.8724')) (Decimal('0.99320943642369878667') Decimal('0.0067905635763012133345')) (Decimal('0.0212') Decimal('0.9788')) (Decimal('0.95586776561400977510') Decimal('0.044132234385990224899')) (Decimal('-1') Decimal('-1')) (Decimal('0E+2') Decimal('1')) (Decimal('-1') Decimal('-1')) (Decimal('0E+2') Decimal('1')));
}

potential ( M | P C )
{
	data = ((Decimal('0.94043887147335423197') Decimal('0.059561128526645768025')) (Decimal('0.13755158184319119670') Decimal('0.86244841815680880330')) (Decimal('0.53908355795148247978') Decimal('0.46091644204851752022')) (Decimal('0.011676104851421565766') Decimal('0.98832389514857843423')));
}

potential ( D |  )
{
	data = ((Decimal('0.0451108450') Decimal('0.9548891550')));
}

potential ( T | D P )
{
	data = ((Decimal('0.072892844981206620921') Decimal('0.92710715501879337908')) (Decimal('0.31292036940124439669') Decimal('0.68707963059875560331')) (Decimal('0E+2') Decimal('1')) (Decimal('0E+2') Decimal('1')));
}

