net
{
	HRUNTIME_Propagate_AutoNormal = "1";
	HR_Font_Size = "-12";
	HRUNTIME_Font_Size = "-12";
	HR_Grid_GridSnap = "1";
	HRUNTIME_Propagate_AutoSum = "1";
	HR_Propagate_AutoNormal = "1";
	node_size = (100.0 40.0);
	HRUNTIME_Monitor_GraphPrecision = "100";
	HR_Grid_GridShow = "0";
	HR_Font_Name = "Arial";
	HR_Compile_ApproxEpsilon = "0.00001";
	HRUNTIME_Monitor_AutoUpdGraph = "0";
	HRUNTIME_Font_Name = "Arial";
	HRUNTIME_Font_Weight = "400";
	HR_Font_Weight = "400";
	HR_Monitor_AutoUpdGraph = "0";
	HRUNTIME_Compile_Compress = "0";
	HR_Compile_Compress = "0";
	HRUNTIME_Compile_TriangMethod = "0";
	HR_Grid_Y = "10";
	HR_Grid_X = "10";
	HR_Groups_GroupNames = "";
	HR_Compile_Approximate = "0";
	HRUNTIME_Compile_Approximate = "0";
	HR_Compile_TriangMethod = "0";
	HR_Color_DiscreteChance = "16";
	HRUNTIME_Compile_ApproxEpsilon = "0.00001";
	HR_Monitor_InitStates = "5";
	HRUNTIME_Grid_GridSnap = "1";
	HR_Color_ContinuosChance = "48";
	HRUNTIME_Propagate_Auto = "0";
	HR_Groups_GroupColors = "";
	HR_Monitor_OpenGraph = "0";
	HRUNTIME_Grid_GridShow = "0";
	HR_Monitor_InitSD = "2";
	HR_Groups_UserGroupsNo = "0";
	HR_Color_Decision = "17";
	HRUNTIME_Monitor_InitStates = "5";
	HRUNTIME_Grid_Y = "10";
	HRUNTIME_Grid_X = "10";
	HR_Propagate_Auto = "0";
	HR_Monitor_GraphPrecision = "100";
	HRUNTIME_Font_Italic = "0";
	HRUNTIME_Monitor_OpenGraph = "0";
	HR_Font_Italic = "0";
	HR_Propagate_AutoSum = "1";
	HR_Color_Utility = "36";
}

node A
{
	states = ("Present" "Absent");
	ID = "A";
	position = (131 0);
	label = "A:Metastatic Cancer";
}

node C
{
	states = ("Present" "Absent");
	ID = "C";
	position = (255 128);
	label = "C:  Brain Tumor";
}

node B
{
	states = ("Increased" "Not increased");
	ID = "B";
	position = (0 128);
	label = "B: Serum Calcium";
}

node E
{
	states = ("Present" "Absent");
	ID = "E";
	position = (414 266);
	label = "E: Severe Headaches";
}

node D
{
	states = ("Present" "Absent");
	ID = "D";
	position = (147 256);
	label = "D: Coma";
}

potential ( A |  )
{
	data = ((Decimal('0.2116523002') Decimal('0.7883477002')));
}

potential ( C | A D E B )
{
	data = ((Decimal('0.2548801053') Decimal('0.7451198947')) (Decimal('0.9584194776') Decimal('0.04158052235')) (Decimal('0.1167562011') Decimal('0.8832437989')) (Decimal('0.8990662469') Decimal('0.1009337532')) (Decimal('0.2947895257') Decimal('0.7052104744')) (Decimal('0.08895844141') Decimal('0.9110415586')) (Decimal('0.1390747588') Decimal('0.8609252412')) (Decimal('0.03636238020') Decimal('0.9636376197')) (Decimal('0.06442941736') Decimal('0.9355705827')) (Decimal('0.8227103435') Decimal('0.1772896567')) (Decimal('0.02592330558') Decimal('0.9740766944')) (Decimal('0.6420006020') Decimal('0.3579993980')) (Decimal('0.07762451725') Decimal('0.9223754824')) (Decimal('0.01927934030') Decimal('0.9807206596')) (Decimal('0.03149787958') Decimal('0.9685021203')) (Decimal('0.007539622517') Decimal('0.9924603775')));
}

potential ( B | A D E )
{
	data = ((Decimal('0.9161054834') Decimal('0.08389451667')) (Decimal('0.9571948141') Decimal('0.04280518580')) (Decimal('0.3804261820') Decimal('0.6195738180')) (Decimal('0.3472556571') Decimal('0.6527443430')) (Decimal('0.6736029048') Decimal('0.3263970952')) (Decimal('0.8001031275') Decimal('0.1998968724')) (Decimal('0.02735596927') Decimal('0.9726440307')) (Decimal('0.02639111491') Decimal('0.9736088849')));
}

potential ( E | A D )
{
	data = ((Decimal('0.6517272627') Decimal('0.3482727365')) (Decimal('0.6273790458') Decimal('0.3726209542')) (Decimal('0.6513871154') Decimal('0.3486128844')) (Decimal('0.6048224144') Decimal('0.3951775856')));
}

potential ( D | A )
{
	data = ((Decimal('0.6389175576') Decimal('0.3610824421')) (Decimal('0.1481169787') Decimal('0.8518830212')));
}

