net
{
	HRUNTIME_Propagate_AutoNormal = "1";
	HR_Font_Size = "-12";
	HRUNTIME_Font_Size = "-12";
	HR_Grid_GridSnap = "1";
	HRUNTIME_Propagate_AutoSum = "1";
	HR_Propagate_AutoNormal = "1";
	node_size = (100.0 40.0);
	HRUNTIME_Monitor_GraphPrecision = "100";
	HR_Grid_GridShow = "0";
	HR_Font_Name = "Arial";
	HR_Compile_ApproxEpsilon = "0.00001";
	HRUNTIME_Monitor_AutoUpdGraph = "0";
	HRUNTIME_Font_Name = "Arial";
	HRUNTIME_Font_Weight = "400";
	HR_Font_Weight = "400";
	HR_Monitor_AutoUpdGraph = "0";
	HRUNTIME_Compile_Compress = "0";
	HR_Compile_Compress = "0";
	HRUNTIME_Compile_TriangMethod = "0";
	HR_Grid_Y = "10";
	HR_Grid_X = "10";
	HR_Groups_GroupNames = "";
	HR_Compile_Approximate = "0";
	HRUNTIME_Compile_Approximate = "0";
	HR_Compile_TriangMethod = "0";
	HR_Color_DiscreteChance = "16";
	HRUNTIME_Compile_ApproxEpsilon = "0.00001";
	HR_Monitor_InitStates = "5";
	HRUNTIME_Grid_GridSnap = "1";
	HR_Color_ContinuosChance = "48";
	HRUNTIME_Propagate_Auto = "0";
	HR_Groups_GroupColors = "";
	HR_Monitor_OpenGraph = "0";
	HRUNTIME_Grid_GridShow = "0";
	HR_Monitor_InitSD = "2";
	HR_Groups_UserGroupsNo = "0";
	HR_Color_Decision = "17";
	HRUNTIME_Monitor_InitStates = "5";
	HRUNTIME_Grid_Y = "10";
	HRUNTIME_Grid_X = "10";
	HR_Propagate_Auto = "0";
	HR_Monitor_GraphPrecision = "100";
	HRUNTIME_Font_Italic = "0";
	HRUNTIME_Monitor_OpenGraph = "0";
	HR_Font_Italic = "0";
	HR_Propagate_AutoSum = "1";
	HR_Color_Utility = "36";
}

node A
{
	states = ("Present" "Absent");
	ID = "A";
	position = (131 0);
	label = "A:Metastatic Cancer";
}

node C
{
	states = ("Present" "Absent");
	ID = "C";
	position = (255 128);
	label = "C:  Brain Tumor";
}

node B
{
	states = ("Increased" "Not increased");
	ID = "B";
	position = (0 128);
	label = "B: Serum Calcium";
}

node E
{
	states = ("Present" "Absent");
	ID = "E";
	position = (414 266);
	label = "E: Severe Headaches";
}

node D
{
	states = ("Present" "Absent");
	ID = "D";
	position = (147 256);
	label = "D: Coma";
}

potential ( A |  )
{
	data = ((Decimal('0.2116523002') Decimal('0.7883477002')));
}

potential ( C | A B D E )
{
	data = ((Decimal('0.2548801053') Decimal('0.7451198947')) (Decimal('0.1167562011') Decimal('0.8832437989')) (Decimal('0.2947895257') Decimal('0.7052104744')) (Decimal('0.1390747588') Decimal('0.8609252412')) (Decimal('0.9584194776') Decimal('0.04158052235')) (Decimal('0.8990662469') Decimal('0.1009337532')) (Decimal('0.08895844141') Decimal('0.9110415586')) (Decimal('0.03636238020') Decimal('0.9636376197')) (Decimal('0.06442941736') Decimal('0.9355705827')) (Decimal('0.02592330558') Decimal('0.9740766944')) (Decimal('0.07762451725') Decimal('0.9223754824')) (Decimal('0.03149787958') Decimal('0.9685021203')) (Decimal('0.8227103435') Decimal('0.1772896567')) (Decimal('0.6420006020') Decimal('0.3579993980')) (Decimal('0.01927934030') Decimal('0.9807206596')) (Decimal('0.007539622517') Decimal('0.9924603775')));
}

potential ( B | A )
{
	data = ((Decimal('0.7273611997') Decimal('0.2726387998')) (Decimal('0.1292832000') Decimal('0.8707167999')));
}

potential ( E | A B D )
{
	data = ((Decimal('0.6417033484') Decimal('0.3582966516')) (Decimal('0.6484470672') Decimal('0.3515529329')) (Decimal('0.7857577685') Decimal('0.2142422315')) (Decimal('0.6151081008') Decimal('0.3848918992')) (Decimal('0.6113622923') Decimal('0.3886377077')) (Decimal('0.6133716176') Decimal('0.3866283825')) (Decimal('0.7531447201') Decimal('0.2468552797')) (Decimal('0.6045854093') Decimal('0.3954145907')));
}

potential ( D | A B )
{
	data = ((Decimal('0.8172816690') Decimal('0.1827183304')) (Decimal('0.1630676990') Decimal('0.8369323010')) (Decimal('0.8222563155') Decimal('0.1777436842')) (Decimal('0.04802141289') Decimal('0.9519785871')));
}

