net
{
	HRUNTIME_Propagate_AutoNormal = "1";
	HR_Font_Size = "-12";
	HRUNTIME_Font_Size = "-12";
	HR_Grid_GridSnap = "1";
	HRUNTIME_Propagate_AutoSum = "1";
	HR_Propagate_AutoNormal = "1";
	node_size = (100.0 40.0);
	HRUNTIME_Monitor_GraphPrecision = "100";
	HR_Grid_GridShow = "0";
	HR_Font_Name = "Arial";
	HR_Compile_ApproxEpsilon = "0.00001";
	HRUNTIME_Monitor_AutoUpdGraph = "0";
	HRUNTIME_Font_Name = "Arial";
	HRUNTIME_Font_Weight = "400";
	HR_Font_Weight = "400";
	HR_Monitor_AutoUpdGraph = "0";
	HRUNTIME_Compile_Compress = "0";
	HR_Compile_Compress = "0";
	HRUNTIME_Compile_TriangMethod = "0";
	HR_Grid_Y = "10";
	HR_Grid_X = "10";
	HR_Groups_GroupNames = "";
	HR_Compile_Approximate = "0";
	HRUNTIME_Compile_Approximate = "0";
	HR_Compile_TriangMethod = "0";
	HR_Color_DiscreteChance = "16";
	HRUNTIME_Compile_ApproxEpsilon = "0.00001";
	HR_Monitor_InitStates = "5";
	HRUNTIME_Grid_GridSnap = "1";
	HR_Color_ContinuosChance = "48";
	HRUNTIME_Propagate_Auto = "0";
	HR_Groups_GroupColors = "";
	HR_Monitor_OpenGraph = "0";
	HRUNTIME_Grid_GridShow = "0";
	HR_Monitor_InitSD = "2";
	HR_Groups_UserGroupsNo = "0";
	HR_Color_Decision = "17";
	HRUNTIME_Monitor_InitStates = "5";
	HRUNTIME_Grid_Y = "10";
	HRUNTIME_Grid_X = "10";
	HR_Propagate_Auto = "0";
	HR_Monitor_GraphPrecision = "100";
	HRUNTIME_Font_Italic = "0";
	HRUNTIME_Monitor_OpenGraph = "0";
	HR_Font_Italic = "0";
	HR_Propagate_AutoSum = "1";
	HR_Color_Utility = "36";
}

node A
{
	states = ("Present" "Absent");
	ID = "A";
	position = (131 0);
	label = "A:Metastatic Cancer";
}

node C
{
	states = ("Present" "Absent");
	ID = "C";
	position = (255 128);
	label = "C:  Brain Tumor";
}

node B
{
	states = ("Increased" "Not increased");
	ID = "B";
	position = (0 128);
	label = "B: Serum Calcium";
}

node E
{
	states = ("Present" "Absent");
	ID = "E";
	position = (414 266);
	label = "E: Severe Headaches";
}

node D
{
	states = ("Present" "Absent");
	ID = "D";
	position = (147 256);
	label = "D: Coma";
}

potential ( A | B )
{
	data = ((Decimal('0.6016688321') Decimal('0.3983311679')) (Decimal('0.07754620465') Decimal('0.9224537952')));
}

potential ( C | B A E D )
{
	data = ((Decimal('0.2548801053') Decimal('0.7451198947')) (Decimal('0.2947895257') Decimal('0.7052104744')) (Decimal('0.1167562011') Decimal('0.8832437989')) (Decimal('0.1390747588') Decimal('0.8609252412')) (Decimal('0.06442941736') Decimal('0.9355705827')) (Decimal('0.07762451725') Decimal('0.9223754824')) (Decimal('0.02592330558') Decimal('0.9740766944')) (Decimal('0.03149787958') Decimal('0.9685021203')) (Decimal('0.9584194776') Decimal('0.04158052235')) (Decimal('0.08895844141') Decimal('0.9110415586')) (Decimal('0.8990662469') Decimal('0.1009337532')) (Decimal('0.03636238020') Decimal('0.9636376197')) (Decimal('0.8227103435') Decimal('0.1772896567')) (Decimal('0.01927934030') Decimal('0.9807206596')) (Decimal('0.6420006020') Decimal('0.3579993980')) (Decimal('0.007539622517') Decimal('0.9924603775')));
}

potential ( B |  )
{
	data = ((Decimal('0.2558677844') Decimal('0.7441322159')));
}

potential ( E | B A )
{
	data = ((Decimal('0.6429355491') Decimal('0.3570644504')) (Decimal('0.6117194370') Decimal('0.3882805627')) (Decimal('0.6429355495') Decimal('0.3570644507')) (Decimal('0.6117194373') Decimal('0.3882805627')));
}

potential ( D | B A E )
{
	data = ((Decimal('0.8157153300') Decimal('0.1842846700')) (Decimal('0.8201020435') Decimal('0.1798979565')) (Decimal('0.8217762515') Decimal('0.1782237485')) (Decimal('0.8230126364') Decimal('0.1769873636')) (Decimal('0.1992916885') Decimal('0.8007083113')) (Decimal('0.09784224574') Decimal('0.9021577540')) (Decimal('0.05912362983') Decimal('0.9408763700')) (Decimal('0.03053034442') Decimal('0.9694696557')));
}

