net
{
	HRUNTIME_Propagate_AutoNormal = "1";
	HR_Font_Size = "-12";
	HRUNTIME_Font_Size = "-12";
	HR_Grid_GridSnap = "1";
	HRUNTIME_Propagate_AutoSum = "1";
	HR_Propagate_AutoNormal = "1";
	node_size = (100.0 40.0);
	HRUNTIME_Monitor_GraphPrecision = "100";
	HR_Grid_GridShow = "0";
	HR_Font_Name = "Arial";
	HR_Compile_ApproxEpsilon = "0.00001";
	HRUNTIME_Monitor_AutoUpdGraph = "0";
	HRUNTIME_Font_Name = "Arial";
	HRUNTIME_Font_Weight = "400";
	HR_Font_Weight = "400";
	HR_Monitor_AutoUpdGraph = "0";
	HRUNTIME_Compile_Compress = "0";
	HR_Compile_Compress = "0";
	HRUNTIME_Compile_TriangMethod = "0";
	HR_Grid_Y = "10";
	HR_Grid_X = "10";
	HR_Groups_GroupNames = "";
	HR_Compile_Approximate = "0";
	HRUNTIME_Compile_Approximate = "0";
	HR_Compile_TriangMethod = "0";
	HR_Color_DiscreteChance = "16";
	HRUNTIME_Compile_ApproxEpsilon = "0.00001";
	HR_Monitor_InitStates = "5";
	HRUNTIME_Grid_GridSnap = "1";
	HR_Color_ContinuosChance = "48";
	HRUNTIME_Propagate_Auto = "0";
	HR_Groups_GroupColors = "";
	HR_Monitor_OpenGraph = "0";
	HRUNTIME_Grid_GridShow = "0";
	HR_Monitor_InitSD = "2";
	HR_Groups_UserGroupsNo = "0";
	HR_Color_Decision = "17";
	HRUNTIME_Monitor_InitStates = "5";
	HRUNTIME_Grid_Y = "10";
	HRUNTIME_Grid_X = "10";
	HR_Propagate_Auto = "0";
	HR_Monitor_GraphPrecision = "100";
	HRUNTIME_Font_Italic = "0";
	HRUNTIME_Monitor_OpenGraph = "0";
	HR_Font_Italic = "0";
	HR_Propagate_AutoSum = "1";
	HR_Color_Utility = "36";
}

node A
{
	states = ("Present" "Absent");
	ID = "A";
	position = (131 0);
	label = "A:Metastatic Cancer";
}

node C
{
	states = ("Present" "Absent");
	ID = "C";
	position = (255 128);
	label = "C:  Brain Tumor";
}

node B
{
	states = ("Increased" "Not increased");
	ID = "B";
	position = (0 128);
	label = "B: Serum Calcium";
}

node E
{
	states = ("Present" "Absent");
	ID = "E";
	position = (414 266);
	label = "E: Severe Headaches";
}

node D
{
	states = ("Present" "Absent");
	ID = "D";
	position = (147 256);
	label = "D: Coma";
}

potential ( A | B E D )
{
	data = ((Decimal('0.6117778409') Decimal('0.3882221591')) (Decimal('0.6214332498') Decimal('0.3785667502')) (Decimal('0.5805590544') Decimal('0.4194409456')) (Decimal('0.5853858823') Decimal('0.4146141180')) (Decimal('0.2294792902') Decimal('0.7705207100')) (Decimal('0.06993373917') Decimal('0.9300662607')) (Decimal('0.1985566463') Decimal('0.8014433536')) (Decimal('0.06711120421') Decimal('0.9328887957')));
}

potential ( C | B E D A )
{
	data = ((Decimal('0.2548801053') Decimal('0.7451198947')) (Decimal('0.06442941736') Decimal('0.9355705827')) (Decimal('0.2947895257') Decimal('0.7052104744')) (Decimal('0.07762451725') Decimal('0.9223754824')) (Decimal('0.1167562011') Decimal('0.8832437989')) (Decimal('0.02592330558') Decimal('0.9740766944')) (Decimal('0.1390747588') Decimal('0.8609252412')) (Decimal('0.03149787958') Decimal('0.9685021203')) (Decimal('0.9584194776') Decimal('0.04158052235')) (Decimal('0.8227103435') Decimal('0.1772896567')) (Decimal('0.08895844141') Decimal('0.9110415586')) (Decimal('0.01927934030') Decimal('0.9807206596')) (Decimal('0.8990662469') Decimal('0.1009337532')) (Decimal('0.6420006020') Decimal('0.3579993980')) (Decimal('0.03636238020') Decimal('0.9636376197')) (Decimal('0.007539622517') Decimal('0.9924603775')));
}

potential ( B |  )
{
	data = ((Decimal('0.2558677844') Decimal('0.7441322159')));
}

potential ( E | B )
{
	data = ((Decimal('0.6305011988') Decimal('0.3694988008')) (Decimal('0.6141401284') Decimal('0.3858598716')));
}

potential ( D | B E )
{
	data = ((Decimal('0.8180576666') Decimal('0.1819423333')) (Decimal('0.8213203551') Decimal('0.1786796449')) (Decimal('0.07050277319') Decimal('0.9294972266')) (Decimal('0.03536059214') Decimal('0.9646394080')));
}

