net
{
	HRUNTIME_Propagate_AutoNormal = "1";
	HR_Font_Size = "-12";
	HRUNTIME_Font_Size = "-12";
	HR_Grid_GridSnap = "1";
	HRUNTIME_Propagate_AutoSum = "1";
	HR_Propagate_AutoNormal = "1";
	node_size = (100.0 40.0);
	HRUNTIME_Monitor_GraphPrecision = "100";
	HR_Grid_GridShow = "0";
	HR_Font_Name = "Arial";
	HR_Compile_ApproxEpsilon = "0.00001";
	HRUNTIME_Monitor_AutoUpdGraph = "0";
	HRUNTIME_Font_Name = "Arial";
	HRUNTIME_Font_Weight = "400";
	HR_Font_Weight = "400";
	HR_Monitor_AutoUpdGraph = "0";
	HRUNTIME_Compile_Compress = "0";
	HR_Compile_Compress = "0";
	HRUNTIME_Compile_TriangMethod = "0";
	HR_Grid_Y = "10";
	HR_Grid_X = "10";
	HR_Groups_GroupNames = "";
	HR_Compile_Approximate = "0";
	HRUNTIME_Compile_Approximate = "0";
	HR_Compile_TriangMethod = "0";
	HR_Color_DiscreteChance = "16";
	HRUNTIME_Compile_ApproxEpsilon = "0.00001";
	HR_Monitor_InitStates = "5";
	HRUNTIME_Grid_GridSnap = "1";
	HR_Color_ContinuosChance = "48";
	HRUNTIME_Propagate_Auto = "0";
	HR_Groups_GroupColors = "";
	HR_Monitor_OpenGraph = "0";
	HRUNTIME_Grid_GridShow = "0";
	HR_Monitor_InitSD = "2";
	HR_Groups_UserGroupsNo = "0";
	HR_Color_Decision = "17";
	HRUNTIME_Monitor_InitStates = "5";
	HRUNTIME_Grid_Y = "10";
	HRUNTIME_Grid_X = "10";
	HR_Propagate_Auto = "0";
	HR_Monitor_GraphPrecision = "100";
	HRUNTIME_Font_Italic = "0";
	HRUNTIME_Monitor_OpenGraph = "0";
	HR_Font_Italic = "0";
	HR_Propagate_AutoSum = "1";
	HR_Color_Utility = "36";
}

node A
{
	states = ("Present" "Absent");
	ID = "A";
	position = (131 0);
	label = "A:Metastatic Cancer";
}

node C
{
	states = ("Present" "Absent");
	ID = "C";
	position = (255 128);
	label = "C:  Brain Tumor";
}

node B
{
	states = ("Increased" "Not increased");
	ID = "B";
	position = (0 128);
	label = "B: Serum Calcium";
}

node E
{
	states = ("Present" "Absent");
	ID = "E";
	position = (414 266);
	label = "E: Severe Headaches";
}

node D
{
	states = ("Present" "Absent");
	ID = "D";
	position = (147 256);
	label = "D: Coma";
}

potential ( A | C D E )
{
	data = ((Decimal('0.5383262284') Decimal('0.4616737716')) (Decimal('0.5383262284') Decimal('0.4616737717')) (Decimal('0.4860703959') Decimal('0.5139296044')) (Decimal('0.4860703958') Decimal('0.5139296042')) (Decimal('0.5360446217') Decimal('0.4639553781')) (Decimal('0.5360446218') Decimal('0.4639553782')) (Decimal('0.09123391012') Decimal('0.9087660898')) (Decimal('0.09123391007') Decimal('0.9087660898')));
}

potential ( C |  )
{
	data = ((Decimal('0.08525386044') Decimal('0.9147461397')));
}

potential ( B | C D E A )
{
	data = ((Decimal('0.7438505292') Decimal('0.2561494710')) (Decimal('0.1391332271') Decimal('0.8608667730')) (Decimal('0.7438505290') Decimal('0.2561494710')) (Decimal('0.1391332271') Decimal('0.8608667730')) (Decimal('0.6704790721') Decimal('0.3295209279')) (Decimal('0.1017221678') Decimal('0.8982778322')) (Decimal('0.6704790722') Decimal('0.3295209279')) (Decimal('0.1017221678') Decimal('0.8982778324')) (Decimal('0.9949156186') Decimal('0.005084381431')) (Decimal('0.9158997804') Decimal('0.08410021962')) (Decimal('0.9949156185') Decimal('0.005084381430')) (Decimal('0.9158997804') Decimal('0.08410021958')) (Decimal('0.3221667802') Decimal('0.6778332198')) (Decimal('0.02577044444') Decimal('0.9742295556')) (Decimal('0.3221667803') Decimal('0.6778332198')) (Decimal('0.02577044444') Decimal('0.9742295554')));
}

potential ( E | C D )
{
	data = ((Decimal('0.7963230999') Decimal('0.2036769000')) (Decimal('0.7963230997') Decimal('0.2036769000')) (Decimal('0.6017372001') Decimal('0.3982628000')) (Decimal('0.6017372000') Decimal('0.3982628000')));
}

potential ( D | C )
{
	data = ((Decimal('0.7569732636') Decimal('0.2430267363')) (Decimal('0.2049324386') Decimal('0.7950675614')));
}

