net
{
	HRUNTIME_Propagate_AutoNormal = "1";
	HR_Font_Size = "-12";
	HRUNTIME_Font_Size = "-12";
	HR_Grid_GridSnap = "1";
	HRUNTIME_Propagate_AutoSum = "1";
	HR_Propagate_AutoNormal = "1";
	node_size = (100.0 40.0);
	HRUNTIME_Monitor_GraphPrecision = "100";
	HR_Grid_GridShow = "0";
	HR_Font_Name = "Arial";
	HR_Compile_ApproxEpsilon = "0.00001";
	HRUNTIME_Monitor_AutoUpdGraph = "0";
	HRUNTIME_Font_Name = "Arial";
	HRUNTIME_Font_Weight = "400";
	HR_Font_Weight = "400";
	HR_Monitor_AutoUpdGraph = "0";
	HRUNTIME_Compile_Compress = "0";
	HR_Compile_Compress = "0";
	HRUNTIME_Compile_TriangMethod = "0";
	HR_Grid_Y = "10";
	HR_Grid_X = "10";
	HR_Groups_GroupNames = "";
	HR_Compile_Approximate = "0";
	HRUNTIME_Compile_Approximate = "0";
	HR_Compile_TriangMethod = "0";
	HR_Color_DiscreteChance = "16";
	HRUNTIME_Compile_ApproxEpsilon = "0.00001";
	HR_Monitor_InitStates = "5";
	HRUNTIME_Grid_GridSnap = "1";
	HR_Color_ContinuosChance = "48";
	HRUNTIME_Propagate_Auto = "0";
	HR_Groups_GroupColors = "";
	HR_Monitor_OpenGraph = "0";
	HRUNTIME_Grid_GridShow = "0";
	HR_Monitor_InitSD = "2";
	HR_Groups_UserGroupsNo = "0";
	HR_Color_Decision = "17";
	HRUNTIME_Monitor_InitStates = "5";
	HRUNTIME_Grid_Y = "10";
	HRUNTIME_Grid_X = "10";
	HR_Propagate_Auto = "0";
	HR_Monitor_GraphPrecision = "100";
	HRUNTIME_Font_Italic = "0";
	HRUNTIME_Monitor_OpenGraph = "0";
	HR_Font_Italic = "0";
	HR_Propagate_AutoSum = "1";
	HR_Color_Utility = "36";
}

node A
{
	states = ("Present" "Absent");
	ID = "A";
	position = (131 0);
	label = "A:Metastatic Cancer";
}

node C
{
	states = ("Present" "Absent");
	ID = "C";
	position = (255 128);
	label = "C:  Brain Tumor";
}

node B
{
	states = ("Increased" "Not increased");
	ID = "B";
	position = (0 128);
	label = "B: Serum Calcium";
}

node E
{
	states = ("Present" "Absent");
	ID = "E";
	position = (414 266);
	label = "E: Severe Headaches";
}

node D
{
	states = ("Present" "Absent");
	ID = "D";
	position = (147 256);
	label = "D: Coma";
}

potential ( A | D B C )
{
	data = ((Decimal('0.8617634423') Decimal('0.1382365577')) (Decimal('0.5565519865') Decimal('0.4434480136')) (Decimal('0.2575823686') Decimal('0.7424176311')) (Decimal('0.06528943006') Decimal('0.9347105699')) (Decimal('0.8617634423') Decimal('0.1382365577')) (Decimal('0.5565519865') Decimal('0.4434480135')) (Decimal('0.2575823687') Decimal('0.7424176315')) (Decimal('0.06528943005') Decimal('0.9347105699')));
}

potential ( C | D B )
{
	data = ((Decimal('0.1430535614') Decimal('0.8569464386')) (Decimal('0.8153206075') Decimal('0.1846793925')) (Decimal('0.1694346794') Decimal('0.8305653205')) (Decimal('0.01835887284') Decimal('0.9816411270')));
}

potential ( B | D )
{
	data = ((Decimal('0.8318506037') Decimal('0.1681493962')) (Decimal('0.06182416264') Decimal('0.9381758372')));
}

potential ( E | D B C A )
{
	data = ((Decimal('0.7963231001') Decimal('0.2036769000')) (Decimal('0.7963231000') Decimal('0.2036769001')) (Decimal('0.6017372000') Decimal('0.3982628000')) (Decimal('0.6017372000') Decimal('0.3982628000')) (Decimal('0.7963231000') Decimal('0.2036769000')) (Decimal('0.7963230999') Decimal('0.2036769000')) (Decimal('0.6017372000') Decimal('0.3982628000')) (Decimal('0.6017372001') Decimal('0.3982627999')) (Decimal('0.7963231000') Decimal('0.2036769000')) (Decimal('0.7963231001') Decimal('0.2036769002')) (Decimal('0.6017372000') Decimal('0.3982628000')) (Decimal('0.6017372001') Decimal('0.3982628001')) (Decimal('0.7963231000') Decimal('0.2036769000')) (Decimal('0.7963231000') Decimal('0.2036769000')) (Decimal('0.6017372001') Decimal('0.3982627999')) (Decimal('0.6017372000') Decimal('0.3982628000')));
}

potential ( D |  )
{
	data = ((Decimal('0.2519960501') Decimal('0.7480039502')));
}

