net
{
	HRUNTIME_Propagate_AutoNormal = "1";
	HR_Font_Size = "-12";
	HRUNTIME_Font_Size = "-12";
	HR_Grid_GridSnap = "1";
	HRUNTIME_Propagate_AutoSum = "1";
	HR_Propagate_AutoNormal = "1";
	node_size = (100.0 40.0);
	HRUNTIME_Monitor_GraphPrecision = "100";
	HR_Grid_GridShow = "0";
	HR_Font_Name = "Arial";
	HR_Compile_ApproxEpsilon = "0.00001";
	HRUNTIME_Monitor_AutoUpdGraph = "0";
	HRUNTIME_Font_Name = "Arial";
	HRUNTIME_Font_Weight = "400";
	HR_Font_Weight = "400";
	HR_Monitor_AutoUpdGraph = "0";
	HRUNTIME_Compile_Compress = "0";
	HR_Compile_Compress = "0";
	HRUNTIME_Compile_TriangMethod = "0";
	HR_Grid_Y = "10";
	HR_Grid_X = "10";
	HR_Groups_GroupNames = "";
	HR_Compile_Approximate = "0";
	HRUNTIME_Compile_Approximate = "0";
	HR_Compile_TriangMethod = "0";
	HR_Color_DiscreteChance = "16";
	HRUNTIME_Compile_ApproxEpsilon = "0.00001";
	HR_Monitor_InitStates = "5";
	HRUNTIME_Grid_GridSnap = "1";
	HR_Color_ContinuosChance = "48";
	HRUNTIME_Propagate_Auto = "0";
	HR_Groups_GroupColors = "";
	HR_Monitor_OpenGraph = "0";
	HRUNTIME_Grid_GridShow = "0";
	HR_Monitor_InitSD = "2";
	HR_Groups_UserGroupsNo = "0";
	HR_Color_Decision = "17";
	HRUNTIME_Monitor_InitStates = "5";
	HRUNTIME_Grid_Y = "10";
	HRUNTIME_Grid_X = "10";
	HR_Propagate_Auto = "0";
	HR_Monitor_GraphPrecision = "100";
	HRUNTIME_Font_Italic = "0";
	HRUNTIME_Monitor_OpenGraph = "0";
	HR_Font_Italic = "0";
	HR_Propagate_AutoSum = "1";
	HR_Color_Utility = "36";
}

node A
{
	states = ("Present" "Absent");
	ID = "A";
	position = (131 0);
	label = "A:Metastatic Cancer";
}

node C
{
	states = ("Present" "Absent");
	ID = "C";
	position = (255 128);
	label = "C:  Brain Tumor";
}

node B
{
	states = ("Increased" "Not increased");
	ID = "B";
	position = (0 128);
	label = "B: Serum Calcium";
}

node E
{
	states = ("Present" "Absent");
	ID = "E";
	position = (414 266);
	label = "E: Severe Headaches";
}

node D
{
	states = ("Present" "Absent");
	ID = "D";
	position = (147 256);
	label = "D: Coma";
}

potential ( A | E B )
{
	data = ((Decimal('0.6135345685') Decimal('0.3864654314')) (Decimal('0.08118214296') Decimal('0.9188178569')) (Decimal('0.5814215102') Decimal('0.4185784898')) (Decimal('0.07175919291') Decimal('0.9282408071')));
}

potential ( C | E B A )
{
	data = ((Decimal('0.2622347996') Decimal('0.7377652004')) (Decimal('0.06678109753') Decimal('0.9332189024')) (Decimal('0.2622347994') Decimal('0.7377652005')) (Decimal('0.06678109753') Decimal('0.9332189023')) (Decimal('0.1207712640') Decimal('0.8792287360')) (Decimal('0.02690993474') Decimal('0.9730900652')) (Decimal('0.1207712639') Decimal('0.8792287358')) (Decimal('0.02690993475') Decimal('0.9730900654')));
}

potential ( B | E )
{
	data = ((Decimal('0.2609058015') Decimal('0.7390941985')) (Decimal('0.2477059961') Decimal('0.7522940034')));
}

potential ( E |  )
{
	data = ((Decimal('0.6183263994') Decimal('0.3816736010')));
}

potential ( D | E B A C )
{
	data = ((Decimal('0.7928376001') Decimal('0.2071624000')) (Decimal('0.8238471000') Decimal('0.1761529000')) (Decimal('0.7928375999') Decimal('0.2071624000')) (Decimal('0.8238471000') Decimal('0.1761529000')) (Decimal('0.7283741000') Decimal('0.2716259000')) (Decimal('0.01123210000') Decimal('0.9887679000')) (Decimal('0.7283740999') Decimal('0.2716259000')) (Decimal('0.01123210000') Decimal('0.9887678999')) (Decimal('0.7928376000') Decimal('0.2071624000')) (Decimal('0.8238471000') Decimal('0.1761529000')) (Decimal('0.7928376000') Decimal('0.2071624000')) (Decimal('0.8238471001') Decimal('0.1761529000')) (Decimal('0.7283741001') Decimal('0.2716259000')) (Decimal('0.01123210000') Decimal('0.9887678999')) (Decimal('0.7283740999') Decimal('0.2716259001')) (Decimal('0.01123210000') Decimal('0.9887679000')));
}

