net
{
	HRUNTIME_Propagate_AutoNormal = "1";
	HR_Font_Size = "-12";
	HRUNTIME_Font_Size = "-12";
	HR_Grid_GridSnap = "1";
	HRUNTIME_Propagate_AutoSum = "1";
	HR_Propagate_AutoNormal = "1";
	node_size = (100.0 40.0);
	HRUNTIME_Monitor_GraphPrecision = "100";
	HR_Grid_GridShow = "0";
	HR_Font_Name = "Arial";
	HR_Compile_ApproxEpsilon = "0.00001";
	HRUNTIME_Monitor_AutoUpdGraph = "0";
	HRUNTIME_Font_Name = "Arial";
	HRUNTIME_Font_Weight = "400";
	HR_Font_Weight = "400";
	HR_Monitor_AutoUpdGraph = "0";
	HRUNTIME_Compile_Compress = "0";
	HR_Compile_Compress = "0";
	HRUNTIME_Compile_TriangMethod = "0";
	HR_Grid_Y = "10";
	HR_Grid_X = "10";
	HR_Groups_GroupNames = "";
	HR_Compile_Approximate = "0";
	HRUNTIME_Compile_Approximate = "0";
	HR_Compile_TriangMethod = "0";
	HR_Color_DiscreteChance = "16";
	HRUNTIME_Compile_ApproxEpsilon = "0.00001";
	HR_Monitor_InitStates = "5";
	HRUNTIME_Grid_GridSnap = "1";
	HR_Color_ContinuosChance = "48";
	HRUNTIME_Propagate_Auto = "0";
	HR_Groups_GroupColors = "";
	HR_Monitor_OpenGraph = "0";
	HRUNTIME_Grid_GridShow = "0";
	HR_Monitor_InitSD = "2";
	HR_Groups_UserGroupsNo = "0";
	HR_Color_Decision = "17";
	HRUNTIME_Monitor_InitStates = "5";
	HRUNTIME_Grid_Y = "10";
	HRUNTIME_Grid_X = "10";
	HR_Propagate_Auto = "0";
	HR_Monitor_GraphPrecision = "100";
	HRUNTIME_Font_Italic = "0";
	HRUNTIME_Monitor_OpenGraph = "0";
	HR_Font_Italic = "0";
	HR_Propagate_AutoSum = "1";
	HR_Color_Utility = "36";
}

node A
{
	states = ("Present" "Absent");
	ID = "A";
	position = (131 0);
	label = "A:Metastatic Cancer";
}

node C
{
	states = ("Present" "Absent");
	ID = "C";
	position = (255 128);
	label = "C:  Brain Tumor";
}

node B
{
	states = ("Increased" "Not increased");
	ID = "B";
	position = (0 128);
	label = "B: Serum Calcium";
}

node E
{
	states = ("Present" "Absent");
	ID = "E";
	position = (414 266);
	label = "E: Severe Headaches";
}

node D
{
	states = ("Present" "Absent");
	ID = "D";
	position = (147 256);
	label = "D: Coma";
}

potential ( A | E B C )
{
	data = ((Decimal('0.8617634422') Decimal('0.1382365578')) (Decimal('0.5565519863') Decimal('0.4434480134')) (Decimal('0.2575823687') Decimal('0.7424176314')) (Decimal('0.06528943005') Decimal('0.9347105698')) (Decimal('0.8617634422') Decimal('0.1382365578')) (Decimal('0.5565519864') Decimal('0.4434480136')) (Decimal('0.2575823687') Decimal('0.7424176313')) (Decimal('0.06528943006') Decimal('0.9347105701')));
}

potential ( C | E B )
{
	data = ((Decimal('0.1866987003') Decimal('0.8133012998')) (Decimal('0.08264844788') Decimal('0.9173515519')) (Decimal('0.08148293057') Decimal('0.9185170694')) (Decimal('0.03364534797') Decimal('0.9663546519')));
}

potential ( B | E )
{
	data = ((Decimal('0.2609058015') Decimal('0.7390941985')) (Decimal('0.2477059961') Decimal('0.7522940034')));
}

potential ( E |  )
{
	data = ((Decimal('0.6183263994') Decimal('0.3816736010')));
}

potential ( D | E B C A )
{
	data = ((Decimal('0.7928376001') Decimal('0.2071624000')) (Decimal('0.7928375999') Decimal('0.2071624000')) (Decimal('0.8238471000') Decimal('0.1761529000')) (Decimal('0.8238471000') Decimal('0.1761529000')) (Decimal('0.7283741000') Decimal('0.2716259000')) (Decimal('0.7283740999') Decimal('0.2716259000')) (Decimal('0.01123210000') Decimal('0.9887679000')) (Decimal('0.01123210000') Decimal('0.9887678999')) (Decimal('0.7928376000') Decimal('0.2071624000')) (Decimal('0.7928376000') Decimal('0.2071624000')) (Decimal('0.8238471000') Decimal('0.1761529000')) (Decimal('0.8238471001') Decimal('0.1761529000')) (Decimal('0.7283741001') Decimal('0.2716259000')) (Decimal('0.7283740999') Decimal('0.2716259001')) (Decimal('0.01123210000') Decimal('0.9887678999')) (Decimal('0.01123210000') Decimal('0.9887679000')));
}

