net
{
	HRUNTIME_Propagate_AutoNormal = "1";
	HR_Font_Size = "-12";
	HRUNTIME_Font_Size = "-12";
	HR_Grid_GridSnap = "1";
	HRUNTIME_Propagate_AutoSum = "1";
	HR_Propagate_AutoNormal = "1";
	node_size = (100.0 40.0);
	HRUNTIME_Monitor_GraphPrecision = "100";
	HR_Grid_GridShow = "0";
	HR_Font_Name = "Arial";
	HR_Compile_ApproxEpsilon = "0.00001";
	HRUNTIME_Monitor_AutoUpdGraph = "0";
	HRUNTIME_Font_Name = "Arial";
	HRUNTIME_Font_Weight = "400";
	HR_Font_Weight = "400";
	HR_Monitor_AutoUpdGraph = "0";
	HRUNTIME_Compile_Compress = "0";
	HR_Compile_Compress = "0";
	HRUNTIME_Compile_TriangMethod = "0";
	HR_Grid_Y = "10";
	HR_Grid_X = "10";
	HR_Groups_GroupNames = "";
	HR_Compile_Approximate = "0";
	HRUNTIME_Compile_Approximate = "0";
	HR_Compile_TriangMethod = "0";
	HR_Color_DiscreteChance = "16";
	HRUNTIME_Compile_ApproxEpsilon = "0.00001";
	HR_Monitor_InitStates = "5";
	HRUNTIME_Grid_GridSnap = "1";
	HR_Color_ContinuosChance = "48";
	HRUNTIME_Propagate_Auto = "0";
	HR_Groups_GroupColors = "";
	HR_Monitor_OpenGraph = "0";
	HRUNTIME_Grid_GridShow = "0";
	HR_Monitor_InitSD = "2";
	HR_Groups_UserGroupsNo = "0";
	HR_Color_Decision = "17";
	HRUNTIME_Monitor_InitStates = "5";
	HRUNTIME_Grid_Y = "10";
	HRUNTIME_Grid_X = "10";
	HR_Propagate_Auto = "0";
	HR_Monitor_GraphPrecision = "100";
	HRUNTIME_Font_Italic = "0";
	HRUNTIME_Monitor_OpenGraph = "0";
	HR_Font_Italic = "0";
	HR_Propagate_AutoSum = "1";
	HR_Color_Utility = "36";
}

node A
{
	states = ("Present" "Absent");
	ID = "A";
	position = (131 0);
	label = "A:Metastatic Cancer";
}

node C
{
	states = ("Present" "Absent");
	ID = "C";
	position = (255 128);
	label = "C:  Brain Tumor";
}

node B
{
	states = ("Increased" "Not increased");
	ID = "B";
	position = (0 128);
	label = "B: Serum Calcium";
}

node E
{
	states = ("Present" "Absent");
	ID = "E";
	position = (414 266);
	label = "E: Severe Headaches";
}

node D
{
	states = ("Present" "Absent");
	ID = "D";
	position = (147 256);
	label = "D: Coma";
}

potential ( A | B E )
{
	data = (((Decimal('0.9256198347107438016528925619834710743801652892561983471074380165289256198347107438016528925619834711') Decimal('0.07438016528925619834710743801652892561983471074380165289256198347107438016528925619834710743801652893')) (Decimal('0.9473684210526315789473684210526315789473684210526315789473684210526315789473684210526315789473684211') Decimal('0.05263157894736842105263157894736842105263157894736842105263157894736842105263157894736842105263157895'))) ((Decimal('0.4375') Decimal('0.5625')) (Decimal('0.5294117647058823529411764705882352941176470588235294117647058823529411764705882352941176470588235294') Decimal('0.4705882352941176470588235294117647058823529411764705882352941176470588235294117647058823529411764706'))));
}

potential ( C | B E A D )
{
	data = (((((Decimal('0.8695652173913043478260869565217391304347826086956521739130434782608695652173913043478260869565217391') Decimal('0.1304347826086956521739130434782608695652173913043478260869565217391304347826086956521739130434782609')) (Decimal('0E+1') Decimal('1'))) ((Decimal('0.9756097560975609756097560975609756097560975609756097560975609756097560975609756097560975609756097561') Decimal('0.02439024390243902439024390243902439024390243902439024390243902439024390243902439024390243902439024390')) (Decimal('0E+1') Decimal('1')))) (((Decimal('0.7142857142857142857142857142857142857142857142857142857142857142857142857142857142857142857142857143') Decimal('0.2857142857142857142857142857142857142857142857142857142857142857142857142857142857142857142857142857')) (Decimal('0E+1') Decimal('1'))) ((Decimal('0.9375') Decimal('0.0625')) (Decimal('0E+1') Decimal('1'))))) ((((Decimal('0.5714285714285714285714285714285714285714285714285714285714285714285714285714285714285714285714285714') Decimal('0.4285714285714285714285714285714285714285714285714285714285714285714285714285714285714285714285714286')) (Decimal('0.5714285714285714285714285714285714285714285714285714285714285714285714285714285714285714285714285714') Decimal('0.4285714285714285714285714285714285714285714285714285714285714285714285714285714285714285714285714286'))) ((Decimal('0.8888888888888888888888888888888888888888888888888888888888888888888888888888888888888888888888888889') Decimal('0.1111111111111111111111111111111111111111111111111111111111111111111111111111111111111111111111111111')) (Decimal('0.8888888888888888888888888888888888888888888888888888888888888888888888888888888888888888888888888889') Decimal('0.1111111111111111111111111111111111111111111111111111111111111111111111111111111111111111111111111111')))) (((Decimal('0.3333333333333333333333333333333333333333333333333333333333333333333333333333333333333333333333333333') Decimal('0.6666666666666666666666666666666666666666666666666666666666666666666666666666666666666666666666666667')) (Decimal('0.3333333333333333333333333333333333333333333333333333333333333333333333333333333333333333333333333333') Decimal('0.6666666666666666666666666666666666666666666666666666666666666666666666666666666666666666666666666667'))) ((Decimal('0.75') Decimal('0.25')) (Decimal('0.75') Decimal('0.25'))))));
}

potential ( B |  )
{
	data = (Decimal('0.68000') Decimal('0.32000'));
}

potential ( E | B )
{
	data = ((Decimal('0.2847058823529411764705882352941176470588235294117647058823529411764705882352941176470588235294117647') Decimal('0.7152941176470588235294117647058823529411764705882352941176470588235294117647058823529411764705882353')) (Decimal('0.32') Decimal('0.68')));
}

potential ( D | B E A )
{
	data = ((((Decimal('0.6571428571428571428571428571428571428571428571428571428571428571428571428571428571428571428571428571') Decimal('0.3428571428571428571428571428571428571428571428571428571428571428571428571428571428571428571428571429')) (Decimal('0.9111111111111111111111111111111111111111111111111111111111111111111111111111111111111111111111111111') Decimal('0.08888888888888888888888888888888888888888888888888888888888888888888888888888888888888888888888888889'))) ((Decimal('0.4666666666666666666666666666666666666666666666666666666666666666666666666666666666666666666666666667') Decimal('0.5333333333333333333333333333333333333333333333333333333333333333333333333333333333333333333333333333')) (Decimal('0.8') Decimal('0.2')))) (((Decimal('0.2') Decimal('0.8')) (Decimal('0.2') Decimal('0.8'))) ((Decimal('0.2') Decimal('0.8')) (Decimal('0.2') Decimal('0.8')))));
}

