net
{
	HRUNTIME_Propagate_AutoNormal = "1";
	HR_Font_Size = "-12";
	HRUNTIME_Font_Size = "-12";
	HR_Grid_GridSnap = "1";
	HRUNTIME_Propagate_AutoSum = "1";
	HR_Propagate_AutoNormal = "1";
	node_size = (100.0 40.0);
	HRUNTIME_Monitor_GraphPrecision = "100";
	HR_Grid_GridShow = "0";
	HR_Font_Name = "Arial";
	HR_Compile_ApproxEpsilon = "0.00001";
	HRUNTIME_Monitor_AutoUpdGraph = "0";
	HRUNTIME_Font_Name = "Arial";
	HRUNTIME_Font_Weight = "400";
	HR_Font_Weight = "400";
	HR_Monitor_AutoUpdGraph = "0";
	HRUNTIME_Compile_Compress = "0";
	HR_Compile_Compress = "0";
	HRUNTIME_Compile_TriangMethod = "0";
	HR_Grid_Y = "10";
	HR_Grid_X = "10";
	HR_Groups_GroupNames = "";
	HR_Compile_Approximate = "0";
	HRUNTIME_Compile_Approximate = "0";
	HR_Compile_TriangMethod = "0";
	HR_Color_DiscreteChance = "16";
	HRUNTIME_Compile_ApproxEpsilon = "0.00001";
	HR_Monitor_InitStates = "5";
	HRUNTIME_Grid_GridSnap = "1";
	HR_Color_ContinuosChance = "48";
	HRUNTIME_Propagate_Auto = "0";
	HR_Groups_GroupColors = "";
	HR_Monitor_OpenGraph = "0";
	HRUNTIME_Grid_GridShow = "0";
	HR_Monitor_InitSD = "2";
	HR_Groups_UserGroupsNo = "0";
	HR_Color_Decision = "17";
	HRUNTIME_Monitor_InitStates = "5";
	HRUNTIME_Grid_Y = "10";
	HRUNTIME_Grid_X = "10";
	HR_Propagate_Auto = "0";
	HR_Monitor_GraphPrecision = "100";
	HRUNTIME_Font_Italic = "0";
	HRUNTIME_Monitor_OpenGraph = "0";
	HR_Font_Italic = "0";
	HR_Propagate_AutoSum = "1";
	HR_Color_Utility = "36";
}

node A
{
	states = ("Present" "Absent");
	ID = "A";
	position = (131 0);
	label = "A:Metastatic Cancer";
}

node C
{
	states = ("Present" "Absent");
	ID = "C";
	position = (255 128);
	label = "C:  Brain Tumor";
}

node B
{
	states = ("Increased" "Not increased");
	ID = "B";
	position = (0 128);
	label = "B: Serum Calcium";
}

node E
{
	states = ("Present" "Absent");
	ID = "E";
	position = (414 266);
	label = "E: Severe Headaches";
}

node D
{
	states = ("Present" "Absent");
	ID = "D";
	position = (147 256);
	label = "D: Coma";
}

potential ( A | E D )
{
	data = (((Decimal('0.9125') Decimal('0.0875')) (Decimal('0.5375') Decimal('0.4625'))) ((Decimal('0.9048327137546468401486988847583643122676579925650557620817843866171003717472118959107806691449814126') Decimal('0.09516728624535315985130111524163568773234200743494423791821561338289962825278810408921933085501858736')) (Decimal('0.5310344827586206896551724137931034482758620689655172413793103448275862068965517241379310344827586207') Decimal('0.4689655172413793103448275862068965517241379310344827586206896551724137931034482758620689655172413793'))));
}

potential ( C | E D A B )
{
	data = (((((Decimal('0.9947643979057591623036649214659685863874345549738219895287958115183246073298429319371727748691099476') Decimal('0.005235602094240837696335078534031413612565445026178010471204188481675392670157068062827225130890052356')) (Decimal('0.9743589743589743589743589743589743589743589743589743589743589743589743589743589743589743589743589744') Decimal('0.02564102564102564102564102564102564102564102564102564102564102564102564102564102564102564102564102564'))) ((Decimal('0.9756097560975609756097560975609756097560975609756097560975609756097560975609756097560975609756097561') Decimal('0.02439024390243902439024390243902439024390243902439024390243902439024390243902439024390243902439024390')) (Decimal('0.8888888888888888888888888888888888888888888888888888888888888888888888888888888888888888888888888889') Decimal('0.1111111111111111111111111111111111111111111111111111111111111111111111111111111111111111111111111111')))) (((Decimal('0E+1') Decimal('1')) (Decimal('0.9743589743589743589743589743589743589743589743589743589743589743589743589743589743589743589743589744') Decimal('0.02564102564102564102564102564102564102564102564102564102564102564102564102564102564102564102564102564'))) ((Decimal('0E+1') Decimal('1')) (Decimal('0.8888888888888888888888888888888888888888888888888888888888888888888888888888888888888888888888888889') Decimal('0.1111111111111111111111111111111111111111111111111111111111111111111111111111111111111111111111111111'))))) ((((Decimal('0.9861591695501730103806228373702422145328719723183391003460207612456747404844290657439446366782006920') Decimal('0.01384083044982698961937716262975778546712802768166089965397923875432525951557093425605536332179930796')) (Decimal('0.9344262295081967213114754098360655737704918032786885245901639344262295081967213114754098360655737705') Decimal('0.06557377049180327868852459016393442622950819672131147540983606557377049180327868852459016393442622951'))) ((Decimal('0.9375') Decimal('0.0625')) (Decimal('0.75') Decimal('0.25')))) (((Decimal('0E+1') Decimal('1')) (Decimal('0.9344262295081967213114754098360655737704918032786885245901639344262295081967213114754098360655737705') Decimal('0.06557377049180327868852459016393442622950819672131147540983606557377049180327868852459016393442622951'))) ((Decimal('0E+1') Decimal('1')) (Decimal('0.75') Decimal('0.25'))))));
}

potential ( B | E D A )
{
	data = ((((Decimal('0.9514321295143212951432129514321295143212951432129514321295143212951432129514321295143212951432129514') Decimal('0.04856787048567870485678704856787048567870485678704856787048567870485678704856787048567870485678704857')) (Decimal('0.5324675324675324675324675324675324675324675324675324675324675324675324675324675324675324675324675325') Decimal('0.4675324675324675324675324675324675324675324675324675324675324675324675324675324675324675324675324675'))) ((Decimal('0.09302325581395348837209302325581395348837209302325581395348837209302325581395348837209302325581395349') Decimal('0.9069767441860465116279069767441860465116279069767441860465116279069767441860465116279069767441860465')) (Decimal('0.02702702702702702702702702702702702702702702702702702702702702702702702702702702702702702702702702703') Decimal('0.9729729729729729729729729729729729729729729729729729729729729729729729729729729729729729729729729730')))) (((Decimal('0.9498767460969597370583401807723911257189811010682004930156121610517666392769104354971240755957271980') Decimal('0.05012325390304026294165981922760887428101889893179950698438783894823336072308956450287592440427280197')) (Decimal('0.5') Decimal('0.5'))) ((Decimal('0.2077922077922077922077922077922077922077922077922077922077922077922077922077922077922077922077922078') Decimal('0.7922077922077922077922077922077922077922077922077922077922077922077922077922077922077922077922077922')) (Decimal('0.05882352941176470588235294117647058823529411764705882352941176470588235294117647058823529411764705882') Decimal('0.9411764705882352941176470588235294117647058823529411764705882352941176470588235294117647058823529412')))));
}

potential ( E |  )
{
	data = (Decimal('0.384000') Decimal('0.616000'));
}

potential ( D | E )
{
	data = ((Decimal('0.7333333333333333333333333333333333333333333333333333333333333333333333333333333333333333333333333333') Decimal('0.2666666666666666666666666666666666666666666666666666666666666666666666666666666666666666666666666667')) (Decimal('0.6987012987012987012987012987012987012987012987012987012987012987012987012987012987012987012987012987') Decimal('0.3012987012987012987012987012987012987012987012987012987012987012987012987012987012987012987012987013')));
}

