net
{
	HRUNTIME_Propagate_AutoNormal = "1";
	HR_Font_Size = "-12";
	HRUNTIME_Font_Size = "-12";
	HR_Grid_GridSnap = "1";
	HRUNTIME_Propagate_AutoSum = "1";
	HR_Propagate_AutoNormal = "1";
	node_size = (100.0 40.0);
	HRUNTIME_Monitor_GraphPrecision = "100";
	HR_Grid_GridShow = "0";
	HR_Font_Name = "Arial";
	HR_Compile_ApproxEpsilon = "0.00001";
	HRUNTIME_Monitor_AutoUpdGraph = "0";
	HRUNTIME_Font_Name = "Arial";
	HRUNTIME_Font_Weight = "400";
	HR_Font_Weight = "400";
	HR_Monitor_AutoUpdGraph = "0";
	HRUNTIME_Compile_Compress = "0";
	HR_Compile_Compress = "0";
	HRUNTIME_Compile_TriangMethod = "0";
	HR_Grid_Y = "10";
	HR_Grid_X = "10";
	HR_Groups_GroupNames = "";
	HR_Compile_Approximate = "0";
	HRUNTIME_Compile_Approximate = "0";
	HR_Compile_TriangMethod = "0";
	HR_Color_DiscreteChance = "16";
	HRUNTIME_Compile_ApproxEpsilon = "0.00001";
	HR_Monitor_InitStates = "5";
	HRUNTIME_Grid_GridSnap = "1";
	HR_Color_ContinuosChance = "48";
	HRUNTIME_Propagate_Auto = "0";
	HR_Groups_GroupColors = "";
	HR_Monitor_OpenGraph = "0";
	HRUNTIME_Grid_GridShow = "0";
	HR_Monitor_InitSD = "2";
	HR_Groups_UserGroupsNo = "0";
	HR_Color_Decision = "17";
	HRUNTIME_Monitor_InitStates = "5";
	HRUNTIME_Grid_Y = "10";
	HRUNTIME_Grid_X = "10";
	HR_Propagate_Auto = "0";
	HR_Monitor_GraphPrecision = "100";
	HRUNTIME_Font_Italic = "0";
	HRUNTIME_Monitor_OpenGraph = "0";
	HR_Font_Italic = "0";
	HR_Propagate_AutoSum = "1";
	HR_Color_Utility = "36";
}

node A
{
	states = ("Present" "Absent");
	ID = "A";
	position = (131 0);
	label = "A:Metastatic Cancer";
}

node C
{
	states = ("Present" "Absent");
	ID = "C";
	position = (255 128);
	label = "C:  Brain Tumor";
}

node B
{
	states = ("Increased" "Not increased");
	ID = "B";
	position = (0 128);
	label = "B: Serum Calcium";
}

node E
{
	states = ("Present" "Absent");
	ID = "E";
	position = (414 266);
	label = "E: Severe Headaches";
}

node D
{
	states = ("Present" "Absent");
	ID = "D";
	position = (147 256);
	label = "D: Coma";
}

potential ( A | B C )
{
	data = (((Decimal('0.8888888888888888888888888888888888888888888888888888888888888888888888888888888888888888888888888889') Decimal('0.1111111111111111111111111111111111111111111111111111111111111111111111111111111111111111111111111111')) (Decimal('0.9795918367346938775510204081632653061224489795918367346938775510204081632653061224489795918367346939') Decimal('0.02040816326530612244897959183673469387755102040816326530612244897959183673469387755102040816326530612'))) ((Decimal('0.3333333333333333333333333333333333333333333333333333333333333333333333333333333333333333333333333333') Decimal('0.6666666666666666666666666666666666666666666666666666666666666666666666666666666666666666666666666667')) (Decimal('0.75') Decimal('0.25'))));
}

potential ( C | D E B )
{
	data = ((((Decimal('0.8801955990220048899755501222493887530562347188264058679706601466992665036674816625916870415647921760') Decimal('0.1198044009779951100244498777506112469437652811735941320293398533007334963325183374083129584352078240')) (Decimal('0.75') Decimal('0.25'))) ((Decimal('0.7336956521739130434782608695652173913043478260869565217391304347826086956521739130434782608695652174') Decimal('0.2663043478260869565217391304347826086956521739130434782608695652173913043478260869565217391304347826')) (Decimal('0.5294117647058823529411764705882352941176470588235294117647058823529411764705882352941176470588235294') Decimal('0.4705882352941176470588235294117647058823529411764705882352941176470588235294117647058823529411764706')))) (((Decimal('0E+1') Decimal('1')) (Decimal('0.75') Decimal('0.25'))) ((Decimal('0E+1') Decimal('1')) (Decimal('0.5294117647058823529411764705882352941176470588235294117647058823529411764705882352941176470588235294') Decimal('0.4705882352941176470588235294117647058823529411764705882352941176470588235294117647058823529411764706')))));
}

potential ( B | D E )
{
	data = (((Decimal('0.8646934460887949260042283298097251585623678646934460887949260042283298097251585623678646934460887949') Decimal('0.1353065539112050739957716701902748414376321353065539112050739957716701902748414376321353065539112051')) (Decimal('0.8440366972477064220183486238532110091743119266055045871559633027522935779816513761467889908256880734') Decimal('0.1559633027522935779816513761467889908256880733944954128440366972477064220183486238532110091743119266'))) ((Decimal('0.4336283185840707964601769911504424778761061946902654867256637168141592920353982300884955752212389381') Decimal('0.5663716814159292035398230088495575221238938053097345132743362831858407079646017699115044247787610619')) (Decimal('0.5903614457831325301204819277108433734939759036144578313253012048192771084337349397590361445783132530') Decimal('0.4096385542168674698795180722891566265060240963855421686746987951807228915662650602409638554216867470'))));
}

potential ( E | D )
{
	data = ((Decimal('0.3516728624535315985130111524163568773234200743494423791821561338289962825278810408921933085501858736') Decimal('0.6483271375464684014869888475836431226765799256505576208178438661710037174721189591078066914498141264')) (Decimal('0.2539325842696629213483146067415730337078651685393258426966292134831460674157303370786516853932584270') Decimal('0.7460674157303370786516853932584269662921348314606741573033707865168539325842696629213483146067415730')));
}

potential ( D |  )
{
	data = (Decimal('0.43040') Decimal('0.56960'));
}

