net
{
    node_size = (70 20);
}

node P
{
	states = ("true" "false");
	ID = "P";
	position = (100 80);
	label = "Psych_report";
}

node C
{
	states = ("true" "false");
	ID = "C";
	position = (200 80);
	label = "Crime";
}

node M
{
	states = ("true" "false");
	ID = "M";
	position = (150 150);
	label = "Motive";
}

node D
{
	states = ("true" "false");
	ID = "D";
	position = (250 10);
	label = "DNA_match";
}

node T
{
	states = ("true" "false");
	ID = "T";
	position = (300 80);
	label = "Twin";
}

potential ( P |  )
{
	data = ((Decimal('0.1250000000') Decimal('0.8750000000')));
}

potential ( C | P )
{
	data = ((Decimal('0.1276') Decimal('0.8724')) (Decimal('0.0212') Decimal('0.9788')));
}

potential ( M | P C )
{
	data = ((Decimal('0.9404388715') Decimal('0.05956112853')) (Decimal('0.1375515818') Decimal('0.8624484182')) (Decimal('0.5390835580') Decimal('0.4609164420')) (Decimal('0.01167610485') Decimal('0.9883238951')));
}

potential ( D | C )
{
	data = ((Decimal('1') Decimal('0')) (Decimal('0.01099') Decimal('0.98901')));
}

potential ( T | C D )
{
	data = ((Decimal('0.01') Decimal('0.99')) (Decimal('-1') Decimal('-1')) (Decimal('0.9099181074') Decimal('0.09008189263')) (Decimal('0E+2') Decimal('1')));
}

