net
{
    node_size = (70 20);
}

node P
{
	states = ("true" "false");
	ID = "P";
	position = (100 80);
	label = "Psych_report";
}

node C
{
	states = ("true" "false");
	ID = "C";
	position = (200 80);
	label = "Crime";
}

node M
{
	states = ("true" "false");
	ID = "M";
	position = (150 150);
	label = "Motive";
}

node D
{
	states = ("true" "false");
	ID = "D";
	position = (250 10);
	label = "DNA_match";
}

node T
{
	states = ("true" "false");
	ID = "T";
	position = (300 80);
	label = "Twin";
}

potential ( P | D )
{
	data = ((Decimal('0.3801405072') Decimal('0.6198594928')) (Decimal('0.1129466598') Decimal('0.8870533402')));
}

potential ( C | D P T )
{
	data = ((Decimal('0.1276') Decimal('0.8724')) (Decimal('0.9932094364') Decimal('0.006790563576')) (Decimal('0.0212') Decimal('0.9788')) (Decimal('0.9558677656') Decimal('0.04413223439')) (Decimal('-1') Decimal('-1')) (Decimal('0E+2') Decimal('1')) (Decimal('-1') Decimal('-1')) (Decimal('0E+2') Decimal('1')));
}

potential ( M | P C )
{
	data = ((Decimal('0.9404388715') Decimal('0.05956112853')) (Decimal('0.1375515818') Decimal('0.8624484182')) (Decimal('0.5390835580') Decimal('0.4609164420')) (Decimal('0.01167610485') Decimal('0.9883238951')));
}

potential ( D |  )
{
	data = ((Decimal('0.0451108450') Decimal('0.9548891550')));
}

potential ( T | D P )
{
	data = ((Decimal('0.07289284498') Decimal('0.9271071550')) (Decimal('0.3129203694') Decimal('0.6870796306')) (Decimal('0E+2') Decimal('1')) (Decimal('0E+2') Decimal('1')));
}

