net
{
    node_size = (70 20);
}

node P
{
	states = ("true" "false");
	ID = "P";
	position = (100 80);
	label = "Psych_report";
}

node C
{
	states = ("true" "false");
	ID = "C";
	position = (200 80);
	label = "Crime";
}

node M
{
	states = ("true" "false");
	ID = "M";
	position = (150 150);
	label = "Motive";
}

node D
{
	states = ("true" "false");
	ID = "D";
	position = (250 10);
	label = "DNA_match";
}

node T
{
	states = ("true" "false");
	ID = "T";
	position = (300 80);
	label = "Twin";
}

potential ( P | T D )
{
	data = ((Decimal('0.125') Decimal('0.875')) (Decimal('-1') Decimal('-1')) (Decimal('0.4528076581') Decimal('0.5471923419')) (Decimal('0.1129466598') Decimal('0.8870533402')));
}

potential ( C | T D M )
{
	data = ((Decimal('0.5') Decimal('0.5')) (Decimal('0.01') Decimal('0.99')) (Decimal('-1') Decimal('-1')) (Decimal('-1') Decimal('-1')) (Decimal('0.9990009990') Decimal('0.0009990009990')) (Decimal('0.9099181074') Decimal('0.09008189263')) (Decimal('0E+2') Decimal('1')) (Decimal('0E+2') Decimal('1')));
}

potential ( M | T D P )
{
	data = ((Decimal('0.24') Decimal('0.76')) (Decimal('0.02285714286') Decimal('0.9771428571')) (Decimal('-1') Decimal('-1')) (Decimal('-1') Decimal('-1')) (Decimal('0.9349868143') Decimal('0.06501318571')) (Decimal('0.5158078886') Decimal('0.4841921114')) (Decimal('0.1375515818') Decimal('0.8624484182')) (Decimal('0.01167610485') Decimal('0.9883238951')));
}

potential ( D | T )
{
	data = ((Decimal('1') Decimal('0')) (Decimal('0.0354655') Decimal('0.9645345')));
}

potential ( T |  )
{
	data = ((Decimal('0.01000000') Decimal('0.9900000000')));
}

