net
{
    node_size = (70 20);
}

node P
{
	states = ("true" "false");
	ID = "P";
	position = (100 80);
	label = "Psych_report";
}

node C
{
	states = ("true" "false");
	ID = "C";
	position = (200 80);
	label = "Crime";
}

node M
{
	states = ("true" "false");
	ID = "M";
	position = (150 150);
	label = "Motive";
}

node D
{
	states = ("true" "false");
	ID = "D";
	position = (250 10);
	label = "DNA_match";
}

node T
{
	states = ("true" "false");
	ID = "T";
	position = (300 80);
	label = "Twin";
}

potential ( P | D )
{
	data = ((Decimal('0.38014050723279512941954423598139205771915822015748097824370170853594074772928771340904831199681584328557800236284645078140300852267342808586272325424185691932837879671728605394113100741074568654167307218474847899656945020648582397425718804424966989645172906869733874415342918094307477503469509382943281155562481704787396467523496844273256242484484606750327997624518006701049381806082328983196834375414603738857030942337701721171483265276897384653291242937258213629117344177436711726415233410059155398') Decimal('0.61985949276720487058045576401860794228084177984251902175629829146405925227071228659095168800318415671442199763715354921859699147732657191413727674575814308067162120328271394605886899258925431345832692781525152100343054979351417602574281195575033010354827093130266125584657081905692522496530490617056718844437518295212603532476503155726743757515515393249672002375481993298950618193917671016803165624585396261142969057662298278828516734723102615346708757062741786370882655822563288273584766589940844602')) (Decimal('0.11294665976178146038322112894873122734334541688244432936302433972035214914552045572242361470740548938373899533920248575867426204039357845675815639564992232004142931123770067322630761263593992749870533402382185396167788710512687726566545831175556706369756602796478508544795442775763852925945106162610046607975142413257379596064215432418436043500776799585706887622993267736923873640600725012946659761781460383221128948731227343345416882444329363024339720352149145520455722423614707405489383738995339202') Decimal('0.88705334023821853961677887105126877265665458311755567063697566027964785085447954427757638529259451061626100466079751424132573795960642154324184360435007767995857068876229932677369238736406007250129466597617814603832211289487312273433454168824443293630243397203521491455204557224236147074054893837389953392024857586742620403935784567581563956499223200414293112377006732263076126359399274987053340238218539616778871051268772656654583117555670636975660279647850854479544277576385292594510616261004660798')));
}

potential ( C | D P T )
{
	data = ((Decimal('0.1276') Decimal('0.8724')) (Decimal('0.99320943642369878666546277644069854692525398451340521388251484365513526640741513352284226028314252711088140332086891814895650738991409828103156786983040715359874961470323587011685000046702638076349472727216118014452909730027616826649147988206027131119213153953689664083491862843692497376868494711704615154694704854894903496782188236539521329094809468804194519601097200643873703612604730665886213692590782144647410650069586930733760714363552015841534835497741149071707230502426980425367627599390997599') Decimal('0.0067905635763012133345372235593014530747460154865947861174851563448647335925848664771577397168574728891185966791310818510434926100859017189684321301695928464012503852967641298831499995329736192365052727278388198554709026997238317335085201179397286888078684604631033591650813715630750262313150528829538484530529514510509650321781176346047867090519053119580548039890279935612629638739526933411378630740921785535258934993041306926623928563644798415846516450225885092829276949757301957463237240060900240052')) (Decimal('0.0212') Decimal('0.9788')) (Decimal('0.95586776561400977510054646779807744332425559543347701408552311216116291233069417642072609879704943459519901888289718109185348170324814687900156906595487582736667448193770627806734358937363608490991397190109473912024095081789817303010081699641098706873230291990549533789023752412213465110826555088643208830053925370173318664670766678088985878406406117553699929662560643497393907695637275235810774252890147347917831442638916442729092647032301116381409273720850541958987862282900788140025610042022111205') Decimal('0.044132234385990224899453532201922556675744404566522985914476887838837087669305823579273901202950565404800981117102818908146518296751853120998430934045124172633325518062293721932656410626363915090086028098905260879759049182101826969899183003589012931267697080094504662109762475877865348891734449113567911699460746298266813353292333219110141215935938824463000703374393565026060923043627247641892257471098526520821685573610835572709073529676988836185907262791494580410121377170992118599743899579778887947')) (Decimal('-1') Decimal('-1')) (Decimal('0E+2') Decimal('1')) (Decimal('-1') Decimal('-1')) (Decimal('0E+2') Decimal('1')));
}

potential ( M | P C )
{
	data = ((Decimal('0.94043887147335423197492163009404388714733542319749216300940438871473354231974921630094043887147335423197492163009404388714733542319749216300940438871473354231974921630094043887147335423197492163009404388714733542319749216300940438871473354231974921630094043887147335423197492163009404388714733542319749216300940438871473354231974921630094043887147335423197492163009404388714733542319749216300940438871473354231974921630094043887147335423197492163009404388714733542319749216300940438871473354231974922') Decimal('0.059561128526645768025078369905956112852664576802507836990595611285266457680250783699059561128526645768025078369905956112852664576802507836990595611285266457680250783699059561128526645768025078369905956112852664576802507836990595611285266457680250783699059561128526645768025078369905956112852664576802507836990595611285266457680250783699059561128526645768025078369905956112852664576802507836990595611285266457680250783699059561128526645768025078369905956112852664576802507836990595611285266457680250784')) (Decimal('0.13755158184319119669876203576341127922971114167812929848693259972489683631361760660247592847317744154057771664374140302613480055020632737276478679504814305364511691884456671251719394773039889958734525447042640990371389270976616231086657496561210453920220082530949105914718019257221458046767537826685006877579092159559834938101788170563961485557083906464924346629986244841815680880330123796423658872077028885832187070151306740027510316368638239339752407152682255845942228335625859697386519944979367263') Decimal('0.86244841815680880330123796423658872077028885832187070151306740027510316368638239339752407152682255845942228335625859697386519944979367262723521320495185694635488308115543328748280605226960110041265474552957359009628610729023383768913342503438789546079779917469050894085281980742778541953232462173314993122420907840440165061898211829436038514442916093535075653370013755158184319119669876203576341127922971114167812929848693259972489683631361760660247592847317744154057771664374140302613480055020632737')) (Decimal('0.53908355795148247978436657681940700808625336927223719676549865229110512129380053908355795148247978436657681940700808625336927223719676549865229110512129380053908355795148247978436657681940700808625336927223719676549865229110512129380053908355795148247978436657681940700808625336927223719676549865229110512129380053908355795148247978436657681940700808625336927223719676549865229110512129380053908355795148247978436657681940700808625336927223719676549865229110512129380053908355795148247978436657681941') Decimal('0.46091644204851752021563342318059299191374663072776280323450134770889487870619946091644204851752021563342318059299191374663072776280323450134770889487870619946091644204851752021563342318059299191374663072776280323450134770889487870619946091644204851752021563342318059299191374663072776280323450134770889487870619946091644204851752021563342318059299191374663072776280323450134770889487870619946091644204851752021563342318059299191374663072776280323450134770889487870619946091644204851752021563342318059')) (Decimal('0.011676104851421565765660575631969175083192247066378656080331601377780372467744760347947924572362659816685153832681417479128962578083951193881721057855099538793858368848152256407262537217584213906240878043084826901745577675287524081966256056979391674937240936423609084009574405978165683927841672018214723568217642594430497985871913129779905423550703485317298149337381049681826142798762332885749314028839978983011267441181621810963862455484850253955280518419055403117519995329558059431373693735769747212') Decimal('0.98832389514857843423433942436803082491680775293362134391966839862221962753225523965205207542763734018331484616731858252087103742191604880611827894214490046120614163115184774359273746278241578609375912195691517309825442232471247591803374394302060832506275906357639091599042559402183431607215832798178527643178235740556950201412808687022009457644929651468270185066261895031817385720123766711425068597116002101698873255881837818903613754451514974604471948158094459688248000467044194056862630626423025279')));
}

potential ( D |  )
{
	data = ((Decimal('0.0451108450') Decimal('0.9548891550')));
}

potential ( T | D P )
{
	data = ((Decimal('0.072892844981206620921255346580840104033834642697788684750370725720289918753343412567175494685105679609296683471771910473940822497787629261975397848418978975924922002469084759479415629141498103663480675917274085173656560812357518178236359948250745205422096369647664269784699902635569101702692303060808465040256239926391055709698005234814240894349722784136965772348239210641632270233953084823741747764573255107842194221585909801402277563182861994105068154955843118152974615591563778658951843458591717816') Decimal('0.92710715501879337907874465341915989596616535730221131524962927427971008124665658743282450531489432039070331652822808952605917750221237073802460215158102102407507799753091524052058437085850189633651932408272591482634343918764248182176364005174925479457790363035233573021530009736443089829730769693919153495974376007360894429030199476518575910565027721586303422765176078935836772976604691517625825223542674489215780577841409019859772243681713800589493184504415688184702538440843622134104815654140828218')) (Decimal('0.31292036940124439669140531661721064535069799391757902772637191487114001772130635993127267342766589066587326750072879154033549819989428298240148359302177562783404155557472018973488510127292251227993405641303385936081884000919735549744137530755378506601305528814771543722548278293352332189254740086463653109996641738595585845134707838142064095354096309129276541874440576609602925329814940145217581668774289661373848093182178609189119433318734555032867278079690303962085066025572102923765213093138995598') Decimal('0.68707963059875560330859468338278935464930200608242097227362808512885998227869364006872732657233410933412673249927120845966450180010571701759851640697822437216595844442527981026511489872707748772006594358696614063918115999080264450255862469244621493398694471185228456277451721706647667810745259913536346890003358261404414154865292161857935904645903690870723458125559423390397074670185059854782418331225710338626151906817821390810880566681265444967132721920309696037914933974427897076234786906861004402')) (Decimal('0E+2') Decimal('1')) (Decimal('0E+2') Decimal('1')));
}

