net
{
    node_size = (70 20);
}

node P
{
	states = ("true" "false");
	ID = "P";
	position = (100 80);
	label = "Psych_report";
}

node C
{
	states = ("true" "false");
	ID = "C";
	position = (200 80);
	label = "Crime";
}

node M
{
	states = ("true" "false");
	ID = "M";
	position = (150 150);
	label = "Motive";
}

node D
{
	states = ("true" "false");
	ID = "D";
	position = (250 10);
	label = "DNA_match";
}

node T
{
	states = ("true" "false");
	ID = "T";
	position = (300 80);
	label = "Twin";
}

potential ( P | D T )
{
	data = ((Decimal('0.125') Decimal('0.875')) (Decimal('0.45280765814664956084081713214250468765419915128787131155630119411822757327543669199644725155432744498174282048751603671173393861640185532418829566762064541596763051416165005427810125333070166781802032961610579295371558274943254712326063357347281160564492253034639297345307411428007500246718642060594098490081910589164117240698707194315602486923911970788512780025658738774301786242968518701273068193032665548208822658640086844962005329122668508832527385769268725944932399092075397217013717556498569032') Decimal('0.54719234185335043915918286785749531234580084871212868844369880588177242672456330800355274844567255501825717951248396328826606138359814467581170433237935458403236948583834994572189874666929833218197967038389420704628441725056745287673936642652718839435507746965360702654692588571992499753281357939405901509918089410835882759301292805684397513076088029211487219974341261225698213757031481298726931806967334451791177341359913155037994670877331491167472614230731274055067600907924602782986282443501430968')) (Decimal('-1') Decimal('-1')) (Decimal('0.11294665976178146038322112894873122734334541688244432936302433972035214914552045572242361470740548938373899533920248575867426204039357845675815639564992232004142931123770067322630761263593992749870533402382185396167788710512687726566545831175556706369756602796478508544795442775763852925945106162610046607975142413257379596064215432418436043500776799585706887622993267736923873640600725012946659761781460383221128948731227343345416882444329363024339720352149145520455722423614707405489383738995339202') Decimal('0.88705334023821853961677887105126877265665458311755567063697566027964785085447954427757638529259451061626100466079751424132573795960642154324184360435007767995857068876229932677369238736406007250129466597617814603832211289487312273433454168824443293630243397203521491455204557224236147074054893837389953392024857586742620403935784567581563956499223200414293112377006732263076126359399274987053340238218539616778871051268772656654583117555670636975660279647850854479544277576385292594510616261004660798')));
}

potential ( C | D T M )
{
	data = ((Decimal('0.5') Decimal('0.5')) (Decimal('0.01') Decimal('0.99')) (Decimal('0.99900099900099900099900099900099900099900099900099900099900099900099900099900099900099900099900099900099900099900099900099900099900099900099900099900099900099900099900099900099900099900099900099900099900099900099900099900099900099900099900099900099900099900099900099900099900099900099900099900099900099900099900099900099900099900099900099900099900099900099900099900099900099900099900099900099900099900099900099900099900099900099900099900099900099900099900099900099900099900099900099900099900099900100') Decimal('0.00099900099900099900099900099900099900099900099900099900099900099900099900099900099900099900099900099900099900099900099900099900099900099900099900099900099900099900099900099900099900099900099900099900099900099900099900099900099900099900099900099900099900099900099900099900099900099900099900099900099900099900099900099900099900099900099900099900099900099900099900099900099900099900099900099900099900099900099900099900099900099900099900099900099900099900099900099900099900099900099900099900099900099900100')) (Decimal('0.90991810737033666969972702456778889899909008189262966333030027297543221110100090991810737033666969972702456778889899909008189262966333030027297543221110100090991810737033666969972702456778889899909008189262966333030027297543221110100090991810737033666969972702456778889899909008189262966333030027297543221110100090991810737033666969972702456778889899909008189262966333030027297543221110100090991810737033666969972702456778889899909008189262966333030027297543221110100090991810737033666969972702456779') Decimal('0.090081892629663330300272975432211101000909918107370336669699727024567788898999090081892629663330300272975432211101000909918107370336669699727024567788898999090081892629663330300272975432211101000909918107370336669699727024567788898999090081892629663330300272975432211101000909918107370336669699727024567788898999090081892629663330300272975432211101000909918107370336669699727024567788898999090081892629663330300272975432211101000909918107370336669699727024567788898999090081892629663330300272975432211')) (Decimal('-1') Decimal('-1')) (Decimal('-1') Decimal('-1')) (Decimal('0E+2') Decimal('1')) (Decimal('0E+2') Decimal('1')));
}

potential ( M | D T P )
{
	data = ((Decimal('0.24') Decimal('0.76')) (Decimal('0.022857142857142857142857142857142857142857142857142857142857142857142857142857142857142857142857142857142857142857142857142857142857142857142857142857142857142857142857142857142857142857142857142857142857142857142857142857142857142857142857142857142857142857142857142857142857142857142857142857142857142857142857142857142857142857142857142857142857142857142857142857142857142857142857142857142857142857142857142857142857142857142857142857142857142857142857142857142857142857142857142857142857142857143') Decimal('0.97714285714285714285714285714285714285714285714285714285714285714285714285714285714285714285714285714285714285714285714285714285714285714285714285714285714285714285714285714285714285714285714285714285714285714285714285714285714285714285714285714285714285714285714285714285714285714285714285714285714285714285714285714285714285714285714285714285714285714285714285714285714285714285714285714285714285714285714285714285714285714285714285714285714285714285714285714285714285714285714285714285714285714286')) (Decimal('0.93498681428851644399886668264934725279515288886951594272388466316500664734215286707495150709413072379748490726412832639539698799119499596800557940849552121700847808556545997428241396595689035154632434670793104199812566745853584116121439313035328988950155831135714752740666477780441557875465858814811585990453980777194167774557025477845825251182355120632914151210688054399232831331865832661334263234749253536168079680927576662380402327659481725257720724451321840333020944576422640193535732188392214982') Decimal('0.065013185711483556001133317350652747204847111130484057276115336834993352657847132925048492905869276202515092735871673604603012008805004031994420591504478782991521914434540025717586034043109648453675653292068958001874332541464158838785606869646710110498441688642852472593335222195584421245341411851884140095460192228058322254429745221541747488176448793670858487893119456007671686681341673386657367652507464638319203190724233376195976723405182747422792755486781596669790554235773598064642678116077850184')) (Decimal('0.51580788861435244467689865998160405432214547225278193590275398127941998665392176312514653633199271376269230075567659206088697314552635850451782783559074431439031868270600753873067974822803758544195357729002470827997907912060165563511100690749724962576875214168485220120114704131873681173012065576135769293198910671452017241690262773459339549479683301170487131855645932151423882265947661731022417804389777625480188287914585099284000937832524753368081230724836330189189676628131368694428914098147780764') Decimal('0.48419211138564755532310134001839594567785452774721806409724601872058001334607823687485346366800728623730769924432340793911302685447364149548217216440925568560968131729399246126932025177196241455804642270997529172002092087939834436488899309250275037423124785831514779879885295868126318826987934423864230706801089328547982758309737226540660450520316698829512868144354067848576117734052338268977582195610222374519811712085414900715999062167475246631918769275163669810810323371868631305571085901852219236')) (Decimal('-1') Decimal('-1')) (Decimal('-1') Decimal('-1')) (Decimal('0.13755158184319119669876203576341127922971114167812929848693259972489683631361760660247592847317744154057771664374140302613480055020632737276478679504814305364511691884456671251719394773039889958734525447042640990371389270976616231086657496561210453920220082530949105914718019257221458046767537826685006877579092159559834938101788170563961485557083906464924346629986244841815680880330123796423658872077028885832187070151306740027510316368638239339752407152682255845942228335625859697386519944979367263') Decimal('0.86244841815680880330123796423658872077028885832187070151306740027510316368638239339752407152682255845942228335625859697386519944979367262723521320495185694635488308115543328748280605226960110041265474552957359009628610729023383768913342503438789546079779917469050894085281980742778541953232462173314993122420907840440165061898211829436038514442916093535075653370013755158184319119669876203576341127922971114167812929848693259972489683631361760660247592847317744154057771664374140302613480055020632737')) (Decimal('0.011676104851421565765660575631969175083192247066378656080331601377780372467744760347947924572362659816685153832681417479128962578083951193881721057855099538793858368848152256407262537217584213906240878043084826901745577675287524081966256056979391674937240936423609084009574405978165683927841672018214723568217642594430497985871913129779905423550703485317298149337381049681826142798762332885749314028839978983011267441181621810963862455484850253955280518419055403117519995329558059431373693735769747212') Decimal('0.98832389514857843423433942436803082491680775293362134391966839862221962753225523965205207542763734018331484616731858252087103742191604880611827894214490046120614163115184774359273746278241578609375912195691517309825442232471247591803374394302060832506275906357639091599042559402183431607215832798178527643178235740556950201412808687022009457644929651468270185066261895031817385720123766711425068597116002101698873255881837818903613754451514974604471948158094459688248000467044194056862630626423025279')));
}

potential ( D |  )
{
	data = ((Decimal('0.0451108450') Decimal('0.9548891550')));
}

potential ( T | D )
{
	data = ((Decimal('0.22167618451837911703937268299895512930427262003183491685868442499802431100547994611938659096277181241007567027396627130349697506220510832816365998021096700804429622189520058868327560700758320975809697202524138042636975654080520992235902475336030615254491464303096073682503619694997954483007356656697519188567627141544344824398656243304686489468330730670196933797183360231891023100986026752546976231546981662613502362901869827532603301933271256612462036567925074336337525931957160190637085162115673072') Decimal('0.77832381548162088296062731700104487069572737996816508314131557500197568899452005388061340903722818758992432972603372869650302493779489167183634001978903299195570377810479941131672439299241679024190302797475861957363024345919479007764097524663969384745508535696903926317496380305002045516992643343302480811432372858455655175601343756695313510531669269329803066202816639768108976899013973247453023768453018337386497637098130172467396698066728743387537963432074925663662474068042839809362914837884326928')) (Decimal('0E+2') Decimal('1')));
}

