net
{
	propagationenginegenerator1791944048146838126L = "edu.ucla.belief.approx.BeliefPropagationSettings@ec52e37";
	recoveryenginegenerator6944530267470113528l = "edu.ucla.util.SettingsImpl@447fdf07";
	node_size = (130.0 55.0);
}

node S
{
	states = ("On" "Off");
	ID = "S";
	position = (80 60);
	label = "SPRINKLER";
}

node R
{
	states = ("Yes" "No");
	ID = "R";
	position = (290 60);
	label = "RAIN";
}

node G
{
	states = ("Yes" "No");
	ID = "G";
	position = (195 160);
	label = "GRASS WET";
}

potential ( S | G )
{
	data = ((0.5773584905660377 0.4226415094339622) (0.02404692082111437 0.9759530791788856));
}

potential ( R | G S )
{
	data = (((0.21568627450980396 0.7843137254901961) (0.9523809523809524 0.04761904761904762)) ((0.024390243902439025 0.975609756097561) (0.04807692307692307 0.9519230769230769)));
}

potential ( G |  )
{
	data = (0.318 0.682);
}

