net
{
	HRUNTIME_Propagate_AutoNormal = "1";
	HR_Font_Size = "-12";
	HRUNTIME_Font_Size = "-12";
	HR_Grid_GridSnap = "1";
	HRUNTIME_Propagate_AutoSum = "1";
	HR_Propagate_AutoNormal = "1";
	node_size = (100.0 40.0);
	HRUNTIME_Monitor_GraphPrecision = "100";
	HR_Grid_GridShow = "0";
	HR_Font_Name = "Arial";
	HR_Compile_ApproxEpsilon = "0.00001";
	HRUNTIME_Monitor_AutoUpdGraph = "0";
	HRUNTIME_Font_Name = "Arial";
	HRUNTIME_Font_Weight = "400";
	HR_Font_Weight = "400";
	HR_Monitor_AutoUpdGraph = "0";
	HRUNTIME_Compile_Compress = "0";
	HR_Compile_Compress = "0";
	HRUNTIME_Compile_TriangMethod = "0";
	HR_Grid_Y = "10";
	HR_Grid_X = "10";
	HR_Groups_GroupNames = "";
	HR_Compile_Approximate = "0";
	HRUNTIME_Compile_Approximate = "0";
	HR_Compile_TriangMethod = "0";
	HR_Color_DiscreteChance = "16";
	HRUNTIME_Compile_ApproxEpsilon = "0.00001";
	HR_Monitor_InitStates = "5";
	HRUNTIME_Grid_GridSnap = "1";
	HR_Color_ContinuosChance = "48";
	HRUNTIME_Propagate_Auto = "0";
	HR_Groups_GroupColors = "";
	HR_Monitor_OpenGraph = "0";
	HRUNTIME_Grid_GridShow = "0";
	HR_Monitor_InitSD = "2";
	HR_Groups_UserGroupsNo = "0";
	HR_Color_Decision = "17";
	HRUNTIME_Monitor_InitStates = "5";
	HRUNTIME_Grid_Y = "10";
	HRUNTIME_Grid_X = "10";
	HR_Propagate_Auto = "0";
	HR_Monitor_GraphPrecision = "100";
	HRUNTIME_Font_Italic = "0";
	HRUNTIME_Monitor_OpenGraph = "0";
	HR_Font_Italic = "0";
	HR_Propagate_AutoSum = "1";
	HR_Color_Utility = "36";
}

node A
{
	states = ("Present" "Absent");
	ID = "A";
	position = (131 0);
	label = "A:Metastatic Cancer";
}

node C
{
	states = ("Present" "Absent");
	ID = "C";
	position = (255 128);
	label = "C:  Brain Tumor";
}

node B
{
	states = ("Increased" "Not increased");
	ID = "B";
	position = (0 128);
	label = "B: Serum Calcium";
}

node E
{
	states = ("Present" "Absent");
	ID = "E";
	position = (414 266);
	label = "E: Severe Headaches";
}

node D
{
	states = ("Present" "Absent");
	ID = "D";
	position = (147 256);
	label = "D: Coma";
}

potential ( A | D )
{
	data = ((Decimal('0.4576086956521739130434782608695652173913043478260869565217391304347826086956521739130434782608695652') Decimal('0.5423913043478260869565217391304347826086956521739130434782608695652173913043478260869565217391304348')) (Decimal('0.09251700680272108843537414965986394557823129251700680272108843537414965986394557823129251700680272109') Decimal('0.9074829931972789115646258503401360544217687074829931972789115646258503401360544217687074829931972789')));
}

potential ( C | D A E )
{
	data = ((Decimal('0.2934702861335289801907556859867938371239911958914159941305942773294203961848862802641232575201760822') Decimal('0.7065297138664710198092443140132061628760088041085840058694057226705796038151137197358767424798239178')) (Decimal('0.1347708894878706199460916442048517520215633423180592991913746630727762803234501347708894878706199461') Decimal('0.8652291105121293800539083557951482479784366576819407008086253369272237196765498652291105121293800539')) (Decimal('0.2504696305572949279899812147777082028804007514088916718847839699436443331246086412022542266750156544') Decimal('0.7495303694427050720100187852222917971195992485911083281152160300563556668753913587977457733249843456')) (Decimal('0.1113585746102449888641425389755011135857461024498886414253897550111358574610244988864142538975501114') Decimal('0.8886414253897550111358574610244988864142538975501113585746102449888641425389755011135857461024498886')) (Decimal('0.1569858712715855572998430141287284144427001569858712715855572998430141287284144427001569858712715856') Decimal('0.8430141287284144427001569858712715855572998430141287284144427001569858712715855572998430141287284144')) (Decimal('0.06527415143603133159268929503916449086161879895561357702349869451697127937336814621409921671018276762') Decimal('0.9347258485639686684073107049608355091383812010443864229765013054830287206266318537859007832898172324')) (Decimal('0.01658925016589250165892501658925016589250165892501658925016589250165892501658925016589250165892501659') Decimal('0.9834107498341074983410749834107498341074983410749834107498341074983410749834107498341074983410749834')) (Decimal('0.006286145335680160925320593412119688207191350264018104098566758863464923309026904702036711088760372140') Decimal('0.9937138546643198390746794065878803117928086497359818959014332411365350766909730952979632889112396279')));
}

potential ( B | D A C )
{
	data = ((Decimal('0.8') Decimal('0.2')) (Decimal('0.9968847352024922118380062305295950155763239875389408099688473520249221183800623052959501557632398754') Decimal('0.003115264797507788161993769470404984423676012461059190031152647975077881619937694704049844236760124611')) (Decimal('0.2') Decimal('0.8')) (Decimal('0.9523809523809523809523809523809523809523809523809523809523809523809523809523809523809523809523809524') Decimal('0.04761904761904761904761904761904761904761904761904761904761904761904761904761904761904761904761904762')) (Decimal('0.8') Decimal('0.2')) (Decimal('0.4469273743016759776536312849162011173184357541899441340782122905027932960893854748603351955307262570') Decimal('0.5530726256983240223463687150837988826815642458100558659217877094972067039106145251396648044692737430')) (Decimal('0.2') Decimal('0.8')) (Decimal('0.04807692307692307692307692307692307692307692307692307692307692307692307692307692307692307692307692308') Decimal('0.9519230769230769230769230769230769230769230769230769230769230769230769230769230769230769230769230769')));
}

potential ( E | D A )
{
	data = ((Decimal('0.6475059382422802850356294536817102137767220902612826603325415676959619952494061757719714964370546318') Decimal('0.3524940617577197149643705463182897862232779097387173396674584323040380047505938242280285035629453682')) (Decimal('0.6400801603206412825651302605210420841683366733466933867735470941883767535070140280561122244488977956') Decimal('0.3599198396793587174348697394789579158316633266533066132264529058116232464929859719438877755511022044')) (Decimal('0.6245098039215686274509803921568627450980392156862745098039215686274509803921568627450980392156862745') Decimal('0.3754901960784313725490196078431372549019607843137254901960784313725490196078431372549019607843137255')) (Decimal('0.6024987506246876561719140429785107446276861569215392303848075962018990504747626186906546726636681659') Decimal('0.3975012493753123438280859570214892553723138430784607696151924037981009495252373813093453273363318341')));
}

potential ( D |  )
{
	data = ((Decimal('0.2944000') Decimal('0.7056000')));
}

