net
{
	propagationenginegenerator1791944048146838126L = "edu.ucla.belief.approx.BeliefPropagationSettings@36f3f021";
	recoveryenginegenerator6944530267470113528l = "edu.ucla.util.SettingsImpl@b1cbc13";
	node_size = (130 55);
}

node A
{
	states = ("On" "Off");
	ID = "A";
	position = (310 252);
	label = "Alarm";
}

node E
{
	states = ("Present" "Absent");
	ID = "E";
	position = (442 130);
	label = "Earthquake";
}

node B
{
	states = ("Present" "Absent");
	ID = "B";
	position = (169 128);
	label = "Burglary";
}

node J
{
	states = ("Present" "Absent");
	ID = "J";
	position = (179 367);
	label = "JohnCalls";
}

node M
{
	states = ("Present" "Absent");
	ID = "M";
	position = (446 365);
	label = "MaryCalls";
}

potential ( A |  )
{
	data = (0.9974835500000001 0.00251643);
}

potential ( E | A J M B )
{
	data = (((((0.9985777604771344 0.0014222395228655406) (0.9984045382024463 0.0015954617975536252)) ((0.9985773882832939 0.001422611716706084) (1.0 0.0))) (((0.9985777499079952 0.0014222500920047143) (1.0 0.0)) ((0.9985763269234625 0.0014236730765374668) (1.0 0.0)))) ((((0.6324804398392895 0.36751956016071047) (0.997872340425532 0.0021276595744680847)) ((0.6324422292705029 0.367557770729497) (0.9980243161094224 0.001975683890577508))) (((0.6324507201090149 0.3675492798909852) (0.9979905437352246 0.0020094562647754136)) ((0.6324485973780132 0.3675514026219869) (0.9979737259802101 0.0020262740197899425)))));
}

potential ( B | A J M )
{
	data = ((((0.9999398699511012 6.013004889880892e-05) (0.999939848671922 6.0151328078006786e-05)) ((0.9999400511549975 5.994884500246377e-05) (0.9999398484180133 6.015158198660624e-05))) (((0.6264405881573719 0.3735594118426282) (0.6264547260857224 0.3735452739142776)) ((0.626451584416349 0.373548415583651) (0.6264444668718776 0.3735555331281223))));
}

potential ( J | A )
{
	data = ((0.950000007518921 0.04999999248107901) (0.09999880783490897 0.900001192165091));
}

potential ( M | A J )
{
	data = (((0.9899999934572197 0.010000006542780316) (0.9900000340857803 0.009999965914219726)) ((0.2999920521379749 0.7000079478620252) (0.29999690920571 0.7000030907942901)));
}

