net
{
	propagationenginegenerator1791944048146838126L = "edu.ucla.belief.approx.BeliefPropagationSettings@36f3f021";
	recoveryenginegenerator6944530267470113528l = "edu.ucla.util.SettingsImpl@b1cbc13";
	node_size = (130 55);
}

node A
{
	states = ("On" "Off");
	ID = "A";
	position = (310 252);
	label = "Alarm";
}

node M
{
	states = ("Present" "Absent");
	ID = "M";
	position = (446 365);
	label = "MaryCalls";
}

node J
{
	states = ("Present" "Absent");
	ID = "J";
	position = (179 367);
	label = "JohnCalls";
}

node B
{
	states = ("Present" "Absent");
	ID = "B";
	position = (169 128);
	label = "Burglary";
}

node E
{
	states = ("Present" "Absent");
	ID = "E";
	position = (442 130);
	label = "Earthquake";
}

potential ( A |  )
{
	data = (0.9974835500000001 0.00251643);
}

potential ( M | A )
{
	data = ((0.9899999954886474 0.01000000451135259) (0.29999642350472694 0.700003576495273));
}

potential ( J | A M B )
{
	data = ((((0.9499999969618694 0.05000000303813054) (0.9501431699511538 0.04985683004884622)) ((0.9500002005165307 0.04999979948346942) (0.95 0.04999999999999999))) (((0.09999577095491838 0.9000042290450815) (0.10000000000000002 0.9)) ((0.10000090621573372 0.8999990937842663) (0.0999969605787058 0.9000030394212942))));
}

potential ( B | A M )
{
	data = (((0.999939879011295 6.012098870500089e-05) (0.9999398486592266 6.0151340773385856e-05)) ((0.6264504848195837 0.37354951518041646) (0.626445492787438 0.373554507212562)));
}

potential ( E | A M B J )
{
	data = (((((0.9985777604771344 0.0014222395228655406) (0.9985777499079952 0.0014222500920047143)) ((0.9984045382024463 0.0015954617975536252) (1.0 0.0))) (((0.9985773882832939 0.001422611716706084) (0.9985763269234625 0.0014236730765374668)) ((1.0 0.0) (1.0 0.0)))) ((((0.6324804398392895 0.36751956016071047) (0.6324507201090149 0.3675492798909852)) ((0.997872340425532 0.0021276595744680847) (0.9979905437352246 0.0020094562647754136))) (((0.6324422292705029 0.367557770729497) (0.6324485973780132 0.3675514026219869)) ((0.9980243161094224 0.001975683890577508) (0.9979737259802101 0.0020262740197899425)))));
}

