net
{
	
}

node A
{
	states = ("On" "Off");
	ID = "A";
	position = (30 30);
	label = "A: Alarm";
}

node M
{
	states = ("Present" "Absent");
	ID = "M";
	position = (50 50);
	label = "M: MaryCalls";
}

node J
{
	states = ("Present" "Absent");
	ID = "J";
	position = (10 50);
	label = "J: JohnCalls";
}

node B
{
	states = ("Present" "Absent");
	ID = "B";
	position = (10 0);
	label = "B: Burglary";
}

node E
{
	states = ("Present" "Absent");
	ID = "E";
	position = (50 0);
	label = "E: Earthquake";
}

potential ( A |  )
{
	data = (0.9974835500000001 0.00251643);
}

potential ( M | A B J )
{
	data = ((((0.9899999936678964 0.010000006332103637) (0.99000003609299 0.00999996390701002)) ((0.9899964899964899 0.010003510003510003) (0.9899665551839465 0.01003344481605351))) (((0.29998731286475516 0.7000126871352449) (0.299999295164121 0.7000007048358788)) ((0.30000000000000004 0.7000000000000001) (0.29999290796907874 0.7000070920309213))));
}

potential ( J | A B )
{
	data = (((0.9499999989974169 0.050000001002583075) (0.9501417375354344 0.049858262464565616)) ((0.09999936564726179 0.9000006343527381) (0.09999787238569392 0.9000021276143062)));
}

potential ( B | A )
{
	data = ((0.9999398787077741 6.012129222582167e-05) (0.6264469903792278 0.37355300962077226));
}

potential ( E | A B J M )
{
	data = (((((0.9985777604771344 0.0014222395228655406) (0.9985773882832939 0.001422611716706084)) ((0.9985777499079952 0.0014222500920047143) (0.9985763269234625 0.0014236730765374668))) (((0.9984045382024463 0.0015954617975536252) (1.0 0.0)) ((1.0 0.0) (1.0 0.0)))) ((((0.6324804398392895 0.36751956016071047) (0.6324422292705029 0.367557770729497)) ((0.6324507201090149 0.3675492798909852) (0.6324485973780132 0.3675514026219869))) (((0.997872340425532 0.0021276595744680847) (0.9980243161094224 0.001975683890577508)) ((0.9979905437352246 0.0020094562647754136) (0.9979737259802101 0.0020262740197899425)))));
}

