net
{
	
}

node A
{
	states = ("On" "Off");
	ID = "A";
	position = (30 30);
	label = "A: Alarm";
}

node M
{
	states = ("Present" "Absent");
	ID = "M";
	position = (50 50);
	label = "M: MaryCalls";
}

node J
{
	states = ("Present" "Absent");
	ID = "J";
	position = (10 50);
	label = "J: JohnCalls";
}

node B
{
	states = ("Present" "Absent");
	ID = "B";
	position = (10 0);
	label = "B: Burglary";
}

node E
{
	states = ("Present" "Absent");
	ID = "E";
	position = (50 0);
	label = "E: Earthquake";
}

potential ( A |  )
{
	data = (0.9974835500000001 0.00251643);
}

potential ( M | A )
{
	data = ((0.9899999954886474 0.01000000451135259) (0.29999642350472694 0.700003576495273));
}

potential ( J | A M )
{
	data = (((0.9500000055695711 0.04999999443042887) (0.9500002005044693 0.04999979949553076)) ((0.09999735071265829 0.9000026492873417) (0.0999994323052381 0.9000005676947619)));
}

potential ( B | A M J E )
{
	data = (((((0.9999398803811729 6.011961882709911e-05) (0.9999325468799185 6.745312008154333e-05)) ((0.9999399657764362 6.003422356379782e-05) (1.0 0.0))) (((0.9999397629831906 6.0237016809298066e-05) (1.0 0.0)) ((0.9999397626648996 6.0237335100295154e-05) (1.0 0.0)))) ((((0.5152454780361757 0.4847545219638243) (0.9965596330275229 0.003440366972477064)) ((0.5152158934313276 0.4847841065686725) (0.9967505575023893 0.0032494424976107035))) (((0.5152074413110881 0.4847925586889118) (0.9968051118210862 0.0031948881789137383)) ((0.5152116673365432 0.4847883326634567) (0.9967233705594846 0.003276629440515523)))));
}

potential ( E | A M J )
{
	data = ((((0.9985777500612706 0.001422249938729388) (0.9985778351702456 0.001422164829754394)) ((0.9985774738552781 0.0014225261447219847) (0.9985764125596504 0.001423587440349681))) (((0.7689760233143463 0.23102397668565372) (0.7689975420573127 0.23100245794268728)) ((0.7690036900369005 0.23099630996309967) (0.7689925316647324 0.2310074683352677))));
}

