net
{
	propagationenginegenerator1791944048146838126L = "edu.ucla.belief.approx.BeliefPropagationSettings@36f3f021";
	recoveryenginegenerator6944530267470113528l = "edu.ucla.util.SettingsImpl@b1cbc13";
	node_size = (130 55);
}

node A
{
	states = ("On" "Off");
	ID = "A";
	position = (310 252);
	label = "Alarm";
}

node M
{
	states = ("Present" "Absent");
	ID = "M";
	position = (446 365);
	label = "MaryCalls";
}

node J
{
	states = ("Present" "Absent");
	ID = "J";
	position = (179 367);
	label = "JohnCalls";
}

node B
{
	states = ("Present" "Absent");
	ID = "B";
	position = (169 128);
	label = "Burglary";
}

node E
{
	states = ("Present" "Absent");
	ID = "E";
	position = (442 130);
	label = "Earthquake";
}

potential ( A |  )
{
	data = (0.9974835500000001 0.00251643);
}

potential ( M | A E B )
{
	data = ((((0.99 0.01) (0.9899799599198397 0.010020040080160322)) ((0.989997039292814 0.01000296070718606) (1.0 0.0))) (((0.3 0.7) (0.2999936042297361 0.700006395770264)) ((0.2999948223192558 0.7000051776807441) (0.3 0.7))));
}

potential ( J | A E B M )
{
	data = (((((0.9499999974646186 0.05000000253538137) (0.950000251002756 0.049999748997243985)) ((0.9500674763832658 0.04993252361673414) (0.95 0.04999999999999999))) (((0.9499996439735401 0.05000035602645989) (0.9499647639182522 0.05003523608174771)) ((1.0 0.0) (-1 -1)))) ((((0.09999999999999999 0.8999999999999999) (0.09999999999999999 0.9)) ((0.09998934015563374 0.9000106598443662) (0.10000152278853035 0.8999984772114696))) (((0.09998849384420665 0.9000115061557934) (0.10000246554402228 0.8999975344559777)) ((0.10526315789473685 0.8947368421052633) (0.09774436090225565 0.9022556390977443)))));
}

potential ( B | A E )
{
	data = (((0.9999398834340992 6.011656590080758e-05) (0.9999365602994355 6.343970056461335e-05)) ((0.5152135268097069 0.4847864731902931) (0.9967315201871635 0.003268479812836524)));
}

potential ( E | A )
{
	data = ((0.9985777509814572 0.0014222490185427114) (0.7689941703127049 0.2310058296872951));
}

