net
{
	propagationenginegenerator1791944048146838126L = "edu.ucla.belief.approx.BeliefPropagationSettings@36f3f021";
	recoveryenginegenerator6944530267470113528l = "edu.ucla.util.SettingsImpl@b1cbc13";
	node_size = (130 55);
}

node A
{
	states = ("On" "Off");
	ID = "A";
	position = (310 252);
	label = "Alarm";
}

node E
{
	states = ("Present" "Absent");
	ID = "E";
	position = (442 130);
	label = "Earthquake";
}

node B
{
	states = ("Present" "Absent");
	ID = "B";
	position = (169 128);
	label = "Burglary";
}

node J
{
	states = ("Present" "Absent");
	ID = "J";
	position = (179 367);
	label = "JohnCalls";
}

node M
{
	states = ("Present" "Absent");
	ID = "M";
	position = (446 365);
	label = "MaryCalls";
}

potential ( A | B M J E )
{
	data = (((((0.9999680712270185 3.19287729815243e-05) (0.9871406903185231 0.012859309681476822)) ((0.9945696554306269 0.00543034456937301) (0.3098032295067502 0.6901967704932499))) (((0.9926782237217578 0.007321776278242186) (0.24944485566247224 0.7505551443375278)) ((0.44223033273836476 0.5577696672616351) (0.0019412697544703885 0.9980587302455296)))) ((((0.6668245323229932 0.3331754676770069) (0.6 0.39999999999999997)) ((0.011551219512195123 0.9884487804878049) (0.0 1.0))) (((0.008605072463768116 0.9913949275362318) (0.0 1.0)) ((5.075712714660349e-05 0.9999492428728534) (0.0 1.0)))));
}

potential ( E | B M J )
{
	data = ((((0.998559305838579 0.0014406941614210213) (0.9954484207228789 0.0045515792771210145)) ((0.9943625415715615 0.0056374584284384945) (0.7548413044206859 0.24515869557931433))) (((0.9982271599101761 0.0017728400898238978) (0.998013709300514 0.0019862906994859014)) ((0.9980412837125208 0.0019587162874792827) (0.9979738286196707 0.0020261713803292523))));
}

potential ( B |  )
{
	data = (0.99899999 0.0009999900000000003);
}

potential ( J | B M )
{
	data = (((0.9495930985500822 0.05040690144991773) (0.8653289076372145 0.13467109236278552)) ((0.24785423440841317 0.7521457655915867) (0.1007713097081777 0.8992286902918224)));
}

potential ( M | B )
{
	data = ((0.988911181070182 0.011088818929818008) (0.34137341373413727 0.6586265862658626));
}

