net
{
	propagationenginegenerator1791944048146838126L = "edu.ucla.belief.approx.BeliefPropagationSettings@36f3f021";
	recoveryenginegenerator6944530267470113528l = "edu.ucla.util.SettingsImpl@b1cbc13";
	node_size = (130 55);
}

node A
{
	states = ("On" "Off");
	ID = "A";
	position = (310 252);
	label = "Alarm";
}

node M
{
	states = ("Present" "Absent");
	ID = "M";
	position = (446 365);
	label = "MaryCalls";
}

node J
{
	states = ("Present" "Absent");
	ID = "J";
	position = (179 367);
	label = "JohnCalls";
}

node B
{
	states = ("Present" "Absent");
	ID = "B";
	position = (169 128);
	label = "Burglary";
}

node E
{
	states = ("Present" "Absent");
	ID = "E";
	position = (442 130);
	label = "Earthquake";
}

potential ( A | B J )
{
	data = (((0.9998336622032622 0.00016633779673791364) (0.9723382456017211 0.027661754398278806)) ((0.37740098026228647 0.6225990197377136) (0.0035217488604374503 0.9964782511395626)));
}

potential ( M | B J A )
{
	data = ((((0.9899999936678964 0.010000006332103637) (0.29998731286475516 0.7000126871352449)) ((0.99000003609299 0.00999996390701002) (0.299999295164121 0.7000007048358788))) (((0.9899964899964899 0.010003510003510003) (0.30000000000000004 0.7000000000000001)) ((0.9899665551839465 0.01003344481605351) (0.29999290796907874 0.7000070920309213))));
}

potential ( J | B )
{
	data = ((0.9486587081947818 0.051341291805218146) (0.15098150981509814 0.8490184901849018));
}

potential ( B |  )
{
	data = (0.99899999 0.00099999);
}

potential ( E | B J A M )
{
	data = (((((0.9985777604771344 0.0014222395228655406) (0.9985773882832939 0.001422611716706084)) ((0.6324804398392895 0.36751956016071047) (0.6324422292705029 0.367557770729497))) (((0.9985777499079952 0.0014222500920047143) (0.9985763269234625 0.0014236730765374668)) ((0.6324507201090149 0.3675492798909852) (0.6324485973780132 0.3675514026219869)))) ((((0.9984045382024463 0.0015954617975536252) (1.0 0.0)) ((0.997872340425532 0.0021276595744680847) (0.9980243161094224 0.001975683890577508))) (((1.0 0.0) (1.0 0.0)) ((0.9979905437352246 0.0020094562647754136) (0.9979737259802101 0.0020262740197899425)))));
}

