net
{
	propagationenginegenerator1791944048146838126L = "edu.ucla.belief.approx.BeliefPropagationSettings@36f3f021";
	recoveryenginegenerator6944530267470113528l = "edu.ucla.util.SettingsImpl@b1cbc13";
	node_size = (130 55);
}

node A
{
	states = ("On" "Off");
	ID = "A";
	position = (310 252);
	label = "Alarm";
}

node E
{
	states = ("Present" "Absent");
	ID = "E";
	position = (442 130);
	label = "Earthquake";
}

node B
{
	states = ("Present" "Absent");
	ID = "B";
	position = (169 128);
	label = "Burglary";
}

node J
{
	states = ("Present" "Absent");
	ID = "J";
	position = (179 367);
	label = "JohnCalls";
}

node M
{
	states = ("Present" "Absent");
	ID = "M";
	position = (446 365);
	label = "MaryCalls";
}

potential ( A | B E M )
{
	data = ((((0.9996967589554578 0.00030324104454221626) (0.9345183642257657 0.06548163577423426)) ((0.8898625658182371 0.11013743418176289) (0.03380342083948735 0.9661965791605126))) (((0.17398960993220042 0.8260103900677996) (0.0009128390816838839 0.9990871609183161)) ((0.13636363636363635 0.8636363636363635) (0.0 1.0))));
}

potential ( E | B )
{
	data = ((0.9980000099899901 0.00199999001000991) (0.9980099800998007 0.0019900199001990013));
}

potential ( B |  )
{
	data = (0.99899999 0.0009999900000000003);
}

potential ( J | B E M A )
{
	data = (((((0.9499999974646186 0.05000000253538137) (0.09999999999999999 0.8999999999999999)) ((0.950000251002756 0.049999748997243985) (0.09999999999999999 0.9))) (((0.9499996439735401 0.05000035602645989) (0.09998849384420665 0.9000115061557934)) ((0.9499647639182522 0.05003523608174771) (0.10000246554402228 0.8999975344559777)))) ((((0.9500674763832658 0.04993252361673414) (0.09998934015563374 0.9000106598443662)) ((0.95 0.04999999999999999) (0.10000152278853035 0.8999984772114696))) (((1.0 0.0) (0.10526315789473685 0.8947368421052633)) ((-1 -1) (0.09774436090225565 0.9022556390977443)))));
}

potential ( M | B E )
{
	data = (((0.9893100013841498 0.01068999861585032) (0.7898988483425844 0.21010115165741572)) ((0.3413927855711423 0.6586072144288577) (0.3316582914572864 0.6683417085427136)));
}

