net
{
	
}

node A
{
	states = ("On" "Off");
	ID = "A";
	position = (30 30);
	label = "A: Alarm";
}

node M
{
	states = ("Present" "Absent");
	ID = "M";
	position = (50 50);
	label = "M: MaryCalls";
}

node J
{
	states = ("Present" "Absent");
	ID = "J";
	position = (10 50);
	label = "J: JohnCalls";
}

node B
{
	states = ("Present" "Absent");
	ID = "B";
	position = (10 0);
	label = "B: Burglary";
}

node E
{
	states = ("Present" "Absent");
	ID = "E";
	position = (50 0);
	label = "E: Earthquake";
}

potential ( A | B E M J )
{
	data = (((((0.9999680712270185 3.19287729815243e-05) (0.9945696554306269 0.00543034456937301)) ((0.9926782237217578 0.007321776278242186) (0.44223033273836476 0.5577696672616351))) (((0.9871406903185231 0.012859309681476822) (0.3098032295067502 0.6901967704932499)) ((0.24944485566247224 0.7505551443375278) (0.0019412697544703885 0.9980587302455296)))) ((((0.6668245323229932 0.3331754676770069) (0.011551219512195123 0.9884487804878049)) ((0.008605072463768116 0.9913949275362318) (5.075712714660349e-05 0.9999492428728534))) (((0.6 0.39999999999999997) (0.0 1.0)) ((0.0 1.0) (0.0 1.0)))));
}

potential ( M | B E )
{
	data = (((0.9893100013841498 0.01068999861585032) (0.7898988483425844 0.21010115165741572)) ((0.3413927855711423 0.6586072144288577) (0.3316582914572864 0.6683417085427136)));
}

potential ( J | B E M )
{
	data = ((((0.9497422425775266 0.050257757422473424) (0.8943408441585858 0.10565915584141417)) ((0.856381596872406 0.1436184031275939) (0.1287340988136643 0.8712659011863357))) (((0.24789410348977137 0.7521058965102286) (0.10077743461790077 0.8992225653820993)) ((0.22727272727272724 0.7727272727272727) (0.09774436090225565 0.9022556390977443))));
}

potential ( B |  )
{
	data = (0.99899999 0.00099999);
}

potential ( E | B )
{
	data = ((0.9980000099899901 0.00199999001000991) (0.9980099800998009 0.0019900199001990017));
}

