net
{
	propagationenginegenerator1791944048146838126L = "edu.ucla.belief.approx.BeliefPropagationSettings@36f3f021";
	recoveryenginegenerator6944530267470113528l = "edu.ucla.util.SettingsImpl@b1cbc13";
	node_size = (130 55);
}

node A
{
	states = ("On" "Off");
	ID = "A";
	position = (310 252);
	label = "Alarm";
}

node M
{
	states = ("Present" "Absent");
	ID = "M";
	position = (446 365);
	label = "MaryCalls";
}

node J
{
	states = ("Present" "Absent");
	ID = "J";
	position = (179 367);
	label = "JohnCalls";
}

node B
{
	states = ("Present" "Absent");
	ID = "B";
	position = (169 128);
	label = "Burglary";
}

node E
{
	states = ("Present" "Absent");
	ID = "E";
	position = (442 130);
	label = "Earthquake";
}

potential ( A | B J )
{
	data = (((0.9998336622032622 0.00016633779673791364) (0.9723382456017211 0.027661754398278806)) ((0.37740098026228647 0.6225990197377136) (0.0035217488604374503 0.9964782511395626)));
}

potential ( M | B J A E )
{
	data = (((((0.9899999973578657 0.010000002642134274) (0.9899974028865062 0.01000259711349386)) ((0.3 0.7) (0.29996548153262 0.7000345184673801))) (((0.9900000502005513 0.009999949799448798) (0.989990131115184 0.010009868884816015)) ((0.3 0.7) (0.29999808234414255 0.7000019176558575)))) ((((0.9899806644401477 0.010019335559852346) (1.0 0.0)) ((0.2999680204669012 0.7000319795330988) (0.3157894736842105 0.6842105263157895))) (((0.9899665551839465 0.01003344481605351) (-1 -1)) ((0.2999964468027146 0.7000035531972854) (0.2982456140350877 0.7017543859649122)))));
}

potential ( J | B )
{
	data = ((0.9486587081947818 0.051341291805218146) (0.15098150981509814 0.8490184901849018));
}

potential ( B |  )
{
	data = (0.99899999 0.00099999);
}

potential ( E | B J A )
{
	data = ((((0.9985777567551937 0.001422243244806303) (0.6324536919563563 0.36754630804364374)) ((0.9985777356782013 0.001422264321798682) (0.6324492341958174 0.36755076580418244))) (((0.9984204984204984 0.0015795015795015792) (0.9979787234042553 0.002021276595744681)) ((1.0 0.0) (0.9979787711874424 0.0020212288125576227))));
}

