net
{
	propagationenginegenerator1791944048146838126L = "edu.ucla.belief.approx.BeliefPropagationSettings@36f3f021";
	recoveryenginegenerator6944530267470113528l = "edu.ucla.util.SettingsImpl@b1cbc13";
	node_size = (130 55);
}

node A
{
	states = ("On" "Off");
	ID = "A";
	position = (310 252);
	label = "Alarm";
}

node E
{
	states = ("Present" "Absent");
	ID = "E";
	position = (442 130);
	label = "Earthquake";
}

node B
{
	states = ("Present" "Absent");
	ID = "B";
	position = (169 128);
	label = "Burglary";
}

node J
{
	states = ("Present" "Absent");
	ID = "J";
	position = (179 367);
	label = "JohnCalls";
}

node M
{
	states = ("Present" "Absent");
	ID = "M";
	position = (446 365);
	label = "MaryCalls";
}

potential ( A | B )
{
	data = ((0.9984220119962165 0.0015779880037836641) (0.059970599705997045 0.9400294002940026));
}

potential ( E | B A J )
{
	data = ((((0.9985777567551937 0.001422243244806303) (0.9985777356782013 0.001422264321798682)) ((0.6324536919563563 0.36754630804364374) (0.6324492341958174 0.36755076580418244))) (((0.9984204984204984 0.0015795015795015792) (1.0 0.0)) ((0.9979787234042553 0.002021276595744681) (0.9979787711874424 0.0020212288125576227))));
}

potential ( B |  )
{
	data = (0.99899999 0.0009999900000000003);
}

potential ( J | B A )
{
	data = (((0.9499999989974169 0.050000001002583075) (0.09999936564726179 0.9000006343527381)) ((0.9501417375354344 0.049858262464565616) (0.09999787238569392 0.9000021276143062)));
}

potential ( M | B A J E )
{
	data = (((((0.9899999973578657 0.010000002642134274) (0.9899974028865062 0.01000259711349386)) ((0.9900000502005513 0.009999949799448798) (0.989990131115184 0.010009868884816015))) (((0.3 0.7) (0.29996548153262 0.7000345184673801)) ((0.3 0.7) (0.29999808234414255 0.7000019176558575)))) ((((0.9899806644401477 0.010019335559852346) (1.0 0.0)) ((0.9899665551839465 0.01003344481605351) (-1 -1))) (((0.2999680204669012 0.7000319795330988) (0.3157894736842105 0.6842105263157895)) ((0.2999964468027146 0.7000035531972854) (0.2982456140350877 0.7017543859649122)))));
}

