net
{
	
}

node A
{
	states = ("On" "Off");
	ID = "A";
	position = (30 30);
	label = "A: Alarm";
}

node M
{
	states = ("Present" "Absent");
	ID = "M";
	position = (50 50);
	label = "M: MaryCalls";
}

node J
{
	states = ("Present" "Absent");
	ID = "J";
	position = (10 50);
	label = "J: JohnCalls";
}

node B
{
	states = ("Present" "Absent");
	ID = "B";
	position = (10 0);
	label = "B: Burglary";
}

node E
{
	states = ("Present" "Absent");
	ID = "E";
	position = (50 0);
	label = "E: Earthquake";
}

potential ( A | B M )
{
	data = (((0.9995212983661286 0.0004787016338714749) (0.9003866315571872 0.09961336844281274)) ((0.1739168643993321 0.8260831356006677) (0.0009109957183201239 0.9990890042816799)));
}

potential ( M | B )
{
	data = ((0.988911181070182 0.011088818929818008) (0.3413734137341373 0.6586265862658627));
}

potential ( J | B M A E )
{
	data = (((((0.9499999974646186 0.05000000253538137) (0.9499996439735401 0.05000035602645989)) ((0.09999999999999999 0.8999999999999999) (0.09998849384420665 0.9000115061557934))) (((0.950000251002756 0.049999748997243985) (0.9499647639182522 0.05003523608174771)) ((0.09999999999999999 0.9) (0.10000246554402228 0.8999975344559777)))) ((((0.9500674763832658 0.04993252361673414) (1.0 0.0)) ((0.09998934015563374 0.9000106598443662) (0.10526315789473685 0.8947368421052633))) (((0.95 0.04999999999999999) (-1 -1)) ((0.10000152278853035 0.8999984772114696) (0.09774436090225565 0.9022556390977443)))));
}

potential ( B |  )
{
	data = (0.99899999 0.00099999);
}

potential ( E | B M A )
{
	data = ((((0.9985777599486775 0.0014222400513225315) (0.6324536919563563 0.36754630804364374)) ((0.9985773352155153 0.0014226647844848331) (0.6324479605614913 0.3675520394385087))) (((0.9984840828701365 0.0015159171298635675) (0.9979787234042554 0.002021276595744681)) ((1.0 0.0) (0.9979787848393665 0.0020212151606334152))));
}

