net
{
	
}

node A
{
	states = ("On" "Off");
	ID = "A";
	position = (30 30);
	label = "A: Alarm";
}

node M
{
	states = ("Present" "Absent");
	ID = "M";
	position = (50 50);
	label = "M: MaryCalls";
}

node J
{
	states = ("Present" "Absent");
	ID = "J";
	position = (10 50);
	label = "J: JohnCalls";
}

node B
{
	states = ("Present" "Absent");
	ID = "B";
	position = (10 0);
	label = "B: Burglary";
}

node E
{
	states = ("Present" "Absent");
	ID = "E";
	position = (50 0);
	label = "E: Earthquake";
}

potential ( A | B )
{
	data = ((0.9984220119962165 0.0015779880037836641) (0.05997059970599706 0.9400294002940028));
}

potential ( M | B A )
{
	data = (((0.9899999957891511 0.010000004210848913) (0.2999980969417854 0.7000019030582144)) ((0.9899949974987493 0.010005002501250627) (0.2999936171570817 0.7000063828429183)));
}

potential ( J | B A M )
{
	data = ((((0.9499999969618694 0.05000000303813054) (0.9500002005165307 0.04999979948346942)) ((0.09999577095491838 0.9000042290450815) (0.10000090621573372 0.8999990937842663))) (((0.9501431699511538 0.04985683004884622) (0.95 0.04999999999999999)) ((0.10000000000000002 0.9) (0.0999969605787058 0.9000030394212942))));
}

potential ( B |  )
{
	data = (0.99899999 0.00099999);
}

potential ( E | B A M J )
{
	data = (((((0.9985777604771344 0.0014222395228655406) (0.9985777499079952 0.0014222500920047143)) ((0.9985773882832939 0.001422611716706084) (0.9985763269234625 0.0014236730765374668))) (((0.6324804398392895 0.36751956016071047) (0.6324507201090149 0.3675492798909852)) ((0.6324422292705029 0.367557770729497) (0.6324485973780132 0.3675514026219869)))) ((((0.9984045382024463 0.0015954617975536252) (1.0 0.0)) ((1.0 0.0) (1.0 0.0))) (((0.997872340425532 0.0021276595744680847) (0.9979905437352246 0.0020094562647754136)) ((0.9980243161094224 0.001975683890577508) (0.9979737259802101 0.0020262740197899425)))));
}

