net
{
	propagationenginegenerator1791944048146838126L = "edu.ucla.belief.approx.BeliefPropagationSettings@36f3f021";
	recoveryenginegenerator6944530267470113528l = "edu.ucla.util.SettingsImpl@b1cbc13";
	node_size = (130 55);
}

node A
{
	states = ("On" "Off");
	ID = "A";
	position = (310 252);
	label = "Alarm";
}

node E
{
	states = ("Present" "Absent");
	ID = "E";
	position = (442 130);
	label = "Earthquake";
}

node B
{
	states = ("Present" "Absent");
	ID = "B";
	position = (169 128);
	label = "Burglary";
}

node J
{
	states = ("Present" "Absent");
	ID = "J";
	position = (179 367);
	label = "JohnCalls";
}

node M
{
	states = ("Present" "Absent");
	ID = "M";
	position = (446 365);
	label = "MaryCalls";
}

potential ( A | E J M )
{
	data = ((((0.9980650787594701 0.0019349212405297869) (0.6908922833120571 0.30910771668794296)) ((0.7511537751522983 0.2488462248477017) (0.01290227121402678 0.9870977287859731))) (((0.7099687856693611 0.29003121433063894) (0.01048573594320748 0.9895142640567925)) ((0.014113239314529574 0.9858867606854704) (6.19624933822616e-05 0.9999380375066177))));
}

potential ( E |  )
{
	data = (0.00199998 0.998);
}

potential ( B | E J M A )
{
	data = (((((0.003276629440515523 0.9967233705594846) (0.0 1.0)) ((0.0032494424976107035 0.9967505575023893) (0.0 1.0))) (((0.0031948881789137383 0.9968051118210862) (0.0 1.0)) ((0.003440366972477064 0.9965596330275229) (6.745312008154333e-05 0.9999325468799185)))) ((((0.4847883326634567 0.5152116673365432) (6.0237335100295154e-05 0.9999397626648996)) ((0.4847841065686725 0.5152158934313276) (6.003422356379782e-05 0.9999399657764362))) (((0.4847925586889118 0.5152074413110881) (6.0237016809298066e-05 0.9999397629831906)) ((0.4847545219638243 0.5152454780361757) (6.011961882709911e-05 0.9999398803811729)))));
}

potential ( J | E )
{
	data = ((0.2970579705797058 0.7029420294202942) (0.05164814629258516 0.9483518537074148));
}

potential ( M | E J )
{
	data = (((0.6176297318678359 0.38237026813216407) (0.038531300902643915 0.961468699097356)) ((0.03331390041876153 0.9666860995812385) (0.010141082754951463 0.9898589172450486)));
}

