net
{
	propagationenginegenerator1791944048146838126L = "edu.ucla.belief.approx.BeliefPropagationSettings@36f3f021";
	recoveryenginegenerator6944530267470113528l = "edu.ucla.util.SettingsImpl@b1cbc13";
	node_size = (130 55);
}

node A
{
	states = ("On" "Off");
	ID = "A";
	position = (310 252);
	label = "Alarm";
}

node E
{
	states = ("Present" "Absent");
	ID = "E";
	position = (442 130);
	label = "Earthquake";
}

node B
{
	states = ("Present" "Absent");
	ID = "B";
	position = (169 128);
	label = "Burglary";
}

node J
{
	states = ("Present" "Absent");
	ID = "J";
	position = (179 367);
	label = "JohnCalls";
}

node M
{
	states = ("Present" "Absent");
	ID = "M";
	position = (446 365);
	label = "MaryCalls";
}

potential ( A | E B M J )
{
	data = (((((1.0 0.0) (1.0 0.0)) ((1.0 0.0) (0.39999999999999997 0.6))) (((0.9980587302455296 0.0019412697544703885) (0.7505551443375278 0.24944485566247224)) ((0.6901967704932499 0.3098032295067502) (0.012859309681476822 0.9871406903185231)))) ((((0.9999492428728534 5.075712714660349e-05) (0.9913949275362318 0.008605072463768116)) ((0.9884487804878049 0.011551219512195123) (0.3331754676770069 0.6668245323229932))) (((0.5577696672616351 0.44223033273836476) (0.007321776278242186 0.9926782237217578)) ((0.00543034456937301 0.9945696554306269) (3.19287729815243e-05 0.9999680712270185)))));
}

potential ( E |  )
{
	data = (0.00199998 0.998);
}

potential ( B | E )
{
	data = ((0.0009950099500995009 0.9990049900499003) (0.001 0.9990000000000001));
}

potential ( J | E B M )
{
	data = ((((0.9022556390977443 0.09774436090225565) (0.7727272727272728 0.2272727272727273)) ((0.8712659011863357 0.1287340988136643) (0.1436184031275939 0.856381596872406))) (((0.8992225653820993 0.10077743461790077) (0.7521058965102286 0.24789410348977137)) ((0.10565915584141417 0.8943408441585858) (0.050257757422473424 0.9497422425775266))));
}

potential ( M | E B )
{
	data = (((0.6683417085427136 0.33165829145728637) (0.21010115165741572 0.7898988483425844)) ((0.6586072144288577 0.3413927855711423) (0.010689998615850318 0.9893100013841497)));
}

