net
{
	propagationenginegenerator1791944048146838126L = "edu.ucla.belief.approx.BeliefPropagationSettings@36f3f021";
	recoveryenginegenerator6944530267470113528l = "edu.ucla.util.SettingsImpl@b1cbc13";
	node_size = (130 55);
}

node A
{
	states = ("On" "Off");
	ID = "A";
	position = (310 252);
	label = "Alarm";
}

node M
{
	states = ("Present" "Absent");
	ID = "M";
	position = (446 365);
	label = "MaryCalls";
}

node J
{
	states = ("Present" "Absent");
	ID = "J";
	position = (179 367);
	label = "JohnCalls";
}

node B
{
	states = ("Present" "Absent");
	ID = "B";
	position = (169 128);
	label = "Burglary";
}

node E
{
	states = ("Present" "Absent");
	ID = "E";
	position = (442 130);
	label = "Earthquake";
}

potential ( A | E )
{
	data = ((0.9980610020040082 0.0019389979959919842) (0.7093420934209341 0.29065790657906587));
}

potential ( M | E A J )
{
	data = ((((0.9899999961955555 0.010000003804444614) (0.9900000481896359 0.009999951810364146)) ((0.29998449692522355 0.7000155030747766) (0.29999827745591723 0.7000017225440829))) (((0.989998070844525 0.010001929155475093) (0.989990131115184 0.010009868884816015)) ((0.30001720282126265 0.6999827971787372) (0.2999923544478 0.7000076455522))));
}

potential ( J | E A )
{
	data = (((0.9500000040158026 0.04999999598419733) (0.09999896647236346 0.9000010335276365)) ((0.9500024670994665 0.04999753290053361) (0.09999827974746693 0.9000017202525331)));
}

potential ( B | E A J M )
{
	data = (((((0.9999398803811729 6.011961882709911e-05) (0.9999397629831906 6.0237016809298066e-05)) ((0.9999399657764362 6.003422356379782e-05) (0.9999397626648996 6.0237335100295154e-05))) (((0.5152454780361757 0.4847545219638243) (0.5152074413110881 0.4847925586889118)) ((0.5152158934313276 0.4847841065686725) (0.5152116673365432 0.4847883326634567)))) ((((0.9999325468799185 6.745312008154333e-05) (1.0 0.0)) ((1.0 0.0) (1.0 0.0))) (((0.9965596330275229 0.003440366972477064) (0.9968051118210862 0.0031948881789137383)) ((0.9967505575023893 0.0032494424976107035) (0.9967233705594846 0.003276629440515523)))));
}

potential ( E |  )
{
	data = (0.9979999999999999 0.0019999799999999997);
}

