net
{
	propagationenginegenerator1791944048146838126L = "edu.ucla.belief.approx.BeliefPropagationSettings@36f3f021";
	recoveryenginegenerator6944530267470113528l = "edu.ucla.util.SettingsImpl@b1cbc13";
	node_size = (130 55);
}

node A
{
	states = ("On" "Off");
	ID = "A";
	position = (310 252);
	label = "Alarm";
}

node M
{
	states = ("Present" "Absent");
	ID = "M";
	position = (446 365);
	label = "MaryCalls";
}

node J
{
	states = ("Present" "Absent");
	ID = "J";
	position = (179 367);
	label = "JohnCalls";
}

node B
{
	states = ("Present" "Absent");
	ID = "B";
	position = (169 128);
	label = "Burglary";
}

node E
{
	states = ("Present" "Absent");
	ID = "E";
	position = (442 130);
	label = "Earthquake";
}

potential ( A | E B J M )
{
	data = (((((0.9999680712270185 3.19287729815243e-05) (0.9926782237217578 0.007321776278242186)) ((0.9945696554306269 0.00543034456937301) (0.44223033273836476 0.5577696672616351))) (((0.6668245323229932 0.3331754676770069) (0.008605072463768116 0.9913949275362318)) ((0.011551219512195123 0.9884487804878049) (5.075712714660349e-05 0.9999492428728534)))) ((((0.9871406903185231 0.012859309681476822) (0.24944485566247224 0.7505551443375278)) ((0.3098032295067502 0.6901967704932499) (0.0019412697544703885 0.9980587302455296))) (((0.6 0.39999999999999997) (0.0 1.0)) ((0.0 1.0) (0.0 1.0)))));
}

potential ( M | E B J )
{
	data = ((((0.9899273008808106 0.01007269911918939) (0.9777876840202337 0.022212315979766282)) ((0.5604512276045123 0.43954877239548773) (0.30243125221291156 0.6975687477870884))) (((0.9615535113368764 0.03844648866312367) (0.38261309925725856 0.6173869007427414)) ((0.5357142857142858 0.46428571428571436) (0.2982456140350877 0.7017543859649122))));
}

potential ( J | E B )
{
	data = (((0.949150001705112 0.05084999829488808) (0.15100200400801603 0.848997995991984)) ((0.7035020195296273 0.2964979804703728) (0.14070351758793967 0.8592964824120602)));
}

potential ( B | E )
{
	data = ((0.9990000000000001 0.001) (0.9990049900499005 0.000995009950099501));
}

potential ( E |  )
{
	data = (0.9979999999999999 0.0019999799999999997);
}

