net
{
	propagationenginegenerator1791944048146838126L = "edu.ucla.belief.approx.BeliefPropagationSettings@36f3f021";
	recoveryenginegenerator6944530267470113528l = "edu.ucla.util.SettingsImpl@b1cbc13";
	node_size = (130 55);
}

node A
{
	states = ("On" "Off");
	ID = "A";
	position = (310 252);
	label = "Alarm";
}

node M
{
	states = ("Present" "Absent");
	ID = "M";
	position = (446 365);
	label = "MaryCalls";
}

node J
{
	states = ("Present" "Absent");
	ID = "J";
	position = (179 367);
	label = "JohnCalls";
}

node B
{
	states = ("Present" "Absent");
	ID = "B";
	position = (169 128);
	label = "Burglary";
}

node E
{
	states = ("Present" "Absent");
	ID = "E";
	position = (442 130);
	label = "Earthquake";
}

potential ( A | E )
{
	data = ((0.9980610020040082 0.0019389979959919842) (0.7093420934209341 0.29065790657906587));
}

potential ( M | E A B J )
{
	data = (((((0.9899999973578657 0.010000002642134274) (0.9900000502005513 0.009999949799448798)) ((0.9899806644401477 0.010019335559852346) (0.9899665551839465 0.01003344481605351))) (((0.3 0.7) (0.3 0.7)) ((0.2999680204669012 0.7000319795330988) (0.2999964468027146 0.7000035531972854)))) ((((0.9899974028865062 0.01000259711349386) (0.989990131115184 0.010009868884816015)) ((1.0 0.0) (-1 -1))) (((0.29996548153262 0.7000345184673801) (0.29999808234414255 0.7000019176558575)) ((0.3157894736842105 0.6842105263157895) (0.2982456140350877 0.7017543859649122)))));
}

potential ( J | E A B )
{
	data = ((((0.9500000000000001 0.049999999999999996) (0.9500668002672011 0.04993319973279893)) ((0.09999999999999999 0.8999999999999999) (0.09999786807657869 0.9000021319234214))) (((0.9499992950697177 0.0500007049302824) (1.0 0.0)) ((0.0999982741064186 0.9000017258935814) (0.09999999999999999 0.8999999999999999))));
}

potential ( B | E A )
{
	data = (((0.9999398834340992 6.011656590080758e-05) (0.5152135268097069 0.4847864731902931)) ((0.9999365602994355 6.343970056461335e-05) (0.9967315201871635 0.003268479812836524)));
}

potential ( E |  )
{
	data = (0.9979999999999999 0.0019999799999999997);
}

