net
{
	propagationenginegenerator1791944048146838126L = "edu.ucla.belief.approx.BeliefPropagationSettings@36f3f021";
	recoveryenginegenerator6944530267470113528l = "edu.ucla.util.SettingsImpl@b1cbc13";
	node_size = (130 55);
}

node A
{
	states = ("On" "Off");
	ID = "A";
	position = (310 252);
	label = "Alarm";
}

node M
{
	states = ("Present" "Absent");
	ID = "M";
	position = (446 365);
	label = "MaryCalls";
}

node J
{
	states = ("Present" "Absent");
	ID = "J";
	position = (179 367);
	label = "JohnCalls";
}

node B
{
	states = ("Present" "Absent");
	ID = "B";
	position = (169 128);
	label = "Burglary";
}

node E
{
	states = ("Present" "Absent");
	ID = "E";
	position = (442 130);
	label = "Earthquake";
}

potential ( A | E B )
{
	data = (((0.9990000020060141 0.00099999799398597) (0.060000000000000005 0.94)) ((0.7100035535713392 0.28999644642866085) (0.04522613065326633 0.9547738693467337)));
}

potential ( M | E B A )
{
	data = ((((0.99 0.01) (0.3 0.7)) ((0.9899799599198397 0.010020040080160322) (0.2999936042297361 0.700006395770264))) (((0.989997039292814 0.01000296070718606) (0.2999948223192558 0.7000051776807441)) ((1.0 0.0) (0.3 0.7))));
}

potential ( J | E B A M )
{
	data = (((((0.9499999974646186 0.05000000253538137) (0.950000251002756 0.049999748997243985)) ((0.09999999999999999 0.8999999999999999) (0.09999999999999999 0.9))) (((0.9500674763832658 0.04993252361673414) (0.95 0.04999999999999999)) ((0.09998934015563374 0.9000106598443662) (0.10000152278853035 0.8999984772114696)))) ((((0.9499996439735401 0.05000035602645989) (0.9499647639182522 0.05003523608174771)) ((0.09998849384420665 0.9000115061557934) (0.10000246554402228 0.8999975344559777))) (((1.0 0.0) (-1 -1)) ((0.10526315789473685 0.8947368421052633) (0.09774436090225565 0.9022556390977443)))));
}

potential ( B | E )
{
	data = ((0.9990000000000001 0.001) (0.9990049900499005 0.000995009950099501));
}

potential ( E |  )
{
	data = (0.9979999999999999 0.0019999799999999997);
}

