net
{
	propagationenginegenerator1791944048146838126L = "edu.ucla.belief.approx.BeliefPropagationSettings@36f3f021";
	recoveryenginegenerator6944530267470113528l = "edu.ucla.util.SettingsImpl@b1cbc13";
	node_size = (130 55);
}

node A
{
	states = ("On" "Off");
	ID = "A";
	position = (310 252);
	label = "Alarm";
}

node M
{
	states = ("Present" "Absent");
	ID = "M";
	position = (446 365);
	label = "MaryCalls";
}

node J
{
	states = ("Present" "Absent");
	ID = "J";
	position = (179 367);
	label = "JohnCalls";
}

node B
{
	states = ("Present" "Absent");
	ID = "B";
	position = (169 128);
	label = "Burglary";
}

node E
{
	states = ("Present" "Absent");
	ID = "E";
	position = (442 130);
	label = "Earthquake";
}

potential ( A | E J B )
{
	data = ((((0.9998946427864733 0.00010535721352678835) (0.3775049767750498 0.6224950232249502)) ((0.9823009198669364 0.01769908013306363) (0.003528856367284315 0.9964711436327156))) (((0.9587788757745858 0.04122112422541424) (0.32142857142857145 0.6785714285714286)) ((0.11973328831870356 0.8802667116812963) (0.0 1.0))));
}

potential ( M | E J B A )
{
	data = (((((0.9899999973578657 0.010000002642134274) (0.3 0.7)) ((0.9899806644401477 0.010019335559852346) (0.2999680204669012 0.7000319795330988))) (((0.9900000502005513 0.009999949799448798) (0.3 0.7)) ((0.9899665551839465 0.01003344481605351) (0.2999964468027146 0.7000035531972854)))) ((((0.9899974028865062 0.01000259711349386) (0.29996548153262 0.7000345184673801)) ((1.0 0.0) (0.3157894736842105 0.6842105263157895))) (((0.989990131115184 0.010009868884816015) (0.29999808234414255 0.7000019176558575)) ((-1 -1) (0.2982456140350877 0.7017543859649122)))));
}

potential ( J | E )
{
	data = ((0.9483518537074148 0.05164814629258518) (0.7029420294202943 0.2970579705797059));
}

potential ( B | E J )
{
	data = (((0.9998407742828597 0.00015922571714042659) (0.98356188833608 0.01643811166391987)) ((0.9998008350700989 0.00019916492990105768) (0.997121745131373 0.0028782548686270212)));
}

potential ( E |  )
{
	data = (0.9979999999999999 0.0019999799999999997);
}

