net
{
	
}

node A
{
	states = ("On" "Off");
	ID = "A";
	position = (30 30);
	label = "A: Alarm";
}

node M
{
	states = ("Present" "Absent");
	ID = "M";
	position = (50 50);
	label = "M: MaryCalls";
}

node J
{
	states = ("Present" "Absent");
	ID = "J";
	position = (10 50);
	label = "J: JohnCalls";
}

node B
{
	states = ("Present" "Absent");
	ID = "B";
	position = (10 0);
	label = "B: Burglary";
}

node E
{
	states = ("Present" "Absent");
	ID = "E";
	position = (50 0);
	label = "E: Earthquake";
}

potential ( A | J E M B )
{
	data = (((((0.9999680712270185 3.19287729815243e-05) (0.6668245323229932 0.3331754676770069)) ((0.9926782237217578 0.007321776278242186) (0.008605072463768116 0.9913949275362318))) (((0.9871406903185231 0.012859309681476822) (0.6 0.39999999999999997)) ((0.24944485566247224 0.7505551443375278) (0.0 1.0)))) ((((0.9945696554306269 0.00543034456937301) (0.011551219512195123 0.9884487804878049)) ((0.44223033273836476 0.5577696672616351) (5.075712714660349e-05 0.9999492428728534))) (((0.3098032295067502 0.6901967704932499) (0.0 1.0)) ((0.0019412697544703885 0.9980587302455296) (0.0 1.0)))));
}

potential ( M | J E )
{
	data = (((0.9898589172450486 0.010141082754951463) (0.961468699097356 0.038531300902643915)) ((0.9666860995812385 0.03331390041876152) (0.382370268132164 0.6176297318678358)));
}

potential ( J |  )
{
	data = (0.9478610199999998 0.05213896000000001);
}

potential ( B | J E M )
{
	data = ((((0.9999098475074752 9.015249252482026e-05) (0.9930986197239448 0.006901380276055211)) ((0.9998890286306134 0.00011097136938669824) (0.9976001476832195 0.002399852316780506))) (((0.994857277148509 0.005142722851490806) (0.6557979454448043 0.34420205455519587)) ((0.9977549852533345 0.0022450147466654925) (0.9967297105793863 0.003270289420613724))));
}

potential ( E | J )
{
	data = ((0.9985167973254139 0.0014832026745861965) (0.9886052579491419 0.011394742050857937));
}

