net
{
	
}

node A
{
	states = ("On" "Off");
	ID = "A";
	position = (30 30);
	label = "A: Alarm";
}

node M
{
	states = ("Present" "Absent");
	ID = "M";
	position = (50 50);
	label = "M: MaryCalls";
}

node J
{
	states = ("Present" "Absent");
	ID = "J";
	position = (10 50);
	label = "J: JohnCalls";
}

node B
{
	states = ("Present" "Absent");
	ID = "B";
	position = (10 0);
	label = "B: Burglary";
}

node E
{
	states = ("Present" "Absent");
	ID = "E";
	position = (50 0);
	label = "E: Earthquake";
}

potential ( A | J B M E )
{
	data = (((((0.9999680712270185 3.19287729815243e-05) (0.9871406903185231 0.012859309681476822)) ((0.9926782237217578 0.007321776278242186) (0.24944485566247224 0.7505551443375278))) (((0.6668245323229932 0.3331754676770069) (0.6 0.39999999999999997)) ((0.008605072463768116 0.9913949275362318) (0.0 1.0)))) ((((0.9945696554306269 0.00543034456937301) (0.3098032295067502 0.6901967704932499)) ((0.44223033273836476 0.5577696672616351) (0.0019412697544703885 0.9980587302455296))) (((0.011551219512195123 0.9884487804878049) (0.0 1.0)) ((5.075712714660349e-05 0.9999492428728534) (0.0 1.0)))));
}

potential ( M | J B )
{
	data = (((0.9898852184788504 0.010114781521149654) (0.5604053517022123 0.4395946482977878)) ((0.9709134050627851 0.02908659493721479) (0.3024228218748895 0.6975771781251104)));
}

potential ( J |  )
{
	data = (0.9478610199999998 0.05213896000000001);
}

potential ( B | J )
{
	data = ((0.9998407150449125 0.00015928495508761402) (0.983716399406509 0.016283600593490932));
}

potential ( E | J B M )
{
	data = ((((0.998559305838579 0.0014406941614210213) (0.9943625415715615 0.0056374584284384945)) ((0.9982271599101761 0.0017728400898238978) (0.9980412837125208 0.0019587162874792827))) (((0.9954484207228789 0.0045515792771210145) (0.7548413044206859 0.24515869557931433)) ((0.998013709300514 0.0019862906994859014) (0.9979738286196707 0.0020261713803292523))));
}

