net
{
	propagationenginegenerator1791944048146838126L = "edu.ucla.belief.approx.BeliefPropagationSettings@36f3f021";
	recoveryenginegenerator6944530267470113528l = "edu.ucla.util.SettingsImpl@b1cbc13";
	node_size = (130 55);
}

node A
{
	states = ("On" "Off");
	ID = "A";
	position = (310 252);
	label = "Alarm";
}

node E
{
	states = ("Present" "Absent");
	ID = "E";
	position = (442 130);
	label = "Earthquake";
}

node B
{
	states = ("Present" "Absent");
	ID = "B";
	position = (169 128);
	label = "Burglary";
}

node J
{
	states = ("Present" "Absent");
	ID = "J";
	position = (179 367);
	label = "JohnCalls";
}

node M
{
	states = ("Present" "Absent");
	ID = "M";
	position = (446 365);
	label = "MaryCalls";
}

potential ( A | J M B )
{
	data = ((((0.9999495908942374 5.0409105762716955e-05) (0.6667060631131072 0.3332939368868928)) ((0.9884882765066952 0.011511723493304735) (0.008588217568178394 0.9914117824318216))) (((0.9914528867567236 0.008547113243276349) (0.01152827543231033 0.9884717245676897)) ((0.33428964037939474 0.6657103596206053) (5.0654284508231305e-05 0.9999493457154917))));
}

potential ( E | J M B A )
{
	data = (((((0.9985777604771344 0.0014222395228655406) (0.6324804398392895 0.36751956016071047)) ((0.9984045382024463 0.0015954617975536252) (0.997872340425532 0.0021276595744680847))) (((0.9985773882832939 0.001422611716706084) (0.6324422292705029 0.367557770729497)) ((1.0 0.0) (0.9980243161094224 0.001975683890577508)))) ((((0.9985777499079952 0.0014222500920047143) (0.6324507201090149 0.3675492798909852)) ((1.0 0.0) (0.9979905437352246 0.0020094562647754136))) (((0.9985763269234625 0.0014236730765374668) (0.6324485973780132 0.3675514026219869)) ((1.0 0.0) (0.9979737259802101 0.0020262740197899425)))));
}

potential ( B | J M )
{
	data = (((0.9999098175132173 9.018248678276585e-05) (0.9931238830324536 0.006876116967546427)) ((0.9948704281662158 0.00512957183378397) (0.7158245765558274 0.2841754234441726)));
}

potential ( J |  )
{
	data = (0.9478610199999998 0.05213896000000001);
}

potential ( M | J )
{
	data = ((0.9898168087975598 0.010183191202440206) (0.9600279714056438 0.0399720285943563));
}

