net
{
	propagationenginegenerator1791944048146838126L = "edu.ucla.belief.approx.BeliefPropagationSettings@36f3f021";
	recoveryenginegenerator6944530267470113528l = "edu.ucla.util.SettingsImpl@b1cbc13";
	node_size = (130 55);
}

node A
{
	states = ("On" "Off");
	ID = "A";
	position = (310 252);
	label = "Alarm";
}

node M
{
	states = ("Present" "Absent");
	ID = "M";
	position = (446 365);
	label = "MaryCalls";
}

node J
{
	states = ("Present" "Absent");
	ID = "J";
	position = (179 367);
	label = "JohnCalls";
}

node B
{
	states = ("Present" "Absent");
	ID = "B";
	position = (169 128);
	label = "Burglary";
}

node E
{
	states = ("Present" "Absent");
	ID = "E";
	position = (442 130);
	label = "Earthquake";
}

potential ( A | J M E )
{
	data = ((((0.9999380375066178 6.196249338226161e-05) (0.9870977287859731 0.01290227121402678)) ((0.9858867606854704 0.014113239314529574) (0.2488462248477017 0.7511537751522983))) (((0.9895142640567924 0.010485735943207479) (0.30910771668794296 0.6908922833120571)) ((0.290031214330639 0.7099687856693612) (0.0019349212405297869 0.9980650787594701))));
}

potential ( M | J )
{
	data = ((0.9898168087975598 0.010183191202440206) (0.9600279714056438 0.03997202859435631));
}

potential ( J |  )
{
	data = (0.9478610199999998 0.05213896000000001);
}

potential ( B | J M E A )
{
	data = (((((0.9999398803811729 6.011961882709911e-05) (0.5152454780361757 0.4847545219638243)) ((0.9999325468799185 6.745312008154333e-05) (0.9965596330275229 0.003440366972477064))) (((0.9999397629831906 6.0237016809298066e-05) (0.5152074413110881 0.4847925586889118)) ((1.0 0.0) (0.9968051118210862 0.0031948881789137383)))) ((((0.9999399657764362 6.003422356379782e-05) (0.5152158934313276 0.4847841065686725)) ((1.0 0.0) (0.9967505575023893 0.0032494424976107035))) (((0.9999397626648996 6.0237335100295154e-05) (0.5152116673365432 0.4847883326634567)) ((1.0 0.0) (0.9967233705594846 0.003276629440515523)))));
}

potential ( E | J M )
{
	data = (((0.9985592758848332 0.0014407241151668194) (0.9943878370328163 0.005612162967183818)) ((0.9954615795549122 0.004538420445087649) (0.8239335924379827 0.17606640756201716)));
}

