net
{
	propagationenginegenerator1791944048146838126L = "edu.ucla.belief.approx.BeliefPropagationSettings@36f3f021";
	recoveryenginegenerator6944530267470113528l = "edu.ucla.util.SettingsImpl@b1cbc13";
	node_size = (130 55);
}

node A
{
	states = ("On" "Off");
	ID = "A";
	position = (310 252);
	label = "Alarm";
}

node M
{
	states = ("Present" "Absent");
	ID = "M";
	position = (446 365);
	label = "MaryCalls";
}

node J
{
	states = ("Present" "Absent");
	ID = "J";
	position = (179 367);
	label = "JohnCalls";
}

node B
{
	states = ("Present" "Absent");
	ID = "B";
	position = (169 128);
	label = "Burglary";
}

node E
{
	states = ("Present" "Absent");
	ID = "E";
	position = (442 130);
	label = "Earthquake";
}

potential ( A | J M )
{
	data = (((0.9999195381641979 8.046183580228098e-05) (0.9817503690849284 0.018249630915071615)) ((0.9864262930712421 0.013573706928757763) (0.23930713497432943 0.7606928650256705)));
}

potential ( M | J )
{
	data = ((0.9898168087975598 0.010183191202440206) (0.9600279714056438 0.03997202859435631));
}

potential ( J |  )
{
	data = (0.9478610199999998 0.05213896000000001);
}

potential ( B | J M A E )
{
	data = (((((0.9999398803811729 6.011961882709911e-05) (0.9999325468799185 6.745312008154333e-05)) ((0.5152454780361757 0.4847545219638243) (0.9965596330275229 0.003440366972477064))) (((0.9999397629831906 6.0237016809298066e-05) (1.0 0.0)) ((0.5152074413110881 0.4847925586889118) (0.9968051118210862 0.0031948881789137383)))) ((((0.9999399657764362 6.003422356379782e-05) (1.0 0.0)) ((0.5152158934313276 0.4847841065686725) (0.9967505575023893 0.0032494424976107035))) (((0.9999397626648996 6.0237335100295154e-05) (1.0 0.0)) ((0.5152116673365432 0.4847883326634567) (0.9967233705594846 0.003276629440515523)))));
}

potential ( E | J M A )
{
	data = ((((0.9985777500612706 0.001422249938729388) (0.7689760233143463 0.23102397668565372)) ((0.9985774738552781 0.0014225261447219847) (0.7690036900369005 0.23099630996309967))) (((0.9985778351702456 0.001422164829754394) (0.7689975420573127 0.23100245794268728)) ((0.9985764125596504 0.001423587440349681) (0.7689925316647324 0.2310074683352677))));
}

