net
{
	propagationenginegenerator1791944048146838126L = "edu.ucla.belief.approx.BeliefPropagationSettings@36f3f021";
	recoveryenginegenerator6944530267470113528l = "edu.ucla.util.SettingsImpl@b1cbc13";
	node_size = (130 55);
}

node A
{
	states = ("On" "Off");
	ID = "A";
	position = (310 252);
	label = "Alarm";
}

node E
{
	states = ("Present" "Absent");
	ID = "E";
	position = (442 130);
	label = "Earthquake";
}

node B
{
	states = ("Present" "Absent");
	ID = "B";
	position = (169 128);
	label = "Burglary";
}

node J
{
	states = ("Present" "Absent");
	ID = "J";
	position = (179 367);
	label = "JohnCalls";
}

node M
{
	states = ("Present" "Absent");
	ID = "M";
	position = (446 365);
	label = "MaryCalls";
}

potential ( A | J E B M )
{
	data = (((((0.9999680712270185 3.19287729815243e-05) (0.9926782237217578 0.007321776278242186)) ((0.6668245323229932 0.3331754676770069) (0.008605072463768116 0.9913949275362318))) (((0.9871406903185231 0.012859309681476822) (0.24944485566247224 0.7505551443375278)) ((0.6 0.39999999999999997) (0.0 1.0)))) ((((0.9945696554306269 0.00543034456937301) (0.44223033273836476 0.5577696672616351)) ((0.011551219512195123 0.9884487804878049) (5.075712714660349e-05 0.9999492428728534))) (((0.3098032295067502 0.6901967704932499) (0.0019412697544703885 0.9980587302455296)) ((0.0 1.0) (0.0 1.0)))));
}

potential ( E | J )
{
	data = ((0.9985167973254139 0.0014832026745861965) (0.9886052579491419 0.011394742050857937));
}

potential ( B | J E )
{
	data = (((0.9998407742828597 0.00015922571714042659) (0.9998008350700989 0.00019916492990105768)) ((0.98356188833608 0.01643811166391987) (0.997121745131373 0.0028782548686270212)));
}

potential ( J |  )
{
	data = (0.9478610199999998 0.05213896000000001);
}

potential ( M | J E B )
{
	data = ((((0.9899273008808106 0.01007269911918939) (0.5604512276045123 0.43954877239548773)) ((0.9615535113368764 0.03844648866312367) (0.5357142857142858 0.46428571428571436))) (((0.9777876840202337 0.022212315979766282) (0.30243125221291156 0.6975687477870884)) ((0.38261309925725856 0.6173869007427414) (0.2982456140350877 0.7017543859649122))));
}

