net
{
	propagationenginegenerator1791944048146838126L = "edu.ucla.belief.approx.BeliefPropagationSettings@36f3f021";
	recoveryenginegenerator6944530267470113528l = "edu.ucla.util.SettingsImpl@b1cbc13";
	node_size = (130 55);
}

node A
{
	states = ("On" "Off");
	ID = "A";
	position = (310 252);
	label = "Alarm";
}

node E
{
	states = ("Present" "Absent");
	ID = "E";
	position = (442 130);
	label = "Earthquake";
}

node B
{
	states = ("Present" "Absent");
	ID = "B";
	position = (169 128);
	label = "Burglary";
}

node J
{
	states = ("Present" "Absent");
	ID = "J";
	position = (179 367);
	label = "JohnCalls";
}

node M
{
	states = ("Present" "Absent");
	ID = "M";
	position = (446 365);
	label = "MaryCalls";
}

potential ( A | M )
{
	data = ((0.9992361147601881 0.000763885239811972) (0.8499098953252077 0.15009010467479247));
}

potential ( E | M A B )
{
	data = ((((0.9985777599486775 0.0014222400513225315) (0.9984840828701365 0.0015159171298635675)) ((0.6324536919563563 0.36754630804364374) (0.9979787234042552 0.0020212765957446804))) (((0.9985773352155153 0.0014226647844848331) (1.0 0.0)) ((0.6324479605614913 0.3675520394385087) (0.9979787848393665 0.0020212151606334152))));
}

potential ( B | M A )
{
	data = (((0.999939879011295 6.012098870500089e-05) (0.6264504848195837 0.3735495151804165)) ((0.9999398486592266 6.0151340773385856e-05) (0.626445492787438 0.37355450721256195)));
}

potential ( J | M A B E )
{
	data = (((((0.9499999974646186 0.05000000253538137) (0.9499996439735401 0.05000035602645989)) ((0.9500674763832658 0.04993252361673414) (1.0 0.0))) (((0.09999999999999999 0.8999999999999999) (0.09998849384420665 0.9000115061557934)) ((0.09998934015563374 0.9000106598443662) (0.10526315789473685 0.8947368421052633)))) ((((0.950000251002756 0.049999748997243985) (0.9499647639182522 0.05003523608174771)) ((0.95 0.04999999999999999) (-1 -1))) (((0.09999999999999999 0.9) (0.10000246554402228 0.8999975344559777)) ((0.10000152278853035 0.8999984772114696) (0.09774436090225565 0.9022556390977443)))));
}

potential ( M |  )
{
	data = (0.98826363 0.011736349999999998);
}

