net
{
	
}

node A
{
	states = ("On" "Off");
	ID = "A";
	position = (30 30);
	label = "A: Alarm";
}

node M
{
	states = ("Present" "Absent");
	ID = "M";
	position = (50 50);
	label = "M: MaryCalls";
}

node J
{
	states = ("Present" "Absent");
	ID = "J";
	position = (10 50);
	label = "J: JohnCalls";
}

node B
{
	states = ("Present" "Absent");
	ID = "B";
	position = (10 0);
	label = "B: Burglary";
}

node E
{
	states = ("Present" "Absent");
	ID = "E";
	position = (50 0);
	label = "E: Earthquake";
}

potential ( A | M B E )
{
	data = ((((0.9996967589554578 0.00030324104454221626) (0.8898625658182371 0.11013743418176289)) ((0.17398960993220042 0.8260103900677996) (0.13636363636363635 0.8636363636363635))) (((0.9345183642257657 0.06548163577423426) (0.03380342083948735 0.9661965791605126)) ((0.0009128390816838839 0.9990871609183161) (0.0 1.0))));
}

potential ( M |  )
{
	data = (0.98826363 0.011736349999999998);
}

potential ( J | M B E A )
{
	data = (((((0.9499999974646186 0.05000000253538137) (0.09999999999999999 0.8999999999999999)) ((0.9499996439735401 0.05000035602645989) (0.09998849384420665 0.9000115061557934))) (((0.9500674763832658 0.04993252361673414) (0.09998934015563374 0.9000106598443662)) ((1.0 0.0) (0.10526315789473685 0.8947368421052633)))) ((((0.950000251002756 0.049999748997243985) (0.09999999999999999 0.9)) ((0.9499647639182522 0.05003523608174771) (0.10000246554402228 0.8999975344559777))) (((0.95 0.04999999999999999) (0.10000152278853035 0.8999984772114696)) ((-1 -1) (0.09774436090225565 0.9022556390977443)))));
}

potential ( B | M )
{
	data = ((0.9996545759758457 0.0003454240241543646) (0.9438820416909858 0.05611795830901432));
}

potential ( E | M B )
{
	data = (((0.9984024957591299 0.0015975042408701266) (0.9980666139379558 0.0019333860620441164)) ((0.9621059549203673 0.037894045079632746) (0.9979806261577236 0.0020193738422762744)));
}

