net
{
	propagationenginegenerator1791944048146838126L = "edu.ucla.belief.approx.BeliefPropagationSettings@36f3f021";
	recoveryenginegenerator6944530267470113528l = "edu.ucla.util.SettingsImpl@b1cbc13";
	node_size = (130 55);
}

node A
{
	states = ("On" "Off");
	ID = "A";
	position = (310 252);
	label = "Alarm";
}

node E
{
	states = ("Present" "Absent");
	ID = "E";
	position = (442 130);
	label = "Earthquake";
}

node B
{
	states = ("Present" "Absent");
	ID = "B";
	position = (169 128);
	label = "Burglary";
}

node J
{
	states = ("Present" "Absent");
	ID = "J";
	position = (179 367);
	label = "JohnCalls";
}

node M
{
	states = ("Present" "Absent");
	ID = "M";
	position = (446 365);
	label = "MaryCalls";
}

potential ( A |  )
{
	data = (0.0025164300000000005 0.99748355);
}

potential ( E | A J )
{
	data = (((0.23100596523297967 0.7689940347670202) (0.23100460975997456 0.7689953902400253)) ((0.0014221790558118562 0.9985778209441882) (0.0014222527007911212 0.9985777472992088)));
}

potential ( B | A J E )
{
	data = ((((0.003268473565503268 0.9967315264344967) (0.48478706484230116 0.515212935157699)) ((0.0032685360399105448 0.9967314639600894) (0.4847811482610718 0.5152188517389282))) (((0.0 1.0) (6.003625466937493e-05 0.9999399637453306)) ((6.677845875317197e-05 0.9999332215412468) (6.012079280736774e-05 0.9999398792071926))));
}

potential ( J | A )
{
	data = ((0.9000011921650909 0.09999880783490897) (0.04999999248107901 0.950000007518921));
}

potential ( M | J E B )
{
	data = ((((0.7017543859649122 0.2982456140350877) (0.7000019176558575 0.29999808234414255)) ((0.7000035531972854 0.2999964468027146) (0.7 0.3))) (((0.6842105263157895 0.3157894736842105) (0.7000345184673801 0.29996548153262)) ((0.7000319795330988 0.2999680204669012) (0.7 0.3))));
}

