net
{
	propagationenginegenerator1791944048146838126L = "edu.ucla.belief.approx.BeliefPropagationSettings@36f3f021";
	recoveryenginegenerator6944530267470113528l = "edu.ucla.util.SettingsImpl@b1cbc13";
	node_size = (130 55);
}

node A
{
	states = ("On" "Off");
	ID = "A";
	position = (310 252);
	label = "Alarm";
}

node E
{
	states = ("Present" "Absent");
	ID = "E";
	position = (442 130);
	label = "Earthquake";
}

node B
{
	states = ("Present" "Absent");
	ID = "B";
	position = (169 128);
	label = "Burglary";
}

node J
{
	states = ("Present" "Absent");
	ID = "J";
	position = (179 367);
	label = "JohnCalls";
}

node M
{
	states = ("Present" "Absent");
	ID = "M";
	position = (446 365);
	label = "MaryCalls";
}

potential ( A | B J )
{
	data = (((0.9964782511395626 0.0035217488604374503) (0.6225990197377136 0.3774009802622864)) ((0.0276617543982788 0.9723382456017212) (0.00016633779673791362 0.9998336622032621)));
}

potential ( E | B J A )
{
	data = ((((0.0020212288125576227 0.9979787711874424) (0.0 1.0)) ((0.002021276595744681 0.9979787234042553) (0.0015795015795015794 0.9984204984204985))) (((0.36755076580418256 0.6324492341958176) (0.001422264321798682 0.9985777356782013)) ((0.36754630804364374 0.6324536919563563) (0.001422243244806303 0.9985777567551937))));
}

potential ( B |  )
{
	data = (0.00099999 0.9989999900000001);
}

potential ( J | B )
{
	data = ((0.8490184901849018 0.15098150981509814) (0.05134129180521813 0.9486587081947818));
}

potential ( M | B J E )
{
	data = ((((0.7017543859649122 0.2982456140350877) (0.7000035531972854 0.2999964468027146)) ((0.6842105263157895 0.3157894736842105) (0.7000319795330988 0.2999680204669012))) (((0.7000019176558575 0.29999808234414255) (0.7 0.3)) ((0.7000345184673801 0.29996548153262) (0.7 0.3))));
}

