net
{
	propagationenginegenerator1791944048146838126L = "edu.ucla.belief.approx.BeliefPropagationSettings@36f3f021";
	recoveryenginegenerator6944530267470113528l = "edu.ucla.util.SettingsImpl@b1cbc13";
	node_size = (130 55);
}

node A
{
	states = ("On" "Off");
	ID = "A";
	position = (310 252);
	label = "Alarm";
}

node E
{
	states = ("Present" "Absent");
	ID = "E";
	position = (442 130);
	label = "Earthquake";
}

node B
{
	states = ("Present" "Absent");
	ID = "B";
	position = (169 128);
	label = "Burglary";
}

node J
{
	states = ("Present" "Absent");
	ID = "J";
	position = (179 367);
	label = "JohnCalls";
}

node M
{
	states = ("Present" "Absent");
	ID = "M";
	position = (446 365);
	label = "MaryCalls";
}

potential ( A | E B )
{
	data = (((0.9547738693467337 0.04522613065326633) (0.28999644642866085 0.7100035535713393)) ((0.94 0.060000000000000005) (0.00099999799398597 0.999000002006014)));
}

potential ( E |  )
{
	data = (0.00199998 0.998);
}

potential ( B | E )
{
	data = ((0.0009950099500995009 0.9990049900499003) (0.001 0.9990000000000001));
}

potential ( J | E B M )
{
	data = ((((0.9022556390977443 0.09774436090225565) (0.8947368421052633 0.10526315789473685)) ((0.8999975344559777 0.10000246554402228) (0.9000115061557934 0.09998849384420665))) (((0.8999984772114696 0.10000152278853035) (0.9000106598443662 0.09998934015563374)) ((0.9 0.09999999999999999) (0.8999999999999999 0.09999999999999999))));
}

potential ( M | E B A )
{
	data = ((((0.7 0.3) (0.0 1.0)) ((0.7000051776807441 0.2999948223192558) (0.01000296070718606 0.9899970392928139))) (((0.700006395770264 0.2999936042297361) (0.010020040080160322 0.9899799599198397)) ((0.7 0.3) (0.01 0.99))));
}

