net
{
	propagationenginegenerator1791944048146838126L = "edu.ucla.belief.approx.BeliefPropagationSettings@ec52e37";
	recoveryenginegenerator6944530267470113528l = "edu.ucla.util.SettingsImpl@447fdf07";
	node_size = (130.0 55.0);
}

node S
{
	states = ("On" "Off");
	ID = "S";
	position = (80 60);
	label = "SPRINKLER";
}

node R
{
	states = ("Yes" "No");
	ID = "R";
	position = (290 60);
	label = "RAIN";
}

node G
{
	states = ("Yes" "No");
	ID = "G";
	position = (195 160);
	label = "GRASS WET";
}

potential ( S | G R )
{
	data = (((0.0 1.0) (0.18518518518518515 0.8148148148148148)) ((0.5555555555555555 0.4444444444444444) (0.7142857142857143 0.28571428571428575)));
}

potential ( R | G )
{
	data = ((0.1413427561837456 0.8586572438162544) (0.7627118644067797 0.23728813559322035));
}

potential ( G |  )
{
	data = (0.9056000000000001 0.0944);
}

