net
{
    node_size = (70 20);
}

node P
{
	states = ("true" "false");
	ID = "P";
	position = (100 80);
	label = "Psych_report";
}

node C
{
	states = ("true" "false");
	ID = "C";
	position = (200 80);
	label = "Crime";
}

node M
{
	states = ("true" "false");
	ID = "M";
	position = (150 150);
	label = "Motive";
}

node D
{
	states = ("true" "false");
	ID = "D";
	position = (250 10);
	label = "DNA_match";
}

node T
{
	states = ("true" "false");
	ID = "T";
	position = (300 80);
	label = "Twin";
}

potential ( P | C )
{
	data = ((Decimal('0.46231884057971014492753623188405797101449275362319') Decimal('0.53768115942028985507246376811594202898550724637681')) (Decimal('0.11294665976178146038322112894873122734334541688244') Decimal('0.88705334023821853961677887105126877265665458311756')));
}

potential ( C | T D )
{
	data = ((Decimal('0.0345') Decimal('0.9655')) (Decimal('-1') Decimal('-1')) (Decimal('0.97277636012462815976089439032298994797761204550902') Decimal('0.027223639875371840239105609677010052022387954490984')) (Decimal('0E+2') Decimal('1')));
}

potential ( M | C P )
{
	data = ((Decimal('0.94043887147335423197492163009404388714733542319749') Decimal('0.059561128526645768025078369905956112852664576802508')) (Decimal('0.53908355795148247978436657681940700808625336927224') Decimal('0.46091644204851752021563342318059299191374663072776')) (Decimal('0.13755158184319119669876203576341127922971114167813') Decimal('0.86244841815680880330123796423658872077028885832187')) (Decimal('0.011676104851421565765660575631969175083192247066379') Decimal('0.98832389514857843423433942436803082491680775293362')));
}

potential ( D | T )
{
	data = ((Decimal('1') Decimal('0')) (Decimal('0.0354655') Decimal('0.9645345')));
}

potential ( T |  )
{
	data = ((Decimal('0.01000000') Decimal('0.9900000000')));
}

