net
{
    node_size = (70 20);
}

node P
{
	states = ("true" "false");
	ID = "P";
	position = (100 80);
	label = "Psych_report";
}

node C
{
	states = ("true" "false");
	ID = "C";
	position = (200 80);
	label = "Crime";
}

node M
{
	states = ("true" "false");
	ID = "M";
	position = (150 150);
	label = "Motive";
}

node D
{
	states = ("true" "false");
	ID = "D";
	position = (250 10);
	label = "DNA_match";
}

node T
{
	states = ("true" "false");
	ID = "T";
	position = (300 80);
	label = "Twin";
}

potential ( P | D )
{
	data = ((Decimal('0.38014050723279512941954423598139205771915822015748') Decimal('0.61985949276720487058045576401860794228084177984252')) (Decimal('0.11294665976178146038322112894873122734334541688244') Decimal('0.88705334023821853961677887105126877265665458311756')));
}

potential ( C | D P T )
{
	data = ((Decimal('0.1276') Decimal('0.8724')) (Decimal('0.99320943642369878666546277644069854692525398451341') Decimal('0.0067905635763012133345372235593014530747460154865948')) (Decimal('0.0212') Decimal('0.9788')) (Decimal('0.95586776561400977510054646779807744332425559543348') Decimal('0.044132234385990224899453532201922556675744404566523')) (Decimal('-1') Decimal('-1')) (Decimal('0E+2') Decimal('1')) (Decimal('-1') Decimal('-1')) (Decimal('0E+2') Decimal('1')));
}

potential ( M | P C )
{
	data = ((Decimal('0.94043887147335423197492163009404388714733542319749') Decimal('0.059561128526645768025078369905956112852664576802508')) (Decimal('0.13755158184319119669876203576341127922971114167813') Decimal('0.86244841815680880330123796423658872077028885832187')) (Decimal('0.53908355795148247978436657681940700808625336927224') Decimal('0.46091644204851752021563342318059299191374663072776')) (Decimal('0.011676104851421565765660575631969175083192247066379') Decimal('0.98832389514857843423433942436803082491680775293362')));
}

potential ( D |  )
{
	data = ((Decimal('0.0451108450') Decimal('0.9548891550')));
}

potential ( T | D P )
{
	data = ((Decimal('0.072892844981206620921255346580840104033834642697789') Decimal('0.92710715501879337907874465341915989596616535730221')) (Decimal('0.31292036940124439669140531661721064535069799391758') Decimal('0.68707963059875560330859468338278935464930200608242')) (Decimal('0E+2') Decimal('1')) (Decimal('0E+2') Decimal('1')));
}

