net
{
	propagationenginegenerator1791944048146838126L = "edu.ucla.belief.approx.BeliefPropagationSettings@7373d1cb";
	recoveryenginegenerator6944530267470113528l = "edu.ucla.util.SettingsImpl@2db706c6";
	node_size = (130 55);
}

node BW
{
	states = ("T" "F");
	ID = "BW";
	position = (145 158);
	label = "Broken window";
}

node TB
{
	states = ("T" "F");
	ID = "TB";
	position = (52 58);
	label = "Tree branch";
}

node SF
{
	states = ("T" "F");
	ID = "SF";
	position = (330 157);
	label = "Stone found";
}

node ST
{
	states = ("T" "F");
	ID = "ST";
	position = (241 59);
	label = "Stone thrown";
}

potential ( BW | SF )
{
	data = ((Decimal('0.1010310501808459346951978814437307506957843682664576912162751582647762055899691862198446286116973296') Decimal('0.8989689498191540653048021185562692493042156317335423087837248417352237944100308137801553713883026704')) (Decimal('0.002048941479459889173570008572207728145587429949681077757326046205009667705642241601346878225682718888') Decimal('0.9979510585205401108264299914277922718544125700503189222426739537949903322943577583986531217743172811')));
}

potential ( TB | BW ST )
{
	data = ((Decimal('0.01010053903203097892318656589396236805904220413966389085710134153353970563354589959804935111360615460') Decimal('0.9898994609679690210768134341060376319409577958603361091428986584664602943664541004019506488863938454')) (Decimal('0.4748032793895906621879660145656399392677744437001904308567988545324843935580452345785447430748150971') Decimal('0.5251967206104093378120339854343600607322255562998095691432011454675156064419547654214552569251849029')) (Decimal('0.00001147905685318887620196273390059088039699819542319121432674777527357374631067698649055108478628389534') Decimal('0.9999885209431468111237980372660994091196030018045768087856732522247264262536893230135094489152137161')) (Decimal('0.0001282255556052696059447836012866162459432444159800306562900934157843837954938432001580543796552940025') Decimal('0.9998717744443947303940552163987133837540567555840199693437099065842156162045061567998419456203447060')));
}

potential ( SF |  )
{
	data = ((Decimal('0.009797621664000000000000') Decimal('0.990202378336000000000000')));
}

potential ( ST | SF BW )
{
	data = ((Decimal('0.9999771774711488791428766371311064378830073393998933024807749429524988141057083196621339092841126914') Decimal('0.00002282252885112085712336286889356211699266060010669751922505704750118589429168033786609071588730858220')) (Decimal('0.9986554324880416441996215819559981712343925699094059908818599304556485856051366488997502388398127313') Decimal('0.001344567511958355800378418044001828765607430090594009118140069544351414394863351100249761160187268691')) (Decimal('0.07210396280609280114813960993719835723755001812849059677202466066769327542960636720734308009249880582') Decimal('0.9278960371939071988518603900628016427624499818715094032279753393323067245703936327926569199075011942')) (Decimal('0.001315512109740428175894749003385750205318682261169874213381737555016932604590594423952002343461873614') Decimal('0.9986844878902595718241052509966142497946813177388301257866182624449830673954094055760479976565381264')));
}

