net
{
    node_size = (70 20);
}

node P
{
	states = ("true" "false");
	ID = "P";
	position = (100 80);
	label = "Psych_report";
}

node C
{
	states = ("true" "false");
	ID = "C";
	position = (200 80);
	label = "Crime";
}

node M
{
	states = ("true" "false");
	ID = "M";
	position = (150 150);
	label = "Motive";
}

node D
{
	states = ("true" "false");
	ID = "D";
	position = (250 10);
	label = "DNA_match";
}

node T
{
	states = ("true" "false");
	ID = "T";
	position = (300 80);
	label = "Twin";
}

potential ( P |  )
{
	data = ((Decimal('0.149600069040000000000000000000') Decimal('0.850399930960000000000000000000')));
}

potential ( C | P )
{
	data = ((Decimal('0.1183866821638055842972089580260263227482799295371234275200438771134406690378088878988929108317743060') Decimal('0.8816133178361944157027910419739736772517200704628765724799561228865593309621911121011070891682256940')) (Decimal('0.02227215320384243320000186750720711747128338454539613007308186764531060939821786553734882020056743491') Decimal('0.9777278467961575667999981324927928825287166154546038699269181323546893906017821344626511797994325651')));
}

potential ( M | P C )
{
	data = ((Decimal('0.9321221338546023635883934858630243342194595867726253672163256582145204826651440080224294501716709255') Decimal('0.06787786614539763641160651413697566578054041322737463278367434178547951733485599197757054982832907450')) (Decimal('0.1182029305636817808287876971153719105464814035570118739343291801213936114277536863203163402002364666') Decimal('0.8817970694363182191712123028846280894535185964429881260656708198786063885722463136796836597997635334')) (Decimal('0.5516100956212674893423100257862536279868816883470451812009928931975133577780519163027143200225311485') Decimal('0.4483899043787325106576899742137463720131183116529548187990071068024866422219480836972856799774688515')) (Decimal('0.01186607646989676565449893182495306979655795292118954858809898274195783906788412341998851074953764791') Decimal('0.9881339235301032343455010681750469302034420470788104514119010172580421609321158765800114892504623521')));
}

potential ( D | C )
{
	data = ((Decimal('0.990325867064') Decimal('0.009674132936')) (Decimal('0.011917183852') Decimal('0.988082816148')));
}

potential ( T | C D )
{
	data = ((Decimal('0.01222762913373182822805249718212665869944796043910194111076114683462194833550096021729778623069424650') Decimal('0.9877723708662681717719475028178733413005520395608980588892388531653780516644990397827022137693057535')) (Decimal('0.002342595057347886748121485602872637639346989432356090584116405819875535355161466431186531299077447368') Decimal('0.9976574049426521132518785143971273623606530105676439094158835941801244646448385335688134687009225526')) (Decimal('0.9999171055836455681459264273839450035196117237849591917162611883819747920760700873006888976877387190') Decimal('0.00008289441635443185407357261605499648038827621504080828373881161802520792392991269931110231226128103876')) (Decimal('0.0002184068101106170761536942594994519665789644791740951166205019020795982737667805524132467842076503392') Decimal('0.9997815931898893829238463057405005480334210355208259048833794980979204017262332194475867532157923497')));
}

