net
{
	propagationenginegenerator1791944048146838126L = "edu.ucla.belief.approx.BeliefPropagationSettings@36f3f021";
	recoveryenginegenerator6944530267470113528l = "edu.ucla.util.SettingsImpl@b1cbc13";
	node_size = (130 55);
}

node A
{
	states = ("On" "Off");
	ID = "A";
	position = (310 252);
	label = "Alarm";
}

node E
{
	states = ("Present" "Absent");
	ID = "E";
	position = (442 130);
	label = "Earthquake";
}

node B
{
	states = ("Present" "Absent");
	ID = "B";
	position = (169 128);
	label = "Burglary";
}

node J
{
	states = ("Present" "Absent");
	ID = "J";
	position = (179 367);
	label = "JohnCalls";
}

node M
{
	states = ("Present" "Absent");
	ID = "M";
	position = (446 365);
	label = "MaryCalls";
}

potential ( A | B M )
{
	data = ((Decimal('0.9990892993739274822361754339189370158961139289823565798347984812951079980407334313371508462167054501') Decimal('0.0009107006260725177638245660810629841038860710176434201652015187048920019592665686628491537832945498561')) (Decimal('0.8260615103949720287463289377250750030317569954497281963945818548025667118354520481495737086033354600') Decimal('0.1739384896050279712536710622749249969682430045502718036054181451974332881645479518504262913966645400')) (Decimal('0.09961384529643370529957200134910657761601324577367113903914032331663783883226529062605398951376251035') Decimal('0.9003861547035662947004279986508934223839867542263288609608596766833621611677347093739460104862374897')) (Decimal('0.0004787083102852573676030237619520086728112427649973580033749845966955293194278580205757204605574385356') Decimal('0.9995212916897147426323969762380479913271887572350026419966250154033044706805721419794242795394425615')));
}

potential ( E | B A )
{
	data = ((Decimal('0.002021233590774664368843216101785068402799940426799429799365970936788578966404970107018999595753281845') Decimal('0.9979787664092253356311567838982149315972000595732005702006340290632114210335950298929810004042467182')) (Decimal('0.001667222407469156385461820606868956318772924308102700900300100033344448149383127709236412137379126375') Decimal('0.9983327775925308436145381793931310436812270756918972990996998999666555518506168722907635878626208736')) (Decimal('0.3675538656527249683143219264892268694550063371356147021546261089987325728770595690747782002534854246') Decimal('0.6324461343472750316856780735107731305449936628643852978453738910012674271229404309252217997465145754')) (Decimal('0.001422244301507779275697049944812914779522085851473625380850982850938781397044536278247073882586721847') Decimal('0.9985777556984922207243029500551870852204779141485263746191490171490612186029554637217529261174132782')));
}

potential ( B |  )
{
	data = ((Decimal('0.001000000000') Decimal('0.9990000000000')));
}

potential ( J | A )
{
	data = ((Decimal('0.9') Decimal('0.1')) (Decimal('0.05') Decimal('0.95')));
}

potential ( M | B )
{
	data = ((Decimal('0.6586138') Decimal('0.3413862')) (Decimal('0.01108882') Decimal('0.98891118')));
}

