net
{
	propagationenginegenerator1791944048146838126L = "edu.ucla.belief.approx.BeliefPropagationSettings@7373d1cb";
	recoveryenginegenerator6944530267470113528l = "edu.ucla.util.SettingsImpl@2db706c6";
	node_size = (130 55);
}

node BW
{
	states = ("T" "F");
	ID = "BW";
	position = (145 158);
	label = "Broken window";
}

node TB
{
	states = ("T" "F");
	ID = "TB";
	position = (52 58);
	label = "Tree branch";
}

node SF
{
	states = ("T" "F");
	ID = "SF";
	position = (330 157);
	label = "Stone found";
}

node ST
{
	states = ("T" "F");
	ID = "ST";
	position = (241 59);
	label = "Stone thrown";
}

potential ( BW | TB ST )
{
	data = (((0.9899999999999999 0.009999999999999998) (0.1 0.9)) ((0.9 0.1) (0.001 0.9989999999999999)));
}

potential ( TB |  )
{
	data = (0.001 0.999);
}

potential ( SF | TB ST BW )
{
	data = ((((0.8999999999999999 0.1) (0.9 0.1)) ((0.0010101010101010099 0.998989898989899) (0.0009988776655443321 0.9990011223344556))) (((0.9 0.09999999999999999) (0.8999999999999999 0.09999999999999999)) ((0.001001001001001001 0.998998998998999) (0.000999998997996996 0.999000001002003))));
}

potential ( ST |  )
{
	data = (0.01 0.99);
}

