net
{
	propagationenginegenerator1791944048146838126L = "edu.ucla.belief.approx.BeliefPropagationSettings@7373d1cb";
	recoveryenginegenerator6944530267470113528l = "edu.ucla.util.SettingsImpl@2db706c6";
	node_size = (130 55);
}

node BW
{
	states = ("T" "F");
	ID = "BW";
	position = (145 158);
	label = "Broken window";
}

node TB
{
	states = ("T" "F");
	ID = "TB";
	position = (52 58);
	label = "Tree branch";
}

node SF
{
	states = ("T" "F");
	ID = "SF";
	position = (330 157);
	label = "Stone found";
}

node ST
{
	states = ("T" "F");
	ID = "ST";
	position = (241 59);
	label = "Stone thrown";
}

potential ( BW | SF )
{
	data = ((0.8110010010010011 0.18899899899899905) (0.0020070605347420733 0.9979929394652579));
}

potential ( TB | SF BW ST )
{
	data = ((((0.0010998900109988998 0.998900109989001) (0.09174311926605502 0.9082568807339448)) ((0.00010009008107296567 0.9998999099189271) (0.0008999807869270206 0.999100019213073))) (((0.0010998900109989002 0.9989001099890011) (0.09099105729952527 0.9090089427004747)) ((0.00010009008107296567 0.9998999099189271) (0.0009009911986265165 0.9990990088013735))));
}

potential ( SF |  )
{
	data = (0.009989999999999999 0.9900100000000001);
}

potential ( ST | SF BW )
{
	data = (((0.9998654636566733 0.00013453634332687394) (0.4762406652190032 0.5237593347809967)) ((0.4529871515493128 0.5470128484506873) (0.00010112112877049551 0.9998988788712295)));
}

