net
{
    node_size = (70 20);
}

node P
{
	states = ("true" "false");
	ID = "P";
	position = (100 80);
	label = "Psych_report";
}

node C
{
	states = ("true" "false");
	ID = "C";
	position = (200 80);
	label = "Crime";
}

node M
{
	states = ("true" "false");
	ID = "M";
	position = (150 150);
	label = "Motive";
}

node D
{
	states = ("true" "false");
	ID = "D";
	position = (250 10);
	label = "DNA_match";
}

node T
{
	states = ("true" "false");
	ID = "T";
	position = (300 80);
	label = "Twin";
}

potential ( P | M )
{
	data = ((Decimal('0.612421') Decimal('0.387579')) (Decimal('0.124001') Decimal('0.875999')));
}

potential ( C | D T )
{
	data = ((Decimal('0.037222830349661380845325612463528667513494149078091') Decimal('0.96277716965033861915467438753647133248650585092191')) (Decimal('0.99997345690712912262696240800606119876649818821670') Decimal('0.000026543092870877373037591993938801233501811783303737')) (Decimal('0.0039794122511449929325646084604720129333913856075414') Decimal('0.99602058774885500706743539153952798706660861439246')) (Decimal('0.00037156471534745936634856201767999359145723429173248') Decimal('0.99962843528465254063365143798232000640854276570827')));
}

potential ( M | C )
{
	data = ((Decimal('0.73548331470123270751251361884538348873293052344863') Decimal('0.26451668529876729248748638115461651126706947655137')) (Decimal('0.026424355699153474504736414849618941229846643889091') Decimal('0.97357564430084652549526358515038105877015335611091')));
}

potential ( D |  )
{
	data = ((Decimal('0.047776736174641938470864000000') Decimal('0.952223263825358061529136000000')));
}

potential ( T | D )
{
	data = ((Decimal('0.24956235492393413192584717229781156341358632096183') Decimal('0.75043764507606586807415282770218843658641367903817')) (Decimal('0.00021919776338832085772965754470351607166505979452631') Decimal('0.99978080223661167914227034245529648392833494020547')));
}

