net
{
    node_size = (70 20);
}

node P
{
	states = ("true" "false");
	ID = "P";
	position = (100 80);
	label = "Psych_report";
}

node C
{
	states = ("true" "false");
	ID = "C";
	position = (200 80);
	label = "Crime";
}

node M
{
	states = ("true" "false");
	ID = "M";
	position = (150 150);
	label = "Motive";
}

node D
{
	states = ("true" "false");
	ID = "D";
	position = (250 10);
	label = "DNA_match";
}

node T
{
	states = ("true" "false");
	ID = "T";
	position = (300 80);
	label = "Twin";
}

potential ( P |  )
{
	data = ((Decimal('0.149600069040000000000000000000') Decimal('0.850399930960000000000000000000')));
}

potential ( C | M T D )
{
	data = ((Decimal('0.51832728641694439654262408638911576542724907083201') Decimal('0.48167271358305560345737591361088423457275092916799')) (Decimal('0.10007494880581569400327554780960490029525529559896') Decimal('0.89992505119418430599672445219039509970474470440104')) (Decimal('0.99999904633856152386650995806050634128934555958102') Decimal('9.5366143847613349004193949365871065444041897683511E-7')) (Decimal('0.010239865200593618672978725471950211391837141344421') Decimal('0.98976013479940638132702127452804978860816285865558')) (Decimal('0.010395103463740702113715429329803572275700758190944') Decimal('0.98960489653625929788628457067019642772429924180906')) (Decimal('0.0010843333441618160034482778811305032133881659130462') Decimal('0.99891566665583818399655172211886949678661183408695')) (Decimal('0.99990231289121675798064342625463083783064214466088') Decimal('0.000097687108783242019356573745369162169357855339115397')) (Decimal('0.00010098000270959472287512758051459615963916305605275') Decimal('0.99989901999729040527712487241948540384036083694395')));
}

potential ( M | P )
{
	data = ((Decimal('0.21456012459070186001299187635722497524858094143029') Decimal('0.78543987540929813998700812364277502475141905856971')) (Decimal('0.023887337955293758741158400152370586217856623331163') Decimal('0.97611266204470624125884159984762941378214337666884')));
}

potential ( D | M T )
{
	data = ((Decimal('0.99039984704') Decimal('0.00960015296')) (Decimal('0.509287657448') Decimal('0.490712342552')) (Decimal('0.98237487752') Decimal('0.01762512248')) (Decimal('0.010132032899') Decimal('0.989867967101')));
}

potential ( T |  )
{
	data = ((Decimal('0.012132') Decimal('0.987868')));
}

