net
{
    node_size = (70 20);
}

node P
{
	states = ("true" "false");
	ID = "P";
	position = (100 80);
	label = "Psych_report";
}

node C
{
	states = ("true" "false");
	ID = "C";
	position = (200 80);
	label = "Crime";
}

node M
{
	states = ("true" "false");
	ID = "M";
	position = (150 150);
	label = "Motive";
}

node D
{
	states = ("true" "false");
	ID = "D";
	position = (250 10);
	label = "DNA_match";
}

node T
{
	states = ("true" "false");
	ID = "T";
	position = (300 80);
	label = "Twin";
}

potential ( P |  )
{
	data = ((Decimal('0.149600069040000000000000000000') Decimal('0.850399930960000000000000000000')));
}

potential ( C | P D )
{
	data = ((Decimal('0.91775707453854482741784137644782992370680601411327') Decimal('0.082242925461455172582158623552170076293193985886727')) (Decimal('0.0013130244033776086921632286925991758858771391444367') Decimal('0.99868697559662239130783677130740082411412286085556')) (Decimal('0.65433706276194138054451439316451397153304400744002') Decimal('0.34566293723805861945548560683548602846695599255998')) (Decimal('0.00022298008432094391150754105800233139368834539628929') Decimal('0.99977701991567905608849245894199766860631165460371')));
}

potential ( M | P C )
{
	data = ((Decimal('0.93212213385460236358839348586302433421945958677263') Decimal('0.067877866145397636411606514136975665780540413227375')) (Decimal('0.11820293056368178082878769711537191054648140355701') Decimal('0.88179706943631821917121230288462808945351859644299')) (Decimal('0.55161009562126748934231002578625362798688168834705') Decimal('0.44838990437873251065768997421374637201311831165295')) (Decimal('0.011866076469896765654498931824953069796557952921190') Decimal('0.98813392353010323434550106817504693020344204707881')));
}

potential ( D | P )
{
	data = ((Decimal('0.12774774165772658861900448106905499326499508679639') Decimal('0.87225225834227341138099551893094500673500491320361')) (Decimal('0.033708451940467402085943898623667404724832575496756') Decimal('0.96629154805953259791405610137633259527516742450324')));
}

potential ( T | D C )
{
	data = ((Decimal('0.012227629133731828228052497182126658699447960439102') Decimal('0.98777237086626817177194750281787334130055203956090')) (Decimal('0.99991710558364556814592642738394500351961172378496') Decimal('0.000082894416354431854073572616054996480388276215040808')) (Decimal('0.0023425950573478867481214856028726376393469894323561') Decimal('0.99765740494265211325187851439712736236065301056764')) (Decimal('0.00021840681011061707615369425949945196657896447917410') Decimal('0.99978159318988938292384630574050054803342103552083')));
}

