net
{
    node_size = (70 20);
}

node P
{
	states = ("true" "false");
	ID = "P";
	position = (100 80);
	label = "Psych_report";
}

node C
{
	states = ("true" "false");
	ID = "C";
	position = (200 80);
	label = "Crime";
}

node M
{
	states = ("true" "false");
	ID = "M";
	position = (150 150);
	label = "Motive";
}

node D
{
	states = ("true" "false");
	ID = "D";
	position = (250 10);
	label = "DNA_match";
}

node T
{
	states = ("true" "false");
	ID = "T";
	position = (300 80);
	label = "Twin";
}

potential ( P |  )
{
	data = ((Decimal('0.149600069040000000000000000000') Decimal('0.850399930960000000000000000000')));
}

potential ( C | D M )
{
	data = ((Decimal('0.98876381715028262894699076737338558126642009108279') Decimal('0.011236182849717371053009232626614418733579908917213')) (Decimal('0.46207384217971517149387085839696003752241695517132') Decimal('0.53792615782028482850612914160303996247758304482868')) (Decimal('0.010261443951395554449460923236502389106557979186815') Decimal('0.98973855604860444555053907676349761089344202081318')) (Decimal('0.00010119498515499198463108822689091916223295767317045') Decimal('0.99989880501484500801536891177310908083776704232683')));
}

potential ( M | P D )
{
	data = ((Decimal('0.86518303748670020249699412732328996467517807406644') Decimal('0.13481696251329979750300587267671003532482192593356')) (Decimal('0.11927162633998042042816726218282391330191472900262') Decimal('0.88072837366001957957183273781717608669808527099738')) (Decimal('0.36504059260472972135803527340927032978259597882517') Decimal('0.63495940739527027864196472659072967021740402117483')) (Decimal('0.011986428636798863463901222804062476238347915466230') Decimal('0.98801357136320113653609877719593752376165208453377')));
}

potential ( D | P )
{
	data = ((Decimal('0.12774774165772658861900448106905499326499508679639') Decimal('0.87225225834227341138099551893094500673500491320361')) (Decimal('0.033708451940467402085943898623667404724832575496756') Decimal('0.96629154805953259791405610137633259527516742450324')));
}

potential ( T | D C )
{
	data = ((Decimal('0.012227629133731828228052497182126658699447960439102') Decimal('0.98777237086626817177194750281787334130055203956090')) (Decimal('0.99991710558364556814592642738394500351961172378496') Decimal('0.000082894416354431854073572616054996480388276215040808')) (Decimal('0.0023425950573478867481214856028726376393469894323561') Decimal('0.99765740494265211325187851439712736236065301056764')) (Decimal('0.00021840681011061707615369425949945196657896447917410') Decimal('0.99978159318988938292384630574050054803342103552083')));
}

