net
{
	propagationenginegenerator1791944048146838126L = "edu.ucla.belief.approx.BeliefPropagationSettings@7373d1cb";
	recoveryenginegenerator6944530267470113528l = "edu.ucla.util.SettingsImpl@2db706c6";
	node_size = (130 55);
}

node BW
{
	states = ("T" "F");
	ID = "BW";
	position = (145 158);
	label = "Broken window";
}

node TB
{
	states = ("T" "F");
	ID = "TB";
	position = (52 58);
	label = "Tree branch";
}

node SF
{
	states = ("T" "F");
	ID = "SF";
	position = (330 157);
	label = "Stone found";
}

node ST
{
	states = ("T" "F");
	ID = "ST";
	position = (241 59);
	label = "Stone thrown";
}

potential ( BW |  )
{
	data = (Decimal('0.99711109000') Decimal('0.00288891000'));
}

potential ( TB | BW ST )
{
	data = (((Decimal('0.9998998097386937794872462806870246598290153000548040729345026204762844641975110735286308700221721048') Decimal('0.0001001902613062205127537193129753401709846999451959270654973795237155358024889264713691299778278951729')) (Decimal('0.9999888778903582431515609880882205736784153218182424842344095828096673377006150526631891537186773587') Decimal('0.00001112210964175684843901191177942632158467818175751576559041719033266229938494733681084628132264127860'))) ((Decimal('0.5260663507109004739336492890995260663507109004739336492890995260663507109004739336492890995260663507') Decimal('0.4739336492890995260663507109004739336492890995260663507109004739336492890995260663507109004739336493')) (Decimal('0.9901873327386262265834076717216770740410347903657448706512042818911685994647636039250669045495093666') Decimal('0.009812667261373773416592328278322925958965209634255129348795718108831400535236396074933095450490633363'))));
}

potential ( SF | BW )
{
	data = ((Decimal('0.9908935823890996939969848294436279913404633780575041041816112986969185148667838003887811537629172292') Decimal('0.009106417610900306003015170556372008659536621942495895818388701303081485133216199611218846237082770787')) (Decimal('0.6850403750895666531667653197918938284681765787096171220287236362503504782080438642948378454157450388') Decimal('0.3149596249104333468332346802081061715318234212903828779712763637496495217919561357051621545842549612')));
}

potential ( ST | BW SF )
{
	data = (((Decimal('0.9990899981699046521985585446703446632344428647041569196068714675363026423773037699447713292355997650') Decimal('0.0009100018300953478014414553296553367655571352958430803931285324636973576226962300552286707644002349930')) (Decimal('0.1088224692309041071428695325749022121702294489496596945958360577083714379103022297200168607208688669') Decimal('0.8911775307690958928571304674250977878297705510503403054041639422916285620896977702799831392791311331'))) ((Decimal('0.9490202218725440969396170677386639232481931625157560940048917848475092967605648086455155008312978183') Decimal('0.05097977812745590306038293226133607675180683748424390599510821515249070323943519135448449916870218173')) (Decimal('0.002066194792049645648928489719323327882234908810571510725785416635138130596686076375319254247005085813') Decimal('0.9979338052079503543510715102806766721177650911894284892742145833648618694033139236246807457529949142'))));
}

