net
{
	propagationenginegenerator1791944048146838126L = "edu.ucla.belief.approx.BeliefPropagationSettings@ec52e37";
	recoveryenginegenerator6944530267470113528l = "edu.ucla.util.SettingsImpl@447fdf07";
	node_size = (130.0 55.0);
}

node S
{
	states = ("On" "Off");
	ID = "S";
	position = (80 60);
	label = "SPRINKLER";
}

node R
{
	states = ("Yes" "No");
	ID = "R";
	position = (290 60);
	label = "RAIN";
}

node G
{
	states = ("Yes" "No");
	ID = "G";
	position = (195 160);
	label = "GRASS WET";
}

potential ( S | G R )
{
	data = (((0.15711148744777675 0.8428885125522233) (0.8570785893121335 0.1429214106878665)) ((0.005452304937004237 0.9945476950629958) (0.01744960092435714 0.9825503990756428)));
}

potential ( R | G )
{
	data = ((0.4105625251738516 0.5894374748261484) (0.030462951063202928 0.969537048936797));
}

potential ( G |  )
{
	data = (0.18618029 0.8138197100000001);
}

