net
{
	propagationenginegenerator1791944048146838126L = "edu.ucla.belief.approx.BeliefPropagationSettings@7373d1cb";
	recoveryenginegenerator6944530267470113528l = "edu.ucla.util.SettingsImpl@2db706c6";
	node_size = (130 55);
}

node BW
{
	states = ("T" "F");
	ID = "BW";
	position = (145 158);
	label = "Broken window";
}

node TB
{
	states = ("T" "F");
	ID = "TB";
	position = (52 58);
	label = "Tree branch";
}

node SF
{
	states = ("T" "F");
	ID = "SF";
	position = (330 157);
	label = "Stone found";
}

node ST
{
	states = ("T" "F");
	ID = "ST";
	position = (241 59);
	label = "Stone thrown";
}

potential ( BW |  )
{
	data = ((Decimal('0.003018730732020992000000') Decimal('0.996981269267979008000000')));
}

potential ( TB | BW ST )
{
	data = ((Decimal('0.010100539032030978923186565893962368059042204139664') Decimal('0.98989946096796902107681343410603763194095779586034')) (Decimal('0.47480327938959066218796601456563993926777444370019') Decimal('0.52519672061040933781203398543436006073222555629981')) (Decimal('0.000011479056853188876201962733900590880396998195423191') Decimal('0.99998852094314681112379803726609940911960300180458')) (Decimal('0.00012822555560526960594478360128661624594324441598003') Decimal('0.99987177444439473039405521639871338375405675558402')));
}

potential ( SF | BW )
{
	data = ((Decimal('0.32790735373930788088796799944739151241250899266077') Decimal('0.67209264626069211911203200055260848758749100733923')) (Decimal('0.0088344264125227330886867035106202794371995970284738') Decimal('0.99116557358747726691131329648937972056280040297153')));
}

potential ( ST | BW SF )
{
	data = ((Decimal('0.99997717747114887914287663713110643788300733939989') Decimal('0.000022822528851120857123362868893562116992660600106698')) (Decimal('0.072103962806092801148139609937198357237550018128491') Decimal('0.92789603719390719885186039006280164276244998187151')) (Decimal('0.99865543248804164419962158195599817123439256990941') Decimal('0.0013445675119583558003784180440018287656074300905940')) (Decimal('0.0013155121097404281758947490033857502053186822611699') Decimal('0.99868448789025957182410525099661424979468131773883')));
}

