net
{
	propagationenginegenerator1791944048146838126L = "edu.ucla.belief.approx.BeliefPropagationSettings@7373d1cb";
	recoveryenginegenerator6944530267470113528l = "edu.ucla.util.SettingsImpl@2db706c6";
	node_size = (130 55);
}

node BW
{
	states = ("T" "F");
	ID = "BW";
	position = (145 158);
	label = "Broken window";
}

node TB
{
	states = ("T" "F");
	ID = "TB";
	position = (52 58);
	label = "Tree branch";
}

node SF
{
	states = ("T" "F");
	ID = "SF";
	position = (330 157);
	label = "Stone found";
}

node ST
{
	states = ("T" "F");
	ID = "ST";
	position = (241 59);
	label = "Stone thrown";
}

potential ( BW | TB )
{
	data = ((Decimal('0.87726761648') Decimal('0.12273238352')) (Decimal('0.002115573824') Decimal('0.997884426176')));
}

potential ( TB |  )
{
	data = ((Decimal('0.001032000000000000000000') Decimal('0.998968000000000000000000')));
}

potential ( SF | TB BW )
{
	data = ((Decimal('0.011055135340473599605177574672395936426826851562617') Decimal('0.98894486465952640039482242532760406357317314843738')) (Decimal('0.00080915428471841675188872759863109354531013511274143') Decimal('0.99919084571528158324811127240136890645468986488726')) (Decimal('0.46364139696105447748251209218969803248993120459407') Decimal('0.53635860303894552251748790781030196751006879540593')) (Decimal('0.0088354460993575637651178943014581636560618726366746') Decimal('0.99116455390064243623488210569854183634393812736333')));
}

potential ( ST | TB BW SF )
{
	data = ((Decimal('0.99892829033323555577258595227917501543296057169560') Decimal('0.0010717096667644442274140477208249845670394283044021')) (Decimal('0.0016503396350621931257309383392308059466027530135693') Decimal('0.99834966036493780687426906166076919405339724698643')) (Decimal('0.98518327038472376550025025272890259625252769061923') Decimal('0.014816729615276234499749747271097403747472309380771')) (Decimal('0.00011790899918855249265620927423261030266847220098635') Decimal('0.99988209100081144750734379072576738969733152779901')) (Decimal('0.99998789124936122263698145676822733982760038961041') Decimal('0.000012108750638777363018543231772660172399610389586302')) (Decimal('0.12775230035923431085868145948123769296466504150776') Decimal('0.87224769964076568914131854051876230703533495849224')) (Decimal('0.99865558925235358073170080664063055662988037184014') Decimal('0.0013444107476464192682991933593694433701196281598591')) (Decimal('0.0013156655087811895378359813950390719599377720886557') Decimal('0.99868433449121881046216401860496092804006222791134')));
}

