net
{
    node_size = (70 20);
}

node P
{
	states = ("true" "false");
	ID = "P";
	position = (100 80);
	label = "Psych_report";
}

node C
{
	states = ("true" "false");
	ID = "C";
	position = (200 80);
	label = "Crime";
}

node M
{
	states = ("true" "false");
	ID = "M";
	position = (150 150);
	label = "Motive";
}

node D
{
	states = ("true" "false");
	ID = "D";
	position = (250 10);
	label = "DNA_match";
}

node T
{
	states = ("true" "false");
	ID = "T";
	position = (300 80);
	label = "Twin";
}

potential ( P |  )
{
	data = ((Decimal('0.149600069040000000000000000000') Decimal('0.850399930960000000000000000000')));
}

potential ( C | M D T )
{
	data = ((Decimal('0.51832728641694439654262408638911576542724907083201') Decimal('0.48167271358305560345737591361088423457275092916799')) (Decimal('0.99999904633856152386650995806050634128934555958102') Decimal('9.5366143847613349004193949365871065444041897683511E-7')) (Decimal('0.10007494880581569400327554780960490029525529559896') Decimal('0.89992505119418430599672445219039509970474470440104')) (Decimal('0.010239865200593618672978725471950211391837141344421') Decimal('0.98976013479940638132702127452804978860816285865558')) (Decimal('0.010395103463740702113715429329803572275700758190944') Decimal('0.98960489653625929788628457067019642772429924180906')) (Decimal('0.99990231289121675798064342625463083783064214466088') Decimal('0.000097687108783242019356573745369162169357855339115397')) (Decimal('0.0010843333441618160034482778811305032133881659130462') Decimal('0.99891566665583818399655172211886949678661183408695')) (Decimal('0.00010098000270959472287512758051459615963916305605275') Decimal('0.99989901999729040527712487241948540384036083694395')));
}

potential ( M | P )
{
	data = ((Decimal('0.21456012459070186001299187635722497524858094143029') Decimal('0.78543987540929813998700812364277502475141905856971')) (Decimal('0.023887337955293758741158400152370586217856623331163') Decimal('0.97611266204470624125884159984762941378214337666884')));
}

potential ( D | M )
{
	data = ((Decimal('0.515124510532130144') Decimal('0.484875489467869856')) (Decimal('0.021927283089941972') Decimal('0.978072716910058028')));
}

potential ( T | M D )
{
	data = ((Decimal('0.023325488689864678239814171194715659227543461708301') Decimal('0.97667451131013532176018582880528434077245653829170')) (Decimal('0.00024020404875185548160355120794595547651966328910128') Decimal('0.99975979595124814451839644879205404452348033671090')) (Decimal('0.54353163431996262213059788571539778182853264300534') Decimal('0.45646836568003737786940211428460221817146735699466')) (Decimal('0.00021862176730876266010175933220466056104894936809833') Decimal('0.99978137823269123733989824066779533943895105063190')));
}

