net
{
    node_size = (70 20);
}

node P
{
	states = ("true" "false");
	ID = "P";
	position = (100 80);
	label = "Psych_report";
}

node C
{
	states = ("true" "false");
	ID = "C";
	position = (200 80);
	label = "Crime";
}

node M
{
	states = ("true" "false");
	ID = "M";
	position = (150 150);
	label = "Motive";
}

node D
{
	states = ("true" "false");
	ID = "D";
	position = (250 10);
	label = "DNA_match";
}

node T
{
	states = ("true" "false");
	ID = "T";
	position = (300 80);
	label = "Twin";
}

potential ( P | T D )
{
	data = ((Decimal('0.14979814144009770064084425425001652055145162385953') Decimal('0.85020185855990229935915574574998347944854837614047')) (Decimal('0.13828532819772165036673946169773642800725968798742') Decimal('0.86171467180227834963326053830226357199274031201258')) (Decimal('0.48321656820023033984837821090774671152254254521911') Decimal('0.51678343179976966015162178909225328847745745478089')) (Decimal('0.13703586357397234444487914190276301585504887129882') Decimal('0.86296413642602765555512085809723698414495112870118')));
}

potential ( C | T D M )
{
	data = ((Decimal('0.51832728641694439654262408638911576542724907083201') Decimal('0.48167271358305560345737591361088423457275092916799')) (Decimal('0.010395103463740702113715429329803572275700758190944') Decimal('0.98960489653625929788628457067019642772429924180906')) (Decimal('0.10007494880581569400327554780960490029525529559896') Decimal('0.89992505119418430599672445219039509970474470440104')) (Decimal('0.0010843333441618160034482778811305032133881659130462') Decimal('0.99891566665583818399655172211886949678661183408695')) (Decimal('0.99999904633856152386650995806050634128934555958102') Decimal('9.5366143847613349004193949365871065444041897683511E-7')) (Decimal('0.99990231289121675798064342625463083783064214466088') Decimal('0.000097687108783242019356573745369162169357855339115397')) (Decimal('0.010239865200593618672978725471950211391837141344421') Decimal('0.98976013479940638132702127452804978860816285865558')) (Decimal('0.00010098000270959472287512758051459615963916305605275') Decimal('0.99989901999729040527712487241948540384036083694395')));
}

potential ( M | T D P )
{
	data = ((Decimal('0.21593438035598813436851685439123878997085913605204') Decimal('0.78406561964401186563148314560876121002914086394796')) (Decimal('0.024077773979844687779697194711741953496696700609534') Decimal('0.97592222602015531222030280528825804650330329939047')) (Decimal('0.12952104814346291228943293293152375115438730953140') Decimal('0.87047895185653708771056706706847624884561269046860')) (Decimal('0.013154160335521884777262316431615383100436107502795') Decimal('0.98684583966447811522273768356838461689956389249720')) (Decimal('0.93211601292700751872532277558757720414709697592287') Decimal('0.067883987072992481274677224412422795852903024077134')) (Decimal('0.55158616861928955945101792940208450794052933831352') Decimal('0.44841383138071044054898207059791549205947066168648')) (Decimal('0.11926935870809276233378581735251975401794619355966') Decimal('0.88073064129190723766621418264748024598205380644034')) (Decimal('0.011986172987188701142685009053212340044161039716970') Decimal('0.98801382701281129885731499094678765995583896028303')));
}

potential ( D | T )
{
	data = ((Decimal('0.98279548222248224') Decimal('0.01720451777751776')) (Decimal('0.036293777492862188') Decimal('0.963706222507137812')));
}

potential ( T |  )
{
	data = ((Decimal('0.012132000000000000000000000000') Decimal('0.987868000000000000000000000000')));
}

