net
{
	propagationenginegenerator1791944048146838126L = "edu.ucla.belief.approx.BeliefPropagationSettings@7373d1cb";
	recoveryenginegenerator6944530267470113528l = "edu.ucla.util.SettingsImpl@2db706c6";
	node_size = (130 55);
}

node BW
{
	states = ("T" "F");
	ID = "BW";
	position = (145 158);
	label = "Broken window";
}

node TB
{
	states = ("T" "F");
	ID = "TB";
	position = (52 58);
	label = "Tree branch";
}

node SF
{
	states = ("T" "F");
	ID = "SF";
	position = (330 157);
	label = "Stone found";
}

node ST
{
	states = ("T" "F");
	ID = "ST";
	position = (241 59);
	label = "Stone thrown";
}

potential ( BW | SF ST TB )
{
	data = ((((0.9899999999999999 0.01) (0.09999999999999999 0.9)) ((0.8989898989898991 0.10101010101010102) (0.001001001001001001 0.998998998998999))) (((0.9900000000000001 0.01) (0.09999999999999999 0.8999999999999999)) ((0.9000010111121222 0.09999898888787778) (0.000999998997996996 0.999000001002003))));
}

potential ( TB | ST )
{
	data = ((0.0009999999999999998 0.999) (0.0009999999999999998 0.999));
}

potential ( SF |  )
{
	data = (0.009990000000000002 0.9900100000000001);
}

potential ( ST | SF )
{
	data = ((0.9009009009009008 0.09909909909909907) (0.001010090807163564 0.9989899091928365));
}

