net
{
	propagationenginegenerator1791944048146838126L = "edu.ucla.belief.approx.BeliefPropagationSettings@7373d1cb";
	recoveryenginegenerator6944530267470113528l = "edu.ucla.util.SettingsImpl@2db706c6";
	node_size = (130 55);
}

node BW
{
	states = ("T" "F");
	ID = "BW";
	position = (145 158);
	label = "Broken window";
}

node TB
{
	states = ("T" "F");
	ID = "TB";
	position = (52 58);
	label = "Tree branch";
}

node SF
{
	states = ("T" "F");
	ID = "SF";
	position = (330 157);
	label = "Stone found";
}

node ST
{
	states = ("T" "F");
	ID = "ST";
	position = (241 59);
	label = "Stone thrown";
}

potential ( BW | SF )
{
	data = ((0.09108008008008006 0.9089199199199199) (0.001998989909192836 0.9980010100908071));
}

potential ( TB | SF BW ST )
{
	data = ((((0.009812667261373772 0.9901873327386262) (0.4734042553191489 0.5265957446808511)) ((1.1122109641756848e-05 0.9999888778903583) (0.00010120228312350725 0.9998987977168764))) (((0.009812667261373774 0.9901873327386262) (0.4739341792101718 0.5260658207898282)) ((1.1122109641756848e-05 0.9999888778903582) (0.00010018924827135812 0.9998998107517286))));
}

potential ( SF |  )
{
	data = (0.009990000000000002 0.9900100000000001);
}

potential ( ST | SF BW )
{
	data = (((0.9979338161755816 0.002066183824418336) (0.8911775297876345 0.10882247021236525)) ((0.05097977786985478 0.9490202221301454) (0.0009100018301045581 0.9990899981698954)));
}

