net
{
    node_size = (70 20);
}

node P
{
	states = ("true" "false");
	ID = "P";
	position = (100 80);
	label = "Psych_report";
}

node C
{
	states = ("true" "false");
	ID = "C";
	position = (200 80);
	label = "Crime";
}

node M
{
	states = ("true" "false");
	ID = "M";
	position = (150 150);
	label = "Motive";
}

node D
{
	states = ("true" "false");
	ID = "D";
	position = (250 10);
	label = "DNA_match";
}

node T
{
	states = ("true" "false");
	ID = "T";
	position = (300 80);
	label = "Twin";
}

potential ( P | D T )
{
	data = ((Decimal('0.1497981414') Decimal('0.8502018581')) (Decimal('0.4832165680') Decimal('0.5167834317')) (Decimal('0.1382853283') Decimal('0.8617146719')) (Decimal('0.1370358635') Decimal('0.8629641365')));
}

potential ( C | D T P M )
{
	data = ((Decimal('0.5183272864') Decimal('0.4816727136')) (Decimal('0.01039510345') Decimal('0.9896048962')) (Decimal('0.5183272862') Decimal('0.4816727138')) (Decimal('0.01039510347') Decimal('0.9896048965')) (Decimal('0.9999990464') Decimal('9.536614388E-7')) (Decimal('0.9999023127') Decimal('0.00009768710887')) (Decimal('0.9999990460') Decimal('9.536614391E-7')) (Decimal('0.9999023129') Decimal('0.00009768710877')) (Decimal('0.1000749488') Decimal('0.8999250511')) (Decimal('0.001084333343') Decimal('0.9989156665')) (Decimal('0.1000749487') Decimal('0.8999250511')) (Decimal('0.001084333343') Decimal('0.9989156669')) (Decimal('0.01023986521') Decimal('0.9897601350')) (Decimal('0.0001009800027') Decimal('0.9998990202')) (Decimal('0.01023986520') Decimal('0.9897601348')) (Decimal('0.0001009800027') Decimal('0.9998990200')));
}

potential ( M | D T P )
{
	data = ((Decimal('0.2159343802') Decimal('0.7840656198')) (Decimal('0.02407777397') Decimal('0.9759222257')) (Decimal('0.9321160131') Decimal('0.06788398709')) (Decimal('0.5515861686') Decimal('0.4484138316')) (Decimal('0.1295210481') Decimal('0.8704789518')) (Decimal('0.01315416034') Decimal('0.9868458397')) (Decimal('0.1192693587') Decimal('0.8807306418')) (Decimal('0.01198617299') Decimal('0.9880138269')));
}

potential ( D |  )
{
	data = ((Decimal('0.04777673617') Decimal('0.9522232639')));
}

potential ( T | D )
{
	data = ((Decimal('0.2495623552') Decimal('0.7504376451')) (Decimal('0.0002191977634') Decimal('0.9997808022')));
}

