net
{
    node_size = (70 20);
}

node P
{
	states = ("true" "false");
	ID = "P";
	position = (100 80);
	label = "Psych_report";
}

node C
{
	states = ("true" "false");
	ID = "C";
	position = (200 80);
	label = "Crime";
}

node M
{
	states = ("true" "false");
	ID = "M";
	position = (150 150);
	label = "Motive";
}

node D
{
	states = ("true" "false");
	ID = "D";
	position = (250 10);
	label = "DNA_match";
}

node T
{
	states = ("true" "false");
	ID = "T";
	position = (300 80);
	label = "Twin";
}

potential ( P | M C T )
{
	data = ((Decimal('0.6124210001') Decimal('0.3875789999')) (Decimal('0.6124210000') Decimal('0.3875790000')) (Decimal('0.6124209998') Decimal('0.3875790002')) (Decimal('0.6124209998') Decimal('0.3875790002')) (Decimal('0.1240010000') Decimal('0.8759990002')) (Decimal('0.1240009999') Decimal('0.8759990001')) (Decimal('0.1240010001') Decimal('0.8759990001')) (Decimal('0.1240010001') Decimal('0.8759989999')));
}

potential ( C | M )
{
	data = ((Decimal('0.5143120001') Decimal('0.4856880001')) (Decimal('0.01023100000') Decimal('0.9897689999')));
}

potential ( M |  )
{
	data = ((Decimal('0.05241199998') Decimal('0.9475880001')));
}

potential ( D | M C T P )
{
	data = ((Decimal('0.9981320000') Decimal('0.001868000000')) (Decimal('0.9981320002') Decimal('0.001868000001')) (Decimal('0.9902300002') Decimal('0.009770000003')) (Decimal('0.9902299995') Decimal('0.009770000000')) (Decimal('0.9822120002') Decimal('0.01778800000')) (Decimal('0.9822119998') Decimal('0.01778800000')) (Decimal('0.000001000000001') Decimal('0.9999990000')) (Decimal('0.000001000000000') Decimal('0.9999990000')) (Decimal('0.9981319998') Decimal('0.001868000001')) (Decimal('0.9981320005') Decimal('0.001868000000')) (Decimal('0.9902300003') Decimal('0.009770000006')) (Decimal('0.9902300000') Decimal('0.009770000000')) (Decimal('0.9822119999') Decimal('0.01778799999')) (Decimal('0.9822120000') Decimal('0.01778800001')) (Decimal('0.000001') Decimal('0.9999989999')) (Decimal('0.000001') Decimal('0.9999990000')));
}

potential ( T | M C )
{
	data = ((Decimal('0.01213200000') Decimal('0.9878679998')) (Decimal('0.01213200000') Decimal('0.9878680000')) (Decimal('0.01213199999') Decimal('0.9878679999')) (Decimal('0.01213200000') Decimal('0.9878680000')));
}

