net
{
    node_size = (70 20);
}

node P
{
	states = ("true" "false");
	ID = "P";
	position = (100 80);
	label = "Psych_report";
}

node C
{
	states = ("true" "false");
	ID = "C";
	position = (200 80);
	label = "Crime";
}

node M
{
	states = ("true" "false");
	ID = "M";
	position = (150 150);
	label = "Motive";
}

node D
{
	states = ("true" "false");
	ID = "D";
	position = (250 10);
	label = "DNA_match";
}

node T
{
	states = ("true" "false");
	ID = "T";
	position = (300 80);
	label = "Twin";
}

potential ( P |  )
{
	data = ((Decimal('0.1496000689') Decimal('0.8503999311')));
}

potential ( C | P )
{
	data = ((Decimal('0.1183866822') Decimal('0.8816133186')) (Decimal('0.02227215319') Decimal('0.9777278466')));
}

potential ( M | P C D T )
{
	data = ((Decimal('0.9321221341') Decimal('0.06787786613')) (Decimal('0.9321221336') Decimal('0.06787786611')) (Decimal('0.9321221339') Decimal('0.06787786614')) (Decimal('0.9321221340') Decimal('0.06787786616')) (Decimal('0.1182029305') Decimal('0.8817970696')) (Decimal('0.1182029305') Decimal('0.8817970697')) (Decimal('0.1182029305') Decimal('0.8817970694')) (Decimal('0.1182029305') Decimal('0.8817970697')) (Decimal('0.5516100954') Decimal('0.4483899046')) (Decimal('0.5516100953') Decimal('0.4483899045')) (Decimal('0.5516100956') Decimal('0.4483899044')) (Decimal('0.5516100954') Decimal('0.4483899044')) (Decimal('0.01186607647') Decimal('0.9881339235')) (Decimal('0.01186607647') Decimal('0.9881339235')) (Decimal('0.01186607647') Decimal('0.9881339234')) (Decimal('0.01186607647') Decimal('0.9881339235')));
}

potential ( D | P C )
{
	data = ((Decimal('0.9903258676') Decimal('0.009674132937')) (Decimal('0.01191718387') Decimal('0.9880828160')) (Decimal('0.9903258668') Decimal('0.009674132936')) (Decimal('0.01191718385') Decimal('0.9880828163')));
}

potential ( T | P C D )
{
	data = ((Decimal('0.01222762913') Decimal('0.9877723707')) (Decimal('0.002342595058') Decimal('0.9976574048')) (Decimal('0.9999171052') Decimal('0.00008289441630')) (Decimal('0.0002184068102') Decimal('0.9997815937')) (Decimal('0.01222762914') Decimal('0.9877723713')) (Decimal('0.002342595057') Decimal('0.9976574053')) (Decimal('0.9999171056') Decimal('0.00008289441635')) (Decimal('0.0002184068102') Decimal('0.9997815931')));
}

