net
{
    node_size = (70 20);
}

node P
{
	states = ("true" "false");
	ID = "P";
	position = (100 80);
	label = "Psych_report";
}

node C
{
	states = ("true" "false");
	ID = "C";
	position = (200 80);
	label = "Crime";
}

node M
{
	states = ("true" "false");
	ID = "M";
	position = (150 150);
	label = "Motive";
}

node D
{
	states = ("true" "false");
	ID = "D";
	position = (250 10);
	label = "DNA_match";
}

node T
{
	states = ("true" "false");
	ID = "T";
	position = (300 80);
	label = "Twin";
}

potential ( P | T M )
{
	data = ((Decimal('0.6124210000') Decimal('0.3875790000')) (Decimal('0.1240010002') Decimal('0.8759990000')) (Decimal('0.6124209999') Decimal('0.3875790001')) (Decimal('0.1240010001') Decimal('0.8759989999')));
}

potential ( C | T M P D )
{
	data = ((Decimal('0.5183272864') Decimal('0.4816727136')) (Decimal('0.1000749488') Decimal('0.8999250511')) (Decimal('0.5183272862') Decimal('0.4816727138')) (Decimal('0.1000749487') Decimal('0.8999250511')) (Decimal('0.01039510345') Decimal('0.9896048962')) (Decimal('0.001084333343') Decimal('0.9989156665')) (Decimal('0.01039510347') Decimal('0.9896048965')) (Decimal('0.001084333343') Decimal('0.9989156669')) (Decimal('0.9999990464') Decimal('9.536614388E-7')) (Decimal('0.01023986521') Decimal('0.9897601350')) (Decimal('0.9999990460') Decimal('9.536614391E-7')) (Decimal('0.01023986520') Decimal('0.9897601348')) (Decimal('0.9999023127') Decimal('0.00009768710887')) (Decimal('0.0001009800027') Decimal('0.9998990202')) (Decimal('0.9999023129') Decimal('0.00009768710877')) (Decimal('0.0001009800027') Decimal('0.9998990200')));
}

potential ( M | T )
{
	data = ((Decimal('0.05241199999') Decimal('0.9475879995')) (Decimal('0.05241199998') Decimal('0.9475880000')));
}

potential ( D | T M P )
{
	data = ((Decimal('0.9903998472') Decimal('0.009600152962')) (Decimal('0.9903998471') Decimal('0.009600152965')) (Decimal('0.9823748775') Decimal('0.01762512247')) (Decimal('0.9823748781') Decimal('0.01762512249')) (Decimal('0.5092876576') Decimal('0.4907123424')) (Decimal('0.5092876573') Decimal('0.4907123427')) (Decimal('0.01013203289') Decimal('0.9898679668')) (Decimal('0.01013203290') Decimal('0.9898679671')));
}

potential ( T |  )
{
	data = ((Decimal('0.01213200000') Decimal('0.9878680001')));
}

