net
{
	HRUNTIME_Propagate_AutoNormal = "1";
	HR_Font_Size = "-12";
	HRUNTIME_Font_Size = "-12";
	HR_Grid_GridSnap = "1";
	HRUNTIME_Propagate_AutoSum = "1";
	HR_Propagate_AutoNormal = "1";
	node_size = (100.0 40.0);
	HRUNTIME_Monitor_GraphPrecision = "100";
	HR_Grid_GridShow = "0";
	HR_Font_Name = "Arial";
	HR_Compile_ApproxEpsilon = "0.00001";
	HRUNTIME_Monitor_AutoUpdGraph = "0";
	HRUNTIME_Font_Name = "Arial";
	HRUNTIME_Font_Weight = "400";
	HR_Font_Weight = "400";
	HR_Monitor_AutoUpdGraph = "0";
	HRUNTIME_Compile_Compress = "0";
	HR_Compile_Compress = "0";
	HRUNTIME_Compile_TriangMethod = "0";
	HR_Grid_Y = "10";
	HR_Grid_X = "10";
	HR_Groups_GroupNames = "";
	HR_Compile_Approximate = "0";
	HRUNTIME_Compile_Approximate = "0";
	HR_Compile_TriangMethod = "0";
	HR_Color_DiscreteChance = "16";
	HRUNTIME_Compile_ApproxEpsilon = "0.00001";
	HR_Monitor_InitStates = "5";
	HRUNTIME_Grid_GridSnap = "1";
	HR_Color_ContinuosChance = "48";
	HRUNTIME_Propagate_Auto = "0";
	HR_Groups_GroupColors = "";
	HR_Monitor_OpenGraph = "0";
	HRUNTIME_Grid_GridShow = "0";
	HR_Monitor_InitSD = "2";
	HR_Groups_UserGroupsNo = "0";
	HR_Color_Decision = "17";
	HRUNTIME_Monitor_InitStates = "5";
	HRUNTIME_Grid_Y = "10";
	HRUNTIME_Grid_X = "10";
	HR_Propagate_Auto = "0";
	HR_Monitor_GraphPrecision = "100";
	HRUNTIME_Font_Italic = "0";
	HRUNTIME_Monitor_OpenGraph = "0";
	HR_Font_Italic = "0";
	HR_Propagate_AutoSum = "1";
	HR_Color_Utility = "36";
}

node A
{
	states = ("Present" "Absent");
	ID = "A";
	position = (131 0);
	label = "A:Metastatic Cancer";
}

node C
{
	states = ("Present" "Absent");
	ID = "C";
	position = (255 128);
	label = "C:  Brain Tumor";
}

node B
{
	states = ("Increased" "Not increased");
	ID = "B";
	position = (0 128);
	label = "B: Serum Calcium";
}

node E
{
	states = ("Present" "Absent");
	ID = "E";
	position = (414 266);
	label = "E: Severe Headaches";
}

node D
{
	states = ("Present" "Absent");
	ID = "D";
	position = (147 256);
	label = "D: Coma";
}

potential ( A | D )
{
	data = ((Decimal('0.53662892950567990313781596516064089478807639715821839290199659693497915889905199811772544444300443786083802882187688052461343464983433458870145562019943366122375739359384240193249355376980602907612911352106091464541030839864560897783040824786106777674114176515634001835216077383734498816734826672404452924259747587992146389450680985962371783491679116965032002769213758104534609767787684050601903893848494372764946910060216522955005777933038722137743751247654004348680781239451444054626092608810242511') Decimal('0.46337107049432009686218403483935910521192360284178160709800340306502084110094800188227455555699556213916197117812311947538656535016566541129854437980056633877624260640615759806750644623019397092387088647893908535458969160135439102216959175213893222325885823484365998164783922616265501183265173327595547075740252412007853610549319014037628216508320883034967997230786241895465390232212315949398096106151505627235053089939783477044994222066961277862256248752345995651319218760548555945373907391189757489')) (Decimal('0.10217048910765554623477138915515939690562914842460937119158038703792456975825201772161745281531869662828043767447715944927409791742267108846626655876694440381116012864675689779954715903767223905437862528180311632675109641690021959563668576213119190234905775940636242023529251934105680150831927701263759261581448883143607905041593467481584064377362194892562482239018406362828402507159545433810164283765080002242018641896911535663063740265838604204305923122026922389907942570201337121426749725376960270') Decimal('0.89782951089234445376522861084484060309437085157539062880841961296207543024174798227838254718468130337171956232552284055072590208257732891153373344123305559618883987135324310220045284096232776094562137471819688367324890358309978040436331423786880809765094224059363757976470748065894319849168072298736240738418551116856392094958406532518415935622637805107437517760981593637171597492840454566189835716234919997757981358103088464336936259734161395795694076877973077610092057429798662878573250274623039730')));
}

potential ( C | D A B )
{
	data = ((Decimal('0.20539077288919852669153688424806179584951960118298747666122997312244330240398228886160079616940031719422502272391102685775254169062919247942376021997815371226365431329836189805331817444237148583294263227402429990764807030031942267749893215547754900888012569114051425407173187980897193527298561814032975508583728826435271602994202625819190558583390588725629918763624425423332169264812545408792877859570076410864288177118899505269242460565126707792612397785583655261590434251646906135970717733040186005') Decimal('0.79460922711080147330846311575193820415048039881701252333877002687755669759601771113839920383059968280577497727608897314224745830937080752057623978002184628773634568670163810194668182555762851416705736772597570009235192969968057732250106784452245099111987430885948574592826812019102806472701438185967024491416271173564728397005797374180809441416609411274370081236375574576667830735187454591207122140429923589135711822881100494730757539434873292207387602214416344738409565748353093864029282266959813995')) (Decimal('0.94570350906739408117875017502225246630786988157928863139790273974515321619922739199743619486187772358913792542804801482844415067262874774791447944940262596074524918209368047322699122238409722459468335294448406659641836310757108630474567162949916033447727292960297082161856931849640593955973634794197279225898544389684295536750061711061454141667864762270016249151283272109695121857608234826700919060367885860100789027546684863687154553324092775517766041398075321416178747075548826356274217078194706775') Decimal('0.054296490932605918821249824977747533692130118420711368602097260254846783800772608002563805138122276410862074571951985171555849327371252252085520550597374039254750817906319526773008777615902775405316647055515933403581636892428913695254328370500839665522727070397029178381430681503594060440263652058027207741014556103157044632499382889385458583321352377299837508487167278903048781423917651732990809396321141398992109724533151363128454466759072244822339586019246785838212529244511736437257829218052932248')) (Decimal('0.049464490350669597437101672858065551940742071126689664508581361807213151474395528236596976540979804413604553314502255526580578724183242553843559114764815497667976927639932721208462257913464936319623773361690177343349149375656611741985426299044044582050883636094529640036650818321142438391291754189883548892059222384334168294571573243790139906162708446291609316806908297863120958480798431117971308194768253146391195912818901766985694379351884704984846702930617648627305071853811492212595849656625801287') Decimal('0.95053550964933040256289832714193444805925792887331033549141863819278684852560447176340302345902019558639544668549774447341942127581675744615644088523518450233202307236006727879153774208653506368037622663830982265665085062434338825801457370095595541794911636390547035996334918167885756160870824581011645110794077761566583170542842675620986009383729155370839068319309170213687904151920156888202869180523174685360880408718109823301430562064811529501515329706938235137269492814618850778740415034337419871')) (Decimal('0.77810118959742304650689291277387382663597156130803465323641262700034091049005434259013173818506849227312036440057158698235879134554774495414269617104136237584103540062526362461273486331554470066583015406143512673848000835657245142537921474277123673192363654075900042663629761835340388705260971603247138044247535253764159875509432797889083886784701230486759740318094395604860273021850547777411975698850169710930608830445608263065654974419386578206142064814740536723552247282470981011287319502427216941') Decimal('0.22189881040257695349310708722612617336402843869196534676358737299965908950994565740986826181493150772687963559942841301764120865445225504585730382895863762415896459937473637538726513668445529933416984593856487326151999164342754857462078525722876326807636345924099957336370238164659611294739028396752861955752464746235840124490567202110916113215298769513240259681905604395139726978149452222588024301149830289069391169554391736934345025580613421793857935185259463276447752717529018988712680497572783059')) (Decimal('0.24004754263437544378471632739417992083421391360223346875645168944637331317437425224572119567336583028047667909407940760369857749274706811373041964606489471463855900374180272042589119695364806178799437120582270352514019753387649354433596280302456145015549424532999005881770958858029432883827317615396868131279584363091130918790790852355824934565883222135514319192292488294504249665672710508575061549154837899197526938308437004589892719476612952901550554150508949553937446639502891892825150406817609421') Decimal('0.75995245736562455621528367260582007916578608639776653124354831055362668682562574775427880432663416971952332090592059239630142250725293188626958035393510528536144099625819727957410880304635193821200562879417729647485980246612350645566403719697543854984450575467000994118229041141970567116172682384603131868720415636908869081209209147644175065434116777864485680807707511705495750334327289491424938450845162100802473061691562995410107280523387047098449445849491050446062553360497108107174849593182390579')) (Decimal('0.068714643572308081287958179634870195023733163825206945460095864613347083158521760352232425281015340984584424814719595465236476530636763396340835535053121189677938646444471986300309080204504112180640030273909118555883077084959303628096149036661779492079696878675403621859921620952680378168285116407624605456445111867045048557934738599447411366893623613452527110803814655565408872282699240142586883224453541286355984840202750125323624726285418125069286184721577158769161764958345024625913882997193903925') Decimal('0.93128535642769191871204182036512980497626683617479305453990413538665291684147823964776757471898465901541557518528040453476352346936323660365916446494687881032206135355552801369969091979549588781935996972609088144411692291504069637190385096333822050792030312132459637814007837904731962183171488359237539454355488813295495144206526140055258863310637638654747288919618534443459112771730075985741311677554645871364401515979724987467637527371458187493071381527842284123083823504165497537408611700280609608')) (Decimal('0.059790649938757534882378357464131721685019169031885127083384910036426319122698195129634054974153897973032739153849181576172694431461150832479653033246134428439382524541191473577290451038337953932033571292620665325991686436305497600905559167404623442810370305861767078739781881869047579325033571201890859267714297512679855361088847592023705929300396622294248279548529364218864518647491247176143287830027840347517306783462498423171339059840674885227876338120669300356390220573131676320276764447141040547') Decimal('0.94020935006124246511762164253586827831498083096811487291661508996357368087730180487036594502584610202696726084615081842382730556853884916752034696675386557156061747545880852642270954896166204606796642870737933467400831356369450239909444083259537655718962969413823292126021811813095242067496642879810914073228570248732014463891115240797629407069960337770575172045147063578113548135250875282385671216997215965248269321653750157682866094015932511477212366187933069964360977942686832367972323555285895945')) (Decimal('0.014637284594446893897744954968065396351868712501425825696998761071295757501799800979446255893723413735709147995134490665760784770645390975787038737842031079359183160636764703884333766864872858557302318348003005286775485840050979546944555524691577709909374070331215844005297096682065467044909617975967480061759533859081497631724454922489834582646616704480304001153283590682586449755984508754361897323066439230429678393475178793559496923616734092909769373404723795071223112083366976614653089114709905994') Decimal('0.98536271540555310610225504503193460364813128749857417430300123892870424249820019902055374410627658626429085200486550933423921522935460902421296126215796892064081683936323529611566623313512714144269768165199699471322451415994902045305544447530842229009062592966878415599470290331793453295509038202403251993824046614091850236827554507751016541735338329551969599884671640931741355024401549124563810267693356076957032160652482120644050307638326590709023062659527620492877688791663302338534691088529009401')));
}

potential ( B | D A )
{
	data = ((Decimal('0.93041577701217971136950058098580418381128973843478994306423063500780203315550278451134012843711407035132226899346251965629942695474711715681957742935759641710377685235336709398132301597279519893093407943115643754205312210724017369037980308018208602383320414962358891437725252715436676420323868938317752661815003075770459923034513079419672340542584207404786601445717775777256369000993949776143193173930126472097453677229859345203311179585037584215369644798008595198586352255009389460537104652489250636') Decimal('0.069584222987820288630499419014195816188710261565210056935769364992197966844497215488659871562885929648677731006537480343700573045252882843180422570642403582896223147646632906018676984027204801069065920568843562457946877892759826309620196919817913976166795850376411085622747472845633235796761310616822473381849969242295400769654869205803276594574157925952133985542822242227436309990060502238568068260698735279025463227701406547966888204149624157846303552019914048014136477449906105394628953475107493643')) (Decimal('0.71770251235162469765137615099578619474794196683085591002692672762294809475222943327176086653791121188350920747075392137415648102390903975726992183086811214965357280938689247503313670188002423918939173992258392037072501663466392952072325772999999207409306499887219590922060278581239501697148543852960192919727273504557416681982131982057587363733730269464565272289001682065582860001514236705646965626502495851384882700649145806003095894686175459561271530795583781178433343881314882665402901940545428894') Decimal('0.28229748764837530234862384900421380525205803316914408997307327237705190524777056672823913346208878811649079252924607862584351897609096024273007816913188785034642719061310752496686329811997576081060826007741607962927498336533607047927674227000000792590693500112780409077939721418760498302851456147039807080272726495442583318017868017942412636266269730535434727710998317934417139998485763294353034373497504148615117299350854193996904105313824540438728469204416218821566656118685117334597098059454571106')) (Decimal('0.36806614940217414653077164134674895721053580297451985035000699750170178636441259994305033000193347373892114535885224526615117843995310244949533605619840029437217414729130338794263632950269854463173880212435580799074118324609830932508444272211803977659186164597731570499700219818977397040466710753835833962633379056611329123382348644711250753641748511936035337450978761446879081749773108191811551845805720162384288331728995461749864772237156312650252740399728291665686804663937185087074046622710920006') Decimal('0.63193385059782585346922835865325104278946419702548014964999300249829821363558740005694966999806652626107885464114775473384882156004689755050466394380159970562782585270869661205736367049730145536826119787564419200925881675390169067491555727788196022340813835402268429500299780181022602959533289246164166037366620943388670876617651355288749246358251488063964662549021238553120918250226891808188448154194279837615711668271004538250135227762843687349747259600271708334313195336062814912925953377289079994')) (Decimal('0.026974680448375870833065505184970481519223056659138284652907370873240821276585401726698335495926657793578180905299878328768800886830839247609223825298755930088288960271457242618636117398758851727912132170278633801120483631035722524856733552888831445674808103706533856062247643682126018376437529996040288932851421040199982484186003348201864175898005729272349663307436089941091950074685711716924715004789208717307228953027595104272627435747819056400299729007532439769076867205209205608586110622998582192') Decimal('0.97302531955162412916693449481502951848077694334086171534709262912675917872341459827330166450407334220642181909470012167123119911316916075239077617470124406991171103972854275738136388260124114827208786782972136619887951636896427747514326644711116855432519189629346614393775235631787398162356247000395971106714857895980001751581399665179813582410199427072765033669256391005890804992531428828307528499521079128269277104697240489572737256425218094359970027099246756023092313279479079439141388937700141781')));
}

potential ( E | C )
{
	data = ((Decimal('0.7963231') Decimal('0.2036769')) (Decimal('0.6017372') Decimal('0.3982628')));
}

potential ( D |  )
{
	data = ((Decimal('0.25199605005266761074064564800000000') Decimal('0.74800394994733238925935435200000000')));
}

