net
{
	HRUNTIME_Propagate_AutoNormal = "1";
	HR_Font_Size = "-12";
	HRUNTIME_Font_Size = "-12";
	HR_Grid_GridSnap = "1";
	HRUNTIME_Propagate_AutoSum = "1";
	HR_Propagate_AutoNormal = "1";
	node_size = (100.0 40.0);
	HRUNTIME_Monitor_GraphPrecision = "100";
	HR_Grid_GridShow = "0";
	HR_Font_Name = "Arial";
	HR_Compile_ApproxEpsilon = "0.00001";
	HRUNTIME_Monitor_AutoUpdGraph = "0";
	HRUNTIME_Font_Name = "Arial";
	HRUNTIME_Font_Weight = "400";
	HR_Font_Weight = "400";
	HR_Monitor_AutoUpdGraph = "0";
	HRUNTIME_Compile_Compress = "0";
	HR_Compile_Compress = "0";
	HRUNTIME_Compile_TriangMethod = "0";
	HR_Grid_Y = "10";
	HR_Grid_X = "10";
	HR_Groups_GroupNames = "";
	HR_Compile_Approximate = "0";
	HRUNTIME_Compile_Approximate = "0";
	HR_Compile_TriangMethod = "0";
	HR_Color_DiscreteChance = "16";
	HRUNTIME_Compile_ApproxEpsilon = "0.00001";
	HR_Monitor_InitStates = "5";
	HRUNTIME_Grid_GridSnap = "1";
	HR_Color_ContinuosChance = "48";
	HRUNTIME_Propagate_Auto = "0";
	HR_Groups_GroupColors = "";
	HR_Monitor_OpenGraph = "0";
	HRUNTIME_Grid_GridShow = "0";
	HR_Monitor_InitSD = "2";
	HR_Groups_UserGroupsNo = "0";
	HR_Color_Decision = "17";
	HRUNTIME_Monitor_InitStates = "5";
	HRUNTIME_Grid_Y = "10";
	HRUNTIME_Grid_X = "10";
	HR_Propagate_Auto = "0";
	HR_Monitor_GraphPrecision = "100";
	HRUNTIME_Font_Italic = "0";
	HRUNTIME_Monitor_OpenGraph = "0";
	HR_Font_Italic = "0";
	HR_Propagate_AutoSum = "1";
	HR_Color_Utility = "36";
}

node A
{
	states = ("Present" "Absent");
	ID = "A";
	position = (131 0);
	label = "A:Metastatic Cancer";
}

node C
{
	states = ("Present" "Absent");
	ID = "C";
	position = (255 128);
	label = "C:  Brain Tumor";
}

node B
{
	states = ("Increased" "Not increased");
	ID = "B";
	position = (0 128);
	label = "B: Serum Calcium";
}

node E
{
	states = ("Present" "Absent");
	ID = "E";
	position = (414 266);
	label = "E: Severe Headaches";
}

node D
{
	states = ("Present" "Absent");
	ID = "D";
	position = (147 256);
	label = "D: Coma";
}

potential ( A | E )
{
	data = ((Decimal('0.22007597924399563172469272188045641703041912289042248392413432217219694568155285149476324059231144676041804828459201313619914882609633831301105529508374327451501379214850398207435954835164019787319871105343518013891120024467705949118107488882473381056256423582768781241141681902127272738737916246069733567575327128505647243805360357206732106789232704487800121643437194240929444334405413494179184013332367516337367358904673946078236383455452768697745970854733406968091096051350896138639111389394617053') Decimal('0.77992402075600436827530727811954358296958087710957751607586567782780305431844714850523675940768855323958195171540798686380085117390366168698894470491625672548498620785149601792564045164835980212680128894656481986108879975532294050881892511117526618943743576417231218758858318097872727261262083753930266432424672871494352756194639642793267893210767295512199878356562805759070555665594586505820815986667632483662632641095326053921763616544547231302254029145266593031908903948649103861360888610605382947')) (Decimal('0.19800560490997582001571797960551262317063466967020136928257935993194501708574531209960630984797612422129736952166572191104707332878648193665113395644264898638546827980111388942803910473656940042835789021848697872510090484293927441778379463117203108039024696616449067987163241041264572383409429847764944124551555642011635775183913582377223981898464484107954607952974295900027487834812508745042374645656614807086413292614481723215603360529536140212683574318849347343600370701993311006484801859534407310') Decimal('0.80199439509002417998428202039448737682936533032979863071742064006805498291425468790039369015202387577870263047833427808895292667121351806334886604355735101361453172019888611057196089526343059957164210978151302127489909515706072558221620536882796891960975303383550932012836758958735427616590570152235055875448444357988364224816086417622776018101535515892045392047025704099972512165187491254957625354343385192913586707385518276784396639470463859787316425681150652656399629298006688993515198140465592690')));
}

potential ( C | E A )
{
	data = ((Decimal('0.26223479961134665450012894954263210264239368794738173241189252236799071463541688001292165255608799999186466910299941857737221786751884286955741457581397559987740854927255153639610524365143638147885424048969816534707810943897209995530590636371895235942308958599388921932967207406642912712668879150850289015032251360739677414493696342429038234303028578495875446958158773377040033470473586530531273715538375015522950922465876146331473569272721078028229716884766963358203959779929215717178415433239003684') Decimal('0.73776520038865334549987105045736789735760631205261826758810747763200928536458311998707834744391200000813533089700058142262778213248115713044258542418602440012259145072744846360389475634856361852114575951030183465292189056102790004469409363628104764057691041400611078067032792593357087287331120849149710984967748639260322585506303657570961765696971421504124553041841226622959966529526413469468726284461624984477049077534123853668526430727278921971770283115233036641796040220070784282821584566760996316')) (Decimal('0.066781097530454648886833691829927073594418281287020852262229034947670233538309223167067760068984377953999870461439804447062241937305927769684640264603804311779796741110636265366536631954136338222282181196127864861888650580099386936533109716681334215633888928516815367470921253664484324310903609553658612786994101465344768845740408308003494549095030991104210242988664282919894343569640630572185454834148539559178102839642411556510992101822017402650894189104497033468332120619636132928375014406501911111') Decimal('0.93321890246954535111316630817007292640558171871297914773777096505232976646169077683293223993101562204600012953856019555293775806269407223031535973539619568822020325888936373463346336804586366177771781880387213513811134941990061306346689028331866578436611107148318463252907874633551567568909639044634138721300589853465523115425959169199650545090496900889578975701133571708010565643035936942781454516585146044082189716035758844348900789817798259734910581089550296653166787938036386707162498559349808889')) (Decimal('0.12077126402356910105925639025862684468851848845036858176590608247687576201143928001781796736168188873528616016825996327467999123104157655779309683998630485814844838310105491920217536366345222584479763084913771529018260359363643122142387127447679378351430049017264782621613965359514643117557374205119798957138582756855747244967711431323489019292141844941771992275356865736832792079858577449734964604314311401087743695022681083844976146159012375857385907908741530633215061989394137177982449812191520507') Decimal('0.87922873597643089894074360974137315531148151154963141823409391752312423798856071998218203263831811126471383983174003672532000876895842344220690316001369514185155161689894508079782463633654777415520236915086228470981739640636356877857612872552320621648569950982735217378386034640485356882442625794880201042861417243144252755032288568676510980707858155058228007724643134263167207920141422550265035395685688598912256304977318916155023853840987624142614092091258469366784938010605862822017550187808479493')) (Decimal('0.026909934731909383014037101473445590997819616308862324081508514589414858423773829799896590131389446140462722076961715114981112748768104176816764593031745971309002701210248994778702687690718979421833431923734502885730881293360970052547911544078898380328453130900704592837725843031250628106348695306602761042068669587006180985137225944703961235808408068220132743812927518005816342090782517180527349645197890033169870344275879422486990853332966698884493195223812185525923774201480039329022233633025278199') Decimal('0.97309006526809061698596289852655440900218038369113767591849148541058514157622617020010340986861055385953727792303828488501888725123189582318323540696825402869099729878975100522129731230928102057816656807626549711426911870663902994745208845592110161967154686909929540716227415696874937189365130469339723895793133041299381901486277405529603876419159193177986725618707248199418365790921748281947265035480210996683012965572412057751300914666703330111550680477618781447407622579851996067097776636697472180')));
}

potential ( B | A C D )
{
	data = ((Decimal('0.74385052891588932317198005692935816770401660250677272577237218516618459714488622569457285852549480285613022211990557668321540359326353863699395553282426279702579208034765505219016447271266707337009463801837854796894803402040030200794596528233446423583060003618042889152096011232147232765567188222716034437017152980849155123828914622219898324748913021911427193039737103735805684070724364739234324293226706453169621541119803037629265937793124625410757267010748270425358112092086948764919675029238655537') Decimal('0.25614947108411067682801994307064183229598339749322727422762781483381540285511377430542714147450519714386977788009442331678459640673646136300604446717573720297420791965234494780983552728733292662990536198162145203105196597959969799205403471766553576416939996381957110847903988767852767234432811777283965562982847019150844876171085377780101675251086978088572806960262896264194315929275635260765675706773293546830378458880196962370734062206875374589242732989251729574641887907913051235080324970761344463')) (Decimal('0.67047907192283521459561471565689962513923350736403990718086429737610237994639422733493516083046272187082118933894590927092653001392744281218544786650711186567168334656294982030151610420823402495073326061854184208972543374557172844619054715923467010077986721236431222257016556266571912027090161971621800178260887444309721575335416391443055654739671570140604559376196496994780078718903285411554148531173054962886868482632252504183051816773015458810763367770117683693510712042556945308297891400071002881') Decimal('0.32952092807716478540438528434310037486076649263596009281913570262389762005360577266506483916953727812917881066105409072907346998607255718781455213349288813432831665343705017969848389579176597504926673938145815791027456625442827155380945284076532989922013278763568777742983443733428087972909838028378199821739112555690278424664583608556944345260328429859395440623803503005219921281096714588445851468826945037113131517367747495816948183226984541189236632229882316306489287957443054691702108599928997119')) (Decimal('0.99491561857142402940057492390447646308768741056922369184499952439121822128851436491014745484284426196394615115860305451782719678696203316805775231106551094215031450108646830640055908781296388753978527554294210039024461165885775912689142066528437182389543169826464611673291907096019129717861618927509401162753370152315152414808593986738600283919913698568992259497760347910319991305826558995105854578665471825934075038152943272413592501430017305756925562778838450998282810447051807840551281005203099585') Decimal('0.0050843814285759705994250760955235369123125894307763081550004756087817787114856350898525451571557380360538488413969454821728032130379668319422476889344890578496854989135316935994409121870361124602147244570578996097553883411422408731085793347156281761045683017353538832670809290398087028213838107249059883724662984768484758519140601326139971608008630143100774050223965208968000869417344100489414542133452817406592496184705672758640749856998269424307443722116154900171718955294819215944871899479690041480')) (Decimal('0.32216678027642243248569059114370927285041466503353393218576217853094455389101322947192778225974130541614373341358678759223831223333768887918994657573389345312597907391600043047874451042070625373531296559814980929992432223159841073525557976495210619961781390138949263968112025585899858183502992196160921774885783415651826892834551832661628334153000643915521617880728185848907129545472104833875388793626112323229923457326332026650367723867566692706978864703689378458921093308108098851662113608558447720') Decimal('0.67783321972357756751430940885629072714958533496646606781423782146905544610898677052807221774025869458385626658641321240776168776666231112081005342426610654687402092608399956952125548957929374626468703440185019070007567776840158926474442023504789380038218609861050736031887974414100141816497007803839078225114216584348173107165448167338371665846999356084478382119271814151092870454527895166124611206373887676770076542673667973349632276132433307293021135296310621541078906691891901148337886391441552280')) (Decimal('0.13913322710948677277480555617261215215471865265861170776854444937305107081040280245411910947394493459331082005401977201913047990064607459805399815454462218586062247649244120716837560929371785112860725055123952157073390074965828645545364529311837102694037865394636221132682655480492641319177028741395875201100284678595144773137977071629548998673199149441813135038359827377334195845516258285392958106742215780440913289446326206276946575731059057431962319339355455435291945398892916479914412346674106980') Decimal('0.86086677289051322722519444382738784784528134734138829223145555062694892918959719754588089052605506540668917994598022798086952009935392540194600184545537781413937752350755879283162439070628214887139274944876047842926609925034171354454635470688162897305962134605363778867317344519507358680822971258604124798899715321404855226862022928370451001326800850558186864961640172622665804154483741714607041893257784219559086710553673793723053424268940942568037680660644544564708054601107083520085587653325893020')) (Decimal('0.10172216779138215454052210813078994623985155257456596809319258818876581672245250967976306297499663640377853097721207745218702996127926250035727706394781019834824400628047926852171124349763975544610075826100075740891088860504397172654166734277291537558401375802887660379625686047358200566396327344752332919942319295810167842148486564443859313393876890309368838018077716866466696708591448844711135020730441073219931390879251244219828939198538963363280154992867870058946276690143325596514833962436180992') Decimal('0.89827783220861784545947789186921005376014844742543403190680741181123418327754749032023693702500336359622146902278792254781297003872073749964272293605218980165175599371952073147828875650236024455389924173899924259108911139495602827345833265722708462441598624197112339620374313952641799433603672655247667080057680704189832157851513435556140686606123109690631161981922283133533303291408551155288864979269558926780068609120748755780171060801461036636719845007132129941053723309856674403485166037563819008')) (Decimal('0.91589978040324911288864377557834001971563681892046503925133591481376141322964524655562179500080880376431876697818421111148662277395527893223131157150679757354448639598711144121226886493980396981090612494416907607637721093774254217802905778193752479841537215888050055045673776857878357606448847466575007876548336671685644598561054647467394562046308838330239718137602491011440304920061374081865310595751926581796505455554623410412852452064765252993102436265136460619915201575117787697438899122005547572') Decimal('0.084100219596750887111356224421659980284363181079534960748664085186238586770354753444378204999191196235681233021815788888513377226044721067768688428493202426455513604012888558787731135060196030189093875055830923923622789062257457821970942218062475201584627841119499449543262231421216423935511525334249921234516633283143554014389453525326054379536911616697602818623975089885596950799386259181346894042480734182034945444453765895871475479352347470068975637348635393800847984248822123025611008779944524284')) (Decimal('0.025770444441406308985738525850242488517658740233555853529976062651086075370366133054771758675288106423842168726260077815009483088138879530533825409010660432384026324598260064189840470583003049474177399579634433218502420993947205243147799951466625236089119629188105273143067889009818401631993465586902591715085785452267854052695269132271195973455299596901568062668884050162533433044033089930727110789528269525875403001717451608920308530369851642625198850641059419476290997078828519772352398187310030514') Decimal('0.97422955555859369101426147414975751148234125976644414647002393734891392462963386694522824132471189357615783127373992218499051691186112046946617459098933956761597367540173993581015952941699695052582260042036556678149757900605279475685220004853337476391088037081189472685693211099018159836800653441309740828491421454773214594730473086772880402654470040309843193733111594983746656695596691006927288921047173047412459699828254839107969146963014835737480114935894058052370900292117148022764760181268996949')));
}

potential ( E |  )
{
	data = ((Decimal('0.61832639915802571188100000000000000') Decimal('0.38167360084197428811900000000000000')));
}

potential ( D | A C )
{
	data = ((Decimal('0.7752623487162') Decimal('0.2247376512838')) (Decimal('0.602296721538') Decimal('0.397703278462')) (Decimal('0.7367081475632') Decimal('0.2632918524368')) (Decimal('0.116289567568') Decimal('0.883710432432')));
}

