net
{
	HRUNTIME_Propagate_AutoNormal = "1";
	HR_Font_Size = "-12";
	HRUNTIME_Font_Size = "-12";
	HR_Grid_GridSnap = "1";
	HRUNTIME_Propagate_AutoSum = "1";
	HR_Propagate_AutoNormal = "1";
	node_size = (100.0 40.0);
	HRUNTIME_Monitor_GraphPrecision = "100";
	HR_Grid_GridShow = "0";
	HR_Font_Name = "Arial";
	HR_Compile_ApproxEpsilon = "0.00001";
	HRUNTIME_Monitor_AutoUpdGraph = "0";
	HRUNTIME_Font_Name = "Arial";
	HRUNTIME_Font_Weight = "400";
	HR_Font_Weight = "400";
	HR_Monitor_AutoUpdGraph = "0";
	HRUNTIME_Compile_Compress = "0";
	HR_Compile_Compress = "0";
	HRUNTIME_Compile_TriangMethod = "0";
	HR_Grid_Y = "10";
	HR_Grid_X = "10";
	HR_Groups_GroupNames = "";
	HR_Compile_Approximate = "0";
	HRUNTIME_Compile_Approximate = "0";
	HR_Compile_TriangMethod = "0";
	HR_Color_DiscreteChance = "16";
	HRUNTIME_Compile_ApproxEpsilon = "0.00001";
	HR_Monitor_InitStates = "5";
	HRUNTIME_Grid_GridSnap = "1";
	HR_Color_ContinuosChance = "48";
	HRUNTIME_Propagate_Auto = "0";
	HR_Groups_GroupColors = "";
	HR_Monitor_OpenGraph = "0";
	HRUNTIME_Grid_GridShow = "0";
	HR_Monitor_InitSD = "2";
	HR_Groups_UserGroupsNo = "0";
	HR_Color_Decision = "17";
	HRUNTIME_Monitor_InitStates = "5";
	HRUNTIME_Grid_Y = "10";
	HRUNTIME_Grid_X = "10";
	HR_Propagate_Auto = "0";
	HR_Monitor_GraphPrecision = "100";
	HRUNTIME_Font_Italic = "0";
	HRUNTIME_Monitor_OpenGraph = "0";
	HR_Font_Italic = "0";
	HR_Propagate_AutoSum = "1";
	HR_Color_Utility = "36";
}

node A
{
	states = ("Present" "Absent");
	ID = "A";
	position = (131 0);
	label = "A:Metastatic Cancer";
}

node C
{
	states = ("Present" "Absent");
	ID = "C";
	position = (255 128);
	label = "C:  Brain Tumor";
}

node B
{
	states = ("Increased" "Not increased");
	ID = "B";
	position = (0 128);
	label = "B: Serum Calcium";
}

node E
{
	states = ("Present" "Absent");
	ID = "E";
	position = (414 266);
	label = "E: Severe Headaches";
}

node D
{
	states = ("Present" "Absent");
	ID = "D";
	position = (147 256);
	label = "D: Coma";
}

potential ( A | B C )
{
	data = ((Decimal('0.86176344221533812366124700457486106309289174474026807834091872311977581986919103283483903316430502056240051216098295621416001288181544836661112362976871862132297110150485486989347563794288296018594421166050734548224353403351221583411691510832198852063932930965492841145568527552864789748241923512885856717901350505843989256776152558764342017405264542090152157162653567196492576981643771008610649458317601755639567031868988547238255483341409687081133656420957367270344948754012884439866302949272656456') Decimal('0.13823655778466187633875299542513893690710825525973192165908127688022418013080896716516096683569497943759948783901704378583998711818455163338887637023128137867702889849514513010652436205711703981405578833949265451775646596648778416588308489167801147936067069034507158854431472447135210251758076487114143282098649494156010743223847441235657982594735457909847842837346432803507423018356228991389350541682398244360432968131011452761744516658590312918866343579042632729655051245987115560133697050727343544')) (Decimal('0.55655198639194215785074188670466189297103691460982427487239582533267939982711303674732152455353787629082198525635691741032142767460894020329540043956290803502259498534510864867033198975423924636340912440110335799034255917802711835632685550724061069709152453802188284619308147636256085384842917029235586932062021668189308988243681861948011706130268353103907597817697079909377252008274248336088396239253839076689694387356966901300534181934537954069047034777727056527296984051598769752741358579015667821') Decimal('0.44344801360805784214925811329533810702896308539017572512760417466732060017288696325267847544646212370917801474364308258967857232539105979670459956043709196497740501465489135132966801024576075363659087559889664200965744082197288164367314449275938930290847546197811715380691852363743914615157082970764413067937978331810691011756318138051988293869731646896092402182302920090622747991725751663911603760746160923310305612643033098699465818065462045930952965222272943472703015948401230247258641420984332179')) (Decimal('0.25758236882112121357535630511083027578559293686843250381835350888372250092072744614056604069150909892233151173881616870694953357391978236061243025419307847820023185656446694974514436809067012284184555500934367427867508473403916081484598873220511654246506265902039274745623257943421403090109765240126671521989526249824683261344316813062832355910052311005019216976394526185431179040770372795788830799835275064418558415350064103955418798710470935356283167322090301849071063653013929331145675505323299517') Decimal('0.74241763117887878642464369488916972421440706313156749618164649111627749907927255385943395930849090107766848826118383129305046642608021763938756974580692152179976814343553305025485563190932987715815444499065632572132491526596083918515401126779488345753493734097960725254376742056578596909890234759873328478010473750175316738655683186937167644089947688994980783023605473814568820959229627204211169200164724935581441584649935896044581201289529064643716832677909698150928936346986070668854324494676700483')) (Decimal('0.065289430034077087663964241280070117880579881242873789434400798408613818033309246344962040864405496467430786587611915448145488853197837738685588732814562581899664030770602940181094357165073016700519467495475605318502511922728132931405220554679210367609056925850457225457536476752607848918295132438469056380598205540731003915934115819131737079733233289862901326584908161221739779894508394263427849604449557126512280974157501195577867417066552163058651589313064404854328261622306304192702159228685787237') Decimal('0.93471056996592291233603575871992988211942011875712621056559920159138618196669075365503795913559450353256921341238808455185451114680216226131441126718543741810033596922939705981890564283492698329948053250452439468149748807727186706859477944532078963239094307414954277454246352324739215108170486756153094361940179445926899608406588418086826292026676671013709867341509183877826022010549160573657215039555044287348771902584249880442213258293344783694134841068693559514567173837769369580729784077131421276')));
}

potential ( C | E D B )
{
	data = ((Decimal('0.18094292799064435052555076648818000853190950728751869562670335951717648745908116241031267984187272445797301110479872376167346658579606020778281060175615932584100768351888478932784777742326293744554573079643410896293715880826353249375491609199526050923500743457556222976119134385898819380370752457922270622632714073797818323839293420059274429152064786740979873083422528263837965447120885050167013708393293338746729800471693377395576134878495613415571460809548875732861288452668700165957628504397422603') Decimal('0.81905707200935564947444923351181999146809049271248130437329664048282351254091883758968732015812727554202698889520127623832653341420393979221718939824384067415899231648111521067215222257673706255445426920356589103706284119173646750624508390800473949076499256542443777023880865614101180619629247542077729377367285926202181676160706579940725570847935213259020126916577471736162034552879114949832986291606706661253270199528306622604423865121504386584428539190451124267138711547331299834042371495602577397')) (Decimal('0.85385277918549757153988607333630293977987669600059281939190989476282981297590714783419478264793042696408607336113114776136650479803134643245862148842487981703810684568173650445584934800376911291181132768759120503474928166822413669406066392049581751243314219320893532106529409216376571158648608681884850605044048238991375702438694612432136712294144146167067344592261426600078594561088629949019887345852183148895224689167415836785976652452368212380761681433748233746708914166745430020360077979020434250') Decimal('0.14614722081450242846011392666369706022012330399940718060809010523717018702409285216580521735206957303591392663886885223863349520196865356754137851157512018296189315431826349554415065199623088708818867231240879496525071833177586330593933607950418248756685780679106467893470590783623428841351391318115149394955951761008624297561305387567863287705855853832932655407738573399921405438911370050980112654147816851104775310832584163214023347547631787619238318566251766253291085833254569979639922020979565750')) (Decimal('0.21257807416034977836461286033645849250436599093043257811517850527780536426159752591210315760536611388740354582301455072775228755944108263558428730042572679269476598707522629053194677609574213950069520834672795836121180424875221101917272308008892422253826207611394797842478018927847961272516020837685642556347805583178731304248248982316306782251022921737928318071659729986760169028138904246498184833294000998296479119715529583780257432141543085515120653958122660289895833523587211203323112793433457944') Decimal('0.78742192583965022163538713966354150749563400906956742188482149472219463573840247408789684239463388611259645417698544927224771244055891736441571269957427320730523401292477370946805322390425786049930479165327204163878819575124778898082727691991107577746173792388605202157521981072152038727483979162314357443652194416821268695751751017683693217748977078262071681928340270013239830971861095753501815166705999001703520880284470416219742567858456914484879346041877339710104166476412788796676887206566542056')) (Decimal('0.024152260386156067638413570085476694843427146402380760421522925878785216846999482869547138257308913414959592134114699887144015815124668148374166724539082809197168341490526542539116197616828574096359977328540213856539086525917665371963459035729279966944650311340316949418959273405087618042001166258966385472734818559865113260714118876492960077962237249830017522666315593237879381113209647841035991567648882532223549036813156318287306157362682770997659165652602934518138339699804018544978550649100844787') Decimal('0.97584773961384393236158642991452330515657285359761923957847707412121478315300051713045286174269108658504040786588530011285598418487533185162583327546091719080283165850947345746088380238317142590364002267145978614346091347408233462803654096427072003305534968865968305058104072659491238195799883374103361452726518144013488673928588112350703992203776275016998247733368440676212061888679035215896400843235111746777645096318684368171269384263731722900234083434739706548186166030019598145502144935089915521')) (Decimal('0.078657165514333939276933486978432181525832560215374236914967046724651971947872857863176028899295751821166121229002702628050453283771905021467398231266386675354777838301528976064549723812473715947572979369596851423262463214927052387017232445547701220934709756702089872830102590709026048672149691983648209443509400553649044577599843151357808993894827394256743236100139366289321943469528989104878900269210937919057632537723261464994790203358458562038732253290364357185593732635551187997815647943314235486') Decimal('0.92134283448566606072306651302156781847416743978462576308503295327534802805212714213682397110070424817883387877099729737194954671622809497853260176873361332464522216169847102393545027618752628405242702063040314857673753678507294761298276755445229877906529024329791012716989740929097395132785030801635179055649059944635095542240015684864219100610517260574325676389986063371067805653047101089512109973078906208094236746227673853500520979664154143796126774670963564281440626736444881200218435205668576451')) (Decimal('0.69304269432374840696227934722319615221285608590300783878244286571779264324238615550781513120210039955817505865189634637911382296135410204535150252509319129273775315148066418681843474070222899028448905723820979029032952121257719315122646607924893434908241942834674944169461271191340070933226925793149217488740693247965381862165768257659998589492931485129741263898476011041710152166677715656690124728429162263363229043646916562622865249426387807301090539212070629884468687747810379680825898679200268058') Decimal('0.30695730567625159303772065277680384778714391409699216121755713428220735675761384449218486879789960044182494134810365362088617703864589795464849747490680870726224684851933581318156525929777100971551094276179020970967047878742280684877353392075106565091758057165325055830538728808659929066773074206850782511259306752034618137834231742340001410507068514870258736101523988958289847833322284343309875271570837736636770956353083437377134750573612192698909460787929370115531312252189620319174101320799731942')) (Decimal('0.094471865894954532985353745872988135784610970036719876601781082076750085337856171612296231211013808027486305308712473074357022708258309384757835875192250602419246748765982098090144236198704646461479176687224322882982085932921309540920328255824282576470590944063605072315985509939264192289639122967890063185507816278610170755037781012386381343859015975764505224965453588775188013205135426745654658049771082878217292896067229042152452070964203040835380397034539705725644976283058236668965082928310880676') Decimal('0.90552813410504546701464625412701186421538902996328012339821891792324991466214382838770376878898619197251369469128752692564297729174169061524216412480774939758075325123401790190985576380129535353852082331277567711701791406707869045907967174417571742352940905593639492768401449006073580771036087703210993681449218372138982924496221898761361865614098402423549477503454641122481198679486457325434534195022891712178270710393277095784754792903579695916461960296546029427435502371694176333103491707168911932')) (Decimal('0.0094739524913336422231871728137173517925969701332706700809045873292660185705515146456127413191033125845335667780186098423551839370072422629006591134006378669339698896659246198067161082729379842746246481055826869551349349970309883026592047029528280580783719069205730122858106102085674644007205404533351933904134215056001694015693019256697674093034304510797281142651494667209660870179035317084842623103417906346168013475535543774013637681878787453513250916363137073396966584187132755934206443091140142355') Decimal('0.99052604750866635777681282718628264820740302986672932991909541267073398142944848535438725868089668741546643322198139015764481606299275773709934088659936213306603011033407538019328389172706201572537535189441731304486506500296901169734079529704717194192162809307942698771418938979143253559927945954666480660958657849439983059843069807433023259069656954892027188573485053327903391298209646829151573768965820936538319865244644562259863623181212125464867490836368629266030334158128672440657935569088598576')));
}

potential ( B | E D )
{
	data = ((Decimal('0.80376828327712453464215344775004078450211131151733321935326978748103352235182433789853323371604305470403753015314618839468133607312550947738489878577305186626266728919166802929600444584427978943554642762745624664409511118521445612259594930759432518308000102556713523647557704565029351081530355877755664431318316899498976129382070618898144992431792201290322460787990219281825739230052143254431409911481322128980675132397305762615134971495033677840902556723325803241892360858485990354547092079646886618') Decimal('0.19623171672287546535784655224995921549788868848266678064673021251896647764817566210146676628395694529596246984685381160531866392687449052261510121422694813373733271080833197070399555415572021056445357237254375335590488881478554387740405069240567481691999897443286476352442295434970648918469644122244335568681683100501023870617929381101855007568207798709677539212009780718174260769947856745568590088518677871019324867602694237384865028504966322159097443276674196758107639141514009645452907920353113382')) (Decimal('0.064632628866237960576427680052920771303344616362497560960040793809867137844673786885315790535016081587496067382663313764423258765062818812314607472558916650519900222939695058073318513161853720403744287707006455051257126246357419163644159127040073857091897586931397426961345802259770100855219909521860277098807688673381928054157050511534742464716244985592055739506294882726524466083851757874389349762422640175941619553372967034267896116193183974221292343921987655808711209325413675968823960464315839226') Decimal('0.93536737113376203942357231994707922869665538363750243903995920619013286215532621311468420946498391841250393261733668623557674123493718118768539252744108334948009977706030494192668148683814627959625571229299354494874287375364258083635584087295992614290810241306860257303865419774022989914478009047813972290119231132661807194584294948846525753528375501440794426049370511727347553391614824212561065023757735982405838044662703296573210388380681602577870765607801234419128879067458632403117603953568416077')) (Decimal('0.88436493759726474726016503711850522912384500316575144533024306270638479653640102649894106557474400834705915951847871331636740601317858024454453713408759029201424221839099688894864674137471213582490399124288403972234034720918981557282396224598114488746429367329599956299919213267287866834115547860865579414786917980901489721303814523969210625539314108451190609405927707152786342664274465858967024322999103483444375764040419381769632043266130993474551059107237291555883651817073939516596893576992531884') Decimal('0.11563506240273525273983496288149477087615499683424855466975693729361520346359897350105893442525599165294084048152128668363259398682141975545546286591240970798575778160900311105135325862528786417509600875711596027765965279081018442717603775401885511253570632670400043700080786732712133165884452139134420585213082019098510278696185476030789374460685891548809390594072292847213657335725534141032975677000896516555624235959580618230367956733869006525448940892762708444116348182926060483403106423007468116')) (Decimal('0.057484093678709924840120967598375015237381047549440519688192770328509239775608351728296026105592511770685716855979962741332722389856202699941645692204972359495326196426393923535153232428396837104706350940617511199454264031425608452065104171504194798139091239963659243860291702632605103572999338391586961281227720648147580779995324942042862217717341217755203347883384890325565085990381679852663287500586957019126976588170713825367636952079618014917018793890286231344825956264158346743152005187778798237') Decimal('0.94251590632129007515987903240162498476261895245055948031180722967149076022439164827170397389440748822931428314402003725866727761014379730005835430779502764050467380357360607646484676757160316289529364905938248880054573596857439154793489582849580520186090876003634075613970829736739489642700066160841303871877227935185241922000467505795713778228265878224479665211661510967443491400961832014733671249941304298087302341182928617463236304792038198508298120610971376865517404373584165325684799481222120176')));
}

potential ( E |  )
{
	data = ((Decimal('0.61832639915802571188100000000000000') Decimal('0.38167360084197428811900000000000000')));
}

potential ( D | E )
{
	data = ((Decimal('0.26554418187888406165143867274090542469674601551955098128241599160538851037958022007675703038586230864033117330813742136600187147833857051420713726206682776594632875264139344829329378386388915173365704217331277263329882463024687754340027874408567582140711488507407436629245049724862476644205779645961138588864246321841787796161062249030564226587049190449475479477396356471156643791056752732072042792146941436982192738408492069239064188463921851157668591771799956438519347098227631657711652828695518689') Decimal('0.73445581812111593834856132725909457530325398448044901871758400839461148962041977992324296961413769135966882669186257863399812852166142948579286273793317223405367124735860655170670621613611084826634295782668722736670117536975312245659972125591432417859288511492592563370754950275137523355794220354038861411135753678158212203838937750969435773412950809550524520522603643528843356208943247267927957207853058563017807261591507930760935811536078148842331408228200043561480652901772368342288347171304481311')) (Decimal('0.23004753815940964795220775153058181721409272685687167383395120862517861257586478335732979213629155766952619072047700157438332880056926784225888451956078838499643640271745742820596338020915104329410553151462230123884850321127518309203961778301815363021816832482855025352124602687907128886209790842354121425796815023121959151928149911701252095661385955315085119318382152498928436860500261123784441287235963157974111698816570399832549075545026680684345494684297458262095541667359207929135074066445244873') Decimal('0.76995246184059035204779224846941818278590727314312832616604879137482138742413521664267020786370844233047380927952299842561667119943073215774111548043921161500356359728254257179403661979084895670589446848537769876115149678872481690796038221698184636978183167517144974647875397312092871113790209157645878574203184976878040848071850088298747904338614044684914880681617847501071563139499738876215558712764036842025888301183429600167450924454973319315654505315702541737904458332640792070864925933554755127')));
}

