net
{
    node_size = (70 20);
}

node P
{
	states = ("true" "false");
	ID = "P";
	position = (100 80);
	label = "Psych_report";
}

node C
{
	states = ("true" "false");
	ID = "C";
	position = (200 80);
	label = "Crime";
}

node M
{
	states = ("true" "false");
	ID = "M";
	position = (150 150);
	label = "Motive";
}

node D
{
	states = ("true" "false");
	ID = "D";
	position = (250 10);
	label = "DNA_match";
}

node T
{
	states = ("true" "false");
	ID = "T";
	position = (300 80);
	label = "Twin";
}

potential ( P | M D )
{
	data = ((Decimal('0.61242100000000000001') Decimal('0.38757899999999999999')) (Decimal('0.61242100000000000001') Decimal('0.38757900000000000001')) (Decimal('0.12400100000000000001') Decimal('0.87599900000000000004')) (Decimal('0.12400100000000000000') Decimal('0.87599900000000000000')));
}

potential ( C | M D P )
{
	data = ((Decimal('0.98876381715028262894') Decimal('0.011236182849717371052')) (Decimal('0.98876381715028262891') Decimal('0.011236182849717371052')) (Decimal('0.010261443951395554450') Decimal('0.98973855604860444555')) (Decimal('0.010261443951395554449') Decimal('0.98973855604860444555')) (Decimal('0.46207384217971517146') Decimal('0.53792615782028482854')) (Decimal('0.46207384217971517151') Decimal('0.53792615782028482852')) (Decimal('0.00010119498515499198463') Decimal('0.99989880501484500804')) (Decimal('0.00010119498515499198463') Decimal('0.99989880501484500802')));
}

potential ( M |  )
{
	data = ((Decimal('0.052412000000000000001') Decimal('0.94758800000000000000')));
}

potential ( D | M )
{
	data = ((Decimal('0.51512451053213014402') Decimal('0.48487548946786985598')) (Decimal('0.021927283089941971998') Decimal('0.97807271691005802800')));
}

potential ( T | M D P C )
{
	data = ((Decimal('0.012227629133731828227') Decimal('0.98777237086626817176')) (Decimal('0.99991710558364556817') Decimal('0.000082894416354431854075')) (Decimal('0.012227629133731828228') Decimal('0.98777237086626817175')) (Decimal('0.99991710558364556818') Decimal('0.000082894416354431854078')) (Decimal('0.0023425950573478867481') Decimal('0.99765740494265211326')) (Decimal('0.00021840681011061707616') Decimal('0.99978159318988938292')) (Decimal('0.0023425950573478867482') Decimal('0.99765740494265211327')) (Decimal('0.00021840681011061707615') Decimal('0.99978159318988938293')) (Decimal('0.012227629133731828229') Decimal('0.98777237086626817181')) (Decimal('0.99991710558364556811') Decimal('0.000082894416354431854066')) (Decimal('0.012227629133731828228') Decimal('0.98777237086626817177')) (Decimal('0.99991710558364556815') Decimal('0.000082894416354431854074')) (Decimal('0.0023425950573478867483') Decimal('0.99765740494265211328')) (Decimal('0.00021840681011061707615') Decimal('0.99978159318988938288')) (Decimal('0.0023425950573478867481') Decimal('0.99765740494265211325')) (Decimal('0.00021840681011061707615') Decimal('0.99978159318988938292')));
}

