net
{
    node_size = (70 20);
}

node P
{
	states = ("true" "false");
	ID = "P";
	position = (100 80);
	label = "Psych_report";
}

node C
{
	states = ("true" "false");
	ID = "C";
	position = (200 80);
	label = "Crime";
}

node M
{
	states = ("true" "false");
	ID = "M";
	position = (150 150);
	label = "Motive";
}

node D
{
	states = ("true" "false");
	ID = "D";
	position = (250 10);
	label = "DNA_match";
}

node T
{
	states = ("true" "false");
	ID = "T";
	position = (300 80);
	label = "Twin";
}

potential ( P |  )
{
	data = ((Decimal('0.14960006903999999998') Decimal('0.85039993096000000000')));
}

potential ( C | P )
{
	data = ((Decimal('0.11838668216380558432') Decimal('0.88161331783619441575')) (Decimal('0.022272153203842433200') Decimal('0.97772784679615756681')));
}

potential ( M | P C )
{
	data = ((Decimal('0.93212213385460236359') Decimal('0.067877866145397636402')) (Decimal('0.11820293056368178084') Decimal('0.88179706943631821924')) (Decimal('0.55161009562126748934') Decimal('0.44838990437873251066')) (Decimal('0.011866076469896765654') Decimal('0.98813392353010323435')));
}

potential ( D | P C M )
{
	data = ((Decimal('0.99032586706400000000') Decimal('0.0096741329359999999994')) (Decimal('0.99032586706400000000') Decimal('0.0096741329360000000003')) (Decimal('0.011917183852000000000') Decimal('0.98808281614799999999')) (Decimal('0.011917183852000000001') Decimal('0.98808281614800000001')) (Decimal('0.99032586706400000001') Decimal('0.0096741329359999999997')) (Decimal('0.99032586706400000000') Decimal('0.0096741329360000000001')) (Decimal('0.011917183851999999999') Decimal('0.98808281614800000000')) (Decimal('0.011917183852000000000') Decimal('0.98808281614799999999')));
}

potential ( T | P C M D )
{
	data = ((Decimal('0.012227629133731828227') Decimal('0.98777237086626817176')) (Decimal('0.0023425950573478867481') Decimal('0.99765740494265211326')) (Decimal('0.012227629133731828229') Decimal('0.98777237086626817181')) (Decimal('0.0023425950573478867483') Decimal('0.99765740494265211328')) (Decimal('0.99991710558364556817') Decimal('0.000082894416354431854075')) (Decimal('0.00021840681011061707616') Decimal('0.99978159318988938292')) (Decimal('0.99991710558364556811') Decimal('0.000082894416354431854066')) (Decimal('0.00021840681011061707615') Decimal('0.99978159318988938288')) (Decimal('0.012227629133731828228') Decimal('0.98777237086626817175')) (Decimal('0.0023425950573478867482') Decimal('0.99765740494265211327')) (Decimal('0.012227629133731828228') Decimal('0.98777237086626817177')) (Decimal('0.0023425950573478867481') Decimal('0.99765740494265211325')) (Decimal('0.99991710558364556818') Decimal('0.000082894416354431854078')) (Decimal('0.00021840681011061707615') Decimal('0.99978159318988938293')) (Decimal('0.99991710558364556815') Decimal('0.000082894416354431854074')) (Decimal('0.00021840681011061707615') Decimal('0.99978159318988938292')));
}

