net
{
    node_size = (70 20);
}

node P
{
	states = ("true" "false");
	ID = "P";
	position = (100 80);
	label = "Psych_report";
}

node C
{
	states = ("true" "false");
	ID = "C";
	position = (200 80);
	label = "Crime";
}

node M
{
	states = ("true" "false");
	ID = "M";
	position = (150 150);
	label = "Motive";
}

node D
{
	states = ("true" "false");
	ID = "D";
	position = (250 10);
	label = "DNA_match";
}

node T
{
	states = ("true" "false");
	ID = "T";
	position = (300 80);
	label = "Twin";
}

potential ( P |  )
{
	data = ((Decimal('0.14960006903999999998') Decimal('0.85039993096000000000')));
}

potential ( C | P M )
{
	data = ((Decimal('0.51431200000000000002') Decimal('0.48568799999999999998')) (Decimal('0.010231000000000000000') Decimal('0.98976900000000000008')) (Decimal('0.514312') Decimal('0.48568800000000000000')) (Decimal('0.010231000000000000000') Decimal('0.98976900000000000000')));
}

potential ( M | P )
{
	data = ((Decimal('0.21456012459070186005') Decimal('0.78543987540929814003')) (Decimal('0.023887337955293758741') Decimal('0.97611266204470624127')));
}

potential ( D | P M C T )
{
	data = ((Decimal('0.99813200000000000001') Decimal('0.0018680000000000000001')) (Decimal('0.99022999999999999998') Decimal('0.0097699999999999999994')) (Decimal('0.98221200000000000000') Decimal('0.017788000000000000000')) (Decimal('0.000001') Decimal('0.99999900000000000000')) (Decimal('0.99813200000000000002') Decimal('0.0018680000000000000000')) (Decimal('0.99022999999999999996') Decimal('0.0097699999999999999998')) (Decimal('0.98221200000000000003') Decimal('0.017788000000000000000')) (Decimal('0.000001') Decimal('0.99999900000000000000')) (Decimal('0.99813200000000000002') Decimal('0.0018680000000000000001')) (Decimal('0.99023000000000000001') Decimal('0.0097700000000000000001')) (Decimal('0.98221199999999999997') Decimal('0.017787999999999999999')) (Decimal('0.000001') Decimal('0.99999900000000000000')) (Decimal('0.99813200000000000000') Decimal('0.0018680000000000000000')) (Decimal('0.99023000000000000000') Decimal('0.0097700000000000000000')) (Decimal('0.98221200000000000000') Decimal('0.017788000000000000000')) (Decimal('0.000001') Decimal('0.99999900000000000000')));
}

potential ( T | P M C )
{
	data = ((Decimal('0.012131999999999999999') Decimal('0.98786800000000000001')) (Decimal('0.012132000000000000000') Decimal('0.98786799999999999999')) (Decimal('0.012132000000000000001') Decimal('0.98786800000000000008')) (Decimal('0.012132000000000000000') Decimal('0.98786799999999999997')) (Decimal('0.012132000000000000000') Decimal('0.98786799999999999998')) (Decimal('0.012132000000000000000') Decimal('0.98786800000000000001')) (Decimal('0.012132000000000000000') Decimal('0.98786800000000000000')) (Decimal('0.012132000000000000000') Decimal('0.98786799999999999999')));
}

