net
{
    node_size = (70 20);
}

node P
{
	states = ("true" "false");
	ID = "P";
	position = (100 80);
	label = "Psych_report";
}

node C
{
	states = ("true" "false");
	ID = "C";
	position = (200 80);
	label = "Crime";
}

node M
{
	states = ("true" "false");
	ID = "M";
	position = (150 150);
	label = "Motive";
}

node D
{
	states = ("true" "false");
	ID = "D";
	position = (250 10);
	label = "DNA_match";
}

node T
{
	states = ("true" "false");
	ID = "T";
	position = (300 80);
	label = "Twin";
}

potential ( P | T D M )
{
	data = ((Decimal('0.61242100000000000000') Decimal('0.38757900000000000000')) (Decimal('0.12400100000000000000') Decimal('0.87599900000000000002')) (Decimal('0.61242100000000000001') Decimal('0.38757899999999999999')) (Decimal('0.12400100000000000000') Decimal('0.87599899999999999999')) (Decimal('0.61242100000000000001') Decimal('0.38757899999999999999')) (Decimal('0.12400100000000000000') Decimal('0.87599900000000000000')) (Decimal('0.61242100000000000001') Decimal('0.38757900000000000000')) (Decimal('0.12400099999999999999') Decimal('0.87599900000000000001')));
}

potential ( C | T D M P )
{
	data = ((Decimal('0.51832728641694439654') Decimal('0.48167271358305560346')) (Decimal('0.51832728641694439655') Decimal('0.48167271358305560345')) (Decimal('0.010395103463740702114') Decimal('0.98960489653625929792')) (Decimal('0.010395103463740702113') Decimal('0.98960489653625929789')) (Decimal('0.10007494880581569400') Decimal('0.89992505119418430599')) (Decimal('0.10007494880581569401') Decimal('0.89992505119418430601')) (Decimal('0.0010843333441618160035') Decimal('0.99891566665583818401')) (Decimal('0.0010843333441618160034') Decimal('0.99891566665583818399')) (Decimal('0.99999904633856152387') Decimal('9.5366143847613348998E-7')) (Decimal('0.99999904633856152385') Decimal('9.5366143847613349002E-7')) (Decimal('0.99990231289121675794') Decimal('0.000097687108783242019354')) (Decimal('0.99990231289121675799') Decimal('0.000097687108783242019357')) (Decimal('0.010239865200593618673') Decimal('0.98976013479940638131')) (Decimal('0.010239865200593618673') Decimal('0.98976013479940638133')) (Decimal('0.00010098000270959472288') Decimal('0.99989901999729040531')) (Decimal('0.00010098000270959472288') Decimal('0.99989901999729040528')));
}

potential ( M | T D )
{
	data = ((Decimal('0.052817537037995374145') Decimal('0.94718246296200462580')) (Decimal('0.029245993607390463877') Decimal('0.97075400639260953612')) (Decimal('0.73546449408343298772') Decimal('0.26453550591656701231')) (Decimal('0.026687816989419647936') Decimal('0.97331218301058035207')));
}

potential ( D | T )
{
	data = ((Decimal('0.98279548222248224011') Decimal('0.017204517777517760001')) (Decimal('0.036293777492862188001') Decimal('0.96370622250713781201')));
}

potential ( T |  )
{
	data = ((Decimal('0.012131999999999999999') Decimal('0.98786799999999999997')));
}

