net
{
    node_size = (70 20);
}

node P
{
	states = ("true" "false");
	ID = "P";
	position = (100 80);
	label = "Psych_report";
}

node C
{
	states = ("true" "false");
	ID = "C";
	position = (200 80);
	label = "Crime";
}

node M
{
	states = ("true" "false");
	ID = "M";
	position = (150 150);
	label = "Motive";
}

node D
{
	states = ("true" "false");
	ID = "D";
	position = (250 10);
	label = "DNA_match";
}

node T
{
	states = ("true" "false");
	ID = "T";
	position = (300 80);
	label = "Twin";
}

potential ( P | C D )
{
	data = ((Decimal('0.4832257608') Decimal('0.5167742392')) (Decimal('0.4832257606') Decimal('0.5167742394')) (Decimal('0.1369071839') Decimal('0.8630928160')) (Decimal('0.1369071838') Decimal('0.8630928162')));
}

potential ( C |  )
{
	data = ((Decimal('0.03665089336') Decimal('0.9633491066')));
}

potential ( M | C D P T )
{
	data = ((Decimal('0.9321221341') Decimal('0.06787786613')) (Decimal('0.9321221336') Decimal('0.06787786611')) (Decimal('0.5516100954') Decimal('0.4483899046')) (Decimal('0.5516100953') Decimal('0.4483899045')) (Decimal('0.9321221339') Decimal('0.06787786614')) (Decimal('0.9321221340') Decimal('0.06787786616')) (Decimal('0.5516100956') Decimal('0.4483899044')) (Decimal('0.5516100954') Decimal('0.4483899044')) (Decimal('0.1182029305') Decimal('0.8817970696')) (Decimal('0.1182029305') Decimal('0.8817970697')) (Decimal('0.01186607647') Decimal('0.9881339235')) (Decimal('0.01186607647') Decimal('0.9881339235')) (Decimal('0.1182029305') Decimal('0.8817970694')) (Decimal('0.1182029305') Decimal('0.8817970697')) (Decimal('0.01186607647') Decimal('0.9881339234')) (Decimal('0.01186607647') Decimal('0.9881339235')));
}

potential ( D | C )
{
	data = ((Decimal('0.9903258672') Decimal('0.009674132936')) (Decimal('0.01191718386') Decimal('0.9880828163')));
}

potential ( T | C D P )
{
	data = ((Decimal('0.01222762913') Decimal('0.9877723707')) (Decimal('0.01222762914') Decimal('0.9877723713')) (Decimal('0.002342595058') Decimal('0.9976574048')) (Decimal('0.002342595057') Decimal('0.9976574053')) (Decimal('0.9999171052') Decimal('0.00008289441630')) (Decimal('0.9999171056') Decimal('0.00008289441635')) (Decimal('0.0002184068102') Decimal('0.9997815937')) (Decimal('0.0002184068102') Decimal('0.9997815931')));
}

