net
{
	propagationenginegenerator1791944048146838126L = "edu.ucla.belief.approx.BeliefPropagationSettings@7373d1cb";
	recoveryenginegenerator6944530267470113528l = "edu.ucla.util.SettingsImpl@2db706c6";
	node_size = (130 55);
}

node BW
{
	states = ("T" "F");
	ID = "BW";
	position = (145 158);
	label = "Broken window";
}

node TB
{
	states = ("T" "F");
	ID = "TB";
	position = (52 58);
	label = "Tree branch";
}

node SF
{
	states = ("T" "F");
	ID = "SF";
	position = (330 157);
	label = "Stone found";
}

node ST
{
	states = ("T" "F");
	ID = "ST";
	position = (241 59);
	label = "Stone thrown";
}

potential ( BW | SF ST )
{
	data = ((Decimal('0.1011512416') Decimal('0.8988487585')) (Decimal('0.001903985551') Decimal('0.9980960144')) (Decimal('0.1011512416') Decimal('0.8988487583')) (Decimal('0.001903985552') Decimal('0.9980960144')));
}

potential ( TB | SF ST BW )
{
	data = ((Decimal('0.01010053904') Decimal('0.9898994610')) (Decimal('0.00001147905685') Decimal('0.9999885209')) (Decimal('0.4748032794') Decimal('0.5251967206')) (Decimal('0.0001282255555') Decimal('0.9998717742')) (Decimal('0.01010053903') Decimal('0.9898994609')) (Decimal('0.00001147905686') Decimal('0.9999885211')) (Decimal('0.4748032794') Decimal('0.5251967206')) (Decimal('0.0001282255556') Decimal('0.9998717745')));
}

potential ( SF |  )
{
	data = ((Decimal('0.009797621664') Decimal('0.9902023783')));
}

potential ( ST | SF )
{
	data = ((Decimal('0.9987889698') Decimal('0.001211030229')) (Decimal('0.001460553502') Decimal('0.9985394465')));
}

