net
{
	propagationenginegenerator1791944048146838126L = "edu.ucla.belief.approx.BeliefPropagationSettings@7373d1cb";
	recoveryenginegenerator6944530267470113528l = "edu.ucla.util.SettingsImpl@2db706c6";
	node_size = (130 55);
}

node BW
{
	states = ("T" "F");
	ID = "BW";
	position = (145 158);
	label = "Broken window";
}

node TB
{
	states = ("T" "F");
	ID = "TB";
	position = (52 58);
	label = "Tree branch";
}

node SF
{
	states = ("T" "F");
	ID = "SF";
	position = (330 157);
	label = "Stone found";
}

node ST
{
	states = ("T" "F");
	ID = "ST";
	position = (241 59);
	label = "Stone thrown";
}

potential ( BW | ST )
{
	data = ((Decimal('0.1011512416') Decimal('0.8988487588')) (Decimal('0.001903985552') Decimal('0.9980960144')));
}

potential ( TB | ST BW )
{
	data = ((Decimal('0.01010053904') Decimal('0.9898994609')) (Decimal('0.00001147905685') Decimal('0.9999885210')) (Decimal('0.4748032795') Decimal('0.5251967207')) (Decimal('0.0001282255556') Decimal('0.9998717745')));
}

potential ( SF | ST BW TB )
{
	data = ((Decimal('0.8712390003') Decimal('0.1287610000')) (Decimal('0.8712390002') Decimal('0.1287610000')) (Decimal('0.8712390000') Decimal('0.1287610001')) (Decimal('0.8712390003') Decimal('0.1287610000')) (Decimal('0.00001200000000') Decimal('0.9999880000')) (Decimal('0.00001200000000') Decimal('0.9999880000')) (Decimal('0.00001200000000') Decimal('0.9999880002')) (Decimal('0.00001200000001') Decimal('0.9999880000')));
}

potential ( ST |  )
{
	data = ((Decimal('0.01123199999') Decimal('0.9887680000')));
}

