net
{
	propagationenginegenerator1791944048146838126L = "edu.ucla.belief.approx.BeliefPropagationSettings@ec52e37";
	recoveryenginegenerator6944530267470113528l = "edu.ucla.util.SettingsImpl@447fdf07";
	node_size = (130.0 55.0);
}

node S
{
	states = ("On" "Off");
	ID = "S";
	position = (80 60);
	label = "SPRINKLER";
}

node R
{
	states = ("Yes" "No");
	ID = "R";
	position = (290 60);
	label = "RAIN";
}

node G
{
	states = ("Yes" "No");
	ID = "G";
	position = (195 160);
	label = "GRASS WET";
}

potential ( S | G R )
{
	data = ((Decimal('0.2380952380952380952380952380952380952380952380952380952380952380952380952380952380952380952380952381') Decimal('0.7619047619047619047619047619047619047619047619047619047619047619047619047619047619047619047619047619')) (Decimal('0.9574468085106382978723404255319148936170212765957446808510638297872340425531914893617021276595744681') Decimal('0.04255319148936170212765957446808510638297872340425531914893617021276595744680851063829787234042553191')) (Decimal('0E+1') Decimal('1')) (Decimal('0.02463054187192118226600985221674876847290640394088669950738916256157635467980295566502463054187192118') Decimal('0.9753694581280788177339901477832512315270935960591133004926108374384236453201970443349753694581280788')));
}

potential ( R | G )
{
	data = ((Decimal('0.5276381909547738693467336683417085427135678391959798994974874371859296482412060301507537688442211055') Decimal('0.4723618090452261306532663316582914572864321608040201005025125628140703517587939698492462311557788945')) (Decimal('0.04694835680751173708920187793427230046948356807511737089201877934272300469483568075117370892018779343') Decimal('0.9530516431924882629107981220657276995305164319248826291079812206572769953051643192488262910798122066')));
}

potential ( G |  )
{
	data = ((Decimal('0.3184') Decimal('0.6816')));
}

