net
{
	HRUNTIME_Propagate_AutoNormal = "1";
	HR_Font_Size = "-12";
	HRUNTIME_Font_Size = "-12";
	HR_Grid_GridSnap = "1";
	HRUNTIME_Propagate_AutoSum = "1";
	HR_Propagate_AutoNormal = "1";
	node_size = (100.0 40.0);
	HRUNTIME_Monitor_GraphPrecision = "100";
	HR_Grid_GridShow = "0";
	HR_Font_Name = "Arial";
	HR_Compile_ApproxEpsilon = "0.00001";
	HRUNTIME_Monitor_AutoUpdGraph = "0";
	HRUNTIME_Font_Name = "Arial";
	HRUNTIME_Font_Weight = "400";
	HR_Font_Weight = "400";
	HR_Monitor_AutoUpdGraph = "0";
	HRUNTIME_Compile_Compress = "0";
	HR_Compile_Compress = "0";
	HRUNTIME_Compile_TriangMethod = "0";
	HR_Grid_Y = "10";
	HR_Grid_X = "10";
	HR_Groups_GroupNames = "";
	HR_Compile_Approximate = "0";
	HRUNTIME_Compile_Approximate = "0";
	HR_Compile_TriangMethod = "0";
	HR_Color_DiscreteChance = "16";
	HRUNTIME_Compile_ApproxEpsilon = "0.00001";
	HR_Monitor_InitStates = "5";
	HRUNTIME_Grid_GridSnap = "1";
	HR_Color_ContinuosChance = "48";
	HRUNTIME_Propagate_Auto = "0";
	HR_Groups_GroupColors = "";
	HR_Monitor_OpenGraph = "0";
	HRUNTIME_Grid_GridShow = "0";
	HR_Monitor_InitSD = "2";
	HR_Groups_UserGroupsNo = "0";
	HR_Color_Decision = "17";
	HRUNTIME_Monitor_InitStates = "5";
	HRUNTIME_Grid_Y = "10";
	HRUNTIME_Grid_X = "10";
	HR_Propagate_Auto = "0";
	HR_Monitor_GraphPrecision = "100";
	HRUNTIME_Font_Italic = "0";
	HRUNTIME_Monitor_OpenGraph = "0";
	HR_Font_Italic = "0";
	HR_Propagate_AutoSum = "1";
	HR_Color_Utility = "36";
}

node A
{
	states = ("Present" "Absent");
	ID = "A";
	position = (131 0);
	label = "A:Metastatic Cancer";
}

node C
{
	states = ("Present" "Absent");
	ID = "C";
	position = (255 128);
	label = "C:  Brain Tumor";
}

node B
{
	states = ("Increased" "Not increased");
	ID = "B";
	position = (0 128);
	label = "B: Serum Calcium";
}

node E
{
	states = ("Present" "Absent");
	ID = "E";
	position = (414 266);
	label = "E: Severe Headaches";
}

node D
{
	states = ("Present" "Absent");
	ID = "D";
	position = (147 256);
	label = "D: Coma";
}

potential ( A | B C E )
{
	data = ((((0.8617636951906014 0.13823630480939866) (0.8617636903170197 0.13823630968298023)) ((0.5565520393574095 0.4434479606425906) (0.5565519949515887 0.4434480050484113))) (((0.2575824446981994 0.7424175553018005) (0.25758207815034456 0.7424179218496555)) ((0.06528942433382608 0.9347105756661739) (0.06528943744038773 0.9347105625596124))));
}

potential ( C | B )
{
	data = ((0.14782155438418657 0.8521784456158134) (0.06374012403333375 0.9362598759666663));
}

potential ( B |  )
{
	data = (0.25586776 0.74413222);
}

potential ( E | B C )
{
	data = (((0.7963232201131752 0.20367677988682478) (0.6017372378058308 0.3982627621941692)) ((0.7963232125433367 0.20367678745666346) (0.6017371953776335 0.3982628046223664)));
}

potential ( D | B C E A )
{
	data = (((((0.7928376892992993 0.20716231070070068) (0.7928383402665027 0.2071616597334973)) ((0.7928374531158209 0.20716254688417915) (0.7928388986966157 0.20716110130338428))) (((0.8238470560927161 0.1761529439072838) (0.8238471620719062 0.1761528379280937)) ((0.8238471624457667 0.17615283755423333) (0.8238472011627512 0.17615279883724888)))) ((((0.728374212792463 0.27162578720753705) (0.7283739862332418 0.27162601376675827)) ((0.7283756630766758 0.27162433692332427) (0.7283738206215379 0.2716261793784621))) (((0.01123218255584763 0.9887678174441524) (0.011232108517223156 0.9887678914827769)) ((0.01123214065899126 0.9887678593410087) (0.011232087629323102 0.9887679123706768)))));
}

