net
{
	HRUNTIME_Propagate_AutoNormal = "1";
	HR_Font_Size = "-12";
	HRUNTIME_Font_Size = "-12";
	HR_Grid_GridSnap = "1";
	HRUNTIME_Propagate_AutoSum = "1";
	HR_Propagate_AutoNormal = "1";
	node_size = (100.0 40.0);
	HRUNTIME_Monitor_GraphPrecision = "100";
	HR_Grid_GridShow = "0";
	HR_Font_Name = "Arial";
	HR_Compile_ApproxEpsilon = "0.00001";
	HRUNTIME_Monitor_AutoUpdGraph = "0";
	HRUNTIME_Font_Name = "Arial";
	HRUNTIME_Font_Weight = "400";
	HR_Font_Weight = "400";
	HR_Monitor_AutoUpdGraph = "0";
	HRUNTIME_Compile_Compress = "0";
	HR_Compile_Compress = "0";
	HRUNTIME_Compile_TriangMethod = "0";
	HR_Grid_Y = "10";
	HR_Grid_X = "10";
	HR_Groups_GroupNames = "";
	HR_Compile_Approximate = "0";
	HRUNTIME_Compile_Approximate = "0";
	HR_Compile_TriangMethod = "0";
	HR_Color_DiscreteChance = "16";
	HRUNTIME_Compile_ApproxEpsilon = "0.00001";
	HR_Monitor_InitStates = "5";
	HRUNTIME_Grid_GridSnap = "1";
	HR_Color_ContinuosChance = "48";
	HRUNTIME_Propagate_Auto = "0";
	HR_Groups_GroupColors = "";
	HR_Monitor_OpenGraph = "0";
	HRUNTIME_Grid_GridShow = "0";
	HR_Monitor_InitSD = "2";
	HR_Groups_UserGroupsNo = "0";
	HR_Color_Decision = "17";
	HRUNTIME_Monitor_InitStates = "5";
	HRUNTIME_Grid_Y = "10";
	HRUNTIME_Grid_X = "10";
	HR_Propagate_Auto = "0";
	HR_Monitor_GraphPrecision = "100";
	HRUNTIME_Font_Italic = "0";
	HRUNTIME_Monitor_OpenGraph = "0";
	HR_Font_Italic = "0";
	HR_Propagate_AutoSum = "1";
	HR_Color_Utility = "36";
}

node A
{
	states = ("Present" "Absent");
	ID = "A";
	position = (131 0);
	label = "A:Metastatic Cancer";
}

node C
{
	states = ("Present" "Absent");
	ID = "C";
	position = (255 128);
	label = "C:  Brain Tumor";
}

node B
{
	states = ("Increased" "Not increased");
	ID = "B";
	position = (0 128);
	label = "B: Serum Calcium";
}

node E
{
	states = ("Present" "Absent");
	ID = "E";
	position = (414 266);
	label = "E: Severe Headaches";
}

node D
{
	states = ("Present" "Absent");
	ID = "D";
	position = (147 256);
	label = "D: Coma";
}

potential ( A | C E D B )
{
	data = (((((0.8617635973801906 0.13823640261980938) (0.2575825041810503 0.7424174958189497)) ((0.8617640695242444 0.13823593047575547) (0.257582285192954 0.742417714807046))) (((0.8617634731127164 0.13823652688728363) (0.25758256188410783 0.7424174381158922)) ((0.8617645215865656 0.13823547841343442) (0.25758078100050685 0.7424192189994931)))) ((((0.5565520076089674 0.44344799239103255) (0.06528982660309843 0.9347101733969015)) ((0.5565521878412688 0.44344781215873125) (0.06528941976416507 0.9347105802358349))) (((0.556551983353049 0.44344801664695105) (0.06528972556368058 0.9347102744363195)) ((0.556552049196671 0.44344795080332905) (0.06528943416739814 0.9347105658326018)))));
}

potential ( C |  )
{
	data = (0.08525384999999999 0.9147461299999999);
}

potential ( B | C E D )
{
	data = ((((0.4646683646415699 0.5353316353584301) (0.37817769451342176 0.6218223054865784)) ((0.46466822780437994 0.5353317721956199) (0.37817804391974347 0.6218219560802565))) (((0.9582557492591468 0.04174425074085329) (0.05281184235920017 0.9471881576407999)) ((0.9582558251672945 0.04174417483270559) (0.05281181064562108 0.9471881893543789))));
}

potential ( E | C )
{
	data = ((0.7963232159016866 0.2036767840983135) (0.6017372054911017 0.39826279450889834));
}

potential ( D | C E )
{
	data = (((0.7569733046082745 0.24302669539172556) (0.7569733872449282 0.24302661275507176)) ((0.20493245382330738 0.7950675461766927) (0.20493242899200914 0.795067571007991)));
}

