net
{
	HRUNTIME_Propagate_AutoNormal = "1";
	HR_Font_Size = "-12";
	HRUNTIME_Font_Size = "-12";
	HR_Grid_GridSnap = "1";
	HRUNTIME_Propagate_AutoSum = "1";
	HR_Propagate_AutoNormal = "1";
	node_size = (100.0 40.0);
	HRUNTIME_Monitor_GraphPrecision = "100";
	HR_Grid_GridShow = "0";
	HR_Font_Name = "Arial";
	HR_Compile_ApproxEpsilon = "0.00001";
	HRUNTIME_Monitor_AutoUpdGraph = "0";
	HRUNTIME_Font_Name = "Arial";
	HRUNTIME_Font_Weight = "400";
	HR_Font_Weight = "400";
	HR_Monitor_AutoUpdGraph = "0";
	HRUNTIME_Compile_Compress = "0";
	HR_Compile_Compress = "0";
	HRUNTIME_Compile_TriangMethod = "0";
	HR_Grid_Y = "10";
	HR_Grid_X = "10";
	HR_Groups_GroupNames = "";
	HR_Compile_Approximate = "0";
	HRUNTIME_Compile_Approximate = "0";
	HR_Compile_TriangMethod = "0";
	HR_Color_DiscreteChance = "16";
	HRUNTIME_Compile_ApproxEpsilon = "0.00001";
	HR_Monitor_InitStates = "5";
	HRUNTIME_Grid_GridSnap = "1";
	HR_Color_ContinuosChance = "48";
	HRUNTIME_Propagate_Auto = "0";
	HR_Groups_GroupColors = "";
	HR_Monitor_OpenGraph = "0";
	HRUNTIME_Grid_GridShow = "0";
	HR_Monitor_InitSD = "2";
	HR_Groups_UserGroupsNo = "0";
	HR_Color_Decision = "17";
	HRUNTIME_Monitor_InitStates = "5";
	HRUNTIME_Grid_Y = "10";
	HRUNTIME_Grid_X = "10";
	HR_Propagate_Auto = "0";
	HR_Monitor_GraphPrecision = "100";
	HRUNTIME_Font_Italic = "0";
	HRUNTIME_Monitor_OpenGraph = "0";
	HR_Font_Italic = "0";
	HR_Propagate_AutoSum = "1";
	HR_Color_Utility = "36";
}

node A
{
	states = ("Present" "Absent");
	ID = "A";
	position = (131 0);
	label = "A:Metastatic Cancer";
}

node C
{
	states = ("Present" "Absent");
	ID = "C";
	position = (255 128);
	label = "C:  Brain Tumor";
}

node B
{
	states = ("Increased" "Not increased");
	ID = "B";
	position = (0 128);
	label = "B: Serum Calcium";
}

node E
{
	states = ("Present" "Absent");
	ID = "E";
	position = (414 266);
	label = "E: Severe Headaches";
}

node D
{
	states = ("Present" "Absent");
	ID = "D";
	position = (147 256);
	label = "D: Coma";
}

potential ( A | B C )
{
	data = ((Decimal('0.86176344221533812366') Decimal('0.13823655778466187634')) (Decimal('0.55655198639194215787') Decimal('0.44344801360805784215')) (Decimal('0.25758236882112121357') Decimal('0.74241763117887878641')) (Decimal('0.065289430034077087665') Decimal('0.93471056996592291235')));
}

potential ( C | B )
{
	data = ((Decimal('0.14782159953467046034') Decimal('0.85217840046532953962')) (Decimal('0.063740118052926863495') Decimal('0.93625988194707313652')));
}

potential ( B |  )
{
	data = ((Decimal('0.25586778427940000001') Decimal('0.74413221572059999998')));
}

potential ( E | B C A D )
{
	data = ((Decimal('0.79632310000000000000') Decimal('0.20367690000000000000')) (Decimal('0.79632310000000000000') Decimal('0.20367690000000000000')) (Decimal('0.79632310000000000000') Decimal('0.20367689999999999999')) (Decimal('0.79632310000000000002') Decimal('0.20367690000000000000')) (Decimal('0.60173720000000000000') Decimal('0.39826280000000000000')) (Decimal('0.60173720000000000002') Decimal('0.39826280000000000000')) (Decimal('0.60173720000000000000') Decimal('0.39826280000000000000')) (Decimal('0.60173720000000000002') Decimal('0.39826280000000000000')) (Decimal('0.79632310000000000000') Decimal('0.20367690000000000000')) (Decimal('0.79632310000000000000') Decimal('0.20367690000000000000')) (Decimal('0.79632310000000000000') Decimal('0.20367690000000000000')) (Decimal('0.79632310000000000000') Decimal('0.20367690000000000000')) (Decimal('0.60173719999999999999') Decimal('0.39826280000000000001')) (Decimal('0.60173719999999999999') Decimal('0.39826280000000000001')) (Decimal('0.60173720000000000001') Decimal('0.39826279999999999999')) (Decimal('0.60173720000000000001') Decimal('0.39826279999999999999')));
}

potential ( D | B C A )
{
	data = ((Decimal('0.79283759999999999999') Decimal('0.20716240000000000000')) (Decimal('0.79283760000000000000') Decimal('0.20716240000000000000')) (Decimal('0.82384710000000000000') Decimal('0.17615290000000000000')) (Decimal('0.82384710000000000000') Decimal('0.17615290000000000000')) (Decimal('0.72837410000000000000') Decimal('0.27162590000000000000')) (Decimal('0.72837409999999999999') Decimal('0.27162590000000000000')) (Decimal('0.011232100000000000000') Decimal('0.98876789999999999998')) (Decimal('0.011232100000000000000') Decimal('0.98876789999999999999')));
}

