net
{
	HRUNTIME_Propagate_AutoNormal = "1";
	HR_Font_Size = "-12";
	HRUNTIME_Font_Size = "-12";
	HR_Grid_GridSnap = "1";
	HRUNTIME_Propagate_AutoSum = "1";
	HR_Propagate_AutoNormal = "1";
	node_size = (100.0 40.0);
	HRUNTIME_Monitor_GraphPrecision = "100";
	HR_Grid_GridShow = "0";
	HR_Font_Name = "Arial";
	HR_Compile_ApproxEpsilon = "0.00001";
	HRUNTIME_Monitor_AutoUpdGraph = "0";
	HRUNTIME_Font_Name = "Arial";
	HRUNTIME_Font_Weight = "400";
	HR_Font_Weight = "400";
	HR_Monitor_AutoUpdGraph = "0";
	HRUNTIME_Compile_Compress = "0";
	HR_Compile_Compress = "0";
	HRUNTIME_Compile_TriangMethod = "0";
	HR_Grid_Y = "10";
	HR_Grid_X = "10";
	HR_Groups_GroupNames = "";
	HR_Compile_Approximate = "0";
	HRUNTIME_Compile_Approximate = "0";
	HR_Compile_TriangMethod = "0";
	HR_Color_DiscreteChance = "16";
	HRUNTIME_Compile_ApproxEpsilon = "0.00001";
	HR_Monitor_InitStates = "5";
	HRUNTIME_Grid_GridSnap = "1";
	HR_Color_ContinuosChance = "48";
	HRUNTIME_Propagate_Auto = "0";
	HR_Groups_GroupColors = "";
	HR_Monitor_OpenGraph = "0";
	HRUNTIME_Grid_GridShow = "0";
	HR_Monitor_InitSD = "2";
	HR_Groups_UserGroupsNo = "0";
	HR_Color_Decision = "17";
	HRUNTIME_Monitor_InitStates = "5";
	HRUNTIME_Grid_Y = "10";
	HRUNTIME_Grid_X = "10";
	HR_Propagate_Auto = "0";
	HR_Monitor_GraphPrecision = "100";
	HRUNTIME_Font_Italic = "0";
	HRUNTIME_Monitor_OpenGraph = "0";
	HR_Font_Italic = "0";
	HR_Propagate_AutoSum = "1";
	HR_Color_Utility = "36";
}

node A
{
	states = ("Present" "Absent");
	ID = "A";
	position = (131 0);
	label = "A:Metastatic Cancer";
}

node C
{
	states = ("Present" "Absent");
	ID = "C";
	position = (255 128);
	label = "C:  Brain Tumor";
}

node B
{
	states = ("Increased" "Not increased");
	ID = "B";
	position = (0 128);
	label = "B: Serum Calcium";
}

node E
{
	states = ("Present" "Absent");
	ID = "E";
	position = (414 266);
	label = "E: Severe Headaches";
}

node D
{
	states = ("Present" "Absent");
	ID = "D";
	position = (147 256);
	label = "D: Coma";
}

potential ( A | D C )
{
	data = (((Decimal('0.5') Decimal('0.5')) (Decimal('0.4571428571428571428571428571428571428571428571428571428571428571428571428571428571428571428571428571') Decimal('0.5428571428571428571428571428571428571428571428571428571428571428571428571428571428571428571428571429'))) ((Decimal('0.5') Decimal('0.5')) (Decimal('0.08275862068965517241379310344827586206896551724137931034482758620689655172413793103448275862068965517') Decimal('0.9172413793103448275862068965517241379310344827586206896551724137931034482758620689655172413793103448'))));
}

potential ( C | E D )
{
	data = (((Decimal('0.2758620689655172413793103448275862068965517241379310344827586206896551724137931034482758620689655172') Decimal('0.7241379310344827586206896551724137931034482758620689655172413793103448275862068965517241379310344828')) (Decimal('0.02973977695167286245353159851301115241635687732342007434944237918215613382899628252788104089219330855') Decimal('0.9702602230483271375464684014869888475836431226765799256505576208178438661710037174721189591078066914'))) ((Decimal('0.125') Decimal('0.875')) (Decimal('0.01136363636363636363636363636363636363636363636363636363636363636363636363636363636363636363636363636') Decimal('0.9886363636363636363636363636363636363636363636363636363636363636363636363636363636363636363636363636'))));
}

potential ( B | D C A )
{
	data = ((((Decimal('0.8') Decimal('0.2')) (Decimal('0.2') Decimal('0.8'))) ((Decimal('1') Decimal('0E+1')) (Decimal('1') Decimal('0E+1')))) (((Decimal('0.8') Decimal('0.2')) (Decimal('0.2') Decimal('0.8'))) ((Decimal('0.4444444444444444444444444444444444444444444444444444444444444444444444444444444444444444444444444444') Decimal('0.5555555555555555555555555555555555555555555555555555555555555555555555555555555555555555555555555556')) (Decimal('0.04761904761904761904761904761904761904761904761904761904761904761904761904761904761904761904761904762') Decimal('0.9523809523809523809523809523809523809523809523809523809523809523809523809523809523809523809523809524')))));
}

potential ( E |  )
{
	data = (Decimal('0.616000') Decimal('0.384000'));
}

potential ( D | E )
{
	data = ((Decimal('0.3012987012987012987012987012987012987012987012987012987012987012987012987012987012987012987012987013') Decimal('0.6987012987012987012987012987012987012987012987012987012987012987012987012987012987012987012987012987')) (Decimal('0.2666666666666666666666666666666666666666666666666666666666666666666666666666666666666666666666666667') Decimal('0.7333333333333333333333333333333333333333333333333333333333333333333333333333333333333333333333333333')));
}

