net
{
	propagationenginegenerator1791944048146838126L = "edu.ucla.belief.approx.BeliefPropagationSettings@7373d1cb";
	recoveryenginegenerator6944530267470113528l = "edu.ucla.util.SettingsImpl@2db706c6";
	node_size = (130 55);
}

node BW
{
	states = ("T" "F");
	ID = "BW";
	position = (145 158);
	label = "Broken window";
}

node TB
{
	states = ("T" "F");
	ID = "TB";
	position = (52 58);
	label = "Tree branch";
}

node SF
{
	states = ("T" "F");
	ID = "SF";
	position = (330 157);
	label = "Stone found";
}

node ST
{
	states = ("T" "F");
	ID = "ST";
	position = (241 59);
	label = "Stone thrown";
}

potential ( BW | TB ST )
{
	data = ((Decimal('0.990002') Decimal('0.009998')) (Decimal('0.875987') Decimal('0.124013')) (Decimal('0.100233') Decimal('0.899767')) (Decimal('0.001001') Decimal('0.998999')));
}

potential ( TB |  )
{
	data = ((Decimal('0.001032000000000000000000') Decimal('0.998968000000000000000000')));
}

potential ( SF |  )
{
	data = ((Decimal('0.009797621664') Decimal('0.990202378336')));
}

potential ( ST | SF )
{
	data = ((Decimal('0.99878896977175623261543404703568272015284871893987842803071518969810263537034654780889077612785028642232740127165620670775882696913249578607121035287202124811501600762362321811735554682875739995505913423684533895878345685833169562976094929970547595131144267870762314016211026455899695781516962237336703921128261275960206336050658916318816533555015214353555589590482068240842005225646973910341022941544765490957010278775345044799231390284473838201066507317627324132609005384839893731989690350223345795035181713666954674521712578755888567856420547736716525656608575082860027447575464983784456529510670437743491949558096347411685481469515947212227442874242423900968462625461917407632612175133689669280946833670265714803988169184320934807633331370081366718101516600876169533218669097610911790357533854656913194316216046123089000306186960762399163405785496148343619078533138999150477913371283245337610537887371112108294611527877833352516764419532907573190407283724239140001966909997230119621814374235873739898679149487109650450776989708428080000620036189223482961384943716479477238160887613551353395064102364996158724913997658932260644597186601468672509867594740388211830425706872855220305432687914004351168626631304876644397850061747393474367985148604733876362099135654070914326744511452488761868566065096020021211547774253798743131382052925125074517268071558799884681891305167261865807844690419350326120124819712573053280127147395839676709525165841308811738170827985137434676105901122903371582975221117907416270692201327279175086138537386168660288452632375497286807664999463690252573524970110542125134257480550945266628740074607559371870026109226174749341699014190470786482493839639652368597522526258674688910706646367601564901577730487062824392807662510696432623548996022959720605108680791779550796910624615031062705872615740145811778510413810565363753568184320533077485446370058977611079145258164971739410900363584400598875788555862326059296996345010123060820406057271492535966532704033181577647005578434631827400188944466676234376383856252565745122856378953968965993337217312660665726232720961698077669311399938539206692110947794197251011549163652212647838776559641607324673278994660310655571768360946581658085139140559489968891291126303282412600005453731714946122255165291918338764708602244717172618516003150700961788026029252480431357060410778482576850805820215431417172958516884409469273419782460381397311322022487109581862702960562082794055518655716077668703905568566767633864005467684488862908597406318464676735245693602238691220400241002814864356452455888584513524240529400380814704624626338296624391884663000189920376986706230096781985722530140759678960389789552094303036357783574036157026281352845673629391533932984493735601342362672394776806519480644440609826756421281629108637522503134695444798510235677538813770631427394541206485190526744552605333179356373236663080849495435262808286368221209158949618326474705565850679902309810194361062848241860832073868493479317104604622136591209366379550783193009809201793648683595464051182615658917935535421384893353236547264987349076719768304782747324504160400697015524195280868114157872834555698557335107974628565939285895659177394421177355639520640302201405763528368061712491942983439536903514383345349800598301608393275472368760370210596447868718193444216667805392000488660632568798076014379156578136675435521287342495204150393697014671743503648723866461802581398391094273631670617650010128008960032445686402450577418009595843891936589071378129099392829953634755905185766928180908374377498314472576474453259721215542539651182023841822026901242060452764182178978247184540397047934019918897737915347207675154417965082183847020610980799758303465758320181651790713603941831081506843536758146859588719060789404247810318387897285518209207715738961197757064157646983826216868298130683973305952712892997048880535340499957480293250074204947377318937062397677004238321648260779382550365031119046076282538929439519129404913506568322211956764939234542788322143564656835885758488908313902413613345256030902807475461220258851587351924104670143343881623882226281482183184655781785043623827767350703040986498741374547528149990830264417117627537735468124726315212818162560966591738768328092894198124039748591786407644654281273949791903293480755494499976234232348900791358420022371666054975359783396510624846270855146994579847046439289819876841490579932644355678194515758350066455474841654387850018536906836005787618459320006664017272671858907982426050126770847313256696089546002702232940600307711575665104187880998790116172422148347205254975234365204000185814890841247327428951843225613248174511262695762733628249640483362105867083622060546631860636009959733019550080067268047552973974480670455086476382642243655429232544817725674531618656304955275725576333093239147144924905318328078686668503716577068269208072984843926710742604155326159366996353534640833014308971381812278968195112376611157129898336111134001019943853998565666599309911871281662912759722582404872') Decimal('0.0012110302282437673845659529643172798471512810601215719692848103018973646296534521911092238721497135776725987283437932922411730308675042139287896471279787518849839923763767818826444531712426000449408657631546610412165431416683043702390507002945240486885573212923768598378897354410030421848303776266329607887173872403979366394934108368118346644498478564644441040951793175915799477435302608965897705845523450904298972122465495520076860971552616179893349268237267586739099461516010626801030964977665420496481828633304532547828742124411143214357945226328347434339142491713997255242453501621554347048932956225650805044190365258831451853048405278777255712575757609903153737453808259236738782486631033071905316632973428519601183081567906519236666862991863328189848339912383046678133090238908820964246614534308680568378395387691099969381303923760083659421450385165638092146686100084952208662871675466238946211262888789170538847212216664748323558046709242680959271627576085999803309000276988037818562576412626010132085051289034954922301029157191999937996381077651703861505628352052276183911238644864660493589763500384127508600234106773935540281339853132749013240525961178816957429312714477969456731208599564883137336869512335560214993825260652563201485139526612363790086434592908567325548854751123813143393490397997878845222574620125686861794707487492548273192844120011531810869483273813419215530958064967387987518028742694671987285260416032329047483415869118826182917201486256532389409887709662841702477888209258372930779867272082491386146261383133971154736762450271319233500053630974742647502988945787486574251944905473337125992539244062812997389077382525065830098580952921351750616036034763140247747374132531108929335363239843509842226951293717560719233748930356737645100397704027939489131920822044920308937538496893729412738425985418822148958618943463624643181567946692251455362994102238892085474183502826058909963641559940112421144413767394070300365498987693917959394272850746403346729596681842235299442156536817259981105553332376562361614374743425487714362104603103400666278268733933427376727903830192233068860006146079330788905220580274898845083634778735216122344035839267532672100533968934442823163905341834191486085944051003110870887369671758739999454626828505387774483470808166123529139775528282738148399684929903821197397074751956864293958922151742314919417978456858282704148311559053072658021753961860268867797751289041813729703943791720594448134428392233129609443143323236613599453231551113709140259368153532326475430639776130877959975899718513564354754411141548647575947059961918529537537366170337560811533699981007962301329376990321801427746985924032103961021044790569696364221642596384297371864715432637060846606701550626439865763732760522319348051935555939017324357871837089136247749686530455520148976432246118622936857260545879351480947325544739466682064362676333691915050456473719171363177879084105038167352529443414932009769018980563893715175813916792613150652068289539537786340879063362044921680699019079820635131640453594881738434108206446457861510664676345273501265092328023169521725267549583959930298447580471913188584212716544430144266489202537143406071410434082260557882264436047935969779859423647163193828750805701656046309648561665465019940169839160672452763123962978940355213128180655578333219460799951133936743120192398562084342186332456447871265750479584960630298532825649635127613353819741860160890572636832938234998987199103996755431359754942258199040415610806341092862187090060717004636524409481423307181909162562250168552742352554674027878445746034881797615817797309875793954723581782102175281545960295206598008110226208465279232484558203491781615297938901920024169653424167981834820928639605816891849315646324185314041128093921059575218968161210271448179079228426103880224293584235301617378313170186931602669404728710700295111946465950004251970674992579505262268106293760232299576167835173922061744963496888095392371746107056048087059508649343167778804323506076545721167785643534316411424151109168609758638665474396909719252453877974114841264807589532985665611837611777371851781681534421821495637617223264929695901350125862545247185000916973558288237246226453187527368478718183743903340826123167190710580187596025140821359235534571872605020809670651924450550002376576765109920864157997762833394502464021660348937515372914485300542015295356071018012315850942006735564432180548424164993354452515834561214998146309316399421238154067999333598272732814109201757394987322915268674330391045399729776705939969228842433489581211900120988382757785165279474502476563479599981418510915875267257104815677438675182548873730423726637175035951663789413291637793945336813936399004026698044991993273195244702602551932954491352361735775634457076745518227432546838134369504472427442366690676085285507509468167192131333149628342293173079192701515607328925739584467384063300364646535916698569102861818772103180488762338884287010166388886599898005614600143433340069008812871833708724027741759512791')) (Decimal('0.0014605535026388858289667068053306437458473804042866883361086744623708481748802617127629560838235502155452176944547863473856369463075819699159038558764764998630450633456435293633113998984229561546557775808892863846679226766627478051171845776769342215218858033975014045648348544626657005468677278981978403471431833335386015402308293411131773119070134400336124865867633823303618682452794637396700941708613512929683006331486016561172809499601036110755585225211530813278783750545919876407902265739605039316006072841224745599781305997301373058212084653709788966345535182412882650852684004878746286307889726963015889404808782594121632222918304861008372135722327019494693761934979816812605939379964208052358389806257949650265664093881560911032063320184459024211737217081149339615839441954034519096503726618574882735899508616144491934330065515218443544160629120567541815668418794622821320882277295625273512188947803056592475859500438516628014660668677038882373311100574399418587340329892293642983141104875901023903314899904720480919723582415970401061018200507187516196396161914701935402401295490317601232071860350575581956647860587713432902428645293340201594060090476167094803732996231953821126920699135459605097500152324659382729652914853772064571968323735755200564450929454690208493141075799663044771352000284557716851280483531589496479058071079522784298221857507796710095741969029921576704137495241815912503039710331799119683103301723718230275579760956103460618783968656646254318899301359635630710596443428496386632617452764227289980533283032108429153067099384979920343765066947248774942574831525293364431307626642642376534539246970375194370573340202064590166139045269165452145137554980941261207922221566446423494323300550493498224091504450724773460962619620285904633107168768358574163948855999327022808085116855257037906884965351281606033437924517653357283765755562197514871148526976466314783892912679524974176217953575537431802268831669517231313942785015726577294400185765946057526678778255808158144060182072796212597603429071148168694959663405790723212799956536257898790682712343809993003753261387076677141591591371057306529034355647896107660435155838510607614659188226545051536809036711515717714152690964396669865362329926901323947902249082969627354421688945806907074716073064101851157604246847249010605107163696070211818982734081882604152347778955557251015744140798973084966217929494157178937781936812219278704958151852806458294990107580698340691003023957414677053329262465254721708691365620897045706123917875243038038753669019141425662753236669479006723871000177278249215065516903594010880463076755168534053210860455155512550251366678817994916910968787754127659057806369514270202897053850366121728579592543855976182339962026160446929577147341148961059527923173699566507844667742621995236693937328103283001565662682617731845762586221363094958778214622557208085013080107383467709586893003380369533776453763122664946367948005493852156911367945914769728186450963390185350878745033780096283155853670207640287862682615450291961638474171478381036955320230086351502067374246707133491762229586130009131386187129369064315185874447675327826349746304433218844189079970430518527734080815024409935472603219380680297950255397072692332580497374096341427190179178164021533118241779128782058138754771264928629423049093620592683068148376522180141127218614477266530595666218163592564809042397819975498314232721996571296266016485424576975614314406538004051736614430364958739169351766229648265444620233794881475678419168744968575809348903147209739929080969530683953010755334490204796914041735655054119472031621254496093785879912811060073313097835609115379477847742045559053053185212784986634827334751864245193090834624436217589238541386350669917484458826178684287510327590221692973641304627180486982497790339462043228844632682863748301923165620345355655734408365229394338298512450483834140658296549494665381797126356442829653793468506824162142849430240413532352899533361275927768587209219724473033100085183675827708712008253602442092690651422426639660185353618871758742695212010947532550080009061716388803969619796112232471841518733922137384931792032782734719896826115393015573254810712428306853272461942421686233666380293714156502775075556390528697612138392180594723059047403188684396926990658704044375336211412216011629791723336368296379692447493216722654931031874317689520060167257303621423484385130116549362882704987880175666546683425597988585116360764184008840296052116389207953299043811922173831816580016847454101286005416932963758152602797789610499140500824255535895158332915280880228774429627891472954055524483336823266646232374940697145063739444239734543169769274675441673913099406397505742457869628075318361805320801232626620480442287443760705065582465302829530932765824570248288117519119099220721102592461870990308620877959862246468455042618165784368876052580089487861328820277377193277959652666685028607347810659298513236327230424601192562813658784098184268895999445530461234967631056376715715236773062648052185') Decimal('0.99853944649736111417103329319466935625415261959571331166389132553762915182511973828723704391617644978445478230554521365261436305369241803008409614412352350013695493665435647063668860010157704384534422241911071361533207732333725219488281542232306577847811419660249859543516514553733429945313227210180215965285681666646139845976917065888682268809298655996638751341323661766963813175472053626032990582913864870703169936685139834388271905003989638892444147747884691867212162494540801235920977342603949606839939271587752544002186940026986269417879153462902110336544648175871173491473159951212537136921102730369841105951912174058783677770816951389916278642776729805053062380650201831873940606200357919476416101937420503497343359061184390889679366798155409757882627829188506603841605580459654809034962733814251172641004913838555080656699344847815564558393708794324581843315812053771786791177227043747264878110521969434075241404995614833719853393313229611176266888994256005814126596701077063570168588951240989760966851000952795190802764175840295989389817994928124838036038380852980645975987045096823987679281396494244180433521394122865670975713547066597984059399095238329051962670037680461788730793008645403949024998476753406172703470851462279354280316762642447994355490705453097915068589242003369552286479997154422831487195164684105035209419289204772157017781424922032899042580309700784232958625047581840874969602896682008803168966982762817697244202390438965393812160313433537456811006986403643692894035565715036133673825472357727100194667169678915708469329006150200796562349330527512250574251684747066355686923733573576234654607530296248056294266597979354098338609547308345478548624450190587387920777784335535765056766994495065017759084955492752265390373803797140953668928312316414258360511440006729771919148831447429620931150346487183939665620754823466427162342444378024851288514730235336852161070873204750258237820464244625681977311683304827686860572149842734227055998142340539424733212217441918418559398179272037874023965709288518313050403365942092767872000434637421012093172876561900069962467386129233228584084086289426934709656443521038923395648441614893923853408117734549484631909632884842822858473090356033301346376700730986760520977509170303726455783110541930929252839269358981488423957531527509893948928363039297881810172659181173958476522210444427489842558592010269150337820705058428210622180631877807212950418481471935417050098924193016593089969760425853229466707375347452782913086343791029542938760821247569619612463309808585743372467633305209932761289998227217507849344830964059891195369232448314659467891395448444874497486333211820050830890312122458723409421936304857297971029461496338782714204074561440238176600379738395530704228526588510389404720768263004334921553322573780047633060626718967169984343373173822681542374137786369050412217853774427919149869198926165322904131069966196304662235462368773350536320519945061478430886320540852302718135490366098146491212549662199037168441463297923597121373173845497080383615258285216189630446797699136484979326257532928665082377704138699908686138128706309356848141255523246721736502536955667811558109200295694814722659191849755900645273967806193197020497446029273076674195026259036585728098208218359784668817582208712179418612452287350713705769509063794073169318516234778198588727813855227334694043337818364074351909576021800245016857672780034287037339835145754230243856855934619959482633855696350412608306482337703517345553797662051185243215808312550314241906510968527902600709190304693160469892446655097952030859582643449458805279683787455039062141200871889399266869021643908846205221522579544409469468147872150133651726652481357548069091653755637824107614586136493300825155411738213157124896724097783070263586953728195130175022096605379567711553673171362516980768343796546443442655916347706056617014875495161658593417034505053346182028736435571703462065314931758378571505697595864676471004666387240722314127907802755269668999148163241722912879917463975579073093485775733603398146463811282412573047879890524674499199909382836111960303802038877675281584812660778626150682079672172652801031738846069844267451892875716931467275380575783137663336197062858434972249244436094713023878616078194052769409525968113156030730093412959556246637885877839883702082766636317036203075525067832773450689681256823104799398327426963785765156148698834506371172950121198243334533165744020114148836392358159911597039478836107920467009561880778261681834199831525458987139945830670362418473972022103895008594991757444641048416670847191197712255703721085270459444755166631767333537676250593028549362605557602654568302307253245583260869005936024942575421303719246816381946791987673733795195577125562392949344175346971704690672341754297517118824808809007792788974075381290096913791220401377535315449573818342156311239474199105121386711797226228067220403473333149713926521893407014867636727695753988074371863412159018157311040005544695387650323689436232842847632269373519478')));
}

