net
{
	propagationenginegenerator1791944048146838126L = "edu.ucla.belief.approx.BeliefPropagationSettings@7373d1cb";
	recoveryenginegenerator6944530267470113528l = "edu.ucla.util.SettingsImpl@2db706c6";
	node_size = (130 55);
}

node BW
{
	states = ("T" "F");
	ID = "BW";
	position = (145 158);
	label = "Broken window";
}

node TB
{
	states = ("T" "F");
	ID = "TB";
	position = (52 58);
	label = "Tree branch";
}

node SF
{
	states = ("T" "F");
	ID = "SF";
	position = (330 157);
	label = "Stone found";
}

node ST
{
	states = ("T" "F");
	ID = "ST";
	position = (241 59);
	label = "Stone thrown";
}

potential ( BW | TB )
{
	data = ((Decimal('0.87726761648') Decimal('0.12273238352')) (Decimal('0.002115573824') Decimal('0.997884426176')));
}

potential ( TB |  )
{
	data = ((Decimal('0.001032000000000000000000') Decimal('0.998968000000000000000000')));
}

potential ( SF | TB BW )
{
	data = ((Decimal('0.011055135340473599605177574672395936426826851562617251848885892435056865966853043320261509808512611608717979198511039058706917151060868257891766560105134498831808514587562198349711047343777360265612343169528413640457875345281433293286996267308061433892175625153540034385927661434107608175551698554589281332592978059223572811757233553639494991062159992339399433247845172984288430598515964497556851615474098641038212736558667049271131212427949714759086851914112273672742193913474798688490624313122371463101245604068214128683005230449721159414294216328553926880955463306582808606536151756071031302135635854789030294834530240404343712381963747373364117501842474941096665339888256671785815467218624169223933143307220964614444330502981568350254533038499649964874764072973728970946774460606041861357275846995938344818543483642167326796387390113958170713211506553159346137864860902177502431543989460177320690149453856881298749202861946727355618665478360756645537496747334625835862815661926643468251780463806776810706696747439022713485492547267313669209566991219481928550578885492248849823860991677762699945228462675054835166711179636179153995619514675100731127354926844660404191373919344744761118051477992019359533534527990491132599341563238914828066924657262027741958990406708099213342114725452016379666557915845889608666431142763296817596897965914985942397771978908964365696701044605279831268119762660089477101086848954741665172471156985252086003228231233888894637749093172818584103584509416428105651302771088924670709965153961886045612670487663274425396808761044624944526141070534458536474073952927546002786426711849027353487156273104882272218351793502418695367456749051615237618921391876521442117464082686049179673237127399954290399820185096273189176732210750121361871793687983962957282692833955365610693447171389882192725163295543240043798954934837696814375404379568259245770717657529553130553282041285819696988343572282958961184519204492589843694352072180800761888850613053237001893896695590470292837726566026450984721295727544305078712416032256729632336923943261432902630378421192534203642122795801208576717164358630287234787727679328688127389202178019509789531129006162992886587715343681279390840965332517570830280786292543622833991698423396475582166812504976736765364842046813769331625927384990300217812503745094356933785081919384518439462640724056925010728625818612526564603049531684224651456383142383014958637379839009192010657313303680059260541051996316133299246573369877641513737048824798083694562047787490900680875432740446436682994702487869497288980790670482495592506177858954541219154977008527362573824754024163269772859859572232593851188455304190256869106492474046692283757557173746594285091716805326569735640676524063639057718794503289836061178483864876106112709247739859077489152002169890925232161260912841669014527944085224943307484437237459213501868941118080561021554146493940578427676193115870616275412706204125858239841362210817258913621765016185839455665940210974741712946262429668661146337177285885536327349102286790022011186138933721512537644697444218145203681256486997688156131719884501896916526654826464272087409584030562687116595798498087973101377736154047987388670421470839062289057812549246374981157106805871868332116232135695532815457471815054909685362925047293431583024663753401517785386108978419953085739372053652897423545849020258366028954138785971113953366158796387445558840765566064657433210169280954192597418286044699070139327297741175136555178544802814536464832895982427567380345164430912175690253857117960853331418072545059414547420705219828907367854012364945287191390252057512036341250538713832725608510655097423413328455477378913495489296076062082614810895225033326993326518783982185640930521812802616356756914812134910597423948353334069486955331366365450043176544179279562958295510340618973716343009994518428915346117279489162980621413670536906537471326038340578049556684577551750642503096445769763494872371445729123672621719843744436674843210439532808411594497935319478373457536110326888741602760136572367370329630020495111482791069410979245223535029352665841378465287083316503273281751265311450175143024903282589706838508148826407936803772533573368772209167002170065102412681275632443940226817752145461025396130327247663320699987637596787721790863295175352304713173059539538424522240150979566909637079186762323152202263541599731751675795085083385044456006887026269409479023426586931889251765898034873281978370468710407948102126438132396887310211042933447003464841723208982528838370327074266745763874135795456531269223170539071714851999708229330261804536364344517813723368365409698634770241713003439964844603151149022338296902638222413003848123077363089307135346407879980063253137990720603283336188285786021335162005751187146567861191455888220204373364560513749787104189768917662761324956824308468174815124232385594373125605836679726700858556693363559412622261303147561501334583037155448973241689218862023028268524329560010022997583429502953354018008559512763197033') Decimal('0.98894486465952640039482242532760406357317314843738274815111410756494313403314695667973849019148738839128202080148896094129308284893913174210823343989486550116819148541243780165028895265622263973438765683047158635954212465471856670671300373269193856610782437484645996561407233856589239182444830144541071866740702194077642718824276644636050500893784000766060056675215482701571156940148403550244314838452590135896178726344133295072886878757205028524091314808588772632725780608652520131150937568687762853689875439593178587131699476955027884058570578367144607311904453669341719139346384824392896869786436414521096970516546975959565628761803625262663588249815752505890333466011174332821418453278137583077606685669277903538555566949701843164974546696150035003512523592702627102905322553939395813864272415300406165518145651635783267320361260988604182928678849344684065386213513909782249756845601053982267930985054614311870125079713805327264438133452163924335446250325266537416413718433807335653174821953619322318929330325256097728651450745273268633079043300878051807144942111450775115017613900832223730005477153732494516483328882036382084600438048532489926887264507315533959580862608065525523888194852200798064046646547200950886740065843676108517193307534273797225804100959329190078665788527454798362033344208415411039133356885723670318240310203408501405760222802109103563430329895539472016873188023733991052289891315104525833482752884301474791399677176876611110536225090682718141589641549058357189434869722891107532929003484603811395438732951233672557460319123895537505547385892946554146352592604707245399721357328815097264651284372689511772778164820649758130463254325094838476238107860812347855788253591731395082032676287260004570960017981490372681082326778924987863812820631201603704271730716604463438930655282861011780727483670445675995620104506516230318562459562043174075422928234247044686944671795871418030301165642771704103881548079550741015630564792781919923811114938694676299810610330440952970716227343397354901527870427245569492128758396774327036766307605673856709736962157880746579635787720419879142328283564136971276521227232067131187261079782198049021046887099383700711341228465631872060915903466748242916971921370745637716600830157660352441783318749502326323463515795318623066837407261500969978218749625490564306621491808061548156053735927594307498927137418138747343539695046831577534854361685761698504136262016099080798934268669631994073945894800368386670075342663012235848626295117520191630543795221250909931912456725955356331700529751213050271101920932951750440749382214104545878084502299147263742617524597583673022714014042776740614881154469580974313089350752595330771624244282625340571490828319467343026435932347593636094228120549671016393882151613512389388729075226014092251084799783010907476783873908715833098547205591477505669251556276254078649813105888191943897844585350605942157232380688412938372458729379587414176015863778918274108637823498381416054433405978902525828705373757033133885366282271411446367265089771320997798881386106627848746235530255578185479631874351300231184386828011549810308347334517353572791259041596943731288340420150191202689862226384595201261132957852916093771094218745075362501884289319412813166788376786430446718454252818494509031463707495270656841697533624659848221461389102158004691426062794634710257645415097974163397104586121402888604663384120361255444115923443393534256678983071904580740258171395530092986067270225882486344482145519718546353516710401757243261965483556908782430974614288203914666858192745494058545257929478017109263214598763505471280860974794248796365874946128616727439148934490257658667154452262108650451070392393791738518910477496667300667348121601781435906947818719738364324308518786508940257605164666593051304466863363454995682345582072043704170448965938102628365699000548157108465388272051083701937858632946309346252867396165942195044331542244824935749690355423023650512762855427087632737828015625556332515678956046719158840550206468052162654246388967311125839723986342763262967036997950488851720893058902075477646497064733415862153471291668349672671824873468854982485697509671741029316149185117359206319622746642663122779083299782993489758731872436755605977318224785453897460386967275233667930001236240321227820913670482464769528682694046046157547775984902043309036292081323767684779773645840026824832420491491661495554399311297373059052097657341306811074823410196512671802162953128959205189787356186760311268978895706655299653515827679101747116162967292573325423612586420454346873077682946092828514800029177066973819546363565548218627663163459030136522975828699656003515539684885097766170309736177758699615187692263691069286465359212001993674686200927939671666381171421397866483799424881285343213880854411177979562663543948625021289581023108233723867504317569153182518487576761440562687439416332027329914144330663644058737773869685243849866541696284455102675831078113797697173147567043998997700241657049704664598199144048723680297')) (Decimal('0.00080915428471841675188872759863109354531013511274143305255023698736361019382246248092746239529725055892893165251224316807760143139767159636434965896928911855292224182170759491170354482495590989236253040056660670970076830460955428204332815193093220552814698566851396874101871104931019105494513743311354538582499778702252648959228816906464003136309333854612326688072129441196401202263557245710369953711463616493447531475106155422280028412830420031265762873208477553406517595511942845058176052605028068634383187280904849814001233046370156569741814462563286817848968635429626666473135565484534802424897940253087655508118172330920604612731145303190311576864257414692144813647794135172516366037572086092897872207802780558270054201584041720890388848206408564010914272839667572684324578006044414837581246055148721844035772051304491768253732028555653035361176207359946495724993966938645175592365942181451085046115626843323607930530639791488993645839365020424399234383906634652148406349144452759830179170303462872078343875383411929683022585529267003027075245706920497358886459276025310911357749210279494130368698636025642142601159189155458846090859329544291082794087335101075856625716739767264971307712773082792322193792916570581729707778105733964156944126460813966598992356960297710349559420012476263852159888371733628334247476203499710212423323431598910741988660109091964288448457568095960986841592465799119355357566349983325085512850797766369330264596494165764083907689434890231813205154316390318563903663035452470775905289776124116456008675745141268971584623552660879668704408454887636325438487662803601029584241549487345929448629027977994246648360048079998373358405709873889035997758645989669279748051290839951577924020097283612177663996531499936765833291787112845928375073734573878990205730178750137256358239428087332887479149643096575299037262598418083749116127326066941847329650882673577200971807542388059701881686392592271885179794966634898772802713674536808180778660070464832116543254109206922701178222828015358663996717921803137161138382493624694823330845713864777063689180767244012536064858133213903055469642524221059794830586045804188908984369409075418239705999315216427893259902690106250125891794462560601300053689367150000901408388129053423275356919426997534122361840365894655608005094171742359395840730267274450794435284344586156538777533553110286731600826976264039233579450653530337304411539061422768007854623306023446810022483298383513704289216593876510742761463482413105179789308796436873761775045497788275985402291810718025889113768268158212984080405643864904547565491621440645838766645342829727519659922921702254251144360078178656071129156214728094771380677248660997894062572671529258996012367184898292603451591469589345754115604582206194246654356835389845283109026350309732826086648463714281493813850442525814640839951643106490856489152945279653442845481210287832272028216208800635537433258511200793470909689703710563120659909106929401545122049789716330280554466657032784398417100015267429396045676991835544855716821493046809199619787519302957638836541027684589694669363331533545369216504237576954702003818788053795306916076422989686919428288147043394110073093445614849735951742559297442054598826876918131900059101858791962292691567862740713763985409154221239555048445782844517839442999517817887156437748614824587250874242615703093126077341580174340608291968743800698901313083534906973670089773222714317574918714493160851146810678349319162639855492965333718469610961565068772323635550950799297244838515297824633985402127550891712691151033876702796393308405618422882560832384949024902633130252435270231277587755593846548968252287063543862966933439703477535787695749298685175571663989468327405298320894208280263014971877733479872044776206591836260298515874533062274549070046447998779971872903458788787645635711516083167811031198980824616841108668464650379992880953054597696612875167275982191403301119560950901021008705331464746574979577973407551728447031792803562428525057947966103347456606129146574240669484881197718305340706056549336702721277029102709957701960549360314419484843717797618797520115170333978697588973541349178875622638115616382840700493225457404528372513106392574359742215165284031957990283475918923472073053405326711771172159828351714553257785537383002826245445998977858032231915705893234656215531794635841681566325698943779463234529383480191373700455939780480847619083214884507931863882048397783776700175666889061000450779805730607390064968893875515927892736487449909829633527840737562496578164719407056130478056570867776462457803329068761492916209601206643297820962908648969094835680577353786895639684713588295184768688993191647908770280191165638009276396394717389906353869530065164988820547921841581782392161921569434537777157315978116351667183852635407532416184595255385943799358228254508195344465351258420667556184033930020753824923353855517137601174813393699827658981327017252732321090670854430090839972957774429116700983955599463452838514546922570839354297907959345072') Decimal('0.99919084571528158324811127240136890645468986488725856694744976301263638980617753751907253760470274944107106834748775683192239856860232840363565034103071088144707775817829240508829645517504409010763746959943339329029923169539044571795667184806906779447185301433148603125898128895068980894505486256688645461417500221297747351040771183093535996863690666145387673311927870558803598797736442754289630046288536383506552468524893844577719971587169579968734237126791522446593482404488057154941823947394971931365616812719095150185998766953629843430258185537436713182151031364570373333526864434515465197575102059746912344491881827669079395387268854696809688423135742585307855186352205864827483633962427913907102127792197219441729945798415958279109611151793591435989085727160332427315675421993955585162418753944851278155964227948695508231746267971444346964638823792640053504275006033061354824407634057818548914953884373156676392069469360208511006354160634979575600765616093365347851593650855547240169820829696537127921656124616588070316977414470732996972924754293079502641113540723974689088642250789720505869631301363974357857398840810844541153909140670455708917205912664898924143374283260232735028692287226917207677806207083429418270292221894266035843055873539186033401007643039702289650440579987523736147840111628266371665752523796500289787576676568401089258011339890908035711551542431904039013158407534200880644642433650016674914487149202233630669735403505834235916092310565109768186794845683609681436096336964547529224094710223875883543991324254858731028415376447339120331295591545112363674561512337196398970415758450512654070551370972022005753351639951920001626641594290126110964002241354010330720251948709160048422075979902716387822336003468500063234166708212887154071624926265426121009794269821249862743641760571912667112520850356903424700962737401581916250883872673933058152670349117326422799028192457611940298118313607407728114820205033365101227197286325463191819221339929535167883456745890793077298821777171984641336003282078196862838861617506375305176669154286135222936310819232755987463935141866786096944530357475778940205169413954195811091015630590924581760294000684783572106740097309893749874108205537439398699946310632849999098591611870946576724643080573002465877638159634105344391994905828257640604159269732725549205564715655413843461222466446889713268399173023735960766420549346469662695588460938577231992145376693976553189977516701616486295710783406123489257238536517586894820210691203563126238224954502211724014597708189281974110886231731841787015919594356135095452434508378559354161233354657170272480340077078297745748855639921821343928870843785271905228619322751339002105937427328470741003987632815101707396548408530410654245884395417793805753345643164610154716890973649690267173913351536285718506186149557474185359160048356893509143510847054720346557154518789712167727971783791199364462566741488799206529090310296289436879340090893070598454877950210283669719445533342967215601582899984732570603954323008164455144283178506953190800380212480697042361163458972315410305330636668466454630783495762423045297996181211946204693083923577010313080571711852956605889926906554385150264048257440702557945401173123081868099940898141208037707308432137259286236014590845778760444951554217155482160557000482182112843562251385175412749125757384296906873922658419825659391708031256199301098686916465093026329910226777285682425081285506839148853189321650680837360144507034666281530389038434931227676364449049200702755161484702175366014597872449108287308848966123297203606691594381577117439167615050975097366869747564729768722412244406153451031747712936456137033066560296522464212304250701314824428336010531672594701679105791719736985028122266520127955223793408163739701484125466937725450929953552001220028127096541211212354364288483916832188968801019175383158891331535349620007119046945402303387124832724017808596698880439049098978991294668535253425020422026592448271552968207196437571474942052033896652543393870853425759330515118802281694659293943450663297278722970897290042298039450639685580515156282202381202479884829666021302411026458650821124377361884383617159299506774542595471627486893607425640257784834715968042009716524081076527926946594673288228827840171648285446742214462616997173754554001022141967768084294106765343784468205364158318433674301056220536765470616519808626299544060219519152380916785115492068136117951602216223299824333110938999549220194269392609935031106124484072107263512550090170366472159262437503421835280592943869521943429132223537542196670931238507083790398793356702179037091351030905164319422646213104360315286411704815231311006808352091229719808834361990723603605282610093646130469934835011179452078158418217607838078430565462222842684021883648332816147364592467583815404744614056200641771745491804655534648741579332443815966069979246175076646144482862398825186606300172341018672982747267678909329145569909160027042225570883299016044400536547161485453077429160645702092040655')) (Decimal('0.46364139696105447748251209218969803248993120459406856416086948143294856724413697415836432659510916693966430925172952035920066290251093596438826045902144797949627117337598520031603491800435511533347464976008324822230358622550247624920509509953172874954232748154857109822134006513402578382440791628928757250496213362110496598770547087275740465958799838128456631915672634073959878981750910527431445474341433333975680727651128283198119206829437496386795906962403407010579461584414082824273023336480835565490528587670784113464243732295299944115776694351839361763629005838937814348756094270903590079586842155974794288246969726167305802324012872641782128610795290308904861927427591389975526564276492012410151658219798431387663075944732430192896922513633823444395197810880080164954810860809743125277012313799549072129188907945194920316805734877536469273312392808278573217967741313857360337617790453433025648931455109552348100899928699439230724760565008768041932437901065654327173221821825679764130036806505694409650627252230551326768542963405468945715221706203148786926945830844237180351877902607288073535929701501165860520686797834004586360395429055942034571136762183724201722775711560326055537355712716551365309386622473165937602374115969398570134700248588441600986645597672133042992311101690015994450118513094251633168250052993660031218083363844834563428593451910662324398281078372805580714161833002524425259668934152968608482839689360800107914362245389551577284026747345499392981712369683772377777349546181565914477867920528780375002408802728691731061992947025610390611450484651109012776289672980941552810591023837511803133370589482203765440425490913996107374790434162603819397606613608771896016803807835353515888462798450658084905478580926136473127396758715048272406682982290482338658393232227853467712408224616036845046538068718324244117703736534792746613223363459426126837916481991790800300618580540728036536719788796176748309020484458404794480951188021505790761759774921473031044649567379029926965101266066714200373846183492956660821305378374732622897115217852118782880157246642128996203726899581831846299115487638024396354036189852195864567475382036112770508546432081398261807950976046865665889426319542134777330275759736380629371976952575491877517198851482858959782629641762858188965756460408918351222708265083922687067619910199834274372266008902934885244638005125932206656003699920991270498911221166631337559979187944424103443624380937698726225117067812614418129612857225444664983716493554043898020927678106873759466594723758503073632281810648835103000404678858420210818414815100302545622723681421386314146416665060798180872179292004701982926406259033010232593991482473551346038964792939317441658797911086273678530823039716339390669261750139710558264120401595590927485402655464128109764322741024801032894610063014279382575684581735494189967818395544678473011774227737845181431021525061183589308769968974620854450503921530842310138168924517757693715915441389012005472799799587612972847975642186807469215501127319677027730137012699207985662806158826816719017979303566955080646715356599155955523866417435877671362226119129747750178251401923188098587478079895168905247335864182066945445435800589674907983735763975873431869423621683078642591486327635711945734492128032682635422889407049120305243481779816160175746247085348698283005414988534099011427360144913572158094540689495693060721099184861156610718208621586726533443817085155994064710076503574663249378528895997533386005819667392519222245774960013874703717264370917079374867515849921954791590387913591428516370223344189004297304067986048214595417493688936850827664617578478792900776597999730214094386526121056789933131636251517545719075790569055556626134546085213805330198678049062493977993178270672345017632435974023471373788372227468059275817547646117973522440406220492166573526294490586398936272715009731563023914593490451505983465978070259957990480411616210278843003873354787736303547684658817181508103212379318983292544273794153354016919430366330718979438459907887383654828204189389705740658663018133466941591351434682905208795020522999248453548648179908658200528009558129227448788853988013797622029946235523095600562696317422388376081552425182587246834833214499065384541267608347946736554063168442757211955369703042799606883394677509490682751045420384252211280904939009114909525369510338581311544909718073728633919796504345480122559882835835276434201144663056674310600659048426570057618561270306207002871292852600543425895592854527585608848977704121943229337290193282330950224500414314069334977742662786888404987185169483359990750197521823752721947083421656100052030138939741390939047655753184437207330468463954675967856936388337540708766114890254947680804732815601333513190603742315919295473377912242498988302853949472953962962249243635943190796446534214633958337348004547819551769988245042683984352417474418515021293816121634902588017651706395853005222284315803672942400709151523326845624650723604339698996011022681286493361339679725589193') Decimal('0.53635860303894552251748790781030196751006879540593143583913051856705143275586302584163567340489083306033569074827047964079933709748906403561173954097855202050372882662401479968396508199564488466652535023991675177769641377449752375079490490046827125045767251845142890177865993486597421617559208371071242749503786637889503401229452912724259534041200161871543368084327365926040121018249089472568554525658566666024319272348871716801880793170562503613204093037596592989420538415585917175726976663519164434509471412329215886535756267704700055884223305648160638236370994161062185651243905729096409920413157844025205711753030273832694197675987127358217871389204709691095138072572408610024473435723507987589848341780201568612336924055267569807103077486366176555604802189119919835045189139190256874722987686200450927870811092054805079683194265122463530726687607191721426782032258686142639662382209546566974351068544890447651899100071300560769275239434991231958067562098934345672826778178174320235869963193494305590349372747769448673231457036594531054284778293796851213073054169155762819648122097392711926464070298498834139479313202165995413639604570944057965428863237816275798277224288439673944462644287283448634690613377526834062397625884030601429865299751411558399013354402327866957007688898309984005549881486905748366831749947006339968781916636155165436571406548089337675601718921627194419285838166997475574740331065847031391517160310639199892085637754610448422715973252654500607018287630316227622222650453818434085522132079471219624997591197271308268938007052974389609388549515348890987223710327019058447189408976162488196866629410517796234559574509086003892625209565837396180602393386391228103983196192164646484111537201549341915094521419073863526872603241284951727593317017709517661341606767772146532287591775383963154953461931281675755882296263465207253386776636540573873162083518008209199699381419459271963463280211203823251690979515541595205519048811978494209238240225078526968955350432620970073034898733933285799626153816507043339178694621625267377102884782147881217119842753357871003796273100418168153700884512361975603645963810147804135432524617963887229491453567918601738192049023953134334110573680457865222669724240263619370628023047424508122482801148517141040217370358237141811034243539591081648777291734916077312932380089800165725627733991097065114755361994874067793343996300079008729501088778833368662440020812055575896556375619062301273774882932187385581870387142774555335016283506445956101979072321893126240533405276241496926367718189351164896999595321141579789181585184899697454377276318578613685853583334939201819127820707995298017073593740966989767406008517526448653961035207060682558341202088913726321469176960283660609330738249860289441735879598404409072514597344535871890235677258975198967105389936985720617424315418264505810032181604455321526988225772262154818568978474938816410691230031025379145549496078469157689861831075482242306284084558610987994527200200412387027152024357813192530784498872680322972269862987300792014337193841173183280982020696433044919353284643400844044476133582564122328637773880870252249821748598076811901412521920104831094752664135817933054554564199410325092016264236024126568130576378316921357408513672364288054265507871967317364577110592950879694756518220183839824253752914651301716994585011465900988572639855086427841905459310504306939278900815138843389281791378413273466556182914844005935289923496425336750621471104002466613994180332607480777754225039986125296282735629082920625132484150078045208409612086408571483629776655810995702695932013951785404582506311063149172335382421521207099223402000269785905613473878943210066868363748482454280924209430944443373865453914786194669801321950937506022006821729327654982367564025976528626211627772531940724182452353882026477559593779507833426473705509413601063727284990268436976085406509548494016534021929740042009519588383789721156996126645212263696452315341182818491896787620681016707455726205846645983080569633669281020561540092112616345171795810610294259341336981866533058408648565317094791204979477000751546451351820091341799471990441870772551211146011986202377970053764476904399437303682577611623918447574817412753165166785500934615458732391652053263445936831557242788044630296957200393116605322490509317248954579615747788719095060990885090474630489661418688455090281926271366080203495654519877440117164164723565798855336943325689399340951573429942381438729693792997128707147399456574104407145472414391151022295878056770662709806717669049775499585685930665022257337213111595012814830516640009249802478176247278052916578343899947969861060258609060952344246815562792669531536045324032143063611662459291233885109745052319195267184398666486809396257684080704526622087757501011697146050527046037037750756364056809203553465785366041662651995452180448230011754957316015647582525581484978706183878365097411982348293604146994777715684196327057599290848476673154375349276395660301003988977318713506638660320274410807')) (Decimal('0.0088354460993575637651178943014581636560618726366745705839338107650030097827776603442362289953350005452645874884447115341929695272967787185364559898819222034644538005749536881727104446077435441897929131750939334543572360673691147998165428781151139575473642510497141397567520623904512535395362301977059049573780608612298968662564718206543700077395845424666775193521907481839128615878722375816841199860790240276283175213493271977796338643236671176177215810153158976561724614113915901435213702140093715044454963918011810267925677991135499166072917693547776128871652919572260251063665959862164229291478185315119688404214993571668550252919104236512292911938718289505387652023593935961324911258617854828093346303267760439649224631372026708911201405233303593695868109990452153465796670315024824352309944672884843417299978543362098504549935388208184513419151734149049936961103761223392154658883293144046463359322758333898673886342258032197971778280019941931347959748680113266175275557565572730832918319714718521651934810524099183954754439292114193878187554635148690439842409648537531040550977129753328793973395604693686614940627558977906675557123511116853788880991848606068369129284283502031492877154550614883330278350825640614071160232661528479503067209516165122638315369815839269258634855786876731335528123860054160421008983425002785760682379570597588618518858819368607770807242794205032786251655790066121926777482887469338069221852451094325394960516931133013814688585558318763601723850940325831114336535124836961648330900746910505915184762046709687680584259332069353648331007981773775668894761849178836582568856287038476431218727275843369059105414924671293520375928124179218977152828578187572766306493286357850404612906874636530693850081790816911301125190234206507717136828670962661315159729337765902397752423864359992927550350650277748984080363008693610085933864073428920237579206430250530504096580249944698381343144726946170946711892979657252247346250901872537933837273179013057290157269091332948250587689909388932156706039162514935479509499184834785810625606153442355975795282477191432070725901834600073492990246412798225825149326716492635689152739736925323861403908713164857095868720523680269550406103400924833956109090757294572735135717208413586135394008885123791315907572575343777563614862097069930892894496544483167039798016249424408934608729956778445129884203300653957915447919223143749331074037744057315668584161711658167053854954740541794932938099679093392781820570141255596322072487227408880563064361344086827549547023746495191639173699531718544811137814183342856083146904759255301537666313803529316500805715847356248859690390839604596867643258470189599400809398447769286934630048529793480772047190346790415284991016494571066787002337929550559519804652732915165387105591416324415018705686220127258730519161808652806373868696972928916452259082260095721267648236707618393414488626119764696881762350852452151858684706311742249486849255717630100576093270242708031237761181876741738015353547675567967636665007632804721873298751082321651354754572912397768163402514915330643084815321906900372192386069460653203715722722529024419141392334177099331926872378686537854987196019754549712276198256489663971224077547698456967004585332417236243643476224689319065948304362446376562860033778036569993593189599621628557680880545026328554079835067474987357027257809075379462433591697934453845423113280661153501761973569161497918625274111976121527616869141456498721930806268480813124492411799690053007455745852764505145121332011307134646081693935856277074805549911282234216985692066318026889747277474199681681915392498552623888986055981936383229192913119642221263550383396418627463608016632584452292739897311993701836858919448365887390938801783839816020982967400582517696791348545773098032039969673162295988697428479547442689119240835526391523167588840516190563404133597371999156606266293645209302343038233555541301627874820559123578887876390322313493349652522957063522664454149934850340686113022911577245086258521149440707152291437346469526950029144213535276297034614078366133276247324200027620173315680998008120175182061463666892805474676148755183596601283851480987079899918464042262094917755406771400046289763010945118919085785060885299185222665598952649507112694117493087155687523136671336253468941121032653898436784415628434652861688715338606543299639840635475944433825880533029428225776138761247086120993848282291042291822256134338429809662583463848332783142056402999717798052947734392921769827126020814785038379382256483105712744106294486890100207163011043464576584493397556170660218434919036962156426614739519860795827777053546591014314316978307746644617777199929234302743246503695998774260361305338356298047334483145515221184932413276737415744871255089517409808984167745312408029128832387322302492604764593551800187665102578693759417535892420585470620399237667639212329480226430562090111446505469748071844669053242983718666869809945937480188226731065218664242908542089270062014464658140134376811424802897154') Decimal('0.99116455390064243623488210569854183634393812736332542941606618923499699021722233965576377100466499945473541251155528846580703047270322128146354401011807779653554619942504631182728955539225645581020708682490606654564276393263088520018345712188488604245263574895028586024324793760954874646046376980229409504262193913877010313374352817934562999226041545753332248064780925181608713841212776241831588001392097597237168247865067280222036613567633288238227841898468410234382753858860840985647862978599062849555450360819881897320743220088645008339270823064522238711283470804277397489363340401378357707085218146848803115957850064283314497470808957634877070880612817104946123479764060640386750887413821451719066536967322395603507753686279732910887985947666964063041318900095478465342033296849751756476900553271151565827000214566379014954500646117918154865808482658509500630388962387766078453411167068559535366406772416661013261136577419678020282217199800580686520402513198867338247244424344272691670816802852814783480651894759008160452455607078858061218124453648513095601575903514624689594490228702466712060266043953063133850593724410220933244428764888831462111190081513939316308707157164979685071228454493851166697216491743593859288397673384715204969327904838348773616846301841607307413651442131232686644718761399458395789910165749972142393176204294024113814811411806313922291927572057949672137483442099338780732225171125306619307781475489056746050394830688669861853114144416812363982761490596741688856634648751630383516690992530894940848152379532903123194157406679306463516689920182262243311052381508211634174311437129615235687812727241566309408945850753287064796240718758207810228471714218124272336935067136421495953870931253634693061499182091830886988748097657934922828631713290373386848402706622340976022475761356400070724496493497222510159196369913063899140661359265710797624207935697494694959034197500553016186568552730538290532881070203427477526537490981274620661627268209869427098427309086670517494123100906110678432939608374850645204905008151652141893743938465576440242047175228085679292740981653999265070097535872017741748506732835073643108472602630746761385960912868351429041312794763197304495938965990751660438909092427054272648642827915864138646059911148762086840924274246562224363851379029300691071055034555168329602019837505755910653912700432215548701157966993460420845520807768562506689259622559426843314158382883418329461450452594582050670619003209066072181794298587444036779275127725911194369356386559131724504529762535048083608263004682814551888621858166571439168530952407446984623336861964706834991942841526437511403096091603954031323567415298104005991906015522307130653699514702065192279528096532095847150089835054289332129976620704494404801953472670848346128944085836755849812943137798727412694808381913471936261313030270710835477409177399042787323517632923816065855113738802353031182376491475478481413152936882577505131507442823698994239067297572919687622388181232582619846464523244320323633349923671952781267012489176783486452454270876022318365974850846693569151846780930996278076139305393467962842772774709755808586076658229006680731276213134621450128039802454502877238017435103360287759224523015430329954146675827637563565237753106809340516956375536234371399662219634300064068104003783714423191194549736714459201649325250126429727421909246205375664083020655461545768867193388464982380264308385020813747258880238784723831308585435012780691937315191868755075882003099469925442541472354948548786679886928653539183060641437229251944500887177657830143079336819731102527225258003183180846075014473761110139440180636167708070868803577787364496166035813725363919833674155477072601026880062981631410805516341126090611982161601839790170325994174823032086514542269019679600303268377040113025715204525573108807591644736084768324111594838094365958664026280008433937337063547906976569617664444586983721251794408764211121236096776865066503474770429364773355458500651496593138869770884227549137414788505592928477085626535304730499708557864647237029653859216338667237526757999723798266843190019918798248179385363331071945253238512448164033987161485190129201000815359577379050822445932285999537102369890548810809142149391147008147773344010473504928873058825069128443124768633286637465310588789673461015632155843715653471383112846613934567003601593645240555661741194669705717742238612387529138790061517177089577081777438656615701903374165361516672168579435970002822019470522656070782301728739791852149616206177435168942872558937055131098997928369889565354234155066024438293397815650809630378435733852604801392041722229464534089856856830216922533553822228000707656972567534963040012257396386946616437019526655168544847788150675867232625842551287449104825901910158322546875919708711676126776975073952354064481998123348974213062405824641075794145293796007623323607876705197735694379098885534945302519281553309467570162813331301900540625198117732689347813357570914579107299379855353418598656231885751971028')));
}

potential ( ST | TB BW SF )
{
	data = ((Decimal('0.99892829033323555577258595227917501543296057169559789877975450471613942120925806080278406619518028972923463445193438494995910184149375901225201684295481480963568288432874225756102000939845732418018619291568136669715239088286534761303714414459483901222787099474056591353501126291188440194670365544321952464329742219045757535944548386209348957138679812160948866085781699733304902012903142453953553667039455434567944516722080216669391182998061065970949680340434204266466435220735111816304128228540633518919749997647932532277583627497305475904778426755416555718756242475334081217571486303822091137490779832816581739557161644306780769434043496712917827009945249556500737610144206214886954933975991716759961864107994918770711767600864038752117002107060198937491572026193263646826876982197576903320978049840450102304220575737093278550137794698834670337208525599167383903059605442947620088044749719234828894790642609179274462360881626244049204094416588448601151579110164609237573303092671158540977925782815038943817165312858681486700249261261664920516149159756065971667957466886258957067628637303081591965060321349124270705230960871371400332258837568527993492402279725642558150518371266825283063923555912576187616839297935025636810606858767543521305836625209252440179663336467471570183704365118345971178404847003297386675955720642260303901964725752014138070122929896409378258620232790386727030206580515607006317263000675440907913032319469074323753383391239380248213593712510320325090295507168498508785193098863805265414561331345302434882682294396583645736439289395144453299699352207266472705096492245815935647231327822698466815120150454065670896255108147829230534304540718749232995120636658910836978416718288040462748692368298450773089132776410816691507906322731335635491379545616937245075101977024857890046400058478590507983302502267171714565177833749177312939210340837162564640298157025789151728017313111697984295906141659978919251383386626216559216237016982858339478880919688295803357465130215337177068625446094897414486999739707600457846179090348987800854675133641543948668540443576113720149571755772651306559318657384416201797285892823069540724469797807251228996572088158359047754444559201002663977914568450802705178478825553007156074804814591351902924012646386990850081213662261635769127579360298981546983664672969276198775857459426807077243804475234961448620111538927418231681910592495322258899409045875017930099997201316341946958019088230747720032107581102346615927806713527707340712795534982822931702822552728879025692352965173616267453774387865940081562624825617854939301096080902938758805456359557772214916698051474279110987128528891180687854650189521853962892448578435628795583400395005678762352058634588480449469460701542187534496063765103432670431107317036190219175802367938564164687001713718678713041957206358184072463037447055791501905234422303799875181842177681239919794857214136862574010057324533000424717292082432564411902246353015162758475957986652568119856306379804560730115694845795414665053300164666323803169702965904836759743411100469942198254292407214889113738190113997211744662088594524637989264773051534110067202892156035162342193867864715229226205598232281483095654394882932319041079931248705869416497576301899990555055942224524163328041225345278359959217804760691270405553891710269133845551518934998862162576376574129653165671213591909254268215285406557402799711436548146059632175362236932249520480350395207034634599510594052874263099866240623369510297793513498048721891614549822611962181567441470704893424912952413365814549339814149680177731523204214949068798315450338223172754052692855821119575377175356407553980473593040968659835647653313188785153516886783274142291372670905769238833224749979837414604666933567358464223859981252730243387967003975824141093844150585208566497571226687517219942646039275300007649812329623427374866582297177304339938813363289516053357743980009390435406692385197241429572422149304696617784758254795829581475413288216578148911836009529462625108908454338748537857878333289215068751543105764207626578024549958450152856095993749387935261267688215729443550326002070302210234135502894122151867743197529408464445889262073250746690268632770920903598042361444666061231846750238662892660421217926986194969606112487458353209733034684088306616445541259131157839729610901614617761521485197211006334460468739219804125651637104811100829946157087406642359779841979073152559445569469979347449862073833229696922602526490297189416346369440192277161822111268781860773618294338568464844708308335237930090907298117794367284424687957112156816949856230127080426696225445867683155290092775320664673946102796984784912431807792397221489859362036957128674965725520264224086610372258987764917007855635079949931975847823830478004477246288855677392027800802511126593490470443872921419457854086998767398392302053268762329315731216315532510385742520132155026745111939475153535885887954439775358099145208115287512249290675516504047606336761916790165622769863360008819430292182952792') Decimal('0.0010717096667644442274140477208249845670394283044021012202454952838605787907419391972159338048197102707653655480656150500408981585062409877479831570451851903643171156712577424389799906015426758198138070843186333028476091171346523869628558554051609877721290052594340864649887370881155980532963445567804753567025778095424246405545161379065104286132018783905113391421830026669509798709685754604644633296054456543205548327791978333060881700193893402905031965956579573353356477926488818369587177145936648108025000235206746772241637250269452409522157324458344428124375752466591878242851369617790886250922016718341826044283835569321923056595650328708217299005475044349926238985579378511304506602400828324003813589200508122928823239913596124788299789293980106250842797380673635317312301780242309667902195015954989769577942426290672144986220530116532966279147440083261609694039455705237991195525028076517110520935739082072553763911837375595079590558341155139884842088983539076242669690732884145902207421718496105618283468714131851329975073873833507948385084024393402833204253311374104293237136269691840803493967865087572929476903912862859966774116243147200650759772027435744184948162873317471693607644408742381238316070206497436318939314123245647869416337479074755982033666353252842981629563488165402882159515299670261332404427935773969609803527424798586192987707010359062174137976720961327296979341948439299368273699932455909208696768053092567624661660876061975178640628748967967490970449283150149121480690113619473458543866865469756511731770560341635426356071060485554670030064779273352729490350775418406435276867217730153318487984954593432910374489185217076946569545928125076700487936334108916302158328171195953725130763170154922691086722358918330849209367726866436450862045438306275492489802297514210995359994152140949201669749773282828543482216625082268706078965916283743535970184297421084827198268688830201570409385834002108074861661337378344078376298301714166052111908031170419664253486978466282293137455390510258551300026029239954215382090965101219914532486635845605133145955642388627985042824422734869344068134261558379820271410717693045927553020219274877100342791184164095224555544079899733602208543154919729482152117444699284392519518540864809707598735361300914991878633773836423087242063970101845301633532703072380122414254057319292275619552476503855137988846107258176831808940750467774110059095412498206990000279868365805304198091176925227996789241889765338407219328647229265928720446501717706829717744727112097430764703482638373254622561213405991843737517438214506069890391909706124119454364044222778508330194852572088901287147110881931214534981047814603710755142156437120441659960499432123764794136541151955053053929845781246550393623489656732956889268296380978082419763206143583531299828628132128695804279364181592753696255294420849809476557769620012481815782231876008020514278586313742598994267546699957528270791756743558809775364698483724152404201334743188014369362019543926988430515420458533494669983533367619683029703409516324025658889953005780174570759278511088626180988600278825533791140547536201073522694846588993279710784396483765780613213528477077379440176771851690434560511706768095892006875129413058350242369810000944494405777547583667195877465472164004078219523930872959444610828973086615444848106500113783742362342587034683432878640809074573178471459344259720028856345185394036782463776306775047951964960479296536540048940594712573690013375937663048970220648650195127810838545017738803781843255852929510657508704758663418545066018585031982226847679578505093120168454966177682724594730714417888042462282464359244601952640695903134016435234668681121484648311321672585770862732909423076116677525002016258539533306643264153577614001874726975661203299602417585890615584941479143350242877331248278005735396072469999235018767037657262513341770282269566006118663671048394664225601999060956459330761480275857042757785069530338221524174520417041852458671178342185108816399047053737489109154566125146214212166671078493124845689423579237342197545004154984714390400625061206473873231178427055644967399792969778976586449710587784813225680247059153555411073792674925330973136722907909640195763855533393876815324976133710733957878207301380503039388751254164679026696531591169338355445874086884216027038909838538223847851480278899366553953126078019587434836289518889917005384291259335764022015802092684744055443053002065255013792616677030307739747350970281058365363055980772283817788873121813922638170566143153515529169166476206990909270188220563271557531204288784318305014376987291957330377455413231684470990722467933532605389720301521508756819220760277851014063796304287132503427447973577591338962774101223508299214436492005006802415217616952199552275371114432260797219919748887340650952955612707858054214591300123260160769794673123767068426878368446748961425747986784497325488806052484646411411204556022464190085479188471248775070932448349595239366323808320983437723013663999118056970781704720803')) (Decimal('0.0016503396350621931257309383392308059466027530135692556158060715105690186099110173757536415087923563081294454016912773281035513770135015431695388855036003522346928722809100369872209452713820379455736780853923172722276001466094887872803154343779338029561142154620872367641359214800891791462694207429675911578677414332218517516811733664731094352991831577276157480087281541760861965123309554687737851878702519527024683836191920459887586873218330969660419565892098574137038678663288658069281138536846728666263468817558489471711934999153175978200566999435151214568683704607361862789039095731361814688749870810859063839290326314771131608849830363268284602423374911484654958194256208672904433675685842039775970031613920227348101678696762575938758407354846915527149025539585984652637376974775905425270984691117375588996173196159551455034593475927468624057997622598417301140254567827540378999030032088565967661914212267120809861989704700229578050794336698987606285216641237011167935988747112419191329125287355485832460297816914821668904181729901234881950610613184971455569276666520493321583551374589488748505241451278280831018346844386460031860177114453867751479636937383165386288490131172065706331452096447876934691446507906005071517951416425436321597636873601637569957764533923891549494978468971121220413526681756027342661748801214285026939040324099974413860634950849994045730239452272001881975902182731066340377123608220580183477008654195062968060762581122070917379034576203032033898309639162009207705192283220430667109098729767058623662016205502215985384929651758125925884452029171717162310849172518164959273799364327239785343878927395657053227598683191739850709877524591958351720057131159947526949583984227170542090297611127762297433543513945018194430134683018086436622028658730110949251211590870105159461340942981401585173644603119237974036848473170166050271641810615226933953950975515860803230650217252143997748450043012998347807378407650944059352025563814934356010917419049037706751197479740737317934975749716541349444148100283583996146361016828688481391469550270303669424540609074220059809340208974348428904949196848086443331222977300317900649836531772240727040621974838514487699163688229075120242871125340106596151260004697171272206044178426618371423398741300946746419919265406698031953982381215003396004291909482567257011845249402939129963612184124566899590207957186132492361352950106004962602398015090215556585075454684663095100617948025386779320607171678660622484330808875269474417807073184249495159678045355937607482167148446708014794147795620697925393205421628243168456358778012364515394679464828002816480765009577693724717013488701669325007905508104801771058271991674522077698240488295861161094844332601274454542383459605448047539314552376840530402194650955456596985496953786187992854734197878965847414382275633447743489497587525031337083956341732332270150739147451239396479825867408175270339555400532941492018302674797917524308617999533455079333949927953696749682486952306281593002550158210456518436200923226349912191011534706109865021252865802430380446598186618880627482535832631866310061402686459264901782770592624056799845457159019579537939131752427416841465949826485603804087575538881727150828004071029395345125166442842292960460155437103503285511862401293083366839615345778530777821138209134012557358608896178754362800496744850971053636673658116583089910468130583818799959952680857950440134554557057542260774791674063518739313835493054661486950616076354453157533196661210752369836357539961428830089920136814899462636340564847289948754009935168201571791386328319729863273715763055238640668804188042641952035103471555821604199612912634818325730141744675884657884630554991777509604119711516326909375258858190149481976255282988403851386893845816226397385825039180805428752745811218927162714266358499685281046869227862709711578318458733282456622234859125161129732912318140385785103233309490080650600474175556618482466212733806400024254263351968087324867484142871585991595722647174972196056970080808099671748440515681652947673754746767721489548267962802328052186320224956161799008698332821446548388282387451520587211044756433242475010831388998872376580572445689021989925735560803671713354409120560842075916637838096008912940937361959112074866668856690289541137503977146988551496261788037487528400905137010477512159846643628566610749988700836948146310245059133652705586286119935811085237918605350957746100365931477142573417797875173175110135978728542619283138216971292504156598120865621350017646733489797531872101198651548161716907739344329099453175364727710979355799198389568356042407603254447869822121292322431042796966322941426916095688225558246186772910375674867831662900531045616289432911638921119543525923619234668601640878913472045637184330865041267689078663210322134581890462073113884142844528893330711008552186156733284751618203100820241774482967701681511673272019673908028910022844681500791012863931063707435216069076724356128097942068354900963015451650163944537473411166243041696540463') Decimal('0.99834966036493780687426906166076919405339724698643074438419392848943098139008898262424635849120764369187055459830872267189644862298649845683046111449639964776530712771908996301277905472861796205442632191460768272777239985339051121271968456562206619704388578453791276323586407851991082085373057925703240884213225856677814824831882663352689056470081684227238425199127184582391380348766904453122621481212974804729753161638080795401124131267816690303395804341079014258629613213367113419307188614631532713337365311824415105282880650008468240217994330005648487854313162953926381372109609042686381853112501291891409361607096736852288683911501696367317153975766250885153450418057437913270955663243141579602240299683860797726518983213032374240612415926451530844728509744604140153473626230252240945747290153088826244110038268038404485449654065240725313759420023774015826988597454321724596210009699679114340323380857877328791901380102952997704219492056633010123937147833587629888320640112528875808086708747126445141675397021830851783310958182700987651180493893868150285444307233334795066784164486254105112514947585487217191689816531556135399681398228855461322485203630626168346137115098688279342936685479035521230653085534920939949284820485835745636784023631263983624300422354660761084505050215310288787795864733182439726573382511987857149730609596759000255861393650491500059542697605477279981180240978172689336596228763917794198165229913458049370319392374188779290826209654237969679661016903608379907922948077167795693328909012702329413763379837944977840146150703482418740741155479708282828376891508274818350407262006356727602146561210726043429467724013168082601492901224754080416482799428688400524730504160157728294579097023888722377025664564860549818055698653169819135633779713412698890507487884091298948405386590570185984148263553968807620259631515268298339497283581893847730660460490244841391967693497827478560022515499569870016521926215923490559406479744361850656439890825809509622932488025202592626820650242502834586505558518997164160038536389831713115186085304497296963305754593909257799401906597910256515710950508031519135566687770226996820993501634682277592729593780251614855123008363117709248797571288746598934038487399953028287277939558215733816285766012586990532535800807345933019680460176187849966039957080905174327429881547505970608700363878158754331004097920428138675076386470498939950373976019849097844434149245453153369048993820519746132206793928283213393775156691911247305255821929268157505048403219546440623925178328515532919852058522043793020746067945783717568315436412219876354846053205351719971835192349904223062752829865112983306749920944918951982289417280083254779223017595117041388389051556673987255454576165403945519524606854476231594695978053490445434030145030462138120071452658021210341525856177243665522565105024124749686629160436582676677298492608525487606035201741325918247296604445994670585079816973252020824756913820004665449206660500720463032503175130476937184069974498417895434815637990767736500878089884652938901349787471341975696195534018133811193725174641673681336899385973135407350982172294073759432001545428409804204620608682475725831585340501735143961959124244611182728491719959289706046548748335571577070395398445628964967144881375987069166331603846542214692221788617908659874426413911038212456371995032551490289463633263418834169100895318694161812000400473191420495598654454429424577392252083259364812606861645069453385130493839236455468424668033387892476301636424600385711699100798631851005373636594351527100512459900648317984282086136716802701367262842369447613593311958119573580479648965284441783958003870873651816742698582553241153421153694450082224903958802884836730906247411418098505180237447170115961486131061541837736026141749608191945712472541887810728372857336415003147189531307721372902884216815412667175433777651408748388702670876818596142148967666905099193493995258244433815175337872661935999757457366480319126751325158571284140084042773528250278039430299191919003282515594843183470523262452532322785104517320371976719478136797750438382009913016671785534516117176125484794127889552435667575249891686110011276234194275543109780100742644391963282866455908794391579240833621619039910870590626380408879251333311433097104588624960228530114485037382119625124715990948629895224878401533563714333892500112991630518536897549408663472944137138800641889147620813946490422538996340685228574265822021248268248898640212714573807168617830287074958434018791343786499823532665102024681278988013484518382830922606556709005468246352722890206442008016104316439575923967455521301778787076775689572030336770585730839043117744417538132270896243251321683370994689543837105670883610788804564740763807653313983591210865279543628156691349587323109213367896778654181095379268861158571554711066692889914478138432667152483817968991797582255170322983184883267279803260919710899771553184992089871360689362925647839309232756438719020579316450990369845483498360554625265888337569583034595')) (Decimal('0.98518327038472376550025025272890259625252769061922908680955448045800759749308723545914559247391894716278036399354672624581647336904012888670290538790839107050035477480119749746014767214599814018973107808193154552620994216453309377510914024570232415771621584998254287548130630417774469703397349168632824107078009453044520163964608215755146623217504185212259336343724788099607662344066658728820713293934964286110031008164719917111633274134030982416613367355102188415275342129085335157951306465525229168403995227031739470058912354121604364810742004117293502050163888057509000707894174412173055600744278579753155929725381716016438229896928873787840323555576505168969820506920210266343167244008070431269206313563532105813402611187220964737063111341807915903940072929058147681586980595192664524576483025799333561120383335529824659649721185901622363996767569252569530457164781033163428177066056079391690713033146070450668996106153700037838250348312004440373343189440856116349546926776244712625515056780371544376912310670123047866822943287332635107925576405937657716684400513205549311240336317399910726641852604563090507934670561838394140593734255146051712162601835620500171183687384486028304967691174192019340252416674151970590643758416774587690807408603371946119041104165164376239740716288332062181743028398024465781338061183291970132136909203447529035492749979731191620505535621954204499410259195469368620152146603299798642537728902201587908008773140766400352026513851473615760114021936193937585693812373286055258981087618742962761515611331392030540910690612016888862601657513046651775038761746756528415824735270532478434771255835946372691536129925867781195483846438402684128931619128272119661980553289551875222438911898762946691911002996964006171465007430357058807567350348433496027971477953226809932408946860038100047813397595761355125477689807158902209735571402050205035761563428897486023439026596340299965226045355994737995861725230852665589164144266102761082713650387514971151900999542634270652497990135256614323943878246093426929930439926782427524864750323187350441969368562516051324952848526370099936292967581817924254094710695747747844751320903259698742646610514686847497690695629958856445052292170069329907579932747773458932709026650164851619186343953603388195944410340282349393414398033323146973733186153366071007260622241144779427484860300554160121454351720624470930647328272684992778839936517444836619761421480282532136579767386093437879386863290478253126083070208628702690894281287794802838581486080047306048034585203458733121984796546486403886287149793123183231261976816377918645435227991393380895259517826010793248451096227719058319230359680141995687257612316144469036043093169891743470905716942222683698238963680567185515169254693773646410136883141376366407020479913830122948301640444026215926304650199978175884252610435399992715231014125749335590502059221508263156881963402537241086098230287987291061928015546593264048959270790781746743419870265868606388888139708369602589847668728207173787500283256883734813990476508783864767989281309040310692579678362012683407881166652785219874661961311990079551832358711785565168747439391343195189872710344583994999457024259743633645063379108633616384020408117780776034149439259971561109842284052162742212877308952617840034617941835794415268919409245778042771439081110212809391783579560208353765881967355662097323834917454955310592053030711303356108281697098845719797814416535089929977751940906397614870165916009336439442582645734478054910262726134783588093298815335565290917729880894482694468011943070596867907441798452736088262436143418454388976169961609146548133893819638219632545346930083292363341136574107502783598877051585608455206029489597777388245736873280451499885994025823125338727593194907702539076595486009066730646937979758739421694594578907817749740187882973105298502403493355632406491924302561861480765133605444498509202294057763052963677611954011149049605540297067555815927915778149833905675336134625183401150712424163569144070340419307480197462474093396194079744881630870662612117870704227196011671954441515587395577835627241503412077031429988210487594030321535236068205064353122857492231782017321216218338788269053598690701734493577755031098179428490497883798206539950398355059258855611889537452259931485945824698353522559315045865073954302279081182568009000299347127407107059683966504943892395533932404914732657287596958121107663250157735644895243450704250563691322866801316773984230266080207873599352768101327571876950224066347229849121743922897037731461766029719093972888158583629651101817668806759865569888906362511734082810428329317612927109196522705937542818983945136441463681168984534592271013986812077322056347034727811514601763402738623186415296879315814477451312492139135824613071299723438375191012577437585855984760656387503120742281175375217644668161504146715403860942620611458782165904471422085680851904051943009478923361846096803025667766082444156609509014444600961150536069370124325182184557267723596111798233313560487') Decimal('0.014816729615276234499749747271097403747472309380770913190445519541992402506912764540854407526081052837219636006453273754183526630959871113297094612091608929499645225198802502539852327854001859810268921918068454473790057835466906224890859754297675842283784150017457124518693695822255302966026508313671758929219905469554798360353917842448533767824958147877406636562752119003923376559333412711792867060650357138899689918352800828883667258659690175833866326448978115847246578709146648420486935344747708315960047729682605299410876458783956351892579958827064979498361119424909992921058255878269443992557214202468440702746182839835617701030711262121596764444234948310301794930797897336568327559919295687307936864364678941865973888127790352629368886581920840960599270709418523184130194048073354754235169742006664388796166644701753403502788140983776360032324307474304695428352189668365718229339439206083092869668539295493310038938462999621617496516879955596266568105591438836504530732237552873744849432196284556230876893298769521331770567126673648920744235940623422833155994867944506887596636826000892733581473954369094920653294381616058594062657448539482878373981643794998288163126155139716950323088258079806597475833258480294093562415832254123091925913966280538809588958348356237602592837116679378182569716019755342186619388167080298678630907965524709645072500202688083794944643780457955005897408045306313798478533967002013574622710977984120919912268592335996479734861485263842398859780638060624143061876267139447410189123812570372384843886686079694590893093879831111373983424869533482249612382532434715841752647294675215652287441640536273084638700741322188045161535615973158710683808717278803380194467104481247775610881012370533080889970030359938285349925696429411924326496515665039720285220467731900675910531399618999521866024042386448745223101928410977902644285979497949642384365711025139765609734036597000347739546440052620041382747691473344108358557338972389172863496124850288480990004573657293475020098647433856760561217539065730700695600732175724751352496768126495580306314374839486750471514736299000637070324181820757459052893042522521552486790967403012573533894853131525023093043700411435549477078299306700924200672522265410672909733498351483808136560463966118040555896597176506065856019666768530262668138466339289927393777588552205725151396994458398785456482793755290693526717273150072211600634825551633802385785197174678634202326139065621206131367095217468739169297913712973091057187122051971614185139199526939519654147965412668780152034535135961137128502068768167687380231836220813545647720086066191047404821739892067515489037722809416807696403198580043127423876838555309639569068301082565290942830577773163017610363194328144848307453062263535898631168586236335929795200861698770516983595559737840736953498000218241157473895646000072847689858742506644094979407784917368431180365974627589139017697120127089380719844534067359510407292092182532565801297341313936111118602916303974101523312717928262124997167431162651860095234912161352320107186909596893074203216379873165921188333472147801253380386880099204481676412882144348312525606086568048101272896554160050005429757402563663549366208913663836159795918822192239658505607400284388901577159478372577871226910473821599653820581642055847310805907542219572285609188897871906082164204397916462341180326443379026761650825450446894079469692886966438917183029011542802021855834649100700222480590936023851298340839906635605574173542655219450897372738652164119067011846644347090822701191055173055319880569294031320925582015472639117375638565815456110238300383908534518661061803617803674546530699167076366588634258924972164011229484143915447939705104022226117542631267195485001140059741768746612724068050922974609234045139909332693530620202412605783054054210921822502598121170268947014975965066443675935080756974381385192348663945555014907977059422369470363223880459888509503944597029324441840720842218501660943246638653748165988492875758364308559296595806925198025375259066038059202551183691293373878821292957728039883280455584844126044221643727584965879229685700117895124059696784647639317949356468771425077682179826787837816612117309464013092982655064222449689018205715095021162017934600496016449407411443881104625477400685140541753016464774406849541349260456977209188174319909997006528725928929403160334950561076044660675950852673427124030418788923367498422643551047565492957494363086771331986832260157697339197921264006472318986724281230497759336527701508782560771029622685382339702809060271118414163703488981823311932401344301110936374882659171895716706823870728908034772940624571810160548635585363188310154654077289860131879226779436529652721884853982365972613768135847031206841855225486875078608641753869287002765616248089874225624141440152393436124968792577188246247823553318384958532845961390573793885412178340955285779143191480959480569905210766381539031969743322339175558433904909855553990388494639306298756748178154427322764038882017666864395131')) (Decimal('0.00011790899918855249265620927423261030266847220098635126293432975705618835211121042750268827345731939784718280992970477614504049480754328675225842199967840038703198385629335441400038519157046035644390664695362865479141499902352522798586858222087177969613295869625070443446095054153118236206106299623818171504839277994558179527763762011812492444012753018187606995487873118728409441839512328397877544587761326725643478669312190073082237521438368736331904749694776976836456958379057704402242424475347995071559922286765875461481840608839827462835942777262758296751666883913631506699880917873190976134765487658151123542319678840783959928151199025073733822729744269664502276499139288008039251856014565806910523964832660236294145914864422001611933297621129375107689642942315655731090393833663426751876531069671402727313641040791814068449850719876812063383577391018408158309849350732875820440406493220845156509268390847583550772759496044594320271488847601027303013259392186108079177530905774588973850234444062588602774013803690797107112988403120600714944532364092841357273678960890003422736922156260233326535661356609831476066550379073354281185833276988232456705820205782222880349105015760129676096773867338511420817196130216023808487686424921186700856472288015978881755638407824562456882552871374221320133367213120125444854634705202100809362897243439483953831276526689434942125380930041761879034008337474692137099207867401439838858776720312829503923427396952350514944198263817791031022829433235889658146301777866792965877390351185338102161239418709166978579727066684072336979184153445322013630216578583445967979128925403776073679800429329277022402741578670398901127668879188464683565311917108164931667063994442370764613877011219784616480463629713933429575226959547300458536986303571908257406298105410570600899658126663412370131932975732101933153544183536424514318183071385494892492589493656452513032299799146256727864788338228464256083477785183059927621373717300445459416252320361328099517437117465783601953570922143189325993103835712430968107002533573483460864105016365173627192426594089494385080562471370330811492034353568941297677120655000752496530117515277270705277257403460574768323393775637069975452006438157084397439845851962814225621638099479277891236175551624378571814185099038567259997865353020545680545600488815749039680060136570984564485978213536420956809510214906470604911442648315231734265168170546460058809541709717196098198932559136020348602514114830429078123134740751694883916522406827585287770320727986964783123425405072218746444767985117569680853969293232801712720566846573280966747753262142000924646467803485034987733544046501260809175907773779784302457269215834496442039171896257793214111281717584709808491029298552035334975360208108903548407568029729797705382652736220152227113624346908283539745551672050488704567894795456652075126082745847985076840247850135234175885609079154733213733310014468028395948500946274364178878653356664688934993056607298581289144992551333158710785089676507700961999612575065896684330454062107163676943826354615806324972061240633347931104640407549857904580853986915849252511595687799655403183657528646201829019106832768188128381269878063458734345313857199730968004165853694155526508728024537952529785279500912727316428588080078797917186616828913683217908354683929234399621995340551290526906782870679107322563189367582833042559500940321634719809081391516320043066379519607283962341645668228682295135538148640118176858586422954586830987188317114432691031375174274224691425635030407303630781193698255228047299105347747879814764033283851750094110310414321106493266686442314903496638020022837606891189736954986425663906625774323392178845209480507855499801053951157789428435360345608403101806135197280446610665463301987013324032342957192135283931143571747477648203704499805657382332417733931876299629936050941783472284020187923825662435784101018309605280900534426724134954981786707986585437214232785150768473697101217783629176778875674342733646143382343473361146123608076695873438829132173188394405003609810813165397310301551336483606184205704359941111883395508475130103456638379310107961224017151663936216964115854899649498475264611832798893180167864839706974980895076889732407536643474524574515051186835359974393757473049111668762749264956923034829122410096590897220035418407441850625262590657182228978323525459363828672345039204780360614512804156891233539301405899341545762173494736430485367305601603394844637210177636164934091243178986973737073095964179188817791362994884308497697864403776897625502851660899719516612761926496830697045860005941444912270153753568162429540452919730265498281650353304492221896266529446890121416865170824124442642768958766607075457022739576747029562833073537960822162472743630750308659884063567664858334380988964505343334511431161046072870300344220572074302372047100272174279748935558901305655051912252032293097738808883316193282496876247976767556790105346237583122061762432965283309847216005731849384579943879364831084603520399300088') Decimal('0.99988209100081144750734379072576738969733152779901364873706567024294381164788878957249731172654268060215281719007029522385495950519245671324774157800032159961296801614370664558599961480842953964355609335304637134520858500097647477201413141777912822030386704130374929556553904945846881763793893700376181828495160722005441820472236237988187507555987246981812393004512126881271590558160487671602122455412238673274356521330687809926917762478561631263668095250305223023163543041620942295597757575524652004928440077713234124538518159391160172537164057222737241703248333116086368493300119082126809023865234512341848876457680321159216040071848800974926266177270255730335497723500860711991960748143985434193089476035167339763705854085135577998388066702378870624892310357057684344268909606166336573248123468930328597272686358959208185931550149280123187936616422608981591841690150649267124179559593506779154843490731609152416449227240503955405679728511152398972696986740607813891920822469094225411026149765555937411397225986196309202892887011596879399285055467635907158642726321039109996577263077843739766673464338643390168523933449620926645718814166723011767543294179794217777119650894984239870323903226132661488579182803869783976191512313575078813299143527711984021118244361592175437543117447128625778679866632786879874555145365294797899190637102756560516046168723473310565057874619069958238120965991662525307862900792132598560161141223279687170496076572603047649485055801736182208968977170566764110341853698222133207034122609648814661897838760581290833021420272933315927663020815846554677986369783421416554032020871074596223926320199570670722977597258421329601098872331120811535316434688082891835068332936005557629235386122988780215383519536370286066570424773040452699541463013696428091742593701894589429399100341873336587629868067024267898066846455816463575485681816928614505107507410506343547486967700200853743272135211661771535743916522214816940072378626282699554540583747679638671900482562882534216398046429077856810674006896164287569031892997466426516539135894983634826372807573405910505614919437528629669188507965646431058702322879344999247503469882484722729294722742596539425231676606224362930024547993561842915602560154148037185774378361900520722108763824448375621428185814900961432740002134646979454319454399511184250960319939863429015435514021786463579043190489785093529395088557351684768265734831829453539941190458290282803901801067440863979651397485885169570921876865259248305116083477593172414712229679272013035216876574594927781253555232014882430319146030706767198287279433153426719033252246737857999075353532196514965012266455953498739190824092226220215697542730784165503557960828103742206785888718282415290191508970701447964665024639791891096451592431970270202294617347263779847772886375653091716460254448327949511295432105204543347924873917254152014923159752149864765824114390920845266786266689985531971604051499053725635821121346643335311065006943392701418710855007448666841289214910323492299038000387424934103315669545937892836323056173645384193675027938759366652068895359592450142095419146013084150747488404312200344596816342471353798170980893167231811871618730121936541265654686142800269031995834146305844473491271975462047470214720499087272683571411919921202082813383171086316782091645316070765600378004659448709473093217129320892677436810632417166957440499059678365280190918608483679956933620480392716037658354331771317704864461851359881823141413577045413169012811682885567308968624825725775308574364969592696369218806301744771952700894652252120185235966716148249905889689585678893506733313557685096503361979977162393108810263045013574336093374225676607821154790519492144500198946048842210571564639654391596898193864802719553389334536698012986675967657042807864716068856428252522351796295500194342617667582266068123700370063949058216527715979812076174337564215898981690394719099465573275865045018213292013414562785767214849231526302898782216370823221124325657266353856617656526638853876391923304126561170867826811605594996390189186834602689698448663516393815794295640058888116604491524869896543361620689892038775982848336063783035884145100350501524735388167201106819832135160293025019104923110267592463356525475425484948813164640025606242526950888331237250735043076965170877589903409102779964581592558149374737409342817771021676474540636171327654960795219639385487195843108766460698594100658454237826505263569514632694398396605155362789822363835065908756821013026262926904035820811182208637005115691502302135596223102374497148339100280483387238073503169302954139994058555087729846246431837570459547080269734501718349646695507778103733470553109878583134829175875557357231041233392924542977260423252970437166926462039177837527256369249691340115936432335141665619011035494656665488568838953927129699655779427925697627952899727825720251064441098694344948087747967706902261191116683806717503123752023232443209894653762416877938237567034716690152783994268150615420056120635168915396479600700')) (Decimal('0.99998789124936122263698145676822733982760038961041369815539593260114953904180116099115913495165273551241878924156989387009682098650684532416214939937407315943701713420665858292190981183995007442220789716223609940058878376481697141853756650017870058613417737856764946310838857599491874159399559261724560070553781736610190356127888718148757194966022380446119607410867275274773380422566853169423180976000756976378899597477865739823968003110321785991805266496802439906894543471264886900581026846374876970347155442508401445165150965767941497577836726577665358297315390211209436660109997803861918654279427422161753767699053769885196642939116145426748367150409817489614088501389272387064855692953430412586908221983950122922904064533060143264190534040815032048873890392188280117560010569840364671387079424115393266728357282246879823893843964105094871193904979251816817087756616666516322910252566736257326549744370722125024728259983826078580516473538420046212156404380761166168040222447789241827956833121936607681912876078237074525895547233544785441953695217472674871234023861631338242992263667144722256740153652010785671847048489215148766454728268562916644031512922093513036140420531731681443821371026672052120816772288337959534257396210712866072964549826865814165472776071994333282900319293555582284208620362425945389879385888853864047183872340920036131780654980806930060839407848065968910891214900799342323933608260402979112778548962364685072209565141843921311620333037717347777629640334760531438692030080017582945197600657753195822621305434325567784069328818527955469485176940110214202682026375910063854130999848190621115133041068559204634308316798242146525207285518056106757547485373713230850863276354254985297002957456553292732010519967192141559989039507083673474995606745246521246186030635481745345298797499246267443599825642865139357766327798474977877441164662030192877267214861409894169494390099614238643267268474825437711763553395399877700287932069912122763279541610903682013833693804801725628691693527170954737680290626385295317287510152999098129617112545089486214762916011721588505593650212191469771329800601590812903652876988814132170184880641901779629112617599167004284013739851958148887682644064864275829216201311541039351442538308248393521483260392207934317513614500712774691065796472506809454968909047367276285983860645657960647049830697236457323230818646598079790809949444265405872770111029345428555743063669065565716123300710469002028076302290767988606871539952494447165818710253239570305358727815179021631823721993179492076374776401495982401979828414309953433998971848209505356737947113479911993422300601438847440094083708872817585040161195576396730345464776071155350328043860570011445497651400034581194089433038874311506857253172713739813593827464708164747811524150922925704415070915427254177237739640098030624916972722679568859457997207780560750195882536222200105798288931625921586009174039474494039667255272065963723803392093988720327062435320645877873042271043548323400565962003420748596528973123301054924052761341070157747714934902284956695684371365109270497153326269641628290557251140428940487331697049527779412430128626135626191691316713607514353863348142739970470948401733563315097476964078073519162982669986119946597781938501374209436720896183227379230630805261480049532297852213276746325881278689619705144922405386691486680020379243323094373922384091264526641122083467105896093903972360940979404106473635475322271705712503280747880467708834267119840578436139152126662510715911460854268044195838109759076249698693956191613036130423096839681710093363664220773141857051127671812777104277357786144094923044521145512083933064293068044791409130897626088800566853400544281597286360755257345575820408283043673380846043944953260454412464067579663756690878210304289835030209350323464634601439807995419787202220314773494834191461301787964924845344174386664923116990302177989352584439087132046849710417585153628741700295712701646332979212536917663091649485553409218603853234200992575662372439363263425166941726790518317588665177649010732252813702290281565527471481638414160216797239040869707330052175350219033968043837066019748404290769111258691706158673881756497537616533889104736872847463342907023199325323930155471474911409640014214713638677404923804684679936048542078868023106950584148216996374584317150044087273982592674330508618816564225463675569553960427733273689185995711925609365738974854017349943510451580840929934148973784383107107684151833908003295517030915454676985284481003259308726464846198151267259182777488648670280851897654609545171555803505399438349763331959564800561775861451249037644189710862268385704651460152118577948054583658361390108266139035214565879484281426002913872858344070097832798169122054451833387268307055565942855772340188575700517663326689402524342824913086459224825319312297989456459791555188077557728117602317754895132720522741404619683160585343881263655169843728307243192635196362443156118774976343603085808610020669598668800708282591962998543151744196') Decimal('0.000012108750638777363018543231772660172399610389586301844604067398850460958198839008840865048347264487581210758430106129903179013493154675837850600625926840562982865793341417078090188160049925577792102837763900599411216235183028581462433499821299413865822621432350536891611424005081258406004407382754399294462182633898096438721112818512428050339776195538803925891327247252266195774331468305768190239992430236211004025221342601760319968896782140081947335031975600931054565287351130994189731536251230296528445574915985548348490342320585024221632734223346417026846097887905633398900021961380813457205725778382462323009462301148033570608838545732516328495901825103859114986107276129351443070465695874130917780160498770770959354669398567358094659591849679511261096078117198824399894301596353286129205758846067332716427177531201761061560358949051288060950207481831829122433833334836770897474332637426734502556292778749752717400161739214194835264615799537878435956192388338319597775522107581720431668780633923180871239217629254741044527664552145580463047825273251287659761383686617570077363328552777432598463479892143281529515107848512335452717314370833559684870779064869638595794682683185561786289733279478791832277116620404657426037892871339270354501731341858345272239280056667170996807064444177157913796375740546101206141111461359528161276590799638682193450191930699391605921519340310891087850992006576760663917395970208872214510376353149277904348581560786883796669622826522223703596652394685613079699199824170548023993422468041773786945656744322159306711814720445305148230598897857973179736240899361458690001518093788848669589314407953656916832017578534747927144819438932424525146262867691491367236457450147029970425434467072679894800328078584400109604929163265250043932547534787538139693645182546547012025007537325564001743571348606422336722015250221225588353379698071227327851385901058305056099003857613567327315251745622882364466046001222997120679300878772367204583890963179861663061951982743713083064728290452623197093736147046827124898470009018703828874549105137852370839882784114944063497878085302286701993984091870963471230111858678298151193580982203708873824008329957159862601480418511123173559351357241707837986884589606485574616917516064785167396077920656824863854992872253089342035274931905450310909526327237140161393543420393529501693027635426767691813534019202091900505557345941272298889706545714442569363309344342838766992895309979719236977092320113931284600475055528341812897467604296946412721848209783681762780068205079236252235985040175980201715856900465660010281517904946432620528865200880065776993985611525599059162911271824149598388044236032696545352239288446496719561394299885545023485999654188059105669611256884931427468272862601864061725352918352521884758490770742955849290845727458227622603599019693750830272773204311405420027922194392498041174637777998942017110683740784139908259605255059603327447279340362761966079060112796729375646793541221269577289564516765994340379965792514034710268766989450759472386589298422522850650977150433043156286348907295028466737303583717094427488595710595126683029504722205875698713738643738083086832863924856461366518572600295290515982664366849025230359219264808370173300138800534022180614986257905632791038167726207693691947385199504677021477867232536741187213103802948550775946133085133199796207566769056260776159087354733588779165328941039060960276390590205958935263645246777282942874967192521195322911657328801594215638608478733374892840885391457319558041618902409237503013060438083869638695769031603182899066363357792268581429488723281872228957226422138559050769554788544879160669357069319552085908691023739111994331465994557184027136392447426544241795917169563266191539560550467395455875359324203362433091217896957101649697906496765353653985601920045802127977796852265051658085386982120350751546558256133350768830096978220106474155609128679531502895824148463712582997042872983536670207874630823369083505144465907813961467657990074243376275606367365748330582732094816824113348223509892677471862977097184344725285183615858397832027609591302926699478246497809660319561629339802515957092308887413082938413261182435024623834661108952631271525366570929768006746760698445285250885903599857852863613225950761953153200639514579211319768930494158517830036254156828499559127260174073256694913811834357745363244304460395722667263108140042880743906342610251459826500564895484191590700658510262156168928923158481660919967044829690845453230147155189967406912735351538018487327408172225113513297191481023453904548284441964946005616502366680404351994382241385487509623558102891377316142953485398478814220519454163416386098917338609647854341205157185739970861271416559299021672018308779455481666127316929444340571442276598114242994823366733105974756571750869135407751746806877020105435402084448119224422718823976822451048672794772585953803168394146561187363448301562716927568073648036375568438812250236563969141913899793304013311992917174080370014568482558041680')) (Decimal('0.12775230035923431085868145948123769296466504150776066781204050984020172399729088144836923544239749951551936184835051392825635055790801770402606364599977116288813351571627158436077163594804957940092180371324777726418220019831436347302338352121885832018791714333705563631507633464511886051304893635948730547906946216698646278551546905473858917506813908072255416072538940973419764580676323398757815399404639500394930713306420431881758203297453232135350874940944627897752754355560872510544676539152215316558783514673489639359594394801896314927785478030222361726910552935723483507906719581346454727921938793750890189968491350484796931790831232331152481307707549355816679349938197228894670129582666603986340759025921587333804812257036460644856261118667821673513166519936933567815148450358327446737310649576587368320625495546336276061529168686755879640630423158654934821227440236371089760315306839212371775406678473823518628706647488094813313277381827850098842633183382693196056715556680795881855444881548673060614957817260577409301092693914670962138842491233463817264813220748684911186385664606752098516486480390771201897030079447712148054059485922235326600197285455603717305140831365871937940560996456243936576209349897079280352557256187900682556232791808684990884209063292101516429268578580349813820519042634579284725697994070795926312153651050886172748319137556905521519655595221263872423557333573292588624480529608580156674496903927446420834161304755412943413591427943758329648997414671886296638329622087161217309343312953008183613828881379515710394878762992836189567205091516087317041817174946806583668931307972593923714055805998967776595508851936716386979908264114924372205194683714185796945776348636019084782802252502132339093155355585950872746896693535432197349637815694950360351329534257429285546141861285313736433386413228715721306824861733609726572222837465212919710741980741599484565686267739229822526866277125653772743339303538118287052814706609646801965536075740432218639366871339484278733812546568242844084589930145188844141709547900092455384055175669394493845320254375986880206442304501634253295786184149524491064173404233212154748164673959564728993406873895617038617129813338045093049650976075360188232957719148631645052254620342811372740151390602170873076098195325719218821059136181904743953900005799158336309824068313619032786372203012941202798366384116141854586621281750047445312989377445050053027477573937149502838588186059865958607094031319237618407531534824683236712930368630496384005489925751569008169216355685607283825402710221920782159568874432493660951014697136357344019018417949557412920943940401855001760572729102198617987530831879641311263349528410476121815180926794714534150574522815202540647841446381346328440150386273068729043375873234236032856026735390186224993058251382471782874536853528044704032116849087664260755041674559457242740492111596636558943577559071884177051677348699495755903018560245157305477355813326218413902908160840539297870207102879239144441657511365142540730269816191978070985871743346785145466414513853549216639779200913603258761068690193140993636804637514961768744897797034566840260425548384115938731702687487562015444646341868786450650533509154799352089813909145034235484090620721708819227862766999708258117641027090585450504287149922458002660091513815176506594395044989368378558118097578813378019304493883954021595953035041322229149495999647271402024749681274997220111600700043143460941476557201127099524442089488170227591992326273048761922738515234488932651518195388692445446572827691990004326987702818001521379237245986920605826001365456824954187883855692284323098365374667265188154411845017486180235136080812422178829792106243912295774913780714637045339223102097825025002898458014523597108877005596099545793923076868429474371959204915731002920747767708071728079296731793800611733538527702846486201735815244597927445995982696551254113781092550827879848902850729866070644826496494680643803123499410247174031496759063426309540673395986108694916324180125228123222504547511885552223114065201734748496590609948849928345608629942439799984413725425338682193428503236382668983693467012569985013662271970416278818698408149626340445339004696879414594751825009919324150180385506553153464799327387222626444852233601204746024848800109750874182140151314755085154020037206244484818731123508824473168001561185804945520276248420699287581508222665229838858947003580017668448378375908016944785315549815178247317732660814987356524664995937917963928485274410816535623175268692967019432054734276567002710871144119842086293110137737369040476700183533837472915485748783524908547653875762056439630474838416023312180625397758642898231325279042164568585751312597286249797512516654253605458119967149809807565349190317632577627716832946721783136925297801018418657472100642196331666888279015345483045915332595091402459759856528206975285604300831762809724759155417750920362506343358128859216544310803888965303733507745154766922488456913857404368360600733511776752651797944231311') 